%YAML:1.0
---
opencv_ml_ann_mlp:
   format: 3
   layer_sizes: [ 441, 123, 77, 35 ]
   activation_function: SIGMOID_SYM
   f_param1: 1.
   f_param2: 1.
   min_val: -9.4999999999999996e-01
   max_val: 9.4999999999999996e-01
   min_val1: -9.7999999999999998e-01
   max_val1: 9.7999999999999998e-01
   training_params:
      train_method: BACKPROP
      dw_scale: 5.0000000745058060e-02
      moment_scale: 5.0000000745058060e-02
      term_criteria:
         epsilon: 1.0000000000000000e-04
         iterations: 300
   input_scale:
      - 3.8199014196253303e+00
      - -5.5215597468288435e-01
      - 4.8019133833296923e+00
      - -4.7549449326635429e-01
      - 5.6151833419627923e+00
      - -3.7313045455149424e-01
      - 2.4965601101554160e+01
      - -1.2799068208129186e-01
      - 3.5291791681162785e+01
      - -1.1997335452668915e-01
      - 6.0385867402220327e+01
      - -7.9346794295903966e-02
      - 2.9146992211873084e+01
      - -1.1778147649916056e-01
      - 1.6733996867883530e+01
      - -1.8126939642197060e-01
      - 4.2254688653996419e+00
      - -5.1224884599564635e-01
      - 3.4074482690394401e+00
      - -6.5960429555838229e-01
      - 6.3342119018198995e+00
      - -4.0024503581900650e-01
      - 1.1363550931018096e+01
      - -2.7441457414191434e-01
      - 2.3768041817263086e+01
      - -1.4783186788676497e-01
      - 1.7297467647923860e+01
      - -1.9307984564004235e-01
      - 3.8651477550312741e+01
      - -1.3613438880395551e-01
      - 1.1984825683081224e+01
      - -1.8911140395814413e-01
      - 7.7463692648301192e+00
      - -3.2902888121400226e-01
      - 3.4481032015074828e+00
      - -6.5188232104673682e-01
      - 3.3862513549971820e+00
      - -6.3863208827229689e-01
      - 1.0949802565982006e+01
      - -2.3630160587133819e-01
      - 3.0459876964479147e+01
      - -1.1269195455121557e-01
      - 3.4584516663886141e+01
      - -1.4834885745048848e-01
      - 1.4644443166318293e+01
      - -1.9516455161240803e-01
      - 4.1442374216500731e+01
      - -1.3390855329188944e-01
      - 8.4960211425161951e+00
      - -2.0919883340139725e-01
      - 6.2323100084172260e+00
      - -3.6879521331585141e-01
      - 3.3341408596289566e+00
      - -6.4961425635748582e-01
      - 3.4628561392335544e+00
      - -5.8129389353776872e-01
      - 1.0610801643422496e+01
      - -1.9260478454340188e-01
      - 2.7023286925957425e+01
      - -8.8353576573181908e-02
      - 6.7808711091347135e+01
      - -1.2949948672972700e-01
      - 1.8766910884917301e+01
      - -1.6386180652021637e-01
      - 8.2268340668538173e+01
      - -8.9618575801049621e-02
      - 1.0699321316850881e+01
      - -1.4517543145281311e-01
      - 7.1778118658742676e+00
      - -3.1309125162030677e-01
      - 3.4747041712891993e+00
      - -5.7806959309009787e-01
      - 3.5002353696186117e+00
      - -5.6419000319976476e-01
      - 1.1306043183680073e+01
      - -1.9671835207040744e-01
      - 2.4316065618543231e+01
      - -9.6607894608986333e-02
      - 1.3509599637048072e+02
      - -9.8719586216337973e-02
      - 2.5413269647886398e+01
      - -1.2556054223251345e-01
      - 1.8396177803147322e+02
      - -7.8792931829094054e-02
      - 1.5871993021351239e+01
      - -1.7094791722593311e-01
      - 8.1399113817713999e+00
      - -2.9900783614124360e-01
      - 3.5438791040303457e+00
      - -5.6305141852630025e-01
      - 4.2533609165912409e+00
      - -4.5497096787878322e-01
      - 2.2301081843582327e+01
      - -1.3688986655829422e-01
      - 6.7960254739033260e+01
      - -6.5836290461456268e-02
      - 2.8008640899688248e+02
      - -6.4520850098394950e-02
      - 4.3148848039714544e+01
      - -8.7753363499226841e-02
      - 5.4548035145927855e+01
      - -8.5918664386616966e-02
      - 9.2300618939406949e+00
      - -2.5945143985865726e-01
      - 6.3898554733099191e+00
      - -3.2451432014237946e-01
      - 3.9705444480560486e+00
      - -4.7233450496963231e-01
      - 7.4787611436705239e+00
      - -2.5196487929184375e-01
      - 1.6914339096682977e+02
      - -6.3409129018272434e-02
      - 3.0428292485772425e+04
      - -3.1575448897533623e-02
      - 8.9027558578472381e+03
      - -3.1575448897533630e-02
      - 2.1769944074437063e+02
      - -6.1146822799780197e-02
      - 6.3084097978742854e+01
      - -7.2162203175567263e-02
      - 7.3966335842291171e+00
      - -2.2943290025587582e-01
      - 7.5576737636917208e+00
      - -2.4548863620253497e-01
      - 6.1004024812945232e+00
      - -2.7903562957149336e-01
      - 3.4987440700542156e+00
      - -8.9644756404104609e-01
      - 3.6256558422296719e+00
      - -8.6148649676587119e-01
      - 3.8239929465697333e+00
      - -7.2113759749573214e-01
      - 9.2689743857771774e+00
      - -2.8622170394096580e-01
      - 9.6322146424278010e+00
      - -3.1934502711969681e-01
      - 1.1350159555596937e+01
      - -3.0382851020116936e-01
      - 9.9569936306692952e+00
      - -3.3465642779119226e-01
      - 1.1701846981605170e+01
      - -2.9510331359822450e-01
      - 3.9590398854474182e+00
      - -7.3445243487672562e-01
      - 3.4424645206614013e+00
      - -1.1539525425723796e+00
      - 4.6104813622307566e+00
      - -7.4248604985106226e-01
      - 6.1852068717068516e+00
      - -5.2677132914211811e-01
      - 7.5182262771471464e+00
      - -3.9317221618246456e-01
      - 5.7374026657244688e+00
      - -5.0549147773399927e-01
      - 7.4675435168705127e+00
      - -4.4989797582616364e-01
      - 6.7010397912654067e+00
      - -4.4170666704893763e-01
      - 6.1124820951188727e+00
      - -5.0134871886443244e-01
      - 3.4841042104637729e+00
      - -1.0783183270817793e+00
      - 3.3101354284694398e+00
      - -1.1685923462316437e+00
      - 5.9756971547577100e+00
      - -4.7774212008074873e-01
      - 1.0844287624135154e+01
      - -3.2713895263626136e-01
      - 7.3932343335913773e+00
      - -4.3495264433287656e-01
      - 5.2644512403409491e+00
      - -5.5064558171839484e-01
      - 8.5613364223699051e+00
      - -3.9060980455072447e-01
      - 6.3059054374698125e+00
      - -3.8535318727111856e-01
      - 4.9404142976676075e+00
      - -5.9495549944044057e-01
      - 3.3568184726481816e+00
      - -1.1986667097188994e+00
      - 3.2720242278359200e+00
      - -1.2180745898134731e+00
      - 5.6894174483356963e+00
      - -4.4131956308214765e-01
      - 8.4486763099388860e+00
      - -2.9701806412928683e-01
      - 8.4260935204321896e+00
      - -3.9809231466021999e-01
      - 5.6626059198158432e+00
      - -5.1346247010101087e-01
      - 1.0677498558846400e+01
      - -3.3153300366071770e-01
      - 7.6107088689116900e+00
      - -3.0052468094561985e-01
      - 5.1236591405170397e+00
      - -5.6609746462442745e-01
      - 3.2506583418559103e+00
      - -1.2114040487115216e+00
      - 3.3210288427570056e+00
      - -1.1930801212650208e+00
      - 6.3015299771938675e+00
      - -4.1998959433913041e-01
      - 8.7634001610526013e+00
      - -3.1517441660386147e-01
      - 9.3862430656410396e+00
      - -3.7692804746152730e-01
      - 6.4781771861289910e+00
      - -4.5990959812381499e-01
      - 1.1137956913197378e+01
      - -3.0431740048990735e-01
      - 7.4061773127532327e+00
      - -4.1153545570628514e-01
      - 4.4900643238091442e+00
      - -6.8270398606237892e-01
      - 3.2981763233193209e+00
      - -1.2227097280921901e+00
      - 3.4901895722839127e+00
      - -9.5261428122963299e-01
      - 1.1477185073040797e+01
      - -2.8160697979833144e-01
      - 1.5412937825038522e+01
      - -2.3192754340829302e-01
      - 1.5259997444656349e+01
      - -2.5015096061097297e-01
      - 1.0799701766929163e+01
      - -3.2656328925895051e-01
      - 9.8702409885326450e+00
      - -2.9649185841493647e-01
      - 4.4861903556937275e+00
      - -6.3992650909415594e-01
      - 3.7848644160244116e+00
      - -8.5227911081076890e-01
      - 3.2850753853464858e+00
      - -1.1078183642170769e+00
      - 4.4610521715772311e+00
      - -5.0613973878030405e-01
      - 8.3409223255803582e+01
      - -1.3574133184201495e-01
      - 8.9430206204004463e+01
      - -1.0808460699761742e-01
      - 1.8262510216463593e+02
      - -1.2552161983934315e-01
      - 2.1502913434023284e+01
      - -1.4681773668634115e-01
      - 1.2573467511225747e+01
      - -2.1745786760510152e-01
      - 3.7290515624254330e+00
      - -5.5714219903466189e-01
      - 3.8326075917182147e+00
      - -6.0930665133202144e-01
      - 3.7819586825273701e+00
      - -5.9674375575496330e-01
      - 3.6434118436347349e+00
      - -1.0381536542834289e+00
      - 3.7294964098538150e+00
      - -1.3120546958907884e+00
      - 3.6920641176049296e+00
      - -1.1157704586652806e+00
      - 5.3153324834840738e+00
      - -5.5763705607273495e-01
      - 6.2574740950266650e+00
      - -5.0334932369617358e-01
      - 8.1253943614842097e+00
      - -4.4534843384386408e-01
      - 6.0075819257170560e+00
      - -5.3069866274118482e-01
      - 7.9135310796740592e+00
      - -4.4541840772992136e-01
      - 4.0935016077612802e+00
      - -7.8967058303634796e-01
      - 3.8330888683467568e+00
      - -1.3764094781724749e+00
      - 4.4689169038834535e+00
      - -1.0507046125135493e+00
      - 5.1694305883012976e+00
      - -7.6042261992722326e-01
      - 5.1258607083059315e+00
      - -6.6318943244989581e-01
      - 4.4910976615682268e+00
      - -8.6092472262138353e-01
      - 5.5224082177876728e+00
      - -7.3241675811586282e-01
      - 5.0307822487774425e+00
      - -6.9389344245074747e-01
      - 5.6389862795360184e+00
      - -6.6842886262390377e-01
      - 3.9104019476912235e+00
      - -1.2631066920323761e+00
      - 3.9182555881278103e+00
      - -1.5635342936233574e+00
      - 4.8186207976235602e+00
      - -7.9398161569137637e-01
      - 6.2823230915414827e+00
      - -5.6035379566498211e-01
      - 5.1761285529691516e+00
      - -7.2236824981321623e-01
      - 4.2419326410316849e+00
      - -1.0063820207626157e+00
      - 5.6636885245155550e+00
      - -7.1126153251540891e-01
      - 5.6482079411620267e+00
      - -6.2573072475850910e-01
      - 4.9878636849122175e+00
      - -7.3016273794603559e-01
      - 4.0112718278260733e+00
      - -1.5713719713078014e+00
      - 4.1023321165645221e+00
      - -1.7157925851816238e+00
      - 4.7022222822356099e+00
      - -7.8923763547436432e-01
      - 5.8489419940148482e+00
      - -6.0332956047481601e-01
      - 5.3985417108352696e+00
      - -6.9878686952923019e-01
      - 4.2287048289614857e+00
      - -9.9669938956899573e-01
      - 5.4290666693847456e+00
      - -7.0290327016244081e-01
      - 5.7753886261993648e+00
      - -5.6329494942075253e-01
      - 4.6795011667053981e+00
      - -7.4744576487444003e-01
      - 4.1513948941818510e+00
      - -1.7220762521735458e+00
      - 4.2122876833891043e+00
      - -1.6950953107485507e+00
      - 4.9484963461071292e+00
      - -7.2884932450490592e-01
      - 5.5404010801868928e+00
      - -6.2973650003025239e-01
      - 5.4733761743103715e+00
      - -7.0762136567414891e-01
      - 4.4230854931781556e+00
      - -8.9931760993891263e-01
      - 5.4855257871884318e+00
      - -6.6477687062565516e-01
      - 5.2896226232457542e+00
      - -7.6704266129074339e-01
      - 4.5026518351613349e+00
      - -1.0803555496957697e+00
      - 4.3363618005948394e+00
      - -1.8569429670019515e+00
      - 4.0573140279100786e+00
      - -1.1891626880490302e+00
      - 7.8725518658450815e+00
      - -4.9260909242011713e-01
      - 6.9882298276997874e+00
      - -4.6984621538677757e-01
      - 7.4373279045315188e+00
      - -4.8108252639326093e-01
      - 5.3016587544654019e+00
      - -6.2583967974833021e-01
      - 5.2329837238796673e+00
      - -6.8123332059509178e-01
      - 4.0892245689230533e+00
      - -1.2943187141356083e+00
      - 4.3305143162898601e+00
      - -1.6925683711207431e+00
      - 4.0456478388664951e+00
      - -1.5807442753916634e+00
      - 4.8325976596356988e+00
      - -5.8874020200826804e-01
      - 3.7721094612642894e+01
      - -2.2427718737763735e-01
      - 2.3684926425980375e+01
      - -2.3019393434306201e-01
      - 2.2687126802787155e+01
      - -2.0341202128831667e-01
      - 8.7120100904790529e+00
      - -3.3011273893590615e-01
      - 6.0618780102097460e+00
      - -4.9028767422319325e-01
      - 3.0653093407425409e+00
      - -1.0364865194180812e+00
      - 3.5026755672547725e+00
      - -1.1038394909070322e+00
      - 3.8244097321572821e+00
      - -7.6716617939194198e-01
      - 3.8784635975907165e+00
      - -1.0048914622788283e+00
      - 4.2568398675245263e+00
      - -1.6072107676365630e+00
      - 4.0985548292824356e+00
      - -1.6007746814210126e+00
      - 4.2374033699014282e+00
      - -9.7171966441480861e-01
      - 4.5569134360902588e+00
      - -7.7347967070696166e-01
      - 6.9602702647536860e+00
      - -5.1018736886710758e-01
      - 5.5307539275702204e+00
      - -5.9019499819293963e-01
      - 6.4468815887067761e+00
      - -5.4705330616318870e-01
      - 4.5294434068201710e+00
      - -7.8251602328307468e-01
      - 4.0890026878377714e+00
      - -1.3866396367029603e+00
      - 4.5706170188965460e+00
      - -1.1357925795842598e+00
      - 5.0346978820328223e+00
      - -9.4034186055672297e-01
      - 4.3056059029218359e+00
      - -8.8580668339346647e-01
      - 4.0754890953085301e+00
      - -1.1715566450978612e+00
      - 4.8111434848016321e+00
      - -9.0405514267124554e-01
      - 4.7930797980640047e+00
      - -8.0309532177222653e-01
      - 5.2427049704857254e+00
      - -8.1786198483206451e-01
      - 4.3940731142848160e+00
      - -1.2763356248288225e+00
      - 4.3253447539358794e+00
      - -1.5460541733944413e+00
      - 4.6095915904631761e+00
      - -9.6080002157614830e-01
      - 5.2199993283496324e+00
      - -7.2818574177254725e-01
      - 4.5156842002196784e+00
      - -8.9011945584922481e-01
      - 4.1030539748097645e+00
      - -1.3992830265071015e+00
      - 4.4926736610644422e+00
      - -9.8105660239538994e-01
      - 5.2994092790515772e+00
      - -7.4019251128606189e-01
      - 5.3867589648860843e+00
      - -7.9012391238577984e-01
      - 4.4589403072948981e+00
      - -1.4824415813118941e+00
      - 4.4836243875069908e+00
      - -1.5502159971536933e+00
      - 4.6514592317553678e+00
      - -9.7639067436114291e-01
      - 5.2233566538044771e+00
      - -8.1810051416184570e-01
      - 4.7778585445267039e+00
      - -9.1251340436042538e-01
      - 4.2021216021550867e+00
      - -1.4324861377669771e+00
      - 4.3334716102216246e+00
      - -1.0384565202615716e+00
      - 5.1012715723966231e+00
      - -7.3272389856946507e-01
      - 5.0045743221230676e+00
      - -8.5730712938164477e-01
      - 4.5681546647896090e+00
      - -1.5350094755324442e+00
      - 4.6297689344762123e+00
      - -1.4171198973356531e+00
      - 4.8612922324231551e+00
      - -9.8092185289005696e-01
      - 4.8525100508596406e+00
      - -8.3556617856609872e-01
      - 4.7965184088028998e+00
      - -9.3904810571906694e-01
      - 4.2980021138172866e+00
      - -1.3505155075354689e+00
      - 4.4199668661285214e+00
      - -1.1206082190339495e+00
      - 4.7561892011564337e+00
      - -1.0429558740326752e+00
      - 4.8856628350803515e+00
      - -1.1705165856569557e+00
      - 4.4689329766854620e+00
      - -1.4226575221130238e+00
      - 4.7846438547835524e+00
      - -9.3609581424948707e-01
      - 6.1852905860323517e+00
      - -6.2592037235415732e-01
      - 5.6264559518209163e+00
      - -6.4807766146026957e-01
      - 5.9461399082623076e+00
      - -6.3595999819790405e-01
      - 4.2623209604954173e+00
      - -9.1126928094141824e-01
      - 4.1897178710545004e+00
      - -1.1887789301468819e+00
      - 4.9282448106944274e+00
      - -2.0512434386261140e+00
      - 4.8901836322726462e+00
      - -1.8945090117785297e+00
      - 4.2615245418721068e+00
      - -1.1574404225742925e+00
      - 7.0374334837384014e+00
      - -4.4901120238327513e-01
      - 2.0307822336833336e+01
      - -2.6132622653682686e-01
      - 1.3980146939000587e+01
      - -2.8701294871902000e-01
      - 1.5036500303391689e+01
      - -2.7172464938117874e-01
      - 5.6541032059197898e+00
      - -4.6111014139264428e-01
      - 4.2880379906029393e+00
      - -7.4514244142299013e-01
      - 3.1878041533124089e+00
      - -1.4525320570225633e+00
      - 3.8341614425748229e+00
      - -1.4089502980891548e+00
      - 4.7330393064761909e+00
      - -6.4229782355887866e-01
      - 4.5230020099331503e+00
      - -7.4639991461222888e-01
      - 4.2190303192609715e+00
      - -1.2668306009986461e+00
      - 4.1526356159632680e+00
      - -1.6166829952491055e+00
      - 4.0455366936008783e+00
      - -1.4444446618623299e+00
      - 3.5589623692239409e+00
      - -1.0656326906013254e+00
      - 5.7716116755913545e+00
      - -5.6200733833700478e-01
      - 6.5192517137976713e+00
      - -5.1085717910853978e-01
      - 7.0781551280862995e+00
      - -4.8575076190884597e-01
      - 5.6457155604280445e+00
      - -6.1333354231793979e-01
      - 4.2332444136986958e+00
      - -9.9498641925184594e-01
      - 4.8946388273310664e+00
      - -8.8215563838906264e-01
      - 5.0113267989325427e+00
      - -9.3347994662252254e-01
      - 4.0391115568715241e+00
      - -1.1468164960488512e+00
      - 3.6354985627102141e+00
      - -1.5019696981920596e+00
      - 4.1964162733003674e+00
      - -9.6234937248757690e-01
      - 4.9238799889151927e+00
      - -7.1415723206341020e-01
      - 5.2178423415526796e+00
      - -7.2088379015031245e-01
      - 4.6880210050169682e+00
      - -9.3900303539127583e-01
      - 4.3745972539384548e+00
      - -1.0793973730918061e+00
      - 4.7590375116481347e+00
      - -7.9730774806428140e-01
      - 5.0674292084404335e+00
      - -6.7578531158059529e-01
      - 3.9993401279154375e+00
      - -9.9057900723980863e-01
      - 3.8263151652862049e+00
      - -1.7459866452382011e+00
      - 3.9442356013792992e+00
      - -1.0739442833770216e+00
      - 5.4494734068797888e+00
      - -7.1188882163258682e-01
      - 5.8310155569054825e+00
      - -7.0924704660175963e-01
      - 4.5992020997504417e+00
      - -1.0013482577945743e+00
      - 4.5071574097018301e+00
      - -1.0755705291809965e+00
      - 5.0945592375273581e+00
      - -8.2558015185215616e-01
      - 4.9944575285632604e+00
      - -7.3487079867187322e-01
      - 4.0531804517377310e+00
      - -9.8299916146091704e-01
      - 3.7939514823837444e+00
      - -1.6734159169252270e+00
      - 4.0647373442718697e+00
      - -1.1901377295042739e+00
      - 4.9884698163208379e+00
      - -6.7795611913583009e-01
      - 5.4459220483480104e+00
      - -7.3792216075770067e-01
      - 4.5921339631115599e+00
      - -1.0650009333508459e+00
      - 4.8132677082795325e+00
      - -1.0248589609376639e+00
      - 4.8691816625691224e+00
      - -8.2801240546152433e-01
      - 4.7198645625095610e+00
      - -7.3661489532981195e-01
      - 4.3701360795552544e+00
      - -8.9919660959534053e-01
      - 3.7761633174752394e+00
      - -1.4980400247431844e+00
      - 4.0702868223027284e+00
      - -1.3421228554613989e+00
      - 4.5230610445616968e+00
      - -9.7051035292214749e-01
      - 5.0392161137879468e+00
      - -8.6862109461536352e-01
      - 4.6588815388838007e+00
      - -9.5519457939490982e-01
      - 5.7321595223677431e+00
      - -6.7269056040107589e-01
      - 5.9183234020242983e+00
      - -5.9043994210534290e-01
      - 5.5070719133259018e+00
      - -5.9436549451026077e-01
      - 5.8588042247110117e+00
      - -6.2624265111381394e-01
      - 3.5971286991852778e+00
      - -1.0652910976775269e+00
      - 3.9919408692442753e+00
      - -1.4918046745672113e+00
      - 4.4627763133106804e+00
      - -1.7388661040321856e+00
      - 4.4847860522236713e+00
      - -1.3045829308075727e+00
      - 4.7666407631100496e+00
      - -7.4983202024505835e-01
      - 8.5414103698403760e+00
      - -3.4452117455465897e-01
      - 1.7683905822924704e+01
      - -2.5475559730315250e-01
      - 1.2583627501771426e+01
      - -2.8721635838931348e-01
      - 1.4627737823470307e+01
      - -2.7813821802576372e-01
      - 4.6873421458948110e+00
      - -5.2830156102516446e-01
      - 3.8218073279988429e+00
      - -8.1734406663639669e-01
      - 3.1103842626609230e+00
      - -1.3377162172885617e+00
      - 3.8622726985023372e+00
      - -1.1959297768058128e+00
      - 5.5193947577068085e+00
      - -5.0126084018634287e-01
      - 6.2473885022498896e+00
      - -4.6444031387823215e-01
      - 4.5280061767255591e+00
      - -8.1184344536674802e-01
      - 3.6221069378086885e+00
      - -1.0607104522178235e+00
      - 3.5219155098085686e+00
      - -1.1341448359202242e+00
      - 2.9543204670492691e+00
      - -9.6969258541150749e-01
      - 5.7791088502185808e+00
      - -5.0035038284939670e-01
      - 9.7265333103269072e+00
      - -3.4816176642626995e-01
      - 9.1410684151453232e+00
      - -3.2557127651003459e-01
      - 9.8040015868236541e+00
      - -3.8147760062671959e-01
      - 5.1489605653484354e+00
      - -6.0821558000115006e-01
      - 5.7960507338555747e+00
      - -5.9307019435517427e-01
      - 5.0233866485177501e+00
      - -7.2847376405832420e-01
      - 3.7922709173239362e+00
      - -1.0009850736634212e+00
      - 3.0841383505705058e+00
      - -1.3387591721655492e+00
      - 4.0094839558673101e+00
      - -8.2902357676649574e-01
      - 5.6440180193570448e+00
      - -5.4266015256829969e-01
      - 5.9589239027737699e+00
      - -5.2691928704439139e-01
      - 6.1005172437440764e+00
      - -5.8380707142098742e-01
      - 4.9000964096076443e+00
      - -6.5948491151957878e-01
      - 5.9735370529576173e+00
      - -5.5313196922935837e-01
      - 5.8590762498703253e+00
      - -5.1989448433238694e-01
      - 3.7083491385400977e+00
      - -8.5699209773967444e-01
      - 3.1317486332079718e+00
      - -1.4495017907537378e+00
      - 3.7144763178624345e+00
      - -8.8624063870903813e-01
      - 5.7176862058692937e+00
      - -5.3935899119096931e-01
      - 6.7646848207126498e+00
      - -4.9110613248218371e-01
      - 5.4870942988792359e+00
      - -6.2920500960792280e-01
      - 4.9682127014953856e+00
      - -6.5079611709897156e-01
      - 6.0420655779465751e+00
      - -5.5877061329156175e-01
      - 5.1796570603369529e+00
      - -5.2608162432238725e-01
      - 3.6804198583341754e+00
      - -8.5615523903686563e-01
      - 3.1524122032425086e+00
      - -1.4585770998797496e+00
      - 3.6738054437500631e+00
      - -9.3108746285393629e-01
      - 5.6822848867508924e+00
      - -5.1473235034493836e-01
      - 7.0009047757787988e+00
      - -4.7803620855840406e-01
      - 5.4623866499648717e+00
      - -6.4718048364474001e-01
      - 5.1642731214309174e+00
      - -6.2661964099432799e-01
      - 5.8297894898162790e+00
      - -5.8962593419614162e-01
      - 5.2397901228218098e+00
      - -5.3411136883151022e-01
      - 4.0280402185453337e+00
      - -7.7242892826405363e-01
      - 3.2295745040112127e+00
      - -1.4406277194581789e+00
      - 3.6204667890594120e+00
      - -1.1209118826999358e+00
      - 4.7919979506096233e+00
      - -6.6163848002979631e-01
      - 7.0676716758025666e+00
      - -5.3867315241491653e-01
      - 5.5766327879291566e+00
      - -5.9773838098828935e-01
      - 7.1032600874227967e+00
      - -4.5238337275758772e-01
      - 7.3792436180935752e+00
      - -4.3393314979939074e-01
      - 7.0497323453750926e+00
      - -4.3913838579075898e-01
      - 5.5382211796954071e+00
      - -5.6646221683116249e-01
      - 3.2093983428390467e+00
      - -1.1652342989974256e+00
      - 3.5714163779728110e+00
      - -1.2744207206673082e+00
      - 3.9436422902042438e+00
      - -1.0939551899614655e+00
      - 5.2368350391433607e+00
      - -7.8499549645092659e-01
      - 6.4235703211860473e+00
      - -4.7455906689509253e-01
      - 1.7260090698274624e+01
      - -2.2494672452958139e-01
      - 1.9511535182936630e+01
      - -2.0475724793555908e-01
      - 1.9228984227060902e+01
      - -2.2621651875210738e-01
      - 1.4042633564860225e+01
      - -2.8280492486082970e-01
      - 3.9143629422325694e+00
      - -5.9025816780830764e-01
      - 3.5737531135403318e+00
      - -7.9342977254285885e-01
      - 3.0022810801178901e+00
      - -9.5132635773576868e-01
      - 4.3752117609315180e+00
      - -8.3656799959495287e-01
      - 8.1816062495891835e+00
      - -3.3617768351648442e-01
      - 9.8416287737066703e+00
      - -2.7325855465921961e-01
      - 5.5873024587314530e+00
      - -5.1915927276864215e-01
      - 3.7591239361299600e+00
      - -6.3696927786726720e-01
      - 3.6223079280057169e+00
      - -6.7769810186163149e-01
      - 3.2051542124229302e+00
      - -5.9938487780686223e-01
      - 7.8700815723080098e+00
      - -3.4236318551818329e-01
      - 1.5761652016707341e+01
      - -2.2580244369257024e-01
      - 1.3290798710619846e+01
      - -2.0553782581530480e-01
      - 2.6493254087324143e+01
      - -2.1453745384589140e-01
      - 6.9017561743979323e+00
      - -3.7773687613200113e-01
      - 6.9410598628798956e+00
      - -4.2415023004043273e-01
      - 5.2258779818911449e+00
      - -5.4057518064739318e-01
      - 4.0391991740686750e+00
      - -6.8550491261898572e-01
      - 2.8969275012525229e+00
      - -8.0343978019490836e-01
      - 4.6004952309919229e+00
      - -5.7545706742234581e-01
      - 7.2172098431448370e+00
      - -3.8313714348169475e-01
      - 7.7743636231364608e+00
      - -3.4202542869470254e-01
      - 1.0387687228164209e+01
      - -3.5280399214611979e-01
      - 6.2323551142066949e+00
      - -4.1330547261592698e-01
      - 7.7438741008883412e+00
      - -3.5644508714848022e-01
      - 7.6143664237753406e+00
      - -3.6581010240883810e-01
      - 4.6089299834865995e+00
      - -5.3490004475775643e-01
      - 2.7993183124125651e+00
      - -8.5825098717924952e-01
      - 3.7627082963849312e+00
      - -6.6662867215149746e-01
      - 6.0040812322571036e+00
      - -4.0198561214949458e-01
      - 8.4342565428948184e+00
      - -3.3625452668193329e-01
      - 8.3599998370017730e+00
      - -3.8069050119643966e-01
      - 6.8227582040592676e+00
      - -3.7944101951003528e-01
      - 8.4433425563441933e+00
      - -3.4148408139691949e-01
      - 6.8243699216252818e+00
      - -3.3139858366526331e-01
      - 4.2109222379024063e+00
      - -5.2054354906742983e-01
      - 2.7348023675418567e+00
      - -9.0524024616910015e-01
      - 3.6381279310822130e+00
      - -6.4872481963858375e-01
      - 6.8897791124820893e+00
      - -3.5496767966244119e-01
      - 1.1800059486240890e+01
      - -2.6618713376755665e-01
      - 1.0467154308499602e+01
      - -3.3454538409347540e-01
      - 8.1934652624193429e+00
      - -3.3621110143150285e-01
      - 1.0279615482841731e+01
      - -3.2278774559236773e-01
      - 7.1912385366748293e+00
      - -3.2398448906627586e-01
      - 4.4426814097146865e+00
      - -5.4856523193089024e-01
      - 2.7092621552593115e+00
      - -9.6290910484929304e-01
      - 3.5275380687561730e+00
      - -7.1931222168779196e-01
      - 6.7744355338175701e+00
      - -3.9617485399362179e-01
      - 1.3123530668693256e+01
      - -2.8205580254470036e-01
      - 1.2417919676478805e+01
      - -2.9863206936387665e-01
      - 1.3371651081425512e+01
      - -2.4250272580457291e-01
      - 1.6078774732767339e+01
      - -2.4042602737295493e-01
      - 1.0916738156263593e+01
      - -2.4885358775562685e-01
      - 5.9836489547964034e+00
      - -4.2190970553826351e-01
      - 2.7873615510148708e+00
      - -8.6629264321593158e-01
      - 3.4175810721476378e+00
      - -7.6371586835259475e-01
      - 4.6054770999279064e+00
      - -5.9861750240892841e-01
      - 8.8612882715406425e+00
      - -4.2494115718562070e-01
      - 1.6219314522304597e+01
      - -2.3436434069694170e-01
      - 5.9297845123183322e+01
      - -9.8493115592179797e-02
      - 7.1702490105546559e+01
      - -1.2686171780928521e-01
      - 3.3706030957718852e+01
      - -1.2315711575059367e-01
      - 1.6251269508916160e+01
      - -2.4753462539436241e-01
      - 3.6129260755216785e+00
      - -5.3012905862059412e-01
      - 3.9097548037177252e+00
      - -5.5256060463038259e-01
      - 3.6104565343893880e+00
      - -5.7322475532553496e-01
      - 6.9254650443363595e+00
      - -4.7301141022264359e-01
      - 3.1144364408685004e+01
      - -1.7303095464830393e-01
   output_scale:
      - 5.2631578947368418e-01
      - 4.9999999999999994e-01
      - 5.2631578947368418e-01
      - 4.9999999999999994e-01
      - 5.2631578947368418e-01
      - 4.9999999999999994e-01
      - 5.2631578947368418e-01
      - 4.9999999999999994e-01
      - 5.2631578947368418e-01
      - 4.9999999999999994e-01
      - 5.2631578947368418e-01
      - 4.9999999999999994e-01
      - 5.2631578947368418e-01
      - 4.9999999999999994e-01
      - 5.2631578947368418e-01
      - 4.9999999999999994e-01
      - 5.2631578947368418e-01
      - 4.9999999999999994e-01
      - 5.2631578947368418e-01
      - 4.9999999999999994e-01
      - 5.2631578947368418e-01
      - 4.9999999999999994e-01
      - 5.2631578947368418e-01
      - 4.9999999999999994e-01
      - 5.2631578947368418e-01
      - 4.9999999999999994e-01
      - 5.2631578947368418e-01
      - 4.9999999999999994e-01
      - 5.2631578947368418e-01
      - 4.9999999999999994e-01
      - 5.2631578947368418e-01
      - 4.9999999999999994e-01
      - 5.2631578947368418e-01
      - 4.9999999999999994e-01
      - 5.2631578947368418e-01
      - 4.9999999999999994e-01
      - 5.2631578947368418e-01
      - 4.9999999999999994e-01
      - 5.2631578947368418e-01
      - 4.9999999999999994e-01
      - 5.2631578947368418e-01
      - 4.9999999999999994e-01
      - 5.2631578947368418e-01
      - 4.9999999999999994e-01
      - 5.2631578947368418e-01
      - 4.9999999999999994e-01
      - 5.2631578947368418e-01
      - 4.9999999999999994e-01
      - 5.2631578947368418e-01
      - 4.9999999999999994e-01
      - 5.2631578947368418e-01
      - 4.9999999999999994e-01
      - 5.2631578947368418e-01
      - 4.9999999999999994e-01
      - 5.2631578947368418e-01
      - 4.9999999999999994e-01
      - 5.2631578947368418e-01
      - 4.9999999999999994e-01
      - 5.2631578947368418e-01
      - 4.9999999999999994e-01
      - 5.2631578947368418e-01
      - 4.9999999999999994e-01
      - 5.2631578947368418e-01
      - 4.9999999999999994e-01
      - 5.2631578947368418e-01
      - 4.9999999999999994e-01
      - 5.2631578947368418e-01
      - 4.9999999999999994e-01
      - 5.2631578947368418e-01
      - 4.9999999999999994e-01
   inv_output_scale:
      - 1.8999999999999999e+00
      - -9.4999999999999996e-01
      - 1.8999999999999999e+00
      - -9.4999999999999996e-01
      - 1.8999999999999999e+00
      - -9.4999999999999996e-01
      - 1.8999999999999999e+00
      - -9.4999999999999996e-01
      - 1.8999999999999999e+00
      - -9.4999999999999996e-01
      - 1.8999999999999999e+00
      - -9.4999999999999996e-01
      - 1.8999999999999999e+00
      - -9.4999999999999996e-01
      - 1.8999999999999999e+00
      - -9.4999999999999996e-01
      - 1.8999999999999999e+00
      - -9.4999999999999996e-01
      - 1.8999999999999999e+00
      - -9.4999999999999996e-01
      - 1.8999999999999999e+00
      - -9.4999999999999996e-01
      - 1.8999999999999999e+00
      - -9.4999999999999996e-01
      - 1.8999999999999999e+00
      - -9.4999999999999996e-01
      - 1.8999999999999999e+00
      - -9.4999999999999996e-01
      - 1.8999999999999999e+00
      - -9.4999999999999996e-01
      - 1.8999999999999999e+00
      - -9.4999999999999996e-01
      - 1.8999999999999999e+00
      - -9.4999999999999996e-01
      - 1.8999999999999999e+00
      - -9.4999999999999996e-01
      - 1.8999999999999999e+00
      - -9.4999999999999996e-01
      - 1.8999999999999999e+00
      - -9.4999999999999996e-01
      - 1.8999999999999999e+00
      - -9.4999999999999996e-01
      - 1.8999999999999999e+00
      - -9.4999999999999996e-01
      - 1.8999999999999999e+00
      - -9.4999999999999996e-01
      - 1.8999999999999999e+00
      - -9.4999999999999996e-01
      - 1.8999999999999999e+00
      - -9.4999999999999996e-01
      - 1.8999999999999999e+00
      - -9.4999999999999996e-01
      - 1.8999999999999999e+00
      - -9.4999999999999996e-01
      - 1.8999999999999999e+00
      - -9.4999999999999996e-01
      - 1.8999999999999999e+00
      - -9.4999999999999996e-01
      - 1.8999999999999999e+00
      - -9.4999999999999996e-01
      - 1.8999999999999999e+00
      - -9.4999999999999996e-01
      - 1.8999999999999999e+00
      - -9.4999999999999996e-01
      - 1.8999999999999999e+00
      - -9.4999999999999996e-01
      - 1.8999999999999999e+00
      - -9.4999999999999996e-01
      - 1.8999999999999999e+00
      - -9.4999999999999996e-01
   weights:
      -
         - -4.3021560230982830e-02
         - 1.6650400189704727e-02
         - -1.4074677633307295e-01
         - 1.0029202466132858e-01
         - 7.8991677637229987e-02
         - 5.8739192886328187e-02
         - -2.3871094268676122e-02
         - 9.5724790858332909e-02
         - -5.6464647154345644e-03
         - -4.8515752436815616e-04
         - -9.4083242215646984e-02
         - -9.2423260451795455e-02
         - -3.4306148534231098e-02
         - 5.5203350855990228e-02
         - -1.7579816202888937e-01
         - 8.0780330906651598e-02
         - 1.0080147561667762e-02
         - -3.7254829650489880e-02
         - -9.3485472717762627e-02
         - 8.9904239594072621e-02
         - -9.5858935817869001e-02
         - 9.5596237305280912e-02
         - -1.3135719222021736e-01
         - -2.7867231128063996e-02
         - 1.6398586202513116e-01
         - 9.1251365649380273e-02
         - -9.8841908456682420e-02
         - 7.0582096409814069e-02
         - -1.3214100131422499e-02
         - 8.2157111546457121e-02
         - 4.8467262885969899e-02
         - 6.3384548929612525e-02
         - -3.3015246578254648e-03
         - -1.1567589966727379e-01
         - -5.6405148504619869e-02
         - -4.3497338689291599e-02
         - -7.8307278116783563e-02
         - -1.1163812148127016e-02
         - -7.8893176150335559e-02
         - 2.7114232257129726e-02
         - 2.0567670381094468e-02
         - -5.9524595729099683e-02
         - 3.6168453717273105e-02
         - -1.2469472257478102e-01
         - 1.0535630004991360e-01
         - -3.1301879378461427e-02
         - -7.4105452364650146e-02
         - 1.3258626905738877e-01
         - -1.0058147134839181e-01
         - 1.5736460428383964e-01
         - -9.7099662903978687e-02
         - -5.7509918862849015e-02
         - -5.4725732653548277e-02
         - 1.2127307291323705e-01
         - 5.1342245178897614e-02
         - -1.6684492931367265e-01
         - 4.8167117147501888e-02
         - 8.8512338567919152e-03
         - 2.4276655800210226e-02
         - 6.4095997456729351e-02
         - 1.3380856017511600e-02
         - -4.0599905942663120e-02
         - 1.0138667719705107e-02
         - -2.9838310915534540e-02
         - 4.5718978297254231e-04
         - 6.7465011440230579e-02
         - -1.1859761449664480e-01
         - 8.8952373422164444e-02
         - 1.2243611991457462e-01
         - 7.0708824200160112e-03
         - 8.3344152912861846e-02
         - 9.4116321015708909e-02
         - -1.3072179529223557e-01
         - -1.2077923287569953e-01
         - 1.9662986227834636e-01
         - -2.6836839944415297e-02
         - -9.5078384271198996e-02
         - 2.1112738824803121e-02
         - -4.3523308873064527e-02
         - -1.6215801544294370e-01
         - 4.6138284728155295e-02
         - 1.9349404184358360e-01
         - -3.8445679917247948e-02
         - -5.1668617808618381e-02
         - -1.2970834178298914e-02
         - 1.7506539517264019e-01
         - 1.0345320298647678e-01
         - 7.3047040122477605e-02
         - 4.6392262527646951e-02
         - 5.2278270341630746e-02
         - -1.7849968701256540e-02
         - 5.7067604440395547e-02
         - 1.1494444797926905e-01
         - 2.0101167648621802e-02
         - 1.0028037887243380e-01
         - -1.3504344982036082e-01
         - 1.1307360703462732e-01
         - 4.2089293238016960e-02
         - -3.9400653486068304e-02
         - -1.4246853725350669e-01
         - -1.1362192712378451e-01
         - 9.1861754484638083e-02
         - -3.8829017035323286e-02
         - -1.4060161454967851e-01
         - 3.5768478176696421e-02
         - -5.2481031884684306e-03
         - -3.0530871238352377e-02
         - -7.1447825770197176e-02
         - 8.1685140551419379e-03
         - 8.0603697261967505e-02
         - -1.8250917149377925e-02
         - 8.9930813711234944e-02
         - -4.6304728630775296e-02
         - -1.0830608340548943e-01
         - -7.5411399311154176e-02
         - 1.1329695143766394e-01
         - -5.0322920714927548e-02
         - 5.4553998756894408e-02
         - -3.0555676157643093e-02
         - 1.5643335068782588e-01
         - -8.8309749307291144e-02
         - -3.4127975287425498e-02
         - -9.5256030902025141e-02
         - -5.3610303076755982e-02
         - -3.7649194892380228e-04
         - -8.1407116329707249e-02
         - -3.4794000290576430e-02
         - 7.7778737099261974e-02
         - 1.2466511219500731e-01
         - -2.6415262831743763e-02
         - 4.7220853122072200e-02
         - -2.0429616614691348e-02
         - 1.6848471722066879e-02
         - -1.3578087822583084e-02
         - 6.8467198658365924e-02
         - 1.3709105225792326e-01
         - 4.3152248617044683e-02
         - -7.4371152690126022e-02
         - -3.6096518339623233e-02
         - 2.3601990807624443e-02
         - -3.9111444446722071e-02
         - -1.1771027832030634e-01
         - 7.4007080722025650e-02
         - -1.0609236368253039e-01
         - 2.4790725617876180e-02
         - -5.2013258052078924e-02
         - -2.3748485254609028e-02
         - 1.2525539010316486e-01
         - 1.0438290782492201e-02
         - -6.4188110444131322e-02
         - -7.9175444405711212e-02
         - 8.5036274967121725e-02
         - 6.5993195014395364e-02
         - 1.2372492955102704e-02
         - 5.4518706153373966e-02
         - -2.4530222056062690e-02
         - 4.5108518944793126e-02
         - -1.8417369967585848e-02
         - -2.1884220317994130e-02
         - -6.9783706279220967e-02
         - 3.1504977360745038e-03
         - -3.9451364281570332e-02
         - 5.2269629763049275e-02
         - -1.0519591924783478e-01
         - 1.3394550496761121e-01
         - -1.3504266542719056e-02
         - -4.8417146982749466e-02
         - -1.2839046036531455e-02
         - -4.6479854066976141e-02
         - 1.9171197801060250e-02
         - 6.5216520601144273e-02
         - 4.4387648139435792e-04
         - 7.2523646071127726e-02
         - 1.9674741432465625e-02
         - -8.3832158853551178e-02
         - 1.5846601175073496e-02
         - 4.5328889015645961e-02
         - 2.3143613538916238e-02
         - -1.1027380164452004e-01
         - 1.9734996322414742e-02
         - 4.8874461426867202e-02
         - 2.2588733251873737e-02
         - -3.1691155354542734e-02
         - 3.9467651323430213e-02
         - -9.2845472427677586e-02
         - -6.8670980308843943e-02
         - -4.2497208583654064e-02
         - 2.8152165256996844e-02
         - 2.6180141864181494e-02
         - -4.0020777498339162e-02
         - 2.8752026376037586e-02
         - 9.3320887379433143e-02
         - 5.6957805708337465e-02
         - 2.4294155451701670e-02
         - 2.0686748306055083e-01
         - -5.8487217311630528e-02
         - -1.1594125722027639e-01
         - 9.7218552790085400e-02
         - 5.5559973689176347e-02
         - 3.2009528399574015e-02
         - -2.1684617568799736e-02
         - -4.8001455126074927e-02
         - -1.3260354415804934e-01
         - 8.3103010927253959e-02
         - 6.2976129977606640e-02
         - -4.2058929686912281e-03
         - -9.6586983933905218e-02
         - 8.1191507072785787e-02
         - 1.4755803913243902e-02
         - 4.5831010285041759e-02
         - 2.1816830286106214e-02
         - -1.2325226869314045e-01
         - 1.4209437055075354e-02
         - -6.5151226065039536e-02
         - 1.9806441867212230e-02
         - 4.9807862179275526e-02
         - -1.3184459999913847e-02
         - 9.0920262304728189e-02
         - -1.2198295957860276e-01
         - 6.2511288924741337e-02
         - -6.8077569317478451e-02
         - -7.1204986882885374e-02
         - -6.0731408194096011e-02
         - 8.3054841770835511e-02
         - 3.5720667782838479e-02
         - -5.6773738756436501e-02
         - -7.1384081680195194e-02
         - 2.4122294766194551e-02
         - -1.4024635131050750e-01
         - -6.0500645508832288e-03
         - 3.3762518776378939e-02
         - -5.6283807915875173e-02
         - -7.2612727466449447e-03
         - 2.9201224426398401e-02
         - 3.4071111686976539e-02
         - -2.9450774912453084e-02
         - -7.3246677825386528e-03
         - 2.8257965199582586e-02
         - 1.0586986959808943e-01
         - -2.4818295588080738e-02
         - 9.3099075170011536e-02
         - 2.8278287089790591e-02
         - 5.9855675354698143e-02
         - -1.1753302361481796e-01
         - -1.3376538305075339e-02
         - -1.8414484066453261e-02
         - -1.2126172815800360e-01
         - -5.9449442272083680e-02
         - -1.4088883606189564e-01
         - 1.2572638481783446e-01
         - 9.2310181104171010e-02
         - 1.2244476753728058e-01
         - -3.9948278202262939e-02
         - 5.5278400514905096e-02
         - -6.3653450190065436e-02
         - 7.5094407003749187e-03
         - -6.2365113009709594e-02
         - 6.1697412157621541e-02
         - -3.4323784363765472e-02
         - 9.3969056527870395e-02
         - -4.1981621924764144e-02
         - -4.8635810067925479e-02
         - 5.2675998461038265e-02
         - -8.2982189663224959e-02
         - -1.2735978209772822e-01
         - 9.7288665737883848e-02
         - -7.8350105094441500e-02
         - 9.1236242636580839e-02
         - -1.8736331602383322e-01
         - 1.6256835268521213e-02
         - 1.1984253407395146e-01
         - 6.7454165212168862e-02
         - -1.0939069256260357e-01
         - -1.6287157915966277e-01
         - -4.9551291019593845e-02
         - 4.4994424121177637e-03
         - 4.1449070106547130e-02
         - -7.7274334544812695e-02
         - 9.4297807791926480e-02
         - -1.0707985431839259e-01
         - -1.1109453997755389e-02
         - 2.6887367268754587e-02
         - -9.0686830597147966e-02
         - 9.6648429419393653e-02
         - -4.0214698318504584e-02
         - 6.5096002054338714e-02
         - -1.6319686343376724e-01
         - -7.0751401027814742e-02
         - 9.1274767433663445e-02
         - -5.6431978293487194e-02
         - -2.5703779900389401e-01
         - -9.0963451728471020e-02
         - -7.7840571993987220e-03
         - 2.5391740052064331e-02
         - -1.4064722902847379e-01
         - 1.1569858695884368e-01
         - -4.0693150828119071e-02
         - 7.2745457350885737e-02
         - 8.5323373166150268e-03
         - 6.0178245168466565e-02
         - 4.4008278908375751e-03
         - -1.2121979903290378e-01
         - 5.3164799720844168e-02
         - 1.1253292861967881e-01
         - 1.1279393880863979e-01
         - -1.7583527613898034e-01
         - -8.9061877668432821e-02
         - -1.1338677432970079e-01
         - 4.0997141264716333e-02
         - 3.7737218846662104e-02
         - 1.2810686031823582e-01
         - 4.2487981783685881e-02
         - 1.3681577116481625e-02
         - 7.9681046943404651e-02
         - 9.7281134860638455e-02
         - -7.9039002691700624e-02
         - 5.2317067881838153e-02
         - 1.2210816340689333e-01
         - -2.3241868093961074e-02
         - -1.0674954200405581e-01
         - 9.4924034440342947e-02
         - 3.4582089892993190e-02
         - 2.6866533421339749e-02
         - -1.9525354958117132e-02
         - -5.1764567473007353e-02
         - -1.1890270109493055e-01
         - -4.5002516739077722e-02
         - 8.7778134271142561e-02
         - -5.6700817740422092e-03
         - -7.9744573048181874e-02
         - 2.0829783403977054e-01
         - 1.4075943871271607e-01
         - 8.1656594719221487e-02
         - 3.0329460404314043e-02
         - -1.0587139648817127e-01
         - -8.9940475639010017e-02
         - -8.2743477531476511e-02
         - 2.8553218380997385e-02
         - 7.2748014178276740e-02
         - 5.6854693424258314e-02
         - 6.4292147028144148e-02
         - 8.0036007531998299e-02
         - 1.0234700147725301e-01
         - -6.3770770646000674e-02
         - -3.4230106611333119e-02
         - -1.1545904078986033e-01
         - 1.4800397043701383e-01
         - 4.7906496496575690e-02
         - -1.1584390091419065e-01
         - -3.0475680088106302e-02
         - -7.8896149872909174e-02
         - -2.3629436114093766e-02
         - 7.8885087391318470e-02
         - 5.1266488093096765e-02
         - 1.6149610028861172e-02
         - 1.5809290822509611e-01
         - 1.1759783916067008e-01
         - 4.8305246170755003e-02
         - -5.2348481759766918e-02
         - -6.9538423327301396e-02
         - -3.4587521355785737e-02
         - 5.2718530140820820e-02
         - -6.3567320381032161e-02
         - 5.1815249421099750e-03
         - 2.0341112170192327e-02
         - 9.9788620634363764e-02
         - -1.2719585101198713e-01
         - -3.3638756423226411e-02
         - -2.8384802627884724e-02
         - -2.6182105727392338e-02
         - 8.6610331320192829e-03
         - -1.4772251538223499e-02
         - 1.1686943051203867e-01
         - 3.9221576389336821e-02
         - 4.0749674986465333e-02
         - 8.9819613363160036e-02
         - 2.4838196355785495e-02
         - -1.2941904137645201e-02
         - -1.1433402394331393e-01
         - -5.7273830352188391e-03
         - 3.8100992409219998e-02
         - 1.0022743461628793e-02
         - 1.4186202785658969e-02
         - -2.9084479437414112e-02
         - 3.8581174200664328e-02
         - 9.6842025856926250e-02
         - -1.6246499083196569e-02
         - -6.3655305112842744e-02
         - 4.6623908629959680e-02
         - -2.7023563120195070e-02
         - -3.1074871040791176e-02
         - -1.7471475346531942e-01
         - 4.0716039678298892e-02
         - 3.6054254384899696e-02
         - -5.2493568871999387e-02
         - -2.0691366546610915e-02
         - -6.3999386924439728e-03
         - -9.1104808623043362e-02
         - 4.2951554708918725e-02
         - -4.1085346858334209e-03
         - -7.4624209849307635e-02
         - -3.6749694786871290e-02
         - -7.8488512429528867e-02
         - -2.3540885614887295e-02
         - 1.8079883501479113e-01
         - -5.5073298648778399e-02
         - 9.9026798948305163e-03
         - -2.6228395278514206e-02
         - 3.6038416311523387e-02
         - -4.6204852233976128e-02
         - -2.4592359848076544e-02
         - 1.7154894967726451e-02
         - -4.5838485099058114e-02
         - -1.2207961846691653e-01
         - -4.8015097307714014e-02
         - -4.0307287608174522e-02
         - 1.4555435201649968e-02
         - 2.5220961506715101e-02
         - 3.3528776380350699e-02
         - -1.4575872987475719e-01
         - -5.1538899181514254e-02
         - -1.5004100913044237e-02
         - 2.8898639759731923e-02
         - -8.1811576291731997e-02
         - -4.3437246136989897e-02
         - 5.4846451255437852e-03
         - 6.6113057858736895e-03
         - 1.7895421072185874e-01
         - -1.3337462810940565e-01
         - 1.5494391992833700e-02
         - 7.8822333967615246e-02
         - 3.7433949060890884e-02
         - -1.2258759132858145e-01
         - 9.0142188763106423e-02
         - 1.3105354072121022e-02
         - -1.2626487771400012e-02
         - 1.2814963299034312e-02
         - 5.6762145556745358e-02
         - -1.6860677156215684e-02
         - 1.8884744787836142e-02
         - 2.1398213458675949e-01
         - -3.5584834691513391e-02
         - -3.9610157868891313e-02
         - 4.4718462718249682e-02
         - -2.4455085150700218e-02
         - -8.5554799757824582e-02
         - 2.2476659560266155e-01
         - -2.9797288345431949e-02
         - -4.9100778954866531e-02
         - 2.2284607518869661e-03
         - 1.9650869071920905e-02
         - -1.1425886099771186e-02
         - -2.2714709739062693e-02
         - -1.1485107867623319e-01
         - 4.6759548939000396e-02
         - 1.0242168612547189e-01
         - 1.4880859473086819e-02
         - 9.4969050470927519e-02
         - 1.3110734422120268e-01
         - -2.5267014499791154e-02
         - 1.9634141070042462e-02
         - 1.7384014532859374e-02
         - 1.1462839841690993e-01
         - 2.9264093238343669e-02
         - 5.1729387424614651e-02
         - 2.0915989442099513e-02
         - -1.1120018505815007e-03
         - -4.1407334447540557e-02
         - -2.8744488607646709e-02
         - -5.4871878716144878e-02
         - 3.7599670635566067e-02
         - -1.1515496522176724e-01
         - 1.5683876665289143e-02
         - 6.5840939679734881e-02
         - 2.6267931447569511e-02
         - -5.4113039876072272e-02
         - 1.0373154407039392e-01
         - 6.3428813721534243e-03
         - -5.5840546067166827e-03
         - 4.2216980774598130e-02
         - 3.0315005647785900e-02
         - -2.2667725290940969e-02
         - 2.3811779556762006e-02
         - 1.2137366152092417e-01
         - 4.3034385167207471e-02
         - -2.2166472565776342e-02
         - -1.9978450517433605e-02
         - -4.1907211715626842e-02
         - 3.3337322415084816e-02
         - -2.0048351558113235e-02
         - -1.1935017421401982e-02
         - -2.3718088422508263e-02
         - 7.7636640327672674e-02
         - 1.6363924055397459e-02
         - -1.2812579374770650e-02
         - 1.7740631203746865e-01
         - 1.8754872284596762e-02
         - 4.4986707097919257e-02
         - -4.8350463327583436e-02
         - 9.3308641406844345e-04
         - -1.1645057800151520e-03
         - -5.4046778894666306e-03
         - -3.2215785351798068e-03
         - 2.9264335141278436e-02
         - -1.9506084728234044e-01
         - -1.5357789128965890e-02
         - -1.1576125155155580e-01
         - 1.9617341010857506e-01
         - 1.4662023152267092e-01
         - -3.7613251310335688e-03
         - 8.6888867568705262e-03
         - 1.7120391630200467e-02
         - -4.6120936702041246e-02
         - 4.0760713453758389e-02
         - -2.3381990905609476e-01
         - -1.3450343086197795e-02
         - 4.3500589361856100e-02
         - -4.2125634079863410e-02
         - -1.7297597094486653e-01
         - 4.3708507592036983e-02
         - -1.0152628033978468e-01
         - 3.1810498023144854e-02
         - -1.2122695984645514e-02
         - -1.7297532473166725e-03
         - -5.8282666581310844e-02
         - -1.5218477343039818e-01
         - -2.4465614816335336e-02
         - 8.5187753973290106e-02
         - -1.1048266376994487e-01
         - 6.2551127335327798e-03
         - -4.5636107674833156e-05
         - 8.2903958279201995e-02
         - -1.1309501759085573e-01
         - 7.5632871162793144e-02
         - 1.3828226766119878e-01
         - -9.1031959907322518e-02
         - 1.1554637726575655e-01
         - 2.1758910198441325e-02
         - -2.7043535384503388e-02
         - -1.3004135970608356e-02
         - 5.8337571037966426e-02
         - 2.4217876331464592e-03
         - -2.2865996415059220e-01
         - 8.2379359291012300e-03
         - 9.0137529298454075e-02
         - 1.6818003701099017e-02
         - -6.0941456655361666e-02
         - -9.3097763569955638e-02
         - 1.5889057248254727e-02
         - 5.1682464970587835e-03
         - 2.2652239124625539e-01
         - 2.6881139838602016e-02
         - 6.3119550072347555e-02
         - 3.5329425800386248e-02
         - 2.8239421182436605e-02
         - -1.0008963991401740e-01
         - 8.9610558388611983e-02
         - -6.6867108404062786e-03
         - 3.2860089988249043e-03
         - -1.3730025629503035e-02
         - 1.7713884201614984e-02
         - -1.0871052273689481e-01
         - -1.0866320912764254e-02
         - 3.0350519520825993e-02
         - -7.8926695049075860e-02
         - -5.4925184129228602e-02
         - 1.5799985707615507e-02
         - 8.8261866234469258e-02
         - -1.8381415674052382e-02
         - 1.6905778404351043e-01
         - -1.6014117892742898e-02
         - -1.0173835190443061e-02
         - 8.2661590084756945e-02
         - -5.0203923435032036e-03
         - -7.4275965746707353e-03
         - -3.1852220068962621e-02
         - 1.6187419599682160e-02
         - 4.5928394920782580e-02
         - 1.1561355800643139e-01
         - -4.4881912288199646e-03
         - 1.9687428591730982e-01
         - 1.1235742508896158e-01
         - 6.3683180373628689e-02
         - 9.1168612568725202e-03
         - 7.1483012018382528e-03
         - 2.0012642490465960e-02
         - 3.0379248710337460e-02
         - 7.6670837880519205e-02
         - 9.3698601011897673e-03
         - 3.3754214870985046e-02
         - 3.0622273901107272e-05
         - -3.3310437993332054e-02
         - -8.8502778472278193e-02
         - 3.6445240827189113e-02
         - -8.6061082866454447e-02
         - 9.2630290099640841e-02
         - -7.6305582899708138e-02
         - 9.5249318225820185e-03
         - -8.2368652444163165e-02
         - -7.1743873697310376e-02
         - -8.8697530362384341e-02
         - 1.6687786882089498e-01
         - 1.7114664394496139e-02
         - 2.7475237243816536e-02
         - -5.1149728355815828e-03
         - 4.3848276005597278e-03
         - -4.5546772010781986e-02
         - 3.9552138056602765e-02
         - 1.3640802274276732e-02
         - -8.6332950426042443e-02
         - 1.5362355828280378e-02
         - 2.3682234300599200e-03
         - -1.9086670100334917e-02
         - -4.0619886587709162e-03
         - -3.8634268736184613e-02
         - 1.0429883244509545e-01
         - -3.1037439827701928e-02
         - 4.2743035638354547e-04
         - -2.4938216621256540e-03
         - 1.1395351487522616e-02
         - 2.8609664136837350e-02
         - -9.2686903586471026e-02
         - -1.7347774841628562e-02
         - 1.3832570153005650e-02
         - 5.6862943175770390e-02
         - 2.0961525870178317e-02
         - 2.7160680968542794e-02
         - -3.9940305593603419e-02
         - -2.4676368214202431e-02
         - 3.4070051399325771e-02
         - 3.9400259759838061e-02
         - -1.2655541434160903e-02
         - 4.4765960925241561e-03
         - -1.9150277539824592e-02
         - 6.1556445242176789e-03
         - -2.4158383003572051e-02
         - -4.0396765254113792e-03
         - 8.6819367912880708e-04
         - -2.8108400581398987e-02
         - 1.4417903172789709e-02
         - -8.8014237339727359e-03
         - 4.6194954904782100e-02
         - -1.0074092650604484e-01
         - 5.6307687838223215e-02
         - -3.2459095351612347e-03
         - -6.0951450654348335e-03
         - 8.8705383594742435e-02
         - -2.0430688181596855e-02
         - 1.4139232093975149e-01
         - 3.4158233510760850e-03
         - 8.1385641021902815e-03
         - -3.1436475446979160e-02
         - 2.2482360151824931e-02
         - 6.6073712063843913e-03
         - 8.6746629136160630e-02
         - 3.7913559538570882e-02
         - 8.4106113448145392e-02
         - -2.6888843869192970e-02
         - -7.9711894457040661e-02
         - 1.2855782017145867e-01
         - 5.2702151167486021e-02
         - 9.6803663827417291e-04
         - -2.5563880512296459e-02
         - 3.6927463829295203e-02
         - -1.0040724926536489e-02
         - 3.8915578844586504e-02
         - 3.2287285521123560e-02
         - 4.8326319668003555e-02
         - -8.5013746885306864e-03
         - 3.1078002506992108e-02
         - -6.8088052461805423e-02
         - -1.1295916604476099e-02
         - 2.9709705151679557e-02
         - -9.8649562746285072e-02
         - -3.2490667767635831e-02
         - 9.5213887681789913e-02
         - 5.4297601406737069e-02
         - -2.4457945670737960e-02
         - 6.0930957991495061e-02
         - -5.0472447084619107e-02
         - -1.5883974995712247e-02
         - 4.7289857524635557e-03
         - -1.8622314736800684e-02
         - 9.6494907369724728e-03
         - 2.2071859408620151e-02
         - -2.3055378567138799e-02
         - 1.2027386114569556e-02
         - 1.4622547869359230e-02
         - -1.5023910471245969e-02
         - -3.5582383973983421e-03
         - 6.0914481394174040e-02
         - 6.0606606221669142e-03
         - -5.8560488781579323e-02
         - -6.9559315035794776e-04
         - -1.6968849443507329e-02
         - -2.9144002340554413e-02
         - -4.3826420546199899e-03
         - 8.2219768177697310e-03
         - -2.0583215880524319e-02
         - 3.8542254259767233e-03
         - -3.9265652080120693e-02
         - -1.4558187117278581e-02
         - -1.3708200046902135e-02
         - 3.2073145181882902e-02
         - -3.4933515290713126e-02
         - -1.8116179854278472e-01
         - -9.6965105971403721e-03
         - -3.8656628156435767e-03
         - -5.0079023709348636e-02
         - 4.0403444152207209e-02
         - 7.0110600883438859e-02
         - -7.1803827680022693e-03
         - -2.1868382141996493e-02
         - 6.6122416790744161e-03
         - 1.5835185076910049e-02
         - 1.0458105056957922e-03
         - -9.0205292579298626e-03
         - 4.0683479046878350e-02
         - 1.2956244132945898e-02
         - -8.0494115602238528e-03
         - 1.7335486895267302e-02
         - -9.7401421466036892e-02
         - -4.5684284076027724e-02
         - -1.1299085738833445e-01
         - -1.1007498069242913e-02
         - -7.3113909728478536e-03
         - 3.8876277376539863e-03
         - 1.2696403009558311e-02
         - 1.4454187774962247e-02
         - 1.6419206444311502e-01
         - 2.0728806428087599e-02
         - 1.4786007713561188e-02
         - -8.3765455597718752e-02
         - 4.9329574477004458e-02
         - -1.2919964802883835e-02
         - -5.9589708531401029e-03
         - 1.1029225881185255e-02
         - 5.6721785620117643e-03
         - -4.5290496582196006e-02
         - 1.5228844134598069e-01
         - -8.6909313194553153e-02
         - 8.7731341253604420e-02
         - 3.3266364365652001e-02
         - 2.6126289045674524e-02
         - 1.6081637850390040e-01
         - 9.0216213465977968e-02
         - -2.0237468035312234e-01
         - 1.1639984310037917e-01
         - -1.0942729387045717e-01
         - -1.3907732653289231e-02
         - -6.1684672060558901e-02
         - 1.6859271497758835e-01
         - 1.6867636637001321e-01
         - -5.6020859809473147e-02
         - -9.8543714633095622e-02
         - -1.8356837787406391e-01
         - -2.8158917409000627e-02
         - 7.6828639211919972e-02
         - -7.8377682949025973e-03
         - 2.9270379133016139e-02
         - -5.0692739557488965e-02
         - 8.2258774075773075e-02
         - 3.8143126631983242e-03
         - 1.5391718388113221e-01
         - 7.0575047997074550e-02
         - -1.0211304008046110e-01
         - 5.9273881912714321e-02
         - -5.5393181182471621e-02
         - -5.9292884189503577e-02
         - -1.2999157223827296e-01
         - -2.6714942245296282e-02
         - -3.3394540454997824e-02
         - -6.2223722284677041e-02
         - -9.7193591478169791e-02
         - -2.1122223131442203e-02
         - -8.7559504613595129e-02
         - -1.9766497662252966e-01
         - -1.1683770051088560e-01
         - -6.2910817487020446e-02
         - 5.2991960152661347e-02
         - 4.4003688696006772e-02
         - -1.3374923617895484e-01
         - -8.6683492318354691e-02
         - -1.7604753182974017e-01
         - -4.4614283108798287e-02
         - -1.8183275375403200e-02
         - 3.0955347386537744e-02
         - 1.7495174011613726e-01
         - 4.1492724089101339e-02
         - 3.7089637379465155e-02
         - -1.4607677540046590e-01
         - 9.0827142702511500e-03
         - 4.4611335974761142e-02
         - -9.1808377499531066e-02
         - 6.7044655228371761e-02
         - -1.0201385864956243e-01
         - -1.3238568062585926e-01
         - 1.4898289679422205e-01
         - -9.2905358510451813e-02
         - -1.4868129134654332e-01
         - 6.6100198347541161e-02
         - 4.9924821489231462e-02
         - 2.7743028220396083e-02
         - 1.4178716586076820e-01
         - 8.7936142537495942e-03
         - 2.2142560492646338e-01
         - 8.1016065155618766e-02
         - 1.9769389074575764e-02
         - 2.3057415844804849e-01
         - 4.6601784345810249e-02
         - -5.4762592622664460e-02
         - -3.2334617240243078e-02
         - 1.0022086380787751e-01
         - -1.3539043679870244e-01
         - -1.2094783424806228e-01
         - -9.9475069385601356e-02
         - -6.3924989819689720e-02
         - -6.0256531615461080e-02
         - -1.1822557936498649e-02
         - 8.0892033268029143e-02
         - -1.5239527217646806e-01
         - -1.8716222393772575e-02
         - 1.1770932564543567e-01
         - 1.7319341906870306e-01
         - 5.9722138239544774e-02
         - 1.5719608784818834e-01
         - 1.1365907610231041e-01
         - 6.5166598615635965e-02
         - -7.5447508001499186e-02
         - 1.3114662742630911e-01
         - 1.1338037956952830e-01
         - -7.5594652395428397e-02
         - -3.8159797591421830e-02
         - -9.0156901167521043e-03
         - 1.6653025241410166e-01
         - -8.1865865112977665e-02
         - -7.7380465800800475e-03
         - -2.5248972960407377e-02
         - 9.8888668759668813e-02
         - 1.4264374672493332e-01
         - 1.2037508129683988e-01
         - -8.0343745298083941e-02
         - -4.4857380409775473e-02
         - -5.4397729053153002e-02
         - 9.0919164046210879e-02
         - 2.1279738142213504e-02
         - 1.4230466465300526e-01
         - 1.0318415589456489e-01
         - 3.0444265766327118e-02
         - 3.1048622142673687e-02
         - -2.0605608048697188e-01
         - 2.9884843203852176e-02
         - -5.9699874799805262e-03
         - -4.4624114536993963e-02
         - -2.4177251120713816e-01
         - -3.2244307785289843e-03
         - -9.8532351127516044e-02
         - 1.6144585670532741e-01
         - -2.7467923855279734e-02
         - -1.6270330010540734e-01
         - -7.4363718358023412e-03
         - -1.8262647448453245e-01
         - -6.7488249614780756e-03
         - -8.9568617842656351e-02
         - 9.6261993849529728e-02
         - 6.2033450160068428e-02
         - -4.5591311080575583e-02
         - 1.0432767015887520e-01
         - 5.5880770456833845e-02
         - -1.2674313714513050e-01
         - -4.8548912289317122e-03
         - -6.1495601616641297e-02
         - 1.3984235393879215e-02
         - 3.1639635918806188e-03
         - 9.6938104063013480e-02
         - 9.4060885166482228e-02
         - -1.0590122474224381e-01
         - -7.3349413692565604e-02
         - -1.1211657548767201e-01
         - -5.4440725449934543e-02
         - 8.1139085216756363e-02
         - 9.8783952119153057e-02
         - -2.1319195256754624e-02
         - -6.4370162908473680e-02
         - 1.2408300634696508e-02
         - -6.0479787746737484e-02
         - 6.0031824777294594e-02
         - 5.3023331760523290e-02
         - -7.1197869941153361e-02
         - 2.4141035844647395e-02
         - -8.7132963700552471e-02
         - 3.5376829713823395e-02
         - -6.0966440449999527e-02
         - -2.6418486663809032e-03
         - -4.7116153781488090e-02
         - -3.7564255212719153e-02
         - 4.6938344080402594e-02
         - -3.6911774107981278e-02
         - -5.3240328506929883e-02
         - -1.1472552143636310e-01
         - -1.1836767481355355e-01
         - 8.2898981717015353e-03
         - 1.1583968168036754e-01
         - 4.4226639448376827e-02
         - -1.7064357845185482e-01
         - -5.7002518648277281e-02
         - -1.5612956015691082e-01
         - -2.5938491993918129e-02
         - -2.9273418127331252e-02
         - 9.8710096239864528e-03
         - 1.2724965915288028e-01
         - -2.2437291393146271e-02
         - 8.7437525945224220e-02
         - -1.2225164864212722e-01
         - -2.7960976538067214e-03
         - 1.5113917821347625e-01
         - -1.3369616367836396e-01
         - 4.1792037329503401e-02
         - -6.4572230756244645e-02
         - -2.1677844086692814e-02
         - 4.1785452724144252e-02
         - 3.9894212072697874e-02
         - 4.0134882468529712e-03
         - -4.0031759514425294e-02
         - 1.1500253122479782e-02
         - 9.0963363942775988e-02
         - 8.4308248045138534e-02
         - 1.8412792033274315e-02
         - 1.3296071173036220e-01
         - 1.0556230260741437e-01
         - 1.2976641107093569e-02
         - 1.3321922393773380e-01
         - 1.1082848839874500e-01
         - -1.0619763426759776e-01
         - -5.2397674571215198e-02
         - 7.6334005956592260e-02
         - -8.1595563759733397e-02
         - -3.4264335398266878e-02
         - -2.0242696351089648e-02
         - -4.4505479272755846e-02
         - -1.7433357970153818e-02
         - -5.4162289034325479e-03
         - 5.8911780983628717e-02
         - -8.6908027580364491e-02
         - 4.8496903575505353e-02
         - 9.0942999493982185e-02
         - 6.3512587147358857e-02
         - 9.3582558286715925e-02
         - 1.0792014835199351e-01
         - 1.9290346035907810e-01
         - 1.0512667728005372e-01
         - -1.5863814902491299e-01
         - 8.0550971370348556e-02
         - 7.7669416411320802e-02
         - 4.7384668734508945e-02
         - 3.3183476909875444e-04
         - -1.0746963004228152e-01
         - 1.1169118603745966e-01
         - -3.6205565414154262e-02
         - -4.0265795140206652e-03
         - -3.5789803598133600e-02
         - 1.2156879909895904e-02
         - 8.1593719881884644e-02
         - 3.5690035748116702e-02
         - -5.1036091337837874e-02
         - -9.6993748259997237e-03
         - -6.2055713116798500e-02
         - 4.7871204010590043e-03
         - -6.7357425894862238e-02
         - 1.7011198829393015e-01
         - 5.9612218728378220e-02
         - 3.5527628825920830e-02
         - 2.7268467037396407e-02
         - -1.3381168919941866e-01
         - -3.3545859990716652e-02
         - -1.2140606544745001e-02
         - -4.1507000627475393e-02
         - -1.4646861339426370e-01
         - 2.1231022710520944e-03
         - -4.1900094785920106e-02
         - 1.2028957879537031e-01
         - 1.4962026108558946e-02
         - -1.0126129382389172e-01
         - 2.5571327279511457e-03
         - -8.9397996014732570e-02
         - -4.0519740805207670e-02
         - -1.5088743869743976e-01
         - 1.8759332285012481e-01
         - 7.7828276902100951e-02
         - 3.3750526563134882e-02
         - -7.4555311368910290e-02
         - 9.9891752204211662e-02
         - -1.3722072298770595e-02
         - -7.6657915157060372e-02
         - -1.1217744054135008e-01
         - -1.0018087085936733e-01
         - -1.5809623387081435e-02
         - 7.4815122924792657e-02
         - -1.5158287577987997e-01
         - 4.2575267923101429e-02
         - 1.7815478162269378e-02
         - -5.0531168952788544e-02
         - -9.0599616389380022e-02
         - 9.4037874458670151e-02
         - -5.9658923359882016e-02
         - 5.7456438755974823e-02
         - -1.8751810067547059e-01
         - -3.5683242232086819e-02
         - 1.9321524551549252e-01
         - 1.0991598585405693e-01
         - -1.7040632370953318e-01
         - 7.0653647221707042e-02
         - -5.4360620436085152e-02
         - 6.5320289389839553e-02
         - 4.2880091786766862e-02
         - 4.1804858099914750e-02
         - -7.4191231921852602e-04
         - -1.1449595475204095e-01
         - -3.9284741180887407e-02
         - -3.9558210786191990e-02
         - -7.2041284358525526e-02
         - 1.0718274846294130e-01
         - -1.0348130815600083e-01
         - 5.5173732068398679e-02
         - 4.8369311234128199e-03
         - -8.7801282462816405e-02
         - 4.2801027704257762e-02
         - -1.1385828987809797e-01
         - 9.1168262576068013e-02
         - -1.8639417546856399e-02
         - -9.1084076719023049e-02
         - 1.1260632465222752e-01
         - -1.1201904327125410e-01
         - 1.8370282393642517e-01
         - -1.0111748692068967e-01
         - 2.4685876870638415e-03
         - -7.7490140720995429e-02
         - 1.2525871090382382e-01
         - 1.0378866408105679e-01
         - -1.6751291568622451e-01
         - 6.7229064973833630e-02
         - 2.3945287716872338e-02
         - 1.7042917016834164e-01
         - 5.2534303202583579e-02
         - -3.6684998091795283e-02
         - 4.2525289042122053e-03
         - 1.9651749185840464e-02
         - -3.0517072216660605e-02
         - 1.7806211389276988e-03
         - 8.4583924188007670e-02
         - -1.1004355997913907e-01
         - 1.0600865004706908e-01
         - 1.3028361660839999e-01
         - -1.6282226547358808e-02
         - 1.0318942205362294e-01
         - 8.6964408074022378e-02
         - -9.6358615356201133e-02
         - -1.2720620500592472e-01
         - 2.1206759488608359e-01
         - -6.0635027231206687e-02
         - -6.8086741210664561e-02
         - 1.0676225185489559e-01
         - -2.9768625874203935e-02
         - -1.3747428600370873e-01
         - -1.2772861464048059e-02
         - 2.0616846567262856e-01
         - -3.7113236910621773e-02
         - -2.4794104828982186e-02
         - 5.4466479632269103e-03
         - 2.3439116249727335e-01
         - 1.0747913573032242e-01
         - 9.0084104940441986e-02
         - 1.0469666580099442e-01
         - 4.9095799441538607e-02
         - -2.3478575930003256e-03
         - 6.2997862339727997e-02
         - 1.2752500037063219e-01
         - 3.1137717847343434e-02
         - 1.3001266741772766e-01
         - -9.2299143883454907e-02
         - 1.2915100156252859e-01
         - 8.3054572885554595e-02
         - -4.6116546543490899e-02
         - -1.4470410895120919e-01
         - -1.5919243502469049e-01
         - 9.3443975791498102e-02
         - -2.8317918082231039e-02
         - -1.4226976557329066e-01
         - -2.4072075733577215e-02
         - 4.1060260488761394e-02
         - -4.2713790551184808e-02
         - -1.5226153974089771e-01
         - 2.4197128265024882e-02
         - 1.0558754862981108e-01
         - -5.1347399984820932e-03
         - 9.3989198885939956e-02
         - -5.9379267607102035e-02
         - -6.0294776646270663e-02
         - -1.3099305102678169e-01
         - 1.0693723230816694e-01
         - -7.3242113587114896e-02
         - -3.9267375856172661e-03
         - -1.4925345648542365e-02
         - 1.7910165916855461e-01
         - -8.4270628902019654e-02
         - -4.9327804806841506e-02
         - -1.0222644739095707e-01
         - -4.5958249439355760e-02
         - 1.6649605995849286e-02
         - -1.0212765938163927e-01
         - -3.0411752605271947e-02
         - 7.7412280468026659e-02
         - 9.2383854713467384e-02
         - -6.4706166412144481e-02
         - 6.8105078855370774e-02
         - 3.9266361895064737e-03
         - -5.9661610897580188e-02
         - -6.5602382022799111e-02
         - -2.1469434757590704e-02
         - 4.1799702316603418e-02
         - 2.8275776246144368e-02
         - -1.2205858926763036e-01
         - -3.6556738220275650e-02
         - 5.8073389933586560e-04
         - -2.1196551263567731e-02
         - -1.6635679096560638e-01
         - 9.3377242858747309e-02
         - -1.8791052231183278e-01
         - 6.6572137513281671e-02
         - -4.2600548047599510e-02
         - -5.3030260912872995e-02
         - 1.7890254479433915e-01
         - 7.3421176127014487e-02
         - -3.2686533018230032e-02
         - 7.9593813285611988e-03
         - -4.1349508257878219e-02
         - 1.1801931488034215e-01
         - -2.4423127889902845e-02
         - 9.7928308078698345e-02
         - -6.5686244481911474e-02
         - -9.8797455720025656e-02
         - -6.2036144831997868e-02
         - -2.9209076633908052e-02
         - 7.1481361787789259e-03
         - 1.0948526420277943e-01
         - -4.6627127403192942e-02
         - 4.6348487515092511e-02
         - -2.2408258863939823e-02
         - -3.1002776394782359e-02
         - 7.0259915088323285e-02
         - -3.5275199171407867e-02
         - 1.2762142962967915e-01
         - -5.6692661737345842e-02
         - -6.5220831763731727e-03
         - 9.9767350540539382e-02
         - -8.5297635059099708e-02
         - 1.2090622151805540e-01
         - -5.6668566714714125e-02
         - -1.2117992555818546e-01
         - -5.2863542850667612e-02
         - 1.2010284741574787e-01
         - -1.2538657587447486e-02
         - -1.9353261159945342e-01
         - 6.3960041879071769e-02
         - 3.6961894954146431e-02
         - 1.0432667390940420e-01
         - 4.5317525672504348e-02
         - 3.3676218069811213e-02
         - -2.8154205914630873e-02
         - -5.8900591372999460e-02
         - 8.9206652777715931e-02
         - -3.3201193301127516e-02
         - 4.1576723610349087e-02
         - -8.6188956464780073e-02
         - 5.7220642157457660e-02
         - 9.6167614700128301e-02
         - 6.4267812627648288e-02
         - 4.2361470283727824e-02
         - 1.7228087004688579e-02
         - -1.1824728060860924e-01
         - -1.4629177157610948e-01
         - 1.7100756855671240e-01
         - -1.6464387787531742e-02
         - -2.5820117296493222e-03
         - -1.1073671406905697e-01
         - -5.1849106155485061e-02
         - -1.8556440997967519e-01
         - 5.4015006808369376e-02
         - 1.5076803390741586e-01
         - -3.5250545591393519e-02
         - -1.1200362290726128e-01
         - 6.0614093504687612e-02
         - 1.3353945079222876e-01
         - 9.9673083810384547e-02
         - 6.9335858184658775e-02
         - -6.3997497365335970e-02
         - 4.4043914011505675e-02
         - -4.7812370281100448e-02
         - 6.4090574145834689e-02
         - 7.8129020330932122e-02
         - -2.3748342126783180e-02
         - 8.3439744804535573e-02
         - -1.1910224743436715e-01
         - 7.3838807028859019e-02
         - -8.6843473598304799e-02
         - -8.7758737921638880e-02
         - -1.3498456908037007e-01
         - -6.6792478369486985e-02
         - 7.0553447389725535e-02
         - 2.8825260704133889e-03
         - -8.5667687414545682e-02
         - -1.8898991945443425e-02
         - -8.8642370124621991e-02
         - -2.6908002458918794e-05
         - 4.4845802578068986e-02
         - -2.0537020756748299e-02
         - -1.7438375958467266e-02
         - -4.5565191516057897e-03
         - 6.0893934916592972e-02
         - -3.7021424562110446e-02
         - -2.7944322590996731e-02
         - 3.5730226180824706e-02
         - 1.3919371571061401e-01
         - -1.6664407380696196e-02
         - 1.1251647505062869e-01
         - 4.4915875952366333e-02
         - 1.2396241866453044e-01
         - -1.1075288251706529e-01
         - -4.1183881982379197e-02
         - -8.4774633581708350e-02
         - -1.4816456379589271e-01
         - -2.9610609320261990e-03
         - -6.1952547417891461e-02
         - -1.1270496713664534e-01
         - 8.5093887905974802e-02
         - 1.7114520857188700e-01
         - -4.1370550213115156e-02
         - -9.5405846950769192e-03
         - -3.4805069030618030e-02
         - -1.8724960564495539e-02
         - 2.7903039760950175e-02
         - 3.1874403927748679e-02
         - 8.1743969659927834e-02
         - -1.2010039744853160e-02
         - -8.9141045826927695e-02
         - 9.0993882479999278e-03
         - -1.9357956604607408e-02
         - -4.6427404271216763e-02
         - -1.3122223268943217e-01
         - 6.8602239241179461e-02
         - -1.4544033685375446e-01
         - 8.0457075009726167e-02
         - 4.6942219404188393e-03
         - 1.9231178009445848e-02
         - 1.2568858534666771e-01
         - -7.3409205941562406e-03
         - 6.0081656512855033e-02
         - -1.1469661527513500e-01
         - 8.4522154302999516e-04
         - 8.1353153748641979e-02
         - -2.8885610181285996e-02
         - 6.0305934212964554e-02
         - -7.1147927027191832e-03
         - -1.0393114304973528e-01
         - -6.8716162627814451e-02
         - -1.3265675598178449e-02
         - 7.6332210416286919e-02
         - -7.5476275059279093e-03
         - -2.3498585129355872e-02
         - 2.2566147578452725e-02
         - 5.2244921588862452e-02
         - -2.8758787526451928e-02
         - -1.6464785609754617e-02
         - 2.6440366032850628e-02
         - 6.4064420176975681e-02
         - -1.8575076416788922e-02
         - 3.0149421855716979e-02
         - 5.5139376904355213e-02
         - 1.2981475600523424e-02
         - 1.9758292592661177e-02
         - -1.0622915360624367e-02
         - -1.0696910749122819e-01
         - 4.1156943373052667e-02
         - 4.4168543155099695e-02
         - 1.5665209449740848e-02
         - -1.0717731849096658e-01
         - 5.0828463455142780e-03
         - 2.0846442931529333e-02
         - -1.0238718900163833e-01
         - -8.5573778979785506e-02
         - 5.8906156157019759e-02
         - -5.0516365910705796e-02
         - 1.2157455031954411e-03
         - 6.6808923691141539e-02
         - -3.1935145547812453e-02
         - 6.9036554063559583e-03
         - -3.1315402180648828e-02
         - -4.7908525493544794e-03
         - 8.8515064676735811e-02
         - 5.6468233359642801e-02
         - -3.6126172055050393e-02
         - 8.5017115640902877e-02
         - -1.0799414570194898e-01
         - -1.1179665887967831e-01
         - 6.4453606801505706e-02
         - 3.8299977186238815e-02
         - 8.9611283329426531e-03
         - -1.4823489796866707e-01
         - -8.1791639098218794e-02
         - -1.3749721066907611e-01
         - 1.0279963256315326e-02
         - 3.5810637770165084e-02
         - -2.7916067645509489e-02
         - -8.7306861811203298e-02
         - 1.4574440242688302e-01
         - 3.2445803560278701e-02
         - 4.2173106072617463e-02
         - 2.3350624719827136e-02
         - -1.2373771633177315e-01
         - -2.4099223247198487e-02
         - -2.5355713547527071e-02
         - 4.6543623628857535e-02
         - 6.7780016543908389e-03
         - -2.2804377060824291e-02
         - 4.4169646446132423e-02
         - -5.2718996191411224e-02
         - 2.5743303042985461e-02
         - -1.5224538915095512e-01
         - -1.2342368985715399e-01
         - -4.0959063808080960e-02
         - 1.7413731199818855e-01
         - 1.4023388300590326e-02
         - 7.4583914131264818e-03
         - -5.2899635376646777e-02
         - -2.8910489831565460e-02
         - -8.5242418800122899e-02
         - -1.9814493707881790e-02
         - 9.6331487002410149e-02
         - -1.6746465404485645e-02
         - -3.8011897430330615e-04
         - 5.7197659959053675e-02
         - 1.8019190391727628e-03
         - -2.9653049135137711e-02
         - 8.2593730725820061e-02
         - 9.9422837884454898e-02
         - 8.5762469357995030e-02
         - 2.1888609259446364e-02
         - 1.1101163393540781e-01
         - 9.7281884601884555e-03
         - 1.5683435058645449e-02
         - -9.9453685110966403e-02
         - -2.5059330987125653e-02
         - -1.9629753875306289e-02
         - -1.4325002411774274e-01
         - -8.0729414376711467e-02
         - -7.5677034040774180e-02
         - 2.5954287897773209e-01
         - 7.0800214591461311e-02
         - 1.2416192576279642e-01
         - -1.1686360362293907e-01
         - 8.2457163687239318e-03
         - -5.3891407497559767e-02
         - -8.1192632294368350e-02
         - 9.0002225686644689e-05
         - 6.8888178606921396e-02
         - -1.2597906952000148e-02
         - 4.0410757978287283e-02
         - -1.0748193543077385e-01
         - -2.2263479517615384e-02
         - 1.9482568113092388e-02
         - -7.1893751644126563e-02
         - -1.1654346884376222e-01
         - 7.3649137313757426e-02
         - -7.6971746163173482e-02
         - -7.3130077584673747e-03
         - -4.9710708970836251e-02
         - 1.2868801140602818e-02
         - 1.3572769184956568e-01
         - 1.6465911035609078e-02
         - -5.6354377816721098e-02
         - -1.0401263236087471e-01
         - -1.8048121306790532e-01
         - -5.1367770579183486e-02
         - 7.6806178075404408e-02
         - -1.3029884402321862e-01
         - 1.3297912241311483e-01
         - -2.2084140333358113e-01
         - 1.9795556501849092e-02
         - -1.6234745215738196e-02
         - 7.0038662926286036e-02
         - 1.4334030561952979e-01
         - -1.7610562436056413e-02
         - 2.3316887631410679e-02
         - -7.6457976938283892e-02
         - -1.1158441517553841e-01
         - 3.8413807990662775e-02
         - 1.3268965549255426e-01
         - -1.3881553504348454e-01
         - 4.2061150115117490e-02
         - -1.6588294375310730e-02
         - 4.8132684097115319e-03
         - -8.0622854878657668e-02
         - 4.3667219369306967e-02
         - -7.3097824933433211e-02
         - 8.9812899570267390e-02
         - -1.9291669643214868e-02
         - 3.6087101514912540e-02
         - -2.9080543050038220e-02
         - -8.3698906220779953e-02
         - 4.7372667357798576e-02
         - 3.8312758431786810e-02
         - 5.7567147370800653e-02
         - -2.3087413426261674e-01
         - -1.4740566928453266e-01
         - 1.2956437138750135e-01
         - 2.5890089053740888e-02
         - -1.9819033262945488e-02
         - 7.6997232978763888e-02
         - 1.2479291805040786e-02
         - 7.2823072312028303e-03
         - 8.9586098116595861e-03
         - 8.9487643109528864e-02
         - 4.7616297956704641e-02
         - -1.8842889953714251e-02
         - 7.5460846530534765e-03
         - -2.4540066197474227e-02
         - -3.3255567020083192e-02
         - 5.3486381116858009e-02
         - -1.6193698319645403e-02
         - -6.9731334472083920e-02
         - 5.8636801224931548e-02
         - -3.0106402276599151e-02
         - -8.7873849147244665e-02
         - -6.8050637175557455e-02
         - 3.9574627595627174e-02
         - -2.3841239410448335e-02
         - -4.2007736062908752e-02
         - 2.8582251473811639e-02
         - 1.8642121542884457e-01
         - 4.4692127399609517e-02
         - 5.8464258514258849e-02
         - -6.7103409287296981e-02
         - -1.1292842700076799e-01
         - -9.1129014172931996e-03
         - 4.2325056597646626e-02
         - 1.6407339510311182e-02
         - 1.4230761611071768e-01
         - 4.7665778602193370e-02
         - 1.8824550299149714e-01
         - 5.6135267575022879e-02
         - -4.0289991681431445e-03
         - -3.4493841515484888e-02
         - -2.5355105197952504e-02
         - 1.4654402413375747e-01
         - -9.3550700185419458e-03
         - -6.0537329281562066e-02
         - -1.8197990142910320e-02
         - -1.7283638760944017e-01
         - 3.8825378207023899e-02
         - -6.9437937881265302e-02
         - 9.8806550566328588e-02
         - 1.1843991863327100e-01
         - 1.8949085818784636e-01
         - 7.3604996508663506e-02
         - -9.8679179504533518e-03
         - -4.2910658883905647e-02
         - -3.3688713829505613e-03
         - -7.5488341012205737e-02
         - 7.3408063662790041e-02
         - 2.8865173616740322e-03
         - -4.9500476159998238e-02
         - 9.5195938444445696e-03
         - 3.8706926905472304e-02
         - -1.0069812657608619e-01
         - -2.1256930747902934e-02
         - 1.5991346113458486e-02
         - -4.4204080062091165e-02
         - -1.5819634651687602e-02
         - -2.0693511769238039e-02
         - 1.3454476714296651e-01
         - 3.3454157070600364e-02
         - 5.9890287857884410e-02
         - 6.1056499492686572e-02
         - 3.4513455166831714e-02
         - -7.3370491656128398e-02
         - -8.3223475402681393e-02
         - -1.7692691908430997e-02
         - 7.2885539721976506e-02
         - -4.9147373437450889e-02
         - 3.8810815656308166e-02
         - -3.6650193456668249e-02
         - 3.1063896041053408e-02
         - -2.6422762039947719e-03
         - -7.2495853648046504e-02
         - -5.2455765489380829e-02
         - 3.3976678454820705e-02
         - -4.9005254102544381e-02
         - 4.9562199574324492e-02
         - -1.1670520549425756e-01
         - 2.9946457862695230e-02
         - 6.5161405506177730e-02
         - -1.4200649061875327e-02
         - -1.0634544404056441e-01
         - -1.0553845034041627e-01
         - -1.0240142174596305e-01
         - 3.0279428396841633e-02
         - -5.1332473608412289e-02
         - -7.9978701461294238e-02
         - -2.1889041671377149e-03
         - -6.4352498550939108e-02
         - -6.8021043035326648e-02
         - 7.0708701421012807e-02
         - 1.9228270812686677e-02
         - -1.0812688400590296e-02
         - -1.7839086017342617e-02
         - 4.9486705469043754e-02
         - 4.1173111895839451e-03
         - -8.4496283904133745e-02
         - -1.2736076412165556e-01
         - 1.0072524755160268e-01
         - -1.1315978868185861e-01
         - -6.2203203892284092e-02
         - 6.5515493277297165e-02
         - 2.4184837881463306e-02
         - -4.2256605797480508e-03
         - 3.7041408632509799e-02
         - -5.9638276029877729e-02
         - -5.0417870981407327e-02
         - -7.6841401849148819e-03
         - 1.7722350782475534e-02
         - -1.2524282460551373e-01
         - -5.1534011028194861e-02
         - 4.1754246155369386e-02
         - -5.2067793219843721e-02
         - 1.4024473536708379e-01
         - -1.3681292887193658e-01
         - -8.3983337034144886e-02
         - 1.3500528247410681e-01
         - 3.6729314302180335e-02
         - 9.6034718377519777e-03
         - 3.5137203517357093e-02
         - 2.3898537950402494e-02
         - -3.8807354520742966e-03
         - 2.0323204829345042e-02
         - 3.6635280543306802e-02
         - 6.3064684066835866e-02
         - 2.5093980007346549e-02
         - 1.9064649035692000e-01
         - -2.8549124050398857e-02
         - -3.8612745976446421e-02
         - 3.9946718612123691e-02
         - -3.9123563087887135e-02
         - -1.4007157925228433e-01
         - -3.2082469481687259e-03
         - -5.8963414529400897e-02
         - -2.5755389216940660e-02
         - -1.6035236440175912e-01
         - 1.4209164063687064e-02
         - -6.6152728788547416e-02
         - -4.8231664449831339e-02
         - -2.0015273786187535e-01
         - 4.5376154462707090e-02
         - 4.1276385494816999e-02
         - 3.1992589805243256e-02
         - -1.8799393306546824e-02
         - -1.0024192696892512e-01
         - 1.1203693878746887e-02
         - 3.8494101156608632e-02
         - 1.3560892548836382e-02
         - 1.2197360437288735e-01
         - 2.8577958976721753e-02
         - 1.3909069303649550e-02
         - 2.4491405713955555e-02
         - -2.2813373978581356e-02
         - -3.3460829071319885e-02
         - -4.3405921524204295e-03
         - 1.0263290672007418e-01
         - 2.8915308545252909e-02
         - -6.3900874386319154e-02
         - -9.1794097665541738e-03
         - 8.6226950342495653e-02
         - 8.1764005913557841e-02
         - -5.1117608343554735e-02
         - 4.6560488970852021e-02
         - -4.5741162782974507e-03
         - -4.9724279518071055e-02
         - 3.1443331658251757e-02
         - -3.6256563415059652e-02
         - -8.2095414022953409e-02
         - 5.5074464181920788e-02
         - 1.1711236041876558e-01
         - 4.2372418286663785e-02
         - -2.0590484553938328e-02
         - -3.3580854705778473e-03
         - -3.8916843204389248e-02
         - 3.0948861126306990e-02
         - -5.4489599995218171e-02
         - -4.7014732412086827e-02
         - -1.2108436678817669e-02
         - -2.9739902691998856e-02
         - -6.5687568074242281e-02
         - -1.8042354168714685e-02
         - 1.4187067756157018e-01
         - 3.0643860824068295e-02
         - 7.5243218296809480e-02
         - -1.0877017542836646e-01
         - -8.4399619698910804e-04
         - -4.0195619376154198e-03
         - 2.7002130784399381e-02
         - 4.5493486789880012e-03
         - 5.6110823775719652e-02
         - -1.0677717521773902e-01
         - -3.0779860508764268e-03
         - -8.3961825009050792e-02
         - 5.0552329444701456e-02
         - 4.6432115249797484e-02
         - -5.3519421110665077e-03
         - -3.4656492758818380e-02
         - 2.9214962813015787e-02
         - -7.2028223292319143e-02
         - 4.0587831005140379e-02
         - -1.0965978887733278e-01
         - -2.2687822206292362e-02
         - 4.8622157470595187e-02
         - -3.3874098500514989e-02
         - -2.6825283563453761e-01
         - -6.5105383949242797e-03
         - -2.2736467137463804e-02
         - 5.4584741873139324e-02
         - -1.5240442507840646e-02
         - 1.8626298320986768e-02
         - -6.0924478847070460e-02
         - -9.4092489603668453e-03
         - -1.3241368596352840e-02
         - 7.6394427315685243e-02
         - -6.2973625332836736e-02
         - 2.6165347221212765e-02
         - 4.7608094201536348e-04
         - 9.2416175307597492e-02
         - -7.6464792242731019e-02
         - 3.5464822580082843e-02
         - -6.9460352345400845e-04
         - -2.8495626839782406e-02
         - 1.2978957153404846e-01
         - 4.2594945108304152e-02
         - -4.1252534420152753e-02
         - 3.3281649957660727e-03
         - 8.9279022450031595e-02
         - 7.8589153673880325e-03
         - -8.7339348935358441e-02
         - -7.1472963676156936e-02
         - 1.0542303321757944e-01
         - 2.4308619928163199e-02
         - -9.8273832448863466e-02
         - -8.1084894503947624e-02
         - -1.3605995475358421e-03
         - 2.3896625699723804e-02
         - 6.5352007278104016e-02
         - -1.0042292190768577e-01
         - 1.3844606625434439e-01
         - 1.1513403017255898e-01
         - -2.1521418732392900e-02
         - -9.9940406836081463e-02
         - 2.4386297433996756e-02
         - 1.5089478524259394e-03
         - 3.7024739211964377e-03
         - -1.3479762304068076e-02
         - 3.1235130169843653e-02
         - 4.9531056295755854e-03
         - -1.2613133987412104e-02
         - 5.3853786288547603e-02
         - -6.5622323981055691e-02
         - -5.8383319738044268e-02
         - 2.4443256262552813e-02
         - 9.8415451288204656e-02
         - -4.5384792928391253e-02
         - 1.0561804691206572e-01
         - -2.2056790927415217e-02
         - -5.8527445791768983e-03
         - 6.4474553568407672e-02
         - 5.9878412950905976e-03
         - -3.9085528550291196e-03
         - -4.9245084595985561e-02
         - -6.8828627906327919e-02
         - 7.0362286074566183e-02
         - 6.9592912395234019e-02
         - -3.0848893009250409e-03
         - 3.7833885224588026e-02
         - -5.3289353878966848e-02
         - 6.1265819777170480e-02
         - 6.2616064287053736e-03
         - -9.5141672315561055e-04
         - 2.6183914139560938e-02
         - 3.9214311668484741e-02
         - 7.9951476458064580e-02
         - 5.1105317741403748e-03
         - -1.3977348776063572e-02
         - -9.6933177938030163e-03
         - -2.2983473857211480e-02
         - 5.4143219381168159e-02
         - 3.1887845574592566e-02
         - 9.6034338858766843e-03
         - 5.6093746387025814e-02
         - 3.0387953822018417e-02
         - 7.4541900766018974e-04
         - -9.5975417268580665e-02
         - 2.9294413782694718e-03
         - -9.7224524696456399e-02
         - 1.2264198075864313e-01
         - 3.0623866933207452e-02
         - 1.3890423997810980e-02
         - -4.1396922566647402e-03
         - 3.5380868535476076e-02
         - -3.7171063246361880e-02
         - 5.9773069341672314e-02
         - 1.1810328845103017e-02
         - -2.7459957643712788e-02
         - 5.2099819684914360e-02
         - 3.4825370195590150e-03
         - -2.8725343397799061e-02
         - -7.0786915847181951e-04
         - -2.7601906667083478e-02
         - -9.8432554862211540e-03
         - 1.4688975947185443e-02
         - -1.5598477135292934e-02
         - 6.8461863265934855e-02
         - 1.1228151352303702e-02
         - 5.6902234626168446e-02
         - -2.2966005418275478e-02
         - -1.8777284744141639e-02
         - 1.9776834313643854e-02
         - 1.1844049862730828e-01
         - 2.6341496284943530e-02
         - 3.9243393509055105e-02
         - 3.2824940373271556e-02
         - -4.0969073438163056e-02
         - -5.9298566542135530e-03
         - -1.7220303307101368e-02
         - -2.5183150698916388e-02
         - 3.8605315271031324e-03
         - -2.9451987492253417e-02
         - 3.4925445716335116e-03
         - -4.8798514339075262e-02
         - 3.3974392108516431e-02
         - 8.3273458462524708e-02
         - -1.3602817808098798e-02
         - 3.8439901096346825e-02
         - -1.3192457234618598e-02
         - 1.6992870594870174e-02
         - -7.8770868216820646e-03
         - 1.5843033342101135e-02
         - 5.3563039099997052e-02
         - 3.8033804862483336e-03
         - 5.4372264475951240e-02
         - -3.8837817456912962e-02
         - 9.3139793926509354e-02
         - 1.2904694303341300e-02
         - 4.4079090095985250e-04
         - -3.5571783159441116e-02
         - -7.2231100418502182e-03
         - 1.5217272639435803e-02
         - 2.7322587637513836e-02
         - 4.1336733471178534e-02
         - 9.6765394852299444e-02
         - 7.2717473997312874e-03
         - 2.1987561811970435e-03
         - 8.4794308765591908e-02
         - 2.8494534474203494e-02
         - -4.9358476149072898e-02
         - -1.0671270823412848e-03
         - 6.4524292661377200e-02
         - -1.2717626379128669e-02
         - 5.0736054442325526e-02
         - 2.0847650766481852e-04
         - 1.3683922970806102e-02
         - -8.1614308464110427e-03
         - 1.1719898808756232e-02
         - -4.6041717068953110e-02
         - -1.1404535910253972e-02
         - 4.9239552848673020e-02
         - -1.6541528129062846e-01
         - -6.9259432961874950e-02
         - 1.5187303375220029e-01
         - 2.8338720819679260e-02
         - -3.0146623955011401e-02
         - -8.1714742592712233e-02
         - -5.8497959809861874e-02
         - -2.0827460868541141e-02
         - 1.4833136644187089e-02
         - -1.9967504025343814e-02
         - 1.8303982129458745e-03
         - 5.0642917186243766e-02
         - -2.7949252781499439e-02
         - 1.8441822906240524e-02
         - -5.7746263166017074e-02
         - -2.3688373134874669e-02
         - 1.5144196470614251e-02
         - 3.7559518638288519e-02
         - 4.2945968853555790e-02
         - -3.9717864255020809e-02
         - 4.6668542036241364e-03
         - 1.3130251093468284e-02
         - -8.2928339550312757e-02
         - -2.3146446685813750e-03
         - 1.9286530325621561e-02
         - -5.2523458593649784e-02
         - 5.2652844851812791e-02
         - -6.6739862063098995e-02
         - 6.5625613942632471e-02
         - -1.1378059514874545e-02
         - -9.2153725294201363e-02
         - 7.2945546109951887e-04
         - 5.9778044753404092e-02
         - -7.7823664830123304e-03
         - -1.3292543958847231e-02
         - -3.8849436033061381e-02
         - 4.7433017297770996e-02
         - 9.4995720277283660e-02
         - -2.8350563373186499e-03
         - -2.6948665881056849e-02
         - -2.2786605240851087e-02
         - 1.9357334808462908e-02
         - 2.3441668740393929e-02
         - 1.9801083031292056e-02
         - 3.8164454524437408e-03
         - 7.9647587980133400e-03
         - -8.2783413217319274e-03
         - -2.8952536195311743e-02
         - -1.1875621518131209e-01
         - 1.3079119147380100e-02
         - -5.8662699204136012e-02
         - -8.4247747779976484e-02
         - 9.6027428842757976e-03
         - 1.0798433833557169e-02
         - 1.5909599853460098e-02
         - 2.9023258195762448e-02
         - 1.7006436555304369e-04
         - 4.0927115071709909e-02
         - 2.4002243096557081e-02
         - 4.0334575447090064e-02
         - 2.4586720158512147e-02
         - -1.3757120806917612e-02
         - -1.7895809464386851e-02
         - 1.0569412872732609e-02
         - 5.3209316390087158e-03
         - -1.0782892552784322e-01
         - 1.3259279889347197e-01
         - -6.8058629565871762e-02
         - 1.8528184219676724e-01
         - 4.5041317221444922e-02
         - 4.0432032214990483e-02
         - 1.2796682677756330e-01
         - 4.0094714684127883e-02
         - -9.9611297984599376e-02
         - 1.3321792349168296e-01
         - -6.5778661261509580e-02
         - 5.3118056631627719e-02
         - 3.9788590813573631e-02
         - 6.5397158543217759e-02
         - 1.4398828686295564e-01
         - -1.0011505469037804e-01
         - -4.6370371929459205e-02
         - -1.1248682706265865e-01
         - -4.2063612344016357e-02
         - 7.0792802657865278e-02
         - -4.2082451002415797e-02
         - 5.8048385482327221e-02
         - -1.4143770852048512e-01
         - 1.6336018824582819e-02
         - 6.9737510687073179e-03
         - 8.2175401820148625e-02
         - 2.1616835119065178e-01
         - -1.1257817280164251e-01
         - 4.9292575857324890e-02
         - -4.0983965370200805e-02
         - -2.9416671418388924e-03
         - -5.8742720619958902e-02
         - -3.0608280905563699e-02
         - -6.4628639560837767e-02
         - 3.5944695799853487e-03
         - -1.0306488978682574e-01
         - -5.8705407408039412e-03
         - -7.4941246658282556e-02
         - -1.2114572111507307e-01
         - -1.8195157337384593e-01
         - -6.2382973950286871e-02
         - 9.7498855626115058e-02
         - 5.8145351014686182e-03
         - -1.2586986206023063e-01
         - 1.1285067588762507e-03
         - -1.5437081160571758e-01
         - -7.3095398834125891e-03
         - -6.9276825901020515e-03
         - 2.7949076226302667e-02
         - 1.2124469479137788e-01
         - -9.5191396076665252e-04
         - 2.2805716307598808e-02
         - -1.3407615874977641e-01
         - -2.5720357514831841e-03
         - 2.0018876040200743e-02
         - -9.2789433765778404e-02
         - 4.4107887592458359e-02
         - -1.2251200733755650e-02
         - -1.6525903939653155e-01
         - 1.2421732635900455e-01
         - -4.6331495663282013e-02
         - -7.8254894110234535e-02
         - -2.9475111019686969e-02
         - -1.5385301256058029e-02
         - 5.0450459625655190e-02
         - 6.8626002666348704e-02
         - 9.4487055680867234e-03
         - 1.3239684751893283e-01
         - 5.9947451332129364e-02
         - 1.8614441903584932e-02
         - 1.2330206263683385e-01
         - 5.9442169020508855e-02
         - -6.0419614412800499e-02
         - -3.7512086109498209e-02
         - 8.4304221759949199e-02
         - -8.3253400517674506e-02
         - -9.8774686294731129e-02
         - -1.3235031831766195e-01
         - -5.5456127666685742e-03
         - -6.3788368007895391e-02
         - -1.0457538884645791e-01
         - 7.0906800943659032e-02
         - -6.5201832098358392e-02
         - -5.3539892626123693e-02
         - 1.9103222921446406e-01
         - 1.0565615651203115e-01
         - 5.5672729326726358e-02
         - 9.8610183662141804e-02
         - 7.0577781387766991e-02
         - 1.0693651663213286e-01
         - -1.1896443247691336e-01
         - 5.0246112623395657e-02
         - 7.6400410969869589e-02
         - -2.7299918379718277e-02
         - -1.4763115737356180e-02
         - -2.7972059377025831e-02
         - 1.1164878979123116e-01
         - -9.7518533459433940e-02
         - -2.5635280857403905e-04
         - -9.9151888740951028e-04
         - 4.4812485360468231e-02
         - 7.1841226318701934e-02
         - 6.4056125883232340e-02
         - -6.2951566123247260e-02
