%YAML:1.0
---
opencv_ml_ann_mlp:
   format: 3
   layer_sizes: [ 441, 123, 77, 35 ]
   activation_function: SIGMOID_SYM
   f_param1: 1.
   f_param2: 1.
   min_val: -9.4999999999999996e-01
   max_val: 9.4999999999999996e-01
   min_val1: -9.7999999999999998e-01
   max_val1: 9.7999999999999998e-01
   training_params:
      train_method: BACKPROP
      dw_scale: 5.0000000745058060e-02
      moment_scale: 5.0000000745058060e-02
      term_criteria:
         epsilon: 1.0000000000000000e-04
         iterations: 300
   input_scale:
      - 3.8808423152678606e+00
      - -5.4367308347890331e-01
      - 4.7751308216454902e+00
      - -4.8232056223673847e-01
      - 5.4161071667074614e+00
      - -3.8123315130331192e-01
      - 2.3203940088191665e+01
      - -1.3918444271653124e-01
      - 3.0424856790264283e+01
      - -1.2765829771647788e-01
      - 5.8997785754541454e+01
      - -8.3764579722110946e-02
      - 3.1215320546626423e+01
      - -1.1587145718337649e-01
      - 1.6626159872533350e+01
      - -1.8462646010035477e-01
      - 4.3031607746541640e+00
      - -5.0435889660905819e-01
      - 3.4216740309427980e+00
      - -6.5974635545605553e-01
      - 6.2219460214095941e+00
      - -4.0556907945812526e-01
      - 1.0959030924312515e+01
      - -2.8202750936052201e-01
      - 2.2739962105245539e+01
      - -1.5912206773999626e-01
      - 1.5445044455612617e+01
      - -1.9426062962719381e-01
      - 3.6836222276222280e+01
      - -1.3911336161659038e-01
      - 1.2217116562411778e+01
      - -1.8975344580111406e-01
      - 7.7378387934359800e+00
      - -3.3092349311912866e-01
      - 3.4713361017228692e+00
      - -6.5129181156868010e-01
      - 3.4051534554151659e+00
      - -6.3480048611390893e-01
      - 1.1068908386000151e+01
      - -2.4331085051853055e-01
      - 2.9443784348866576e+01
      - -1.2118978958566766e-01
      - 3.1875344389723786e+01
      - -1.5855168297416597e-01
      - 1.3559696213598899e+01
      - -2.0137700810985754e-01
      - 4.1087468942218621e+01
      - -1.3496834081082743e-01
      - 8.2319169016927436e+00
      - -2.1234617670080674e-01
      - 6.1239863354752027e+00
      - -3.7450765272510961e-01
      - 3.3377017693949385e+00
      - -6.4928737881073217e-01
      - 3.4719278509958245e+00
      - -5.8119924074443297e-01
      - 1.0823714816905166e+01
      - -1.9029712172662172e-01
      - 2.6758852470327689e+01
      - -9.0268063539896443e-02
      - 6.6556728571857690e+01
      - -1.3717714667224493e-01
      - 1.6866853706445685e+01
      - -1.7014153381874667e-01
      - 7.8811970531868283e+01
      - -9.5818304423926901e-02
      - 1.1104817497835768e+01
      - -1.4392559931139878e-01
      - 6.9908392125299272e+00
      - -3.1302852604569303e-01
      - 3.4785210792025310e+00
      - -5.7952952441288141e-01
      - 3.5254679270587497e+00
      - -5.6052552113077680e-01
      - 1.1310103199311662e+01
      - -1.9626830139859047e-01
      - 2.4080624601937004e+01
      - -9.8360124736210405e-02
      - 1.2438440110340773e+02
      - -1.1138627308925640e-01
      - 2.0725980927734192e+01
      - -1.3398718636967785e-01
      - 1.7085502022871938e+02
      - -9.1995378362929467e-02
      - 1.6572182131386818e+01
      - -1.7257367927015829e-01
      - 8.0863071272985501e+00
      - -3.0327475939645182e-01
      - 3.5590375047156835e+00
      - -5.5969172942054046e-01
      - 4.2867171880222887e+00
      - -4.5619045952157589e-01
      - 2.2440354144557993e+01
      - -1.3788872460455456e-01
      - 6.7198998504334511e+01
      - -6.8309481129165267e-02
      - 2.6909554314677570e+02
      - -7.5838319415307512e-02
      - 3.6180180377281090e+01
      - -9.8722482427412966e-02
      - 4.7718615110454451e+01
      - -1.0325655441291692e-01
      - 8.8199313745215875e+00
      - -2.7173258041789466e-01
      - 6.2761255393538082e+00
      - -3.3301292095718438e-01
      - 3.9984949270825085e+00
      - -4.7264228584269913e-01
      - 7.3226386031561042e+00
      - -2.5778106065688144e-01
      - 1.7033957233330406e+02
      - -5.7940336061829377e-02
      - 3.0139296725442549e+04
      - -3.1878835653166911e-02
      - 8.8181990703254269e+03
      - -3.1878835653166911e-02
      - 2.0579872857117508e+02
      - -6.8548027761530642e-02
      - 5.4286182804582808e+01
      - -8.6283173215881484e-02
      - 7.0639837632220068e+00
      - -2.3669684549668771e-01
      - 7.4357667164817238e+00
      - -2.5132068126305834e-01
      - 5.9947120698669893e+00
      - -2.8396319000024739e-01
      - 3.5130747175611803e+00
      - -9.0544181634310728e-01
      - 3.6519401693309481e+00
      - -8.6850885104249942e-01
      - 3.8142384021769531e+00
      - -7.2944159484845417e-01
      - 8.9450894317451315e+00
      - -2.9741208877947778e-01
      - 9.3226864420022757e+00
      - -3.2534838343313321e-01
      - 1.1382022301281387e+01
      - -2.9968262473790447e-01
      - 9.9728905492838820e+00
      - -3.3267214837136422e-01
      - 1.1693519159236663e+01
      - -3.0188798491290314e-01
      - 3.9244861722647917e+00
      - -7.4707191973876397e-01
      - 3.4393436981027703e+00
      - -1.1735355733336552e+00
      - 4.6339822960658719e+00
      - -7.4597993170206700e-01
      - 6.1410695533635415e+00
      - -5.3058643008968442e-01
      - 7.3151103409050817e+00
      - -3.9982581793057931e-01
      - 5.6404722580214539e+00
      - -4.9964535288414513e-01
      - 7.5634701259726578e+00
      - -4.3686204141349960e-01
      - 6.7434710284502657e+00
      - -4.4015489932029606e-01
      - 5.9825485438132091e+00
      - -5.0307935965032502e-01
      - 3.4807326484065251e+00
      - -1.0974866089897166e+00
      - 3.3102707897588588e+00
      - -1.1846000515191766e+00
      - 6.0493219341980460e+00
      - -4.8695848038246914e-01
      - 1.0772549506724717e+01
      - -3.2563645002544445e-01
      - 7.3718230570987489e+00
      - -4.3165565679909901e-01
      - 5.2555552271529491e+00
      - -5.4973377391030676e-01
      - 8.5625353580229273e+00
      - -3.8945190902443988e-01
      - 6.2232406615982292e+00
      - -3.9598520046562963e-01
      - 4.8789245721033900e+00
      - -6.0074217684683706e-01
      - 3.3654824938241661e+00
      - -1.2260458803986936e+00
      - 3.2784804113116821e+00
      - -1.2352173026431441e+00
      - 5.7405708726612543e+00
      - -4.4373627017274442e-01
      - 8.7905143852631120e+00
      - -2.9892798720345104e-01
      - 8.3467655330590986e+00
      - -4.0070179721044114e-01
      - 5.5825639603270476e+00
      - -5.1504630372647076e-01
      - 1.0771618527275487e+01
      - -3.3226819171594552e-01
      - 7.6500457459086366e+00
      - -3.0115205104338449e-01
      - 5.1029615066962029e+00
      - -5.7072689385234887e-01
      - 3.2511902150557646e+00
      - -1.2303526077717257e+00
      - 3.3380250989425355e+00
      - -1.2095819425009222e+00
      - 6.3509822385719135e+00
      - -4.2206036922800588e-01
      - 9.0089278049582422e+00
      - -3.1744986666431002e-01
      - 9.3199686859465469e+00
      - -3.7686974444737559e-01
      - 6.3267593521342258e+00
      - -4.6417728217555804e-01
      - 1.0982621498758373e+01
      - -3.0406341512791707e-01
      - 7.4408425216819909e+00
      - -4.1957469138954490e-01
      - 4.4898816418402676e+00
      - -6.8662000305994275e-01
      - 3.3062556372048189e+00
      - -1.2407477963783680e+00
      - 3.4899061681815562e+00
      - -9.6681813508383108e-01
      - 1.1996520788500916e+01
      - -2.7857582162270672e-01
      - 1.5184256630680533e+01
      - -2.2903566568874212e-01
      - 1.5698474991032921e+01
      - -2.4974240832983716e-01
      - 1.0383216499439325e+01
      - -3.3360458575271557e-01
      - 9.4734254144621737e+00
      - -3.0570900414640406e-01
      - 4.4554935097033024e+00
      - -6.5356428919147491e-01
      - 3.7943375785728253e+00
      - -8.6421344634270370e-01
      - 3.2966366385478412e+00
      - -1.1224532287532241e+00
      - 4.4452056922128671e+00
      - -5.1299558724293604e-01
      - 9.1732932819407409e+01
      - -1.2737269110923677e-01
      - 8.9301987562101729e+01
      - -1.0585078229498904e-01
      - 2.2658508246560575e+02
      - -1.3334505952836836e-01
      - 1.9995217072919647e+01
      - -1.5449356348668494e-01
      - 1.2109132364022422e+01
      - -2.2125568094980569e-01
      - 3.7322883471968313e+00
      - -5.6131823434057615e-01
      - 3.8476162264140061e+00
      - -6.1374186535708952e-01
      - 3.7805711820725807e+00
      - -6.0323840462556655e-01
      - 3.6265877008407839e+00
      - -1.0613411071138259e+00
      - 3.7649731126915156e+00
      - -1.3319185010899535e+00
      - 3.7109729160160896e+00
      - -1.1307657660855459e+00
      - 5.2518486642715922e+00
      - -5.6618262090143801e-01
      - 6.0182970625821914e+00
      - -5.0797727446463070e-01
      - 8.2689056976350273e+00
      - -4.4309609966117453e-01
      - 6.0835650628715348e+00
      - -5.1748962726353454e-01
      - 8.0043416245059920e+00
      - -4.4549178453239280e-01
      - 4.0469148601340654e+00
      - -8.0757500567996476e-01
      - 3.8595783412458524e+00
      - -1.4226326842223020e+00
      - 4.4678989740437611e+00
      - -1.0587341119875480e+00
      - 5.1489718600743544e+00
      - -7.6933196748801735e-01
      - 5.0946343340869937e+00
      - -6.7007243461112553e-01
      - 4.4338643593445326e+00
      - -8.6261280070646174e-01
      - 5.5888716063157098e+00
      - -7.2581570567577380e-01
      - 5.0592861752364815e+00
      - -6.8734438796359376e-01
      - 5.6136558580274070e+00
      - -6.7283241658045767e-01
      - 3.9346487035578290e+00
      - -1.3086773356354211e+00
      - 3.9692162238772739e+00
      - -1.6035004996969626e+00
      - 4.7755691327232057e+00
      - -7.9204601988590972e-01
      - 6.3232025026305116e+00
      - -5.6212804604996103e-01
      - 5.2006526483102533e+00
      - -7.2677549134625452e-01
      - 4.2237878830099387e+00
      - -1.0128958491463513e+00
      - 5.6129090118885312e+00
      - -7.2001720735693098e-01
      - 5.5907873324689348e+00
      - -6.3553727151668027e-01
      - 4.9060099976111742e+00
      - -7.3775373787810894e-01
      - 4.0727180796453020e+00
      - -1.6208422203102517e+00
      - 4.1457115874148931e+00
      - -1.7301986336631334e+00
      - 4.7129194871303604e+00
      - -7.9623349689028300e-01
      - 5.7703635522674723e+00
      - -6.0775459362134054e-01
      - 5.3825031733970086e+00
      - -7.0919664359668022e-01
      - 4.1942400868732665e+00
      - -1.0089774162965417e+00
      - 5.4278537990787310e+00
      - -7.0459071374141924e-01
      - 5.8198539625947010e+00
      - -5.7067008186571533e-01
      - 4.6764191683670351e+00
      - -7.5445705857294976e-01
      - 4.2052517812176200e+00
      - -1.7495541956767835e+00
      - 4.2338943235929305e+00
      - -1.6946533622322315e+00
      - 4.9740994450154146e+00
      - -7.2313745067549451e-01
      - 5.5290862436789956e+00
      - -6.2879150503089520e-01
      - 5.5002843839695670e+00
      - -7.1334925067460109e-01
      - 4.4161744180695814e+00
      - -9.1780630222805482e-01
      - 5.4443924148693501e+00
      - -6.7080347814828645e-01
      - 5.2969416273813064e+00
      - -7.6553968940638695e-01
      - 4.5065529130877300e+00
      - -1.0924458415480180e+00
      - 4.3578743648807308e+00
      - -1.8639612840558988e+00
      - 4.1014281915044783e+00
      - -1.1902930523620661e+00
      - 8.0634762137613514e+00
      - -4.8366865923803676e-01
      - 6.9954579947788460e+00
      - -4.6586025461910308e-01
      - 7.4076744963299159e+00
      - -4.8325727229126103e-01
      - 5.2217849277757509e+00
      - -6.4670093789548855e-01
      - 5.1848696021216734e+00
      - -6.8971768124876254e-01
      - 4.0976713273325949e+00
      - -1.2881994313401770e+00
      - 4.3658452992409487e+00
      - -1.7168693913205522e+00
      - 4.0555043965417346e+00
      - -1.5852035592420390e+00
      - 4.8953319468669152e+00
      - -5.8824341264474733e-01
      - 3.8870739883329307e+01
      - -2.2009523769881673e-01
      - 2.3642290591460650e+01
      - -2.2959975439310248e-01
      - 2.2255748764670919e+01
      - -2.0192981919779096e-01
      - 8.5135928964397820e+00
      - -3.3247533648901262e-01
      - 6.0360198684762976e+00
      - -4.9219709772463660e-01
      - 3.0788160619504432e+00
      - -1.0305540192581042e+00
      - 3.4834550644467437e+00
      - -1.0941275338282608e+00
      - 3.8276608202687283e+00
      - -7.7171210306563220e-01
      - 3.8820762953275691e+00
      - -1.0237317159963453e+00
      - 4.2832065840385836e+00
      - -1.6342669229796896e+00
      - 4.1446415026356700e+00
      - -1.6378112090123380e+00
      - 4.2398225060221177e+00
      - -9.8407729510257913e-01
      - 4.4868436117517145e+00
      - -7.8332687358976671e-01
      - 6.9235920141451128e+00
      - -5.0981884765207519e-01
      - 5.5733531573166974e+00
      - -5.8182840074903963e-01
      - 6.5144239747163022e+00
      - -5.4552917502146758e-01
      - 4.5484606871815698e+00
      - -7.9749079848037796e-01
      - 4.1236902697026938e+00
      - -1.3887455514880496e+00
      - 4.5693143608236149e+00
      - -1.1389592019268833e+00
      - 4.9954415190240393e+00
      - -9.5039019607916386e-01
      - 4.2643348339948908e+00
      - -8.9693385731103614e-01
      - 4.0519485674260283e+00
      - -1.1955773330142085e+00
      - 4.8552674638287723e+00
      - -9.1272643806115439e-01
      - 4.8151780633693235e+00
      - -8.0621512636888537e-01
      - 5.2904886364978303e+00
      - -8.2897218256668981e-01
      - 4.4399461822412922e+00
      - -1.2815028884952109e+00
      - 4.3246003197884262e+00
      - -1.5281577415859182e+00
      - 4.6602628761257749e+00
      - -9.3441793095933956e-01
      - 5.2662887227179507e+00
      - -7.2524459746890590e-01
      - 4.4767989408300641e+00
      - -9.0676270338679255e-01
      - 4.1269097414481175e+00
      - -1.4255107838774426e+00
      - 4.4768398283922393e+00
      - -9.8543438233353486e-01
      - 5.2126358297827782e+00
      - -7.4558037188007220e-01
      - 5.3165119972783712e+00
      - -8.0589556979882904e-01
      - 4.4414207973767947e+00
      - -1.4782723349480003e+00
      - 4.4733440307210852e+00
      - -1.5274595124380610e+00
      - 4.7435786948039906e+00
      - -9.4579232107343247e-01
      - 5.2190835160816746e+00
      - -8.0863338182110700e-01
      - 4.7011586413787292e+00
      - -9.2919268678662736e-01
      - 4.2214250797377755e+00
      - -1.4493376875881232e+00
      - 4.3286844430774005e+00
      - -1.0216802697363492e+00
      - 5.0705354178506425e+00
      - -7.4195026072916992e-01
      - 4.9946370921788352e+00
      - -8.8233507143518597e-01
      - 4.5148102330423683e+00
      - -1.5230510440520320e+00
      - 4.5907584138773760e+00
      - -1.3816167143085714e+00
      - 4.9232155629982364e+00
      - -9.5313250291039997e-01
      - 4.8268710204040328e+00
      - -8.3737838862300629e-01
      - 4.7431113912674316e+00
      - -9.5282525731463530e-01
      - 4.2586372207368068e+00
      - -1.3643170660798818e+00
      - 4.4094835593612070e+00
      - -1.0967859340005317e+00
      - 4.7414698462928442e+00
      - -1.0223017991976364e+00
      - 4.8821930840999377e+00
      - -1.1646048739703780e+00
      - 4.4316488543502954e+00
      - -1.4154368590638224e+00
      - 4.7508552305836771e+00
      - -9.2449505339816340e-01
      - 6.1808620297350521e+00
      - -6.1454171492568155e-01
      - 5.6149326646171325e+00
      - -6.5102267152755333e-01
      - 5.8574997750653894e+00
      - -6.4971687269321432e-01
      - 4.2058824674595758e+00
      - -9.2212543569289940e-01
      - 4.2095284232086660e+00
      - -1.1821620056781981e+00
      - 4.8889463089682543e+00
      - -2.0277207096425616e+00
      - 4.8536413163487113e+00
      - -1.8631665145639584e+00
      - 4.2534658037665487e+00
      - -1.1579480720158359e+00
      - 6.7970635744845067e+00
      - -4.5131320660920166e-01
      - 1.9923386157193491e+01
      - -2.6575110268301538e-01
      - 1.3823526838878493e+01
      - -2.9015750686616343e-01
      - 1.4578158787068702e+01
      - -2.6751332146038481e-01
      - 5.6927612151775975e+00
      - -4.6273593277845421e-01
      - 4.2879143685931220e+00
      - -7.4922916105444270e-01
      - 3.1992496335429164e+00
      - -1.4693951422891516e+00
      - 3.8609794297613242e+00
      - -1.4230570743150004e+00
      - 4.6959936743917723e+00
      - -6.5120707444617443e-01
      - 4.6107241577128768e+00
      - -7.3290951224143519e-01
      - 4.2241686920620207e+00
      - -1.2706288910993866e+00
      - 4.1442981701023891e+00
      - -1.6237618605327664e+00
      - 4.0583759001116926e+00
      - -1.4604507559959561e+00
      - 3.5537372604766051e+00
      - -1.0648146041856805e+00
      - 5.8094716729889546e+00
      - -5.5608369746885988e-01
      - 6.4578669200397361e+00
      - -5.1168199336433207e-01
      - 7.1053299456129482e+00
      - -4.8543208373784896e-01
      - 5.7858076465192854e+00
      - -6.0129285621124018e-01
      - 4.2627300728754047e+00
      - -9.8171642557389704e-01
      - 4.9989771879594915e+00
      - -8.8110424778960472e-01
      - 4.9658441707659939e+00
      - -9.4374244988967138e-01
      - 4.0496753801177778e+00
      - -1.1577945779463541e+00
      - 3.6075787900643754e+00
      - -1.5056000278903423e+00
      - 4.2219686810593569e+00
      - -9.6078136496021149e-01
      - 4.9181981476139223e+00
      - -7.1568648002580160e-01
      - 5.2057012633987449e+00
      - -7.2516891147819273e-01
      - 4.7255651039927997e+00
      - -9.2661910268992986e-01
      - 4.3837016321066100e+00
      - -1.0578951950965887e+00
      - 4.9016031196758592e+00
      - -7.7634286125195218e-01
      - 5.0899743046053958e+00
      - -6.8411885356098256e-01
      - 3.9556235300977081e+00
      - -9.9675336981651452e-01
      - 3.8383375474850561e+00
      - -1.7714496547933016e+00
      - 3.9388721969877616e+00
      - -1.0580676799642654e+00
      - 5.4339705671323424e+00
      - -7.0209957239445886e-01
      - 5.7831063442114772e+00
      - -7.1266345730751701e-01
      - 4.5793999781584001e+00
      - -9.9518078253801356e-01
      - 4.5050094846225628e+00
      - -1.0552423393403343e+00
      - 5.2235485307617582e+00
      - -8.0870682546694050e-01
      - 4.9500436556126077e+00
      - -7.3700649917777927e-01
      - 4.0302101192313078e+00
      - -1.0041252662851150e+00
      - 3.7757802425460651e+00
      - -1.6707173722898165e+00
      - 4.0580354324533765e+00
      - -1.1362617403014175e+00
      - 4.9757323827944608e+00
      - -6.6839461966093405e-01
      - 5.3815988274932112e+00
      - -7.4439738145325463e-01
      - 4.5465102650971057e+00
      - -1.0676732126895021e+00
      - 4.7973736111372167e+00
      - -1.0068533750580668e+00
      - 4.9078220866144378e+00
      - -8.1033741581329011e-01
      - 4.6968145864588449e+00
      - -7.3395025499069044e-01
      - 4.3432835066859710e+00
      - -9.1457736489390917e-01
      - 3.7335773613798260e+00
      - -1.4737946979429359e+00
      - 4.0655483107002697e+00
      - -1.2916600026311065e+00
      - 4.5075195858254942e+00
      - -9.5767248801168248e-01
      - 4.9821163619195881e+00
      - -8.6482767258148263e-01
      - 4.5852668535734935e+00
      - -9.6245099611228802e-01
      - 5.7347065284776289e+00
      - -6.7304031305095702e-01
      - 5.8992647699049776e+00
      - -5.9025205035526829e-01
      - 5.4574525244999474e+00
      - -5.9625413995892895e-01
      - 5.8463736467248939e+00
      - -6.3487757951734192e-01
      - 3.5819471918529207e+00
      - -1.0581186448192146e+00
      - 3.9921797414123064e+00
      - -1.4765848170007478e+00
      - 4.4449004135286625e+00
      - -1.7230836785072732e+00
      - 4.4832014026576603e+00
      - -1.3090568915285323e+00
      - 4.7143728769537567e+00
      - -7.5252876963380111e-01
      - 8.8859649913466416e+00
      - -3.4496029699404890e-01
      - 1.6531796479408413e+01
      - -2.5931181456743180e-01
      - 1.2378883794406558e+01
      - -2.9235504368414156e-01
      - 1.5491608101910099e+01
      - -2.8716911582512511e-01
      - 4.5402534747150769e+00
      - -5.3515558853939638e-01
      - 3.8270014288110890e+00
      - -8.2661336031793209e-01
      - 3.1093003177163769e+00
      - -1.3335331349353157e+00
      - 3.8647978734062622e+00
      - -1.1875737117078435e+00
      - 5.6540096356024598e+00
      - -4.9093506129997078e-01
      - 6.4160700639872550e+00
      - -4.4809698962222783e-01
      - 4.5477075497811645e+00
      - -8.0369888098501852e-01
      - 3.6088973879186614e+00
      - -1.0462034863542369e+00
      - 3.5201446719475813e+00
      - -1.1189794901914150e+00
      - 2.9443802971795305e+00
      - -9.6163472391128180e-01
      - 5.9321921236681394e+00
      - -4.8602889049034459e-01
      - 9.6752118530635940e+00
      - -3.4228301238384101e-01
      - 9.1961250678451911e+00
      - -3.2510445049334125e-01
      - 1.0180285070997487e+01
      - -3.7451296191042827e-01
      - 5.1954428735913503e+00
      - -5.9472149093232018e-01
      - 5.9074282480529616e+00
      - -5.7626790667384853e-01
      - 5.0218343579097997e+00
      - -7.2086129424841172e-01
      - 3.7996923518765078e+00
      - -9.9140872731727747e-01
      - 3.0471027849275321e+00
      - -1.3134499605907255e+00
      - 4.0228709321684928e+00
      - -8.1052843184449930e-01
      - 5.6790827895343448e+00
      - -5.3611339889765053e-01
      - 6.0245226163408878e+00
      - -5.2305895317580242e-01
      - 6.0588671667378113e+00
      - -5.7814687539853504e-01
      - 4.9308068782358125e+00
      - -6.4592041244708476e-01
      - 6.0969283708844069e+00
      - -5.4745537850966675e-01
      - 5.8205288647213242e+00
      - -5.0747312648292009e-01
      - 3.6936814709838974e+00
      - -8.3456359083515597e-01
      - 3.1001505736025110e+00
      - -1.4360645429457219e+00
      - 3.7056234384028470e+00
      - -8.7286254225118043e-01
      - 5.7229600129548821e+00
      - -5.2828522588274540e-01
      - 6.7465702744399527e+00
      - -4.8288820017810635e-01
      - 5.5129973287486926e+00
      - -6.2478022016944601e-01
      - 5.0655927895107355e+00
      - -6.3180943852452631e-01
      - 6.1437655946200662e+00
      - -5.5134806650968426e-01
      - 5.1123217637664151e+00
      - -5.2089413923985717e-01
      - 3.6277213116754936e+00
      - -8.5286580788877031e-01
      - 3.1350592248079163e+00
      - -1.4681278526952213e+00
      - 3.6692646328176579e+00
      - -9.0526344136181081e-01
      - 5.8346446961655474e+00
      - -4.9436397357922079e-01
      - 7.2030942498075055e+00
      - -4.6765413634054204e-01
      - 5.4437730614364250e+00
      - -6.3770698131424786e-01
      - 5.1987733021014870e+00
      - -6.1316734974273013e-01
      - 5.9324145857379644e+00
      - -5.7857687054070928e-01
      - 5.2381967237006410e+00
      - -5.3265642291102877e-01
      - 4.0259298925988904e+00
      - -7.8479201097983664e-01
      - 3.2302401181783638e+00
      - -1.4456044533966332e+00
      - 3.6084893022988491e+00
      - -1.1105565332636835e+00
      - 4.9461084317828021e+00
      - -6.5929725622305091e-01
      - 6.9866944329084140e+00
      - -5.3554815548777357e-01
      - 5.5850758510359766e+00
      - -5.9653277694757256e-01
      - 7.3678040766444219e+00
      - -4.4859838725785772e-01
      - 7.4157543333934699e+00
      - -4.3375712301785818e-01
      - 7.1456021831593182e+00
      - -4.3540009744596547e-01
      - 5.5764646631623629e+00
      - -5.6184721183494502e-01
      - 3.2035511039288669e+00
      - -1.1751846610759831e+00
      - 3.5830321166667551e+00
      - -1.2827352775300405e+00
      - 3.9130310716368433e+00
      - -1.0807991385072073e+00
      - 5.2247005606247621e+00
      - -7.7391850436403420e-01
      - 6.6571011593746494e+00
      - -4.6790563269965235e-01
      - 2.0363586105076688e+01
      - -2.1098295029788230e-01
      - 1.8659995262505475e+01
      - -2.0772860886430317e-01
      - 2.0727203412078808e+01
      - -2.2910372725377942e-01
      - 1.4376159276134288e+01
      - -2.7748915537053687e-01
      - 3.8604968649768292e+00
      - -5.9440496972141466e-01
      - 3.5447027771838315e+00
      - -7.9654467768245374e-01
      - 2.9981110883917776e+00
      - -9.3660398291049074e-01
      - 4.4435149928598170e+00
      - -8.2266799933195867e-01
      - 9.1928905673110464e+00
      - -3.1013231910938549e-01
      - 1.0480964403357257e+01
      - -2.5989708382810300e-01
      - 5.7498985741240833e+00
      - -5.0401922547171385e-01
      - 3.7634560788277813e+00
      - -6.2272049024184817e-01
      - 3.6293195907449749e+00
      - -6.6180108476620780e-01
      - 3.1799548323921725e+00
      - -6.0069146716395461e-01
      - 7.9226389950759630e+00
      - -3.3342949765134439e-01
      - 1.7432995264308399e+01
      - -2.1295861958082368e-01
      - 1.5212386238290735e+01
      - -1.9060540008533888e-01
      - 2.7065115531861935e+01
      - -2.0238753448320232e-01
      - 7.2290311589481666e+00
      - -3.6814548295008048e-01
      - 7.2943601283051054e+00
      - -4.0749736531744507e-01
      - 5.3642081619392545e+00
      - -5.1890020680454718e-01
      - 4.0678692450637746e+00
      - -6.7100194977186645e-01
      - 2.8508570557999007e+00
      - -8.0084797371351812e-01
      - 4.5902669674211793e+00
      - -5.6757147834842170e-01
      - 7.5654466606985329e+00
      - -3.7145970679518503e-01
      - 8.2774661611576832e+00
      - -3.3421987875157455e-01
      - 1.0059491291518587e+01
      - -3.4478459944710826e-01
      - 6.4653762627678963e+00
      - -3.9572464972975646e-01
      - 8.7046299031681382e+00
      - -3.3233788772898970e-01
      - 8.0545624381354450e+00
      - -3.4291069588049078e-01
      - 4.7670540037427651e+00
      - -5.1541107776961126e-01
      - 2.7744253674740853e+00
      - -8.5389445858905899e-01
      - 3.7392492449825157e+00
      - -6.6206290942365076e-01
      - 6.0447613241120957e+00
      - -3.9142937320210119e-01
      - 8.4887336268223912e+00
      - -3.2510065712566649e-01
      - 8.4442326613208607e+00
      - -3.7051277487718692e-01
      - 7.0968802670033551e+00
      - -3.5700093148972145e-01
      - 9.2700615269671314e+00
      - -3.2458655989571256e-01
      - 6.8473275349673557e+00
      - -3.2587297057075720e-01
      - 4.1681505930587166e+00
      - -5.2344465256995509e-01
      - 2.7117536290938382e+00
      - -9.1034324075752471e-01
      - 3.6672808756256194e+00
      - -6.2891635962283798e-01
      - 7.2328778475469386e+00
      - -3.3971874369608668e-01
      - 1.2456248043885966e+01
      - -2.5156386272109982e-01
      - 1.0504782039069738e+01
      - -3.1964176761426349e-01
      - 8.6695833102527136e+00
      - -3.2186242525703390e-01
      - 1.0563801126403634e+01
      - -3.0769906998835589e-01
      - 7.3677204994233039e+00
      - -3.2493004155140803e-01
      - 4.3951725451051891e+00
      - -5.5771361580289547e-01
      - 2.6734490316085986e+00
      - -9.7969828528698588e-01
      - 3.5573460210393977e+00
      - -7.0800541944047291e-01
      - 7.3719886941063999e+00
      - -3.8220802092592054e-01
      - 1.4842015348406569e+01
      - -2.7703638254513807e-01
      - 1.3276956894287290e+01
      - -2.8262017533863498e-01
      - 1.4269543852423180e+01
      - -2.3138837947686719e-01
      - 1.6459043788976967e+01
      - -2.3036976003622359e-01
      - 1.1496051421643424e+01
      - -2.4028569640158717e-01
      - 6.1062641531876780e+00
      - -4.1464712083209276e-01
      - 2.7574809576552077e+00
      - -8.7123350333638117e-01
      - 3.4055065199054715e+00
      - -7.6215497308257185e-01
      - 4.6644455512162057e+00
      - -5.9051381924963076e-01
      - 9.2404319488256572e+00
      - -4.1274768489039693e-01
      - 1.8299807428879760e+01
      - -2.1573500105125762e-01
      - 1.5167948589470814e+02
      - -1.3950503333663825e-01
      - 7.8089018762278386e+01
      - -1.2794476385566297e-01
      - 4.7307305783612712e+01
      - -1.2052754523301858e-01
      - 1.7161266711502208e+01
      - -2.3471392613526917e-01
      - 3.6017581540756423e+00
      - -5.2135259651953447e-01
      - 3.8894526219999008e+00
      - -5.3765588666448771e-01
      - 3.6074398828886176e+00
      - -5.5954656503576883e-01
      - 7.4404179442562848e+00
      - -4.5770558686956569e-01
      - 4.0528589794727026e+01
      - -1.4631522986158865e-01
   output_scale:
      - 5.2631578947368418e-01
      - 4.9999999999999994e-01
      - 5.2631578947368418e-01
      - 4.9999999999999994e-01
      - 5.2631578947368418e-01
      - 4.9999999999999994e-01
      - 5.2631578947368418e-01
      - 4.9999999999999994e-01
      - 5.2631578947368418e-01
      - 4.9999999999999994e-01
      - 5.2631578947368418e-01
      - 4.9999999999999994e-01
      - 5.2631578947368418e-01
      - 4.9999999999999994e-01
      - 5.2631578947368418e-01
      - 4.9999999999999994e-01
      - 5.2631578947368418e-01
      - 4.9999999999999994e-01
      - 5.2631578947368418e-01
      - 4.9999999999999994e-01
      - 5.2631578947368418e-01
      - 4.9999999999999994e-01
      - 5.2631578947368418e-01
      - 4.9999999999999994e-01
      - 5.2631578947368418e-01
      - 4.9999999999999994e-01
      - 5.2631578947368418e-01
      - 4.9999999999999994e-01
      - 5.2631578947368418e-01
      - 4.9999999999999994e-01
      - 5.2631578947368418e-01
      - 4.9999999999999994e-01
      - 5.2631578947368418e-01
      - 4.9999999999999994e-01
      - 5.2631578947368418e-01
      - 4.9999999999999994e-01
      - 5.2631578947368418e-01
      - 4.9999999999999994e-01
      - 5.2631578947368418e-01
      - 4.9999999999999994e-01
      - 5.2631578947368418e-01
      - 4.9999999999999994e-01
      - 5.2631578947368418e-01
      - 4.9999999999999994e-01
      - 5.2631578947368418e-01
      - 4.9999999999999994e-01
      - 5.2631578947368418e-01
      - 4.9999999999999994e-01
      - 5.2631578947368418e-01
      - 4.9999999999999994e-01
      - 5.2631578947368418e-01
      - 4.9999999999999994e-01
      - 5.2631578947368418e-01
      - 4.9999999999999994e-01
      - 5.2631578947368418e-01
      - 4.9999999999999994e-01
      - 5.2631578947368418e-01
      - 4.9999999999999994e-01
      - 5.2631578947368418e-01
      - 4.9999999999999994e-01
      - 5.2631578947368418e-01
      - 4.9999999999999994e-01
      - 5.2631578947368418e-01
      - 4.9999999999999994e-01
      - 5.2631578947368418e-01
      - 4.9999999999999994e-01
      - 5.2631578947368418e-01
      - 4.9999999999999994e-01
      - 5.2631578947368418e-01
      - 4.9999999999999994e-01
   inv_output_scale:
      - 1.8999999999999999e+00
      - -9.4999999999999996e-01
      - 1.8999999999999999e+00
      - -9.4999999999999996e-01
      - 1.8999999999999999e+00
      - -9.4999999999999996e-01
      - 1.8999999999999999e+00
      - -9.4999999999999996e-01
      - 1.8999999999999999e+00
      - -9.4999999999999996e-01
      - 1.8999999999999999e+00
      - -9.4999999999999996e-01
      - 1.8999999999999999e+00
      - -9.4999999999999996e-01
      - 1.8999999999999999e+00
      - -9.4999999999999996e-01
      - 1.8999999999999999e+00
      - -9.4999999999999996e-01
      - 1.8999999999999999e+00
      - -9.4999999999999996e-01
      - 1.8999999999999999e+00
      - -9.4999999999999996e-01
      - 1.8999999999999999e+00
      - -9.4999999999999996e-01
      - 1.8999999999999999e+00
      - -9.4999999999999996e-01
      - 1.8999999999999999e+00
      - -9.4999999999999996e-01
      - 1.8999999999999999e+00
      - -9.4999999999999996e-01
      - 1.8999999999999999e+00
      - -9.4999999999999996e-01
      - 1.8999999999999999e+00
      - -9.4999999999999996e-01
      - 1.8999999999999999e+00
      - -9.4999999999999996e-01
      - 1.8999999999999999e+00
      - -9.4999999999999996e-01
      - 1.8999999999999999e+00
      - -9.4999999999999996e-01
      - 1.8999999999999999e+00
      - -9.4999999999999996e-01
      - 1.8999999999999999e+00
      - -9.4999999999999996e-01
      - 1.8999999999999999e+00
      - -9.4999999999999996e-01
      - 1.8999999999999999e+00
      - -9.4999999999999996e-01
      - 1.8999999999999999e+00
      - -9.4999999999999996e-01
      - 1.8999999999999999e+00
      - -9.4999999999999996e-01
      - 1.8999999999999999e+00
      - -9.4999999999999996e-01
      - 1.8999999999999999e+00
      - -9.4999999999999996e-01
      - 1.8999999999999999e+00
      - -9.4999999999999996e-01
      - 1.8999999999999999e+00
      - -9.4999999999999996e-01
      - 1.8999999999999999e+00
      - -9.4999999999999996e-01
      - 1.8999999999999999e+00
      - -9.4999999999999996e-01
      - 1.8999999999999999e+00
      - -9.4999999999999996e-01
      - 1.8999999999999999e+00
      - -9.4999999999999996e-01
      - 1.8999999999999999e+00
      - -9.4999999999999996e-01
   weights:
      -
         - 1.1960657794810795e-02
         - -5.2038629218205193e-02
         - -9.1361962817496853e-02
         - 1.3750215064422228e-01
         - 5.0898633098451419e-02
         - 1.2237353837578148e-01
         - 6.4010911368336950e-05
         - -9.1536841059907479e-03
         - 9.0177907343764171e-02
         - -5.8015029586132437e-02
         - 1.3302222610481518e-01
         - 7.5410755395022913e-02
         - 8.0972226602850333e-02
         - -5.4115491735759191e-02
         - 8.8614549979426790e-02
         - 1.6748995944792808e-03
         - 2.6642994958571919e-02
         - -1.6978616126069260e-01
         - 5.9447366664305650e-04
         - 1.9040861426662718e-02
         - -1.4181568690091540e-02
         - -6.1819090025764627e-02
         - 5.2469115311632258e-02
         - 9.7146715964639960e-02
         - -3.7031424037830094e-02
         - 2.7195490713737346e-02
         - -5.7816635521680440e-02
         - -1.2273744893911261e-01
         - 3.0080888171936430e-02
         - 1.6190852998764948e-02
         - 7.3429965484924170e-02
         - -7.2286927459118008e-02
         - 6.0238859011744743e-02
         - -4.0585718201225154e-02
         - 8.2755220733274792e-02
         - -1.0251638956710050e-01
         - 5.8889096291857901e-02
         - -2.5302345950615045e-02
         - 3.3515851804697364e-02
         - 1.4528216122306212e-02
         - -1.0543280554381908e-01
         - 8.8842179048090775e-02
         - 1.1086567670700629e-02
         - -8.6846530316501983e-02
         - 1.4557030992514175e-02
         - -2.2730244879107180e-02
         - -6.5638103886902735e-02
         - -4.7866731719057178e-02
         - 1.0351052151077265e-01
         - -2.4170805322919816e-02
         - 1.8831421354380897e-02
         - -1.1372654912955557e-01
         - -6.6499354115508169e-02
         - -3.9712006396877664e-02
         - 5.0892554583351499e-02
         - 8.2372769111498767e-02
         - -3.5233958596186096e-02
         - -1.1091271854618338e-01
         - 2.6265771478678937e-02
         - -4.0563366132427017e-02
         - 5.6871716822506593e-02
         - -1.5131748750255777e-01
         - -1.8288756081691084e-02
         - -8.5654706903176437e-03
         - 4.7489642704754677e-02
         - 5.9855494131278421e-02
         - 8.7845128549276771e-02
         - 1.8213332671346449e-02
         - -1.0766220147500584e-01
         - 3.8216725735328231e-03
         - -1.0393603685519006e-02
         - 6.3811456936956668e-02
         - 1.3028937417148181e-01
         - 1.2077498048204321e-01
         - -7.0147686356758013e-02
         - 8.4562206575241036e-02
         - 5.0698926556369123e-02
         - 9.2108055600302025e-02
         - 6.6669031589339775e-02
         - 7.6573746151195651e-02
         - 1.0836863972522030e-01
         - 3.1052349925247073e-02
         - -1.8550310659418934e-01
         - -5.7455691703981661e-02
         - -6.6813947991707673e-02
         - -6.9023010652633901e-02
         - 6.1048045270376348e-02
         - -2.8005130154720288e-02
         - -7.4904225356345180e-02
         - 1.3927670465939104e-01
         - 2.2304210936447060e-02
         - 3.2312003943674124e-02
         - -4.3875119541673002e-02
         - -6.2915502574574317e-02
         - -1.7398292756200209e-02
         - 5.1402034127141401e-02
         - -3.8221514183973404e-02
         - -1.8412693942591676e-02
         - -6.8576041306748587e-03
         - 5.7188518858427788e-02
         - 8.3183356617327259e-02
         - 1.5591421637739756e-02
         - -1.7169800629810612e-02
         - 5.2651953367259488e-02
         - -1.5825544123295694e-02
         - -4.0136589222807210e-02
         - 5.1888480714673467e-02
         - -3.1774647347659515e-02
         - -2.7882835823198025e-02
         - -9.8766986868283252e-02
         - 5.8271480970460421e-02
         - -1.0826118510240752e-01
         - 6.4634994138699553e-02
         - -4.3025414098641405e-02
         - -1.3985266260434565e-01
         - 3.6495464705554329e-02
         - -5.8603817482078008e-03
         - 1.5369166151080794e-02
         - -1.6374826021518021e-01
         - 1.7680364320689285e-01
         - -7.5761589679644734e-02
         - 7.6206504516691722e-03
         - -3.6233129281137692e-02
         - 8.4369447389873384e-02
         - -7.1396640402057301e-02
         - 3.3099823057480840e-02
         - 4.1595238926446877e-02
         - 2.7166152514477491e-02
         - -8.6452442615474245e-02
         - -8.3636499288472915e-03
         - 1.7807585727762868e-02
         - 5.9828979420845751e-02
         - 5.3575597519931783e-03
         - 5.1691901151113183e-02
         - 7.0318676898868671e-02
         - 1.6160297187655706e-01
         - 2.4926834021904001e-02
         - 1.4677518555145269e-01
         - 3.3465038510662300e-02
         - -7.1144796742903206e-03
         - -1.9168790983631057e-01
         - -2.2246141568874611e-02
         - 1.4939273465676733e-02
         - -2.3455347575801458e-01
         - -7.7935848257358317e-02
         - 9.2381633937401481e-02
         - 2.2632064687588976e-02
         - -2.7626614445334535e-03
         - 4.2130256249684646e-03
         - -6.0563374776110939e-04
         - -1.3446746787694943e-02
         - 6.9863853981221830e-02
         - -2.6845485573178604e-02
         - -1.0925015892748198e-02
         - 1.6186147866628760e-02
         - 3.4356804782573768e-03
         - 2.7816429217341017e-02
         - -8.4902144434427493e-02
         - -3.6702929587961362e-02
         - 7.3845002601539173e-02
         - -1.4298814204475619e-02
         - -3.1196831944070545e-02
         - -2.6020192731613059e-02
         - -1.8546938387240774e-01
         - 5.9426348148915245e-02
         - -3.0498218909002929e-02
         - -2.9254628530951187e-02
         - 3.3076068559760453e-02
         - -3.5793347318707001e-02
         - -9.6911479415060453e-02
         - -2.8555851834741890e-02
         - 4.1156641210695847e-03
         - -5.9356051879102451e-02
         - 2.0021063452028167e-02
         - -6.0170442406727705e-02
         - -4.3094297742367317e-02
         - -6.6415086236205373e-02
         - 1.0273117106824180e-01
         - 4.8000148810955816e-02
         - -2.0018384411518288e-02
         - -9.4694431377614213e-02
         - -3.4241264828107423e-02
         - -1.2065679884581765e-01
         - -1.4429350461490537e-02
         - -5.9090198581767214e-02
         - -7.5750505495665144e-02
         - 5.0804044211903944e-03
         - 1.8771158458144022e-02
         - 7.5785815835844109e-02
         - 9.7871151314365065e-02
         - 3.9233105312030662e-02
         - -4.5623524914669117e-02
         - 4.0607626247321081e-02
         - -9.7365220852412906e-02
         - 7.6102657858818132e-02
         - 9.5621056929279746e-02
         - 5.2956204432807623e-02
         - -5.5910747657673628e-02
         - 6.9709247931215051e-02
         - 1.7890964157327230e-02
         - 1.1103222463214796e-01
         - -3.1427183689743572e-02
         - 1.5522384238255275e-02
         - -1.2394193180878020e-01
         - -5.9413242552593080e-02
         - -6.9749459694588761e-02
         - -1.7383996781840497e-02
         - -2.3189198059558502e-02
         - -7.0233967874429079e-02
         - 2.5631710098665736e-03
         - -1.7896312383374949e-01
         - -1.2858621701303663e-01
         - 4.6398599808730907e-02
         - -1.1491989474962901e-01
         - 6.6878436021410012e-02
         - -9.5662737322919383e-02
         - -8.7526304625366008e-02
         - 1.0959920188164583e-02
         - 2.2420172337367168e-02
         - -7.8204472542825573e-02
         - 3.8194457243350348e-02
         - 2.3244112583391485e-02
         - 1.4263935441257788e-01
         - 6.4059032690619411e-02
         - -9.6206552292190748e-03
         - 3.1759879224399115e-02
         - 2.4730341168931243e-02
         - 7.2712956097004552e-02
         - -3.2547959123655927e-02
         - 2.8427871990842624e-02
         - -3.6056800817231234e-02
         - 4.1548086442832637e-02
         - 5.6332265875975590e-02
         - -1.1706746807262374e-02
         - -1.2177050415575917e-02
         - 4.3613252106082009e-02
         - -4.5868698317775902e-02
         - -1.5643847238811154e-01
         - -7.5228389665111268e-03
         - 3.0315632758927125e-03
         - 1.4583709292005059e-02
         - -1.5514281349987177e-01
         - 2.1819790984901194e-02
         - -8.7113003264362665e-02
         - -4.5623051671055043e-02
         - -1.0012889819961601e-02
         - 5.1649909610309762e-02
         - 5.8905855837354942e-03
         - 1.4856944546051182e-02
         - 1.1972807455635222e-01
         - 6.2900609625486867e-02
         - -1.2884478417363968e-01
         - -9.6379653645894906e-03
         - 6.2203384577681639e-02
         - 7.3350122758896741e-02
         - 4.5486744013220240e-02
         - 4.5599400341077852e-02
         - 8.0291506930551565e-02
         - 9.3547723987046263e-02
         - 8.3264118788168834e-02
         - 1.0138801758386520e-01
         - -4.9141253098965935e-02
         - -6.8159869716083992e-03
         - -1.5306739660760027e-01
         - -4.1467413230971903e-02
         - -3.0921112514246088e-03
         - -3.2311082887109606e-02
         - -8.6570630788971578e-02
         - 8.8794519074922126e-02
         - 3.4208580549222697e-02
         - 7.9596440326376666e-02
         - 9.9961931150699609e-03
         - -3.7592335111257362e-02
         - -3.4273846154455147e-02
         - 1.1473019066634749e-01
         - -1.1095890726530260e-02
         - -7.5655941406065795e-03
         - -3.3333557796932513e-02
         - 3.3786606445085993e-02
         - 1.2185993828567519e-02
         - -1.0172093491893554e-01
         - -6.7727690849156641e-02
         - -2.5603653421991997e-02
         - 1.9541218085109613e-02
         - -5.7873497353440786e-02
         - 8.0456330719585162e-02
         - -2.2167402788026000e-01
         - 6.0604816212731685e-02
         - -4.4244182758814456e-02
         - -6.5812683333616132e-02
         - -1.4356217892835435e-01
         - -2.3553695765499070e-02
         - -1.5453311313312951e-01
         - 8.0976513382766246e-03
         - -9.6486421235068620e-02
         - -2.5603482228053028e-02
         - 2.2625596330144340e-02
         - -5.0610640693018905e-02
         - -7.1820499274305019e-02
         - -4.3145361282698788e-02
         - -3.4734377011947030e-02
         - 7.4184157860105251e-02
         - 3.1818728675632041e-02
         - 1.5020870235556609e-02
         - -5.9273851437918024e-02
         - -8.5585905563360820e-02
         - -3.6140460188106801e-03
         - -3.5781526387284365e-02
         - -5.6375061497943475e-02
         - 1.2036422012372330e-01
         - 1.9361635483529999e-02
         - 1.8733981337045656e-02
         - 1.0667298111968605e-01
         - 2.9879048196955856e-02
         - -5.4838937781587736e-02
         - 6.7947152402596814e-02
         - -1.1271409938687253e-01
         - 5.6166439759722166e-02
         - 7.1848385549434443e-03
         - -2.3993381482444724e-02
         - -1.9478308209311443e-02
         - 6.4050147894858092e-02
         - -3.8842464659354259e-02
         - 3.6666079171721710e-02
         - -8.7816177485553287e-02
         - 2.6285344916562824e-02
         - -1.0172176623253447e-01
         - -1.7332504331267529e-01
         - 1.7285159710635104e-02
         - 3.5847863165526121e-02
         - -3.8494222011188857e-02
         - -7.5087680424252484e-02
         - 4.9571045812619272e-02
         - -5.9993156492769456e-02
         - -1.3491505812006496e-01
         - 3.0549828605447377e-02
         - -2.9733211155547102e-02
         - 1.0647623468335655e-02
         - -3.2833454256704628e-02
         - -5.5569344263148045e-02
         - 5.5241417111285544e-02
         - -4.3354231412973197e-04
         - -7.9888211793191014e-03
         - -8.0183640604585618e-02
         - -1.5123733259612721e-02
         - 1.2196342316202152e-02
         - 1.0064964026498899e-01
         - -4.0577014346048941e-02
         - -7.6638416546245432e-03
         - -2.9148188226296969e-02
         - 1.9691450684642206e-01
         - 1.9216168550763451e-03
         - -3.5324027262994703e-02
         - -6.9007844002455729e-02
         - 5.3808096006324524e-02
         - 1.6009462227184971e-02
         - 3.2733905542752031e-03
         - -2.3184758073499810e-02
         - 6.6321824244998148e-02
         - -5.9799819987677819e-02
         - -1.7612973486920447e-01
         - -3.5039730106578564e-02
         - 1.1827677252039695e-01
         - -3.2968628077098244e-02
         - -2.3495389147679274e-02
         - -5.2019515542612832e-02
         - 3.7373280916880143e-02
         - -1.1466627795336621e-02
         - -5.5763829450876129e-02
         - -4.2985316419666228e-02
         - -1.9175741147778372e-02
         - 1.9586338110139778e-02
         - -1.2112261573027383e-01
         - 1.1025011275581656e-02
         - 2.1819715946756472e-02
         - -2.4130136619610307e-02
         - 3.0184028311791743e-02
         - 1.5314064068957479e-02
         - -1.9567612688742169e-02
         - -4.4635738403654198e-03
         - 5.4914641317759229e-02
         - -4.6570884701496562e-02
         - -4.8444345829472442e-04
         - -8.9854986981728724e-02
         - -6.4723149425367860e-02
         - 3.7696810748908273e-02
         - -8.6680855060320736e-02
         - -1.1666751237081428e-01
         - 3.2702901706692460e-03
         - -5.2706577618364961e-02
         - -1.0319158711194205e-01
         - 1.9968494548422678e-03
         - -1.3064174623493676e-02
         - 2.8403284221869832e-02
         - -1.9494247538633533e-02
         - -3.3598377418079445e-02
         - -5.2015453156751178e-02
         - 1.0184731327524092e-01
         - 1.0457074783827806e-01
         - 5.5146348753342738e-03
         - -7.8360611308193689e-02
         - -8.6058467240545000e-02
         - -1.6311891508633085e-03
         - 7.7806508013042883e-02
         - -1.2188790809915808e-02
         - -1.4063761986749448e-01
         - -1.7782962205013960e-02
         - 5.8675884064467144e-02
         - 4.9538433626644250e-02
         - 8.5729660684218167e-02
         - 1.5041434710610589e-02
         - -7.1480596129537222e-02
         - -2.1968670473930734e-02
         - -1.4179733575912637e-01
         - 4.9672141087865598e-03
         - 6.2819167111561061e-02
         - -9.0244574277636463e-02
         - 3.4347698796960965e-02
         - 2.7634415544809759e-02
         - -5.0773828778926684e-03
         - -2.7215512392080411e-02
         - 3.2928441055258290e-03
         - 2.7018750140323795e-02
         - -7.5177111456563722e-02
         - 2.1626352104599667e-02
         - -6.4708698785824109e-02
         - 2.5387731048865991e-04
         - 9.0905421150700133e-02
         - 2.8151113370431594e-02
         - -1.7203447182986858e-02
         - -4.7272320957545029e-02
         - 3.4099147444284370e-02
         - 1.4361204967497224e-01
         - 6.3125938451952843e-02
         - 4.7791697295297114e-02
         - 7.2570563447129047e-02
         - -7.8155318533994295e-02
         - -3.6242637727652682e-02
         - 1.5786947638155721e-01
         - -8.9301455682890635e-02
         - 6.7191139805230796e-02
         - 6.3271817395686616e-02
         - 2.3228760487991180e-02
         - 1.9711446571811667e-01
         - 2.3296078212556959e-02
         - 1.4531152671994734e-02
         - -1.9617994555899933e-02
         - 1.3847703831938293e-01
         - 7.1625502478472214e-02
         - 7.5977852724947153e-03
         - 1.4091978655818266e-02
         - 6.4846369887872398e-03
         - -3.2500399045272396e-02
         - -1.8633239068810037e-02
         - -1.2935966350849656e-01
         - 5.3501907098288753e-02
         - 7.6035491468639235e-02
         - -3.6065555281889386e-02
         - 5.0505123537651901e-02
         - -5.9922095882811423e-02
         - 5.9142158806548890e-02
         - -4.7651746611266513e-03
         - 9.8844437092616450e-02
         - -1.0319721172165692e-02
         - -1.0049413717711483e-01
         - -3.3744262425242998e-02
         - -1.8895306433527678e-01
         - -4.6025797543274578e-02
         - 9.4014875418721080e-03
         - 1.2341198320865382e-02
         - -5.9682171306982744e-02
         - -2.7679754066234602e-02
         - 3.0297641505483752e-02
         - 2.7743405907214649e-02
         - 1.3510563061381811e-01
         - 4.3533125071110894e-02
         - -1.4593565890523406e-02
         - 6.4290306934798758e-02
         - 3.5411958747201447e-02
         - -4.4607425938126270e-02
         - -3.1876603276364809e-02
         - 2.0312252625715864e-02
         - -1.5785587246555901e-02
         - -1.2836028200868863e-01
         - 1.2440250037833471e-02
         - 6.2465294695381909e-02
         - 5.7699513325624084e-02
         - 4.6879032667464245e-02
         - 1.1131947389601958e-02
         - 9.7587448384083800e-02
         - 3.9005134190215262e-03
         - 6.5522851261431425e-03
         - -9.7667901877403836e-04
         - -2.1775198366245363e-02
         - 9.8173858061114429e-03
         - -1.3061369242101562e-03
         - 2.1014601300769459e-02
         - 1.4040601367520888e-02
         - -9.5348924504151722e-02
         - 3.2311146631163232e-02
         - 7.8379010308785128e-03
         - -2.1410265272073636e-02
         - 6.0686273347675249e-02
         - 5.9609157886721040e-02
         - -5.6487647821366624e-03
         - -1.4654377872816119e-02
         - -6.8812274498348466e-02
         - 3.7062523388249856e-02
         - 8.6132144614906245e-02
         - 6.0621063826453041e-02
         - -1.4476868138892755e-02
         - -4.9920292871019224e-03
         - -1.1129960976463611e-01
         - -1.1198450492422675e-01
         - 4.0672943726629759e-02
         - -2.4636697447810225e-02
         - 1.4282659876821115e-02
         - -4.6380729107385832e-04
         - -5.5930349274110704e-02
         - -1.0224877074639069e-01
         - -3.6432523484702297e-03
         - 1.7601242008263043e-02
         - 1.0456603390360687e-01
         - 1.0159539408950298e-01
         - 3.4217757710456244e-02
         - 1.9085558057393820e-03
         - -3.2606883408536062e-02
         - -9.9479436410277074e-03
         - -9.8355616239160878e-02
         - -8.4879914522441764e-03
         - 4.8895993972756548e-02
         - 2.4885314057291118e-03
         - -8.7157903460367808e-02
         - 1.1580458718739792e-02
         - -4.8535302734865934e-02
         - -2.4580958586005765e-02
         - -9.5526024073416330e-02
         - -2.3354702667449975e-02
         - -3.1416208140420739e-02
         - -1.7260503405444733e-02
         - -8.7225625360495326e-03
         - 8.4269066888402702e-02
         - 5.1936717014000378e-02
         - -2.4287338895344231e-02
         - -3.0578599461332914e-02
         - -6.5136555286921874e-02
         - -3.9896061091574800e-02
         - 1.6659690736741825e-02
         - -3.3149651148779671e-02
         - -7.1599574206170455e-02
         - -2.3091127152349667e-02
         - 5.1769260927392792e-02
         - -2.4247600721578572e-02
         - -6.6079795849251735e-02
         - 2.3426307774407360e-03
         - 2.2246932787162938e-03
         - 6.0857527763057431e-02
         - 7.2430554202084968e-02
         - 4.8940568637140205e-02
         - -5.9164285711877200e-02
         - -5.2649314539269750e-02
         - 2.1374244582568419e-03
         - -4.1000527098091107e-02
         - 1.0141196154730836e-01
         - 9.3161599512670168e-02
         - -2.6742278246589358e-02
         - 2.5184919021167262e-02
         - 1.9120379169759734e-02
         - -3.6981171012155270e-02
         - 9.6087915039452604e-02
         - 2.2723915111219604e-02
         - 1.2557399468693328e-01
         - -1.0496686193801540e-01
         - -1.3737677357914349e-01
         - 4.8096913602656721e-02
         - -1.7711550541513979e-02
         - -1.6538550665238898e-02
         - -6.6119871555169338e-02
         - -3.6525118123151472e-03
         - 4.1288891573079238e-02
         - -4.3883120063745742e-02
         - 6.6230650876642302e-02
         - -1.6765050188657176e-03
         - 9.2715234809469457e-02
         - -7.7038322253319760e-02
         - 1.0091124342406985e-03
         - -6.7968236165606183e-02
         - -3.6252144390544895e-02
         - 2.6075502612524587e-02
         - -6.5899899193523584e-02
         - 1.9798516364314952e-02
         - -4.3456340504917264e-03
         - 1.6972948892739967e-02
         - 7.6590403208501240e-03
         - -5.4628297298233187e-02
         - 8.5820599030139263e-02
         - 7.1423433671258266e-02
         - 7.5777984089665197e-03
         - 1.1795052526262138e-01
         - -7.1912165884197105e-02
         - 4.5150011395741443e-02
         - -4.1645823708285561e-02
         - 4.8657763122661318e-03
         - -4.1509535719852005e-02
         - -1.7132691262568112e-02
         - -3.0083215913918947e-02
         - -1.1374719572357514e-01
         - 4.9364784846916716e-03
         - -3.2352674175045765e-03
         - 3.5710477216288082e-02
         - -7.0626370493712939e-02
         - -1.3129965013190109e-01
         - -1.1887041205975673e-02
         - -2.3676497658002837e-02
         - -8.6269953217618378e-03
         - -1.9722602296473882e-02
         - -4.4344727934085670e-02
         - 4.1937611233947417e-02
         - 2.3500140824630558e-02
         - 1.3712817121706009e-02
         - 3.0414582914892957e-03
         - -1.9315209594460259e-02
         - 2.7163707070851997e-02
         - 6.5287518072173730e-03
         - -2.1909090829366092e-02
         - 1.3949908077184115e-02
         - -1.6925829650918806e-01
         - 1.8870605419307820e-02
         - -5.2636732095374818e-02
         - 1.1069773742736880e-01
         - -1.8685760048701691e-02
         - 1.7037135266004932e-03
         - 2.0907896512616587e-02
         - 6.7305721257584508e-02
         - -4.6300098496934042e-03
         - -7.5287004495743243e-02
         - 6.9697416252138725e-02
         - 3.0518239135687502e-02
         - 4.1031220082266761e-03
         - -6.1711838732614294e-02
         - 1.7218923601667616e-02
         - 3.3462381966610629e-03
         - -1.4370168359153846e-03
         - -2.3270875637955771e-01
         - 1.5861835226004813e-02
         - 6.4109515062414232e-02
         - 1.1779435487485750e-01
         - -3.0441832593991584e-02
         - 4.7372577378245592e-03
         - -1.6012785110497421e-03
         - -7.0065707794122528e-03
         - 7.5699963043987822e-02
         - -6.9456420244604746e-03
         - -4.6017069023415812e-02
         - -2.1839918828147665e-02
         - 8.7987116610806319e-03
         - 5.2848717922432814e-03
         - 1.2369429002108808e-04
         - -5.3724232378131497e-04
         - 7.5326936746327761e-02
         - -1.4936784652161644e-02
         - 3.4977055790802777e-02
         - -4.8532568268058775e-03
         - 9.1994184243213793e-03
         - 2.9918017022744887e-02
         - -2.1917045217235728e-03
         - 1.0464448654335134e-03
         - -5.0961224709194446e-02
         - -7.4354873947542477e-03
         - 6.3147746063540636e-02
         - -5.6399017109950902e-03
         - -1.2406387267854774e-02
         - -8.1657032166119026e-02
         - -4.3382350126746683e-02
         - -1.2967490793279890e-02
         - 3.1778901630103884e-02
         - 1.3138929731681975e-04
         - 1.7586754416924748e-02
         - 7.6725015384187063e-03
         - 1.6519318207354822e-02
         - -3.9725763708739432e-02
         - 1.1563995069391094e-02
         - 3.2135082520019218e-02
         - 9.6525106031089165e-03
         - -5.2773406299336401e-03
         - -2.6740498931434226e-02
         - 1.2548837652378847e-02
         - -5.9648437072313980e-02
         - -1.0124486486186357e-02
         - -1.3335968393010500e-01
         - 1.2155499655018501e-02
         - 1.5748366239846077e-02
         - 6.9876411279572916e-03
         - 4.3243261959645701e-02
         - -6.1182471874645797e-03
         - 4.9819431620657439e-02
         - 3.4713344074509571e-03
         - 6.4227541095673744e-03
         - -3.4218468743762789e-02
         - 2.9516061738549086e-02
         - 2.1765556962352852e-02
         - -4.2625623874792441e-02
         - 1.1371295391117194e-02
         - -2.5129227452226618e-02
         - -1.6921764870940565e-02
         - 1.6177362261280311e-02
         - 4.6231366722616206e-02
         - -4.4506986144924481e-02
         - 1.4197025350333362e-02
         - -3.2853255426892117e-02
         - -5.7811332645713739e-02
         - -3.9221622670108945e-02
         - 7.0680441724393361e-02
         - 2.5986750742783084e-02
         - 2.5283842445944032e-03
         - 3.3768715263544080e-02
         - 3.3434871596478122e-02
         - 2.6354429701770546e-03
         - 4.3613683590190085e-02
         - -1.9882224912596884e-02
         - 3.8272198329040129e-03
         - -4.0866169345913465e-02
         - -7.2767050489588852e-03
         - 1.9779239283118543e-02
         - -3.5882754951163984e-02
         - 5.6540419177880608e-02
         - 4.2497234473066218e-03
         - 1.7110563692430414e-02
         - 2.1871223865802267e-03
         - 1.1243662735229007e-01
         - -3.1645290150628036e-03
         - -8.5654024528347573e-03
         - 1.0995041229161740e-02
         - -7.8966725679071328e-02
         - 4.9656037754313799e-02
         - -3.1342648928079905e-02
         - -4.7964533432077738e-03
         - -5.2223500571884664e-03
         - 8.4633990420873953e-02
         - -8.8289100386164891e-03
         - 5.6787736663766970e-02
         - 1.9235596041010308e-01
         - 2.1364780310243227e-02
         - -7.7723692126671607e-04
         - 7.1545432997790828e-02
         - 2.8349687949881634e-02
         - 9.9154180227079853e-03
         - -3.8291199739708716e-03
         - 1.2367554010178299e-02
         - -1.2950032808246228e-01
         - 1.2696577578651950e-02
         - 6.5872114503213383e-02
         - -2.1884933292503888e-02
         - -5.7838142616984632e-03
         - 1.3767229586808363e-02
         - -5.8986112194990517e-02
         - 3.5987354701012761e-02
         - 1.6129329176161576e-02
         - -5.1042319389544934e-02
         - 4.2296151792715571e-02
         - -1.4902391229833799e-02
         - 4.5735390540734379e-04
         - -1.6935396276869082e-02
         - -6.6331914101966857e-02
         - 4.2216411651746964e-02
         - 5.9655830085310550e-02
         - -7.4911659222562571e-02
         - -4.3862589946731444e-02
         - 1.0877572086487989e-04
         - 6.4538828246339816e-02
         - 5.1593452270373007e-02
         - 1.2928048532629157e-02
         - -1.0177884996016826e-02
         - 4.9472222747073177e-02
         - -5.4260101439860126e-02
         - -3.5600053268419932e-02
         - -3.3471403907602754e-02
         - 3.0201631629609614e-02
         - -1.5690045065049271e-01
         - 9.3340485275041855e-03
         - 1.5660814793343422e-01
         - -5.5149433890729254e-03
         - -8.6002434733284006e-02
         - 4.6542245319256249e-02
         - -3.0358169538234964e-02
         - -4.0909333950979866e-04
         - -2.1032762492323328e-02
         - -4.5972465261719685e-02
         - -8.4338538242734615e-02
         - 4.1421129191532360e-02
         - 6.8310442853941319e-02
         - 4.1486621737982191e-02
         - -6.6874386386609946e-02
         - -9.5822105827272089e-02
         - -2.4179724428733659e-02
         - -1.3153413912617040e-02
         - 2.4041255251187462e-03
         - 4.1961752338603227e-02
         - -2.3295127813967760e-02
         - 1.1656776854957569e-02
         - -6.0000241766599866e-03
         - 1.3912713757091161e-01
         - 1.1757596055096526e-03
         - 3.6524132410119085e-03
         - 7.5830065812551944e-02
         - -5.4609064394425784e-03
         - 7.1503224688074754e-02
         - 6.7891999666242667e-02
         - -5.3673339002799018e-02
         - 2.6231835408174874e-02
         - -1.4543792138307435e-01
         - -8.3402751193878896e-02
         - 7.8102775967020172e-02
         - -4.3223465371050228e-02
         - 5.9352715715619789e-03
         - -1.3220612490881906e-02
         - 9.9058806904346153e-02
         - -2.4349816241785952e-02
         - 5.6792473934886900e-02
         - -4.2007033504537036e-02
         - 3.0036756607281722e-03
         - -2.7421246151957700e-02
         - 1.1862022612732093e-01
         - 5.3634989459189493e-02
         - -2.8646488908323508e-02
         - 2.1150117652939521e-02
         - 1.9873634473705770e-02
         - -1.5689176224752063e-02
         - -3.6348987195235806e-02
         - -8.7464814812828820e-03
         - -1.0306451308776755e-01
         - 1.1136820515674731e-02
         - 6.7759948400962722e-02
         - 1.5570754955601669e-03
         - -1.9658983391842404e-03
         - 1.3051635853407378e-01
         - 2.9969776711340167e-02
         - 4.0322147461815588e-02
         - 2.0181619781529266e-02
         - 1.5462846849890266e-02
         - 4.9856814396650295e-02
         - -4.5948691670265565e-02
         - 3.9160121595961168e-02
         - 2.9042025778699711e-02
         - -2.1399722355166370e-01
         - 2.8221606613238279e-02
         - -1.1762666959859638e-01
         - 6.5790680487003779e-04
         - -5.1481899211625853e-02
         - 2.9968460795180427e-02
         - -4.0442260059812510e-02
         - 2.7017378722511524e-02
         - -2.0082736229370634e-02
         - -1.9971254338111311e-02
         - 1.2141791149386628e-01
         - 5.4775212619444617e-02
         - 4.7187489747345823e-02
         - 4.1545984367933941e-02
         - 2.3560693733609892e-02
         - -5.1726379923651616e-02
         - -1.8788153404194149e-02
         - -1.0718404001489129e-02
         - -1.5766413117009735e-02
         - 4.7735302566373400e-02
         - 1.3860607095662800e-01
         - 6.0810806645486951e-02
         - 5.4225513041624034e-02
         - -2.2253391130618057e-04
         - 6.1185223959593756e-02
         - 4.3299179001503679e-02
         - -2.0331307117142317e-02
         - 3.0741752349059182e-02
         - -1.7191185835240527e-01
         - 1.1723439563835991e-01
         - 1.5368315078548139e-01
         - -4.3177628747160610e-03
         - 2.8888083219184724e-02
         - -4.5391922285806525e-02
         - -1.6468733217928513e-01
         - -1.1918819188056620e-01
         - 5.6267064692126674e-02
         - -2.2188569488490944e-02
         - -1.1956077997133699e-01
         - -4.4443428261593088e-02
         - 1.1845146639867458e-02
         - 3.6569403679045328e-03
         - -4.3337259088838509e-02
         - 3.9609627061785481e-02
         - -7.6588861741503422e-02
         - -8.6181301267215016e-02
         - -1.7672717643858225e-02
         - -4.3398123877564906e-02
         - 2.2195266193391711e-02
         - 1.0027271180487302e-01
         - -1.4492425953762654e-02
         - -7.9403452231987956e-02
         - -1.1974685234808527e-02
         - -7.5111190419306625e-02
         - -5.9789678923294828e-02
         - 2.7008092201005727e-02
         - 3.7506336434876247e-02
         - -2.1795190028593805e-01
         - 5.5460901922345172e-02
         - 1.8160310524676998e-01
         - -1.6239687886209254e-02
         - -9.6248366512738950e-02
         - 4.6281440003237910e-02
         - -7.3558907757694844e-02
         - -3.1730343120832200e-02
         - -2.8348267557629985e-03
         - 9.8225601518398736e-02
         - 9.7670060106612141e-04
         - -4.8157732340196435e-02
         - 6.1787479683885156e-02
         - -5.0646494262796280e-03
         - -8.8481282994126983e-02
         - -2.9189781223702669e-02
         - 1.2151087703541197e-02
         - 2.2098506785749705e-02
         - 1.6545496558397942e-02
         - -1.3235625946958780e-02
         - 1.6090536962289190e-03
         - -4.0705909930536681e-02
         - -1.0980563827411371e-02
         - 2.0753273166163988e-01
         - -3.8754949247547771e-02
         - 2.0740346852877931e-02
         - 1.2682622984965117e-01
         - -4.0195291023105130e-02
         - 3.3740484645363288e-03
         - -3.6607208229886383e-02
         - -7.0663559600979337e-02
         - 1.4043964547058127e-02
         - -3.1366848681655814e-03
         - -3.5793176041841014e-03
         - 9.3812815417341863e-02
         - -1.7081583135023667e-02
         - 3.0716037756065094e-02
         - 8.2478260596021771e-02
         - 2.0463466191715525e-02
         - 1.0489574999065374e-02
         - -6.5541970202079068e-03
         - -7.5971415213369420e-02
         - -4.6696122391169832e-02
         - 2.2704024730627041e-02
         - 5.7291852409574372e-02
         - -6.5216139754607091e-02
         - 4.2888480047452550e-03
         - 1.8382432964469633e-02
         - 5.4856245783486399e-02
         - 1.1102174860117898e-02
         - 5.5141192892692786e-02
         - 4.2523421382716982e-02
         - -7.3266318152348020e-02
         - -3.3677829670688365e-02
         - 8.1240749287709690e-02
         - 8.4010659280098363e-02
         - -1.4396199465409048e-02
         - -7.4181580938572231e-02
         - -5.1538917422548985e-02
         - 6.8217810018479166e-02
         - 5.4596633407958985e-03
         - 4.6100774566660251e-03
         - -4.9260356839518217e-02
         - -2.2786219049535185e-02
         - 5.3239634566663793e-02
         - 1.0665890668410576e-02
         - -2.4416980812457703e-01
         - 1.1262254660820360e-03
         - -7.8847763631019849e-02
         - 4.6974600606810649e-02
         - -2.4404122662418297e-03
         - 9.8134655614967765e-03
         - 2.2710038835819169e-02
         - 4.6168428487121646e-02
         - -8.2510425275065760e-02
         - -3.5234044231511699e-03
         - 1.8891634827354906e-01
         - 5.3731271390176416e-02
         - -7.0931353246766193e-02
         - 3.1902582406161833e-03
         - 2.8352630953472867e-02
         - -3.1013379996553035e-02
         - -6.9039538259251295e-03
         - 9.1429577087561317e-02
         - -1.2195051637406470e-02
         - -9.6122784301897288e-02
         - 1.0141158155116287e-01
         - 4.7094536462773388e-02
         - 4.5005569181728489e-02
         - 3.0249418775306933e-02
         - -2.4295446793870672e-02
         - 9.3579463784302430e-02
         - -4.5691793992044802e-02
         - 1.1152984725695976e-01
         - 8.8774947698835455e-02
         - -4.9997216766291819e-02
         - -3.7284053844249973e-02
         - 2.6018240013359929e-02
         - -3.7430309295292785e-02
         - 6.0566117916581182e-02
         - -8.4860996231107100e-02
         - -8.2848239062602261e-02
         - 2.4505614397529504e-02
         - -5.5619746628686607e-02
         - -1.2555868523202127e-01
         - 3.9295127949226107e-02
         - 7.8477454237662239e-02
         - -5.2214401212080631e-02
         - -9.3617342187504258e-03
         - -6.0642828768844879e-02
         - -9.5059102950369817e-02
         - 6.1714541976868105e-02
         - 1.2828556880047805e-02
         - 4.5709125604835296e-02
         - -6.3259715005780578e-02
         - 7.5229028942866982e-02
         - -3.9721223696922457e-02
         - 1.2419840375464160e-01
         - -5.4775126708536979e-02
         - 7.6794814014894977e-02
         - -1.9600189841864884e-03
         - 2.9531113791476382e-02
         - -5.2911862560803464e-04
         - -1.3453547346458325e-01
         - 6.4706152972319825e-02
         - 2.3088965986587103e-02
         - -6.6655442838380860e-02
         - -3.9977733301898688e-02
         - -7.7728947241851090e-04
         - -8.5655738692208022e-02
         - -6.4321558400397022e-02
         - 9.4341131188352634e-02
         - 2.5190464482623558e-02
         - 3.6838859938507491e-03
         - -8.4387433606662607e-02
         - -5.1437454287220380e-02
         - -6.7777650170286793e-02
         - -4.6750995355141003e-02
         - 5.2142551713966555e-02
         - -2.0738723308841436e-02
         - -8.8937436800563069e-02
         - -1.6578344951520749e-02
         - 1.5710699952223683e-02
         - 3.6479141642461826e-02
         - -1.4917114534842579e-01
         - -3.5727515498318138e-02
         - 5.1322130869972227e-02
         - 3.5252583966430238e-02
         - 8.4861247886081667e-02
         - 7.3945430216499505e-02
         - 2.7132583875246568e-02
         - -9.6214177133718756e-02
         - -6.5376212443102627e-02
         - -1.8500814934064042e-03
         - 9.6821012083629504e-02
         - 1.5321377994499447e-01
         - 2.3784494963597181e-02
         - 2.1160798040138692e-02
         - 6.7087114535536174e-02
         - 5.1574038865985890e-02
         - 6.5850568768398052e-02
         - -3.2376274333908092e-02
         - 5.8191604574251932e-02
         - 2.6562584081028139e-02
         - -3.7452926776601558e-02
         - -1.4614773009304405e-01
         - -7.1326832995883702e-02
         - -4.2015416129506697e-02
         - -5.7837452447556545e-02
         - 7.1496808156719757e-02
         - -5.4187106873561833e-02
         - -5.5417355799883349e-02
         - 1.2344880716655092e-01
         - -9.1987961716445722e-03
         - -1.7181265050608484e-02
         - -2.3983971426505154e-02
         - -9.4116956839025684e-02
         - 1.4666992607873922e-02
         - 5.4750657275120594e-02
         - -2.0178902626973510e-04
         - -9.0248065987327264e-02
         - -5.7066502359933532e-02
         - 7.2560567584290150e-02
         - 4.1373341929571629e-02
         - -5.7871414745582200e-03
         - -1.8652968301255603e-02
         - 2.6023397706146537e-02
         - 7.5609566703382647e-02
         - -3.7247249117630027e-02
         - 3.0478814827151968e-02
         - -3.6670658651234062e-02
         - -5.6904994984966380e-02
         - -4.0605818058889118e-02
         - 3.1725512150108388e-02
         - -8.6677762992519794e-02
         - 5.1975176660799205e-02
         - -2.9816848613835736e-02
         - -1.4191839917949448e-01
         - 3.2390518394249224e-02
         - 5.5075676219541583e-02
         - -2.1178054004682826e-03
         - -1.4642215721639054e-01
         - 7.6230665428705935e-02
         - -4.2689323221889392e-03
         - 1.3833618831129216e-02
         - -4.5293572202596388e-02
         - 8.7959204780668987e-02
         - -3.3312924871635681e-02
         - -3.7370031192344715e-02
         - 2.1286344648491873e-02
         - 6.3502215934641920e-02
         - 4.8464952921631298e-02
         - -1.5742163834232808e-02
         - -1.2142296664392364e-02
         - 1.1198884021814742e-01
         - -3.3775466750860433e-02
         - 1.1530092119443792e-01
         - 9.3561131707222453e-02
         - 5.2377803177028663e-02
         - -1.1687548629240131e-01
         - 5.7054830935794491e-02
         - 4.6062056320048637e-02
         - 2.1393084602105598e-02
         - -1.4423886369189415e-01
         - -1.1774417881708256e-02
         - 2.5238277123748265e-02
         - -2.3940855414846817e-02
         - -8.4826863204192082e-02
         - 9.1040050228952091e-02
         - 1.0759145867770967e-01
         - 6.8909690505736795e-02
         - -1.4443445133595034e-02
         - -2.0118074752421285e-02
         - -9.9028691626524654e-02
         - 3.5935587709822178e-02
         - 2.8620595557087136e-02
         - 1.5126231088184046e-02
         - -1.2744870452231523e-02
         - -9.6561783323694597e-03
         - -9.0350437575816275e-02
         - 4.0067024241369049e-02
         - -7.4624252841706651e-02
         - 3.1457373298751437e-02
         - 1.9484344905965022e-02
         - -8.0641039244475951e-02
         - -5.7931081577057016e-02
         - -1.4114418915973781e-01
         - 5.9583887397578604e-02
         - -1.1605391020766520e-01
         - -9.2548260184959805e-02
         - 2.6309719723699103e-02
         - -4.4808889584650104e-02
         - -2.0221042585620033e-02
         - -5.1669047772770080e-02
         - 8.5717445157114224e-03
         - -4.5951004615617597e-03
         - 5.5853102015198199e-02
         - -5.5079968669485044e-02
         - -1.0632327728870020e-01
         - -2.8408732881440038e-02
         - 7.1360988259257199e-02
         - 5.7665032616227692e-02
         - 3.3237887110041005e-02
         - -6.1476668794573697e-02
         - 8.6023656404029848e-03
         - -1.3312625221079849e-01
         - 7.0433894156402860e-02
         - -1.3477492855091666e-01
         - -4.9273439715223410e-02
         - -5.3396677753050209e-02
         - -2.2046056577321095e-02
         - 5.3208153856764064e-02
         - 6.7354423008905900e-02
         - 2.8788517542472397e-03
         - -8.7860568314067147e-02
         - 2.0347395529046353e-02
         - -5.6514983659900958e-02
         - 7.8173314063877841e-02
         - 8.7220269791575655e-02
         - 1.2825648531248710e-01
         - -3.6550453133423304e-02
         - 8.6621003656987078e-02
         - 3.0073834969816700e-02
         - 1.6721012814009339e-02
         - -5.2301884830309793e-02
         - 1.6709668423099306e-02
         - -2.8696346825145137e-02
         - 5.5099704081842393e-03
         - -1.3345655793188368e-01
         - -1.1021751668132507e-01
         - -3.8611379075536356e-02
         - -6.4864443920460507e-02
         - 2.2335673484569076e-02
         - -8.4539092677624841e-02
         - -1.8588605071692563e-01
         - 1.0013095611079466e-01
         - -1.4617070879814831e-02
         - 1.5823675251861694e-02
         - -5.2680790658015238e-02
         - -3.5249729524403653e-02
         - -2.1856891543672826e-03
         - 6.0893581976885311e-02
         - -7.7489887112839162e-02
         - -1.1065475004457563e-02
         - -4.5360178994713210e-03
         - 5.9635789002758316e-02
         - 4.4942331640809977e-02
         - -1.7880603504838992e-02
         - -6.8120831715690680e-02
         - 6.6599827519041602e-02
         - 2.6671371445573650e-02
         - -4.1719510577663335e-02
         - -2.2266482131698455e-02
         - 6.5409706799262586e-03
         - -1.4181751275861194e-02
         - -5.0038178884207793e-02
         - 3.3568713968564487e-03
         - -6.7738703498094271e-02
         - 5.9581992636211153e-02
         - -1.1947579789804229e-01
         - -8.3530373619180143e-02
         - 5.5682114705936848e-02
         - -3.5783137367622266e-02
         - 9.2302959936689209e-03
         - -6.3170972889895885e-02
         - 6.1008154870447378e-03
         - -2.4507892217358749e-02
         - 5.0733572520405050e-02
         - -9.4660125549639873e-02
         - -3.8112498572295553e-02
         - -7.7952045912349097e-02
         - 1.8541620597506314e-02
         - 3.4866293250648520e-03
         - 2.1773145532165646e-02
         - 5.9793335723816399e-02
         - -6.7377817650858957e-03
         - 3.3808601032628623e-02
         - 7.6823274884588830e-02
         - 3.4579915161260470e-03
         - 2.0682608854926891e-02
         - 2.9918810491257861e-02
         - 1.7602320442500508e-01
         - -1.2622214142700282e-02
         - 1.2280720544145093e-01
         - 1.0754571563867540e-01
         - -9.6042338959772586e-02
         - -1.1719187810779261e-01
         - 3.6999573396476401e-02
         - 8.0205043085805963e-02
         - -3.2138230411824578e-02
         - -7.7056276052797190e-02
         - 1.1613726772373671e-01
         - 8.6623430091931033e-02
         - 1.0354663493673612e-01
         - 2.6866129115741062e-02
         - -7.8573726958540199e-03
         - -4.5648781654415119e-02
         - 4.2836108026761228e-03
         - -3.6413012161059403e-02
         - -4.2133521674753566e-03
         - 4.9600547153031027e-02
         - 5.5395677116911221e-02
         - -1.6575278168324947e-02
         - -1.0729279262382412e-04
         - -7.2774849542686093e-02
         - -8.5940879337212991e-02
         - 1.7064737830249557e-02
         - -6.4754380239162190e-02
         - -5.0457590829178917e-02
         - -8.4491300591653218e-02
         - 7.9327154561452715e-02
         - -5.3088003247168052e-02
         - -1.1700390628407907e-02
         - -2.8713650041788101e-02
         - -5.7131042262713358e-02
         - -6.3898360947377553e-02
         - 2.9747123662736208e-03
         - -8.9626697236805428e-02
         - -6.8153695978783110e-02
         - 1.6650588828706531e-02
         - -8.1577654596081378e-02
         - -8.9566098208292880e-02
         - 3.4131824855800436e-02
         - 9.3660289629795404e-02
         - 6.0768774475130682e-02
         - -1.5693305160705603e-02
         - 5.0561671533435902e-02
         - -1.0903363687383818e-02
         - -1.2339926428211392e-01
         - 5.6349303977222806e-02
         - -4.3593537868156507e-02
         - -2.2138263830507002e-02
         - -2.0116286410053124e-02
         - 3.1915594969541182e-02
         - -4.8019939756069087e-02
         - 3.4087362638963538e-02
         - 3.3739658827372086e-02
         - -4.6051998804517456e-02
         - 3.1297880166798228e-02
         - -1.0354437537504667e-01
         - -1.8836986980580561e-02
         - 2.8335573873070289e-02
         - 1.6993177783882221e-01
         - -8.1970700097506871e-02
         - 6.0374033650293799e-02
         - -5.3666659392026944e-03
         - 3.1511183628457791e-02
         - 1.8307380124651242e-02
         - 2.4609770179390617e-02
         - -5.7918957583564037e-02
         - -2.1651946779676096e-02
         - -6.0785249256013349e-02
         - 1.0501020290327710e-02
         - -7.1913851620489008e-02
         - -5.4481587329873946e-02
         - -1.1282286618492662e-02
         - -5.0780220813336441e-02
         - -1.1194100885816012e-01
         - 3.1560098948052381e-02
         - 1.0717485793810765e-03
         - 4.9695254889365388e-02
         - 7.8026402004374397e-03
         - 6.6657809286413752e-03
         - -1.2224084803085303e-03
         - 1.1697634396537611e-01
         - -3.6021951911866162e-02
         - 4.2800104578891808e-02
         - -1.5536489307082322e-02
         - 4.3405147548924904e-02
         - 2.9790040450156648e-02
         - -8.9878139189644417e-03
         - -2.4750565826959309e-02
         - 5.2958351977256270e-02
         - 3.7099525033665565e-02
         - -1.2138702437650377e-02
         - -3.6161605815682031e-03
         - -2.4660547812695929e-02
         - 1.5792754719431850e-02
         - -1.0321492530813095e-02
         - 3.7527122773949387e-02
         - -4.2099622529708856e-02
         - 5.8536733226545436e-02
         - -5.5047144788839410e-02
         - 1.0136631309719349e-02
         - 1.1151926389103001e-02
         - -5.0687419280673066e-02
         - -3.7308854841599519e-03
         - -1.6670410406922670e-04
         - 1.2477140359162519e-02
         - -4.9971288453831690e-02
         - -2.3762995344264105e-02
         - -1.7636200802477426e-02
         - 1.8109307362145107e-02
         - -4.1176740772795761e-02
         - 7.9134799580566541e-03
         - -2.4563556616209042e-02
         - 2.9613547792201909e-02
         - -8.2988820086480744e-02
         - -1.4562095539265974e-02
         - 3.2332089042748320e-02
         - 4.6279895561584572e-02
         - 2.3683675142239364e-02
         - 2.7786993251394571e-02
         - 4.7582548819731639e-02
         - 7.5134551643895750e-02
         - 9.3735204700440042e-02
         - 5.4590248335821510e-02
         - -2.5561507024764248e-03
         - 2.9600080357021406e-02
         - -6.6797360758080057e-02
         - -6.0672511298250270e-02
         - -4.3441820048994342e-02
         - 5.9417226800407237e-02
         - -2.6686657813928727e-01
         - 1.2008839087238396e-01
         - 6.2096614434392156e-02
         - 6.9311566404275604e-02
         - 1.6280786985068005e-02
         - -4.0919426713724501e-03
         - -5.0532251848134119e-02
         - 7.8809870119161143e-02
         - 9.3204478849210071e-02
         - -6.6133731158816650e-03
         - 6.1157364920814694e-02
         - 1.9615012223488051e-01
         - -2.6535162746651041e-02
         - 5.3615937150716247e-02
         - -4.7636003098308705e-02
         - -7.3279612417919762e-02
         - 6.5145474563422470e-02
         - -4.8726040298402815e-02
         - 9.5186791343062474e-02
         - -1.6426247021670351e-01
         - 7.4856780383321359e-02
         - -1.5349180707627758e-01
         - 1.8957605870741544e-02
         - -1.9717155598713004e-01
         - -5.5591021710963855e-02
         - -1.7752428701842907e-01
         - 5.3840723135856638e-02
         - -1.2678781835560862e-01
         - 2.5956241985019717e-02
         - 4.5411653425952214e-02
         - -2.6723488160178100e-02
         - -8.5923619875323209e-02
         - 4.7020086028030934e-02
         - -7.1380872571701878e-02
         - 4.8532924633902075e-02
         - -1.7385898787136325e-02
         - 6.6406560759894220e-02
         - -2.9657076404322837e-02
         - -7.2221384676949746e-02
         - 7.4862158243405585e-02
         - -2.4033278654471812e-02
         - -1.5060617711398362e-02
         - 4.5462005147739092e-02
         - 3.8822880794911224e-02
         - -4.9459063731075191e-02
         - 2.6667730460891992e-02
         - 5.8001791163343044e-02
         - -3.7570624393158482e-02
         - -7.4288726858643128e-02
         - -3.9212191740631029e-02
         - 8.6043178601007089e-02
         - 2.4818372440475033e-02
         - 1.1343131797091746e-01
         - -2.8839735355151662e-03
         - 4.3480579008805191e-02
         - -7.2661312713319520e-02
         - 2.5377376972036958e-03
         - -1.3053988294018795e-01
         - 4.8370876065952306e-02
         - -8.4430302302422544e-02
         - -7.4580226187265675e-02
         - -7.3724308103359634e-03
         - 2.6628105172191502e-03
         - -9.5934210765559830e-02
         - -1.7748928931270908e-01
         - 6.8737997814464873e-03
         - -6.7294985214282718e-02
         - -1.6774063465532835e-01
         - 2.5812892126476649e-02
         - -4.1033004095073787e-02
         - -3.8268343677306672e-02
         - 5.3298259209961354e-02
         - 1.4823504674662601e-02
         - -1.7555595883361141e-02
         - 1.8896336517722487e-01
         - 1.8325796678873824e-02
         - -2.4007762993528525e-02
         - -1.2857452731556424e-01
         - -3.8026734446672282e-02
         - -5.7384651997520374e-02
         - 4.2855645226747771e-02
         - -7.0345812377466552e-02
         - 2.1574504804656849e-02
         - 2.5592214515966993e-01
         - -2.3150444204274385e-02
         - 6.6068563022402592e-03
         - 4.3124896314031772e-03
         - -2.5823581740887905e-02
         - -3.0852816412990758e-02
         - 6.3217857117218350e-03
         - -2.6182616373398769e-02
         - 4.8152597106809303e-02
         - -4.0810481275865673e-02
         - -1.0208814345531655e-01
         - 2.1722041785164754e-02
         - 6.6923829232475932e-02
         - 3.4086572665174872e-03
         - 2.4672928711616032e-03
         - -2.7579865307614786e-02
         - 2.2607577553335926e-02
         - 2.0377148403377864e-02
         - 2.6925619265314739e-03
         - -9.2627286708443710e-02
         - -2.9361989650373115e-02
         - -1.0122805768213812e-02
         - -1.5569739462723703e-01
         - -5.0140103975097198e-03
         - 1.7886250661262502e-02
         - 2.4860096609367489e-02
         - 7.3117154878351558e-03
         - 2.0140080987260459e-02
         - 1.3314603517575119e-02
         - -1.1240144901549333e-01
         - 1.6902995884377481e-02
         - 9.6167211828102853e-02
         - 4.7899131411366973e-02
         - 1.6519701827897994e-02
         - -3.8191260759461228e-02
         - 2.3087848657987561e-02
         - -8.8867558108585806e-02
         - -7.3084239421027014e-02
         - -4.6640848373365006e-04
         - -2.9038008155452873e-02
         - -7.4828510882250801e-02
         - 1.6494231108542045e-02
         - 5.0776964938853714e-03
         - -1.6241583318396896e-02
         - -1.8541636184139139e-03
         - 1.3843627907716956e-03
         - -2.0556472436126440e-02
         - 3.9241188020804792e-03
         - 1.5621221820139489e-01
         - -4.3203117927645890e-02
         - -1.0016105158598509e-01
         - -8.8811340664998253e-02
         - -8.7493270187093634e-03
         - 2.4160090174665319e-01
         - -3.4918760871028572e-04
         - -7.8215960441075177e-02
         - 3.8257508315231309e-02
         - 7.3451258506271724e-02
         - 1.0829346002930638e-01
         - 1.2026128037635633e-01
         - 6.0894526376046101e-03
         - -7.0800536498021177e-02
         - 3.6262199819431570e-03
         - -1.4443686090803423e-01
         - 1.0402184670697272e-02
         - 7.7776381081004573e-04
         - -4.6498286831364324e-02
         - 1.7389205602302015e-02
         - 4.3005631486357013e-02
         - -5.7435137479363456e-02
         - -5.5814486429629061e-03
         - -4.0594953231755757e-02
         - 7.6653834672712473e-02
         - -1.6171072003623305e-02
         - 5.2134086626454586e-03
         - 1.0566339089565207e-02
         - 1.3609485704146232e-01
         - 3.8595084556705711e-02
         - -1.8887114578592119e-02
         - 7.6105115413816718e-02
         - -7.2625052212418623e-03
         - 2.4812422687998128e-02
         - 1.0419786610410690e-01
         - -8.1307547172494981e-03
         - -5.5238277082501432e-02
         - 2.5009630275163647e-02
         - 4.2750230164458981e-02
         - -1.4574803209053439e-02
         - 2.1447862045591540e-01
         - -7.8878568781794764e-02
         - 4.0058674147321040e-02
         - 6.2871570644956076e-02
         - 1.1935644313470904e-01
         - 1.1848869484456813e-01
         - -2.7282955930656209e-03
         - 7.6838262060620914e-03
         - -1.8945337253212728e-02
         - 1.1156903516958631e-01
         - -1.7827232325475770e-02
         - -1.0629037396525967e-02
         - 3.4594440163080754e-02
         - 1.6202135211287865e-03
         - -1.2715882789465900e-02
         - -4.1219039235767738e-02
         - -1.6614981014046709e-01
         - 7.5364872577192710e-02
         - 1.0285330955135681e-02
         - -4.8852138037919261e-02
         - 2.2394026551255516e-03
         - -1.3363733813886974e-01
         - 3.2119457428662873e-02
         - 8.6734011719971305e-02
         - 1.2769214705223741e-01
         - -5.0726679640095123e-03
         - 4.4365770013510589e-04
         - -3.7364299123394736e-02
         - 2.7891183411281426e-02
         - -8.0501803614709919e-02
         - 8.4620637024784891e-03
         - -3.9932087567097388e-02
         - -9.9925497262465246e-03
         - -1.2237905867620243e-02
         - 2.0167935795843767e-02
         - 4.0042580668512039e-02
         - 1.0356586744595506e-01
         - 4.3713742187738998e-02
         - -7.3037858373181316e-03
         - -1.1805784481456243e-02
         - 4.6434995566602487e-02
         - -3.5252662171483817e-02
         - -3.6741714992249434e-03
         - 6.7418935190548170e-03
         - -7.6848980757512082e-03
         - -6.1483409726506920e-02
         - 1.1084854011545268e-02
         - 8.4016379009275600e-03
         - 2.7078128103780894e-02
         - 2.3454941183297637e-02
         - 7.3277818846581202e-02
         - 7.7560779377205097e-02
         - 9.2994580049253830e-03
         - 7.4929815028692368e-03
         - -3.4054619301227010e-02
         - -5.5350934829272086e-02
         - 1.6384464818089889e-02
         - -1.2939861269060937e-01
         - 2.2500937409110987e-02
         - -6.3984913596477566e-02
         - -5.5925729716826640e-02
         - 5.4688556119446410e-02
         - 2.7495441996442743e-02
         - -1.2096883908808502e-02
         - 1.0464326924001311e-02
         - 1.2287114395055311e-01
         - -1.0290200499854953e-01
         - 1.2674145067411609e-03
         - 1.8806700341155995e-02
         - 4.0176784698106897e-03
         - 9.6104973895803900e-02
         - 1.4127330246622732e-01
         - 3.2477634955062534e-02
         - 5.0698075344737366e-02
         - -8.3824525406852347e-03
         - -1.0934295326371790e-01
         - 7.7747502396005586e-02
         - -3.3974932053655399e-02
         - -2.5357551128787112e-02
         - 2.7328663954655445e-02
         - -6.8517031900156636e-02
         - -1.0226938110258434e-01
         - 8.8260327079205170e-02
         - -9.9638811553477091e-02
         - 9.8875530643061163e-02
         - -4.0466623094343686e-02
         - 1.4835231142006317e-01
         - -3.6555176996411840e-03
         - -1.8731334686000103e-02
         - -1.8241619416951092e-02
         - -6.1851588523832060e-02
         - 2.8316542629474679e-03
         - 1.0698424320904894e-01
         - -1.6640630588677752e-02
         - -7.6818498962014772e-02
         - 1.9311232828494861e-02
         - -6.6480349339925721e-02
         - -2.0342692092949342e-02
         - -1.0784707552856823e-01
         - -2.4112660269804569e-02
         - -2.4331758691957788e-02
         - -6.1543035086589065e-02
         - 5.3003006747168104e-02
         - 4.9264695897608207e-02
         - 2.5782410741784268e-02
         - -3.7275721164025173e-02
         - -4.3572464579918140e-02
         - -2.0049617164054692e-02
         - 2.9578357896033653e-02
         - 3.4054959082499177e-02
         - -2.9473231782885283e-02
         - -1.3449642393893613e-01
         - -4.5815515431295126e-02
         - -3.7512026660726202e-03
         - -1.6778421494668239e-02
         - -7.3503879588963553e-02
         - 5.3677873736845565e-02
         - -1.1752559667619926e-01
         - 7.3226425712648521e-02
         - 5.4483586290442337e-02
         - 3.5645174162518001e-02
         - -2.3838054572519769e-02
         - -5.8579809874172835e-02
         - 5.9037977854327003e-02
         - -5.9400631955888801e-02
         - 7.2251949826071526e-02
         - 1.8581408520451320e-01
         - 1.3181400077475078e-01
         - -6.8677934637961235e-02
         - 2.1114400651976603e-02
         - 2.2081858385513312e-02
         - 2.1128320503021349e-02
         - -3.1621718138929576e-02
         - 1.5270414966001428e-01
         - 1.9992084249448001e-02
         - 6.8065641716176274e-03
         - 2.2592354682968149e-02
         - -2.7247003575764723e-02
         - -2.5189770121431386e-02
         - -8.3900020142301329e-02
         - -5.2951114006460603e-02
         - 4.0941276380680861e-02
         - -6.0217732123229728e-02
         - 6.9166238176220862e-02
         - 6.1516793012042173e-02
         - 1.1701056180225677e-01
         - -1.1725254886985095e-01
         - -2.6122105759077356e-02
         - -8.6859194809352169e-02
         - -5.6117539090441704e-03
         - -6.4203643300820332e-02
         - 3.6785921125317797e-02
         - 4.3720173387405649e-03
         - -2.4733139459358663e-02
         - -5.4382915682477722e-03
         - 3.1986163889362797e-02
         - -6.9829620123045791e-02
         - 9.4506022124386441e-02
         - 1.0305628750701745e-01
         - 4.7025006326587765e-02
         - 2.0267295091018181e-01
         - -4.2311307522841513e-02
         - 2.8693193601789693e-02
         - 3.3930003813992249e-04
         - 3.6955859414673324e-02
         - -5.0603258340033951e-02
         - 8.5365645505741609e-03
         - -2.5544654638823112e-02
         - -8.3013341402058710e-02
         - 1.0367606366888585e-02
         - -4.7404898997096746e-02
         - 3.4482711562777310e-02
         - 1.7221079461607609e-03
         - -1.3953158884998942e-01
         - -2.7437382854243270e-02
         - -1.2111545966563466e-02
         - -1.0824436971172470e-02
         - -7.5264015598154849e-02
         - -4.4023530096710548e-02
         - 2.2233829332611213e-02
         - 4.1121626571692473e-02
         - -9.3047209392649634e-03
         - -2.4990185828065368e-02
         - 7.3328751051846886e-04
         - -1.4193762382858032e-02
         - 2.5604817497889180e-02
         - -1.8482996815537993e-02
         - 8.0384301708001774e-02
         - -4.6626825362368833e-02
         - 7.5479489039501066e-02
         - -4.7645355360236508e-02
         - 9.7826489948943801e-02
         - 2.9988101659318388e-02
         - -6.3858248608626819e-04
         - 1.6980549542996600e-02
         - 4.4194425851477620e-02
         - 3.0398285980170012e-02
         - 3.3585231319632168e-02
         - -4.7220745166174083e-02
         - 6.2521167669250283e-02
         - -3.8585708078469954e-03
         - -2.6052136400365059e-03
         - 2.3142798110158215e-02
         - 1.8027385962672354e-03
         - 4.7845193578528265e-03
         - -1.9049766820527673e-02
         - -3.5685273267755696e-02
         - 6.1265143239591452e-02
         - -1.7251712901340963e-02
         - 1.0396722442571091e-01
         - -1.0002443741078578e-02
         - -1.1496154910802253e-01
         - -1.3155982581343808e-02
         - 7.1879309070176214e-02
         - -2.4661989483732515e-02
         - -2.1852260719039285e-02
         - -1.1212432895919891e-01
         - -4.9023088214908507e-02
         - 3.4519783878109160e-02
         - -8.6697871954159375e-04
         - -6.5093486558799032e-04
         - 3.5567397328494302e-02
         - -3.4220733991638608e-02
         - 2.7962993978375032e-02
         - -4.7823243614990539e-02
         - -3.4382817967223284e-02
         - -7.2797838914111087e-03
         - 3.9699628512983941e-02
         - -1.3945675640776796e-02
         - -8.1797225535960666e-02
         - 6.1284701920284674e-03
         - 1.5799517415448239e-01
         - 1.0512294745226297e-02
         - -2.6624964934305731e-02
         - -1.6682389016675231e-01
         - -1.0724677297734152e-02
         - -4.3571954133249866e-02
         - 2.6914726691441428e-02
         - 4.5552730782015827e-03
         - 8.1837230966464898e-03
         - -6.5322925784466385e-02
         - 3.3067624323101868e-02
         - 1.9442418822426251e-03
         - 3.4072405745738776e-02
         - 1.8781337508023105e-02
         - -5.8741876471476396e-03
         - -4.0704609676329086e-02
         - -5.9716303419534586e-02
         - 1.7837114120094980e-02
         - 5.4599422953230409e-03
         - 1.8964160873646274e-01
         - -1.5712944463207745e-01
         - 4.2446728274933218e-02
         - 6.7075926585326046e-02
         - -1.5956179695675903e-02
         - 4.2451599708926563e-02
         - -8.5418782514749673e-04
         - 6.0069242982446973e-02
         - 2.6296434614534989e-02
         - 1.1990533492124522e-03
         - -2.7365466633372786e-02
         - -9.8485474580308888e-02
         - -8.3613827386148892e-02
         - -6.7014787224828107e-02
         - -4.4417477253503573e-03
         - -3.1149719013881704e-02
         - 4.6399356045781267e-03
         - 1.1497532644962598e-02
         - 9.4115379307938035e-02
         - -8.5437817503739716e-02
         - -1.7492949160543027e-02
         - -9.0561504890520304e-03
         - 6.5637330561657034e-02
         - -9.0176936276334149e-02
         - 1.7747936511517091e-02
         - 3.1249389597433799e-02
         - -1.5724641649932043e-02
         - 3.4095425045233725e-02
         - 1.9285968279088621e-02
         - -3.0135824427602386e-02
         - 8.7551372519236777e-03
         - -2.4730990000331174e-02
         - -2.1366834865539093e-02
         - 9.5162929001674553e-03
         - -5.7543235666299916e-03
         - 7.5626626674298217e-02
         - -8.4461783044077095e-03
         - 3.6276911011184750e-02
         - -1.6797106854569543e-02
         - 8.0262166675797008e-03
         - -1.5798846315344773e-02
         - 4.1364781184899953e-02
         - 2.7073452681786654e-03
         - -1.6895832996960392e-02
         - 3.3536559933581768e-02
         - -5.8916265227625116e-02
         - -2.2380574018319405e-02
         - -8.1464055019896300e-02
         - 1.0705995306858146e-02
         - -1.5259135360590295e-03
         - 4.7854069514975041e-02
         - -3.4136461153463041e-02
         - 8.7577716134091196e-02
         - 2.0793826176137908e-01
         - -1.6058177058749748e-02
         - 8.0462742423980625e-03
         - 8.6512424458870030e-02
         - -4.1110835178988080e-02
         - 6.1506818381107829e-03
         - -3.2505254651445048e-02
         - 2.4757663858091292e-02
         - -1.3523461654672245e-01
         - 9.0634867047563850e-02
         - 3.7300967148788652e-02
         - -4.3593567269837728e-02
         - 7.4697315724777530e-03
         - 6.2301890394021713e-03
         - -3.8859311316631555e-02
         - -2.5185593963279684e-02
         - 2.0204671675629979e-02
         - -2.5118720948300012e-02
         - -6.0870423199022312e-02
         - 2.5773980666997584e-02
         - -1.5095976256652845e-02
         - -1.6253931920963111e-02
         - -5.3655997961852372e-02
         - 4.5922865938641498e-02
         - 3.2659021389543429e-02
         - -6.8129645583009241e-02
         - 2.0266848569637827e-02
         - 1.5383130188805603e-02
         - 1.4190248510476464e-01
         - 1.3044172263428805e-01
         - 4.4007153947838329e-04
         - -2.4644611651869808e-02
         - 5.1680103167484365e-02
         - -8.6708709431669612e-02
         - -6.5692164618584223e-02
         - -7.0463214986956665e-02
         - 4.5146533485446415e-03
         - -1.8105525007957785e-01
         - 3.6134924545642801e-02
         - 2.2345976160804526e-01
         - -1.6126436505602630e-02
         - -1.5983228023688628e-01
         - 1.5182916985370321e-02
         - 2.9545294406481985e-03
         - 8.4239688606953364e-04
         - -4.4456882691772705e-02
         - -2.2131526033358161e-03
         - -2.1603365384109539e-02
         - 4.6734285951287383e-02
         - 4.9561476842995632e-02
         - 2.6152541535732061e-02
         - -5.4158275143382478e-02
         - -8.1759800162602481e-02
         - -5.4120072011473612e-02
         - 2.7750212451053663e-02
         - 1.7493092562529775e-02
         - 5.7149194419354218e-02
         - 1.9571798538852242e-02
         - 1.3374643230516323e-03
         - -4.5584797264409657e-02
         - 1.8939143692244226e-01
         - 2.2460576915242985e-02
         - 6.6850324268098504e-02
         - 1.1454375451658268e-01
         - -4.4637467116678486e-02
         - 5.1574465260024405e-02
         - -2.9155977433411879e-02
         - -1.0973673359161748e-01
         - 3.2416753410497254e-02
         - -1.2949599368392475e-01
         - 2.7681027712346672e-02
         - 4.0597084680012711e-02
         - 1.5437081817881783e-02
         - 1.0463485114550980e-02
         - -2.2671374454831323e-02
         - 5.6308126833611638e-02
         - -4.5381849971690407e-03
         - 3.4451881908408491e-02
         - -7.9358277623345200e-02
         - -2.3933798824213547e-02
         - 1.3636894672465169e-02
         - 5.7550004230523276e-02
         - 2.5203550537828422e-02
         - -2.0724924313669311e-02
         - -9.1188407430016476e-03
         - 4.8539468702414552e-02
         - -1.9537511020250118e-03
         - 8.9664727354963995e-03
         - 6.8575917091161495e-02
         - -1.1898268734617701e-01
         - 2.3408007461505939e-02
         - 9.4334163083718156e-02
         - 6.5642618024726554e-02
         - -2.6606265656522042e-02
         - 1.1204334567046868e-01
         - 8.4322358127130880e-04
         - 4.4507871196604515e-02
         - -2.4665401462289693e-02
         - -2.0683715363214582e-02
         - 2.9536695677558660e-02
         - -5.3025776589292757e-02
