%YAML:1.0
---
opencv_ml_ann_mlp:
   format: 3
   layer_sizes: [ 81, 123, 77, 35 ]
   activation_function: SIGMOID_SYM
   f_param1: 1.
   f_param2: 1.
   min_val: -9.4999999999999996e-01
   max_val: 9.4999999999999996e-01
   min_val1: -9.7999999999999998e-01
   max_val1: 9.7999999999999998e-01
   training_params:
      train_method: BACKPROP
      dw_scale: 5.0000000745058060e-02
      moment_scale: 5.0000000745058060e-02
      term_criteria:
         epsilon: 1.0000000000000000e-04
         iterations: 300
   input_scale:
      - 4.5316474182125104e+00
      - -2.2320838258400029e+00
      - 5.2597609180995173e+00
      - -1.0409044108433658e+00
      - 6.9825416339750097e+00
      - -7.3633371605401521e-01
      - 6.7454565203788031e+00
      - -6.3280615443972299e-01
      - 4.8710867861265514e+00
      - -8.2910995864187798e-01
      - 7.1743415712448906e+00
      - -6.4735211099661616e-01
      - 7.4472266057054206e+00
      - -5.6924680110133463e-01
      - 6.6047831982950829e+00
      - -6.1878319687336802e-01
      - 4.5399515169848215e+00
      - -2.1821340802931277e+00
      - 5.3036581091781567e+00
      - -2.8897078532794760e+00
      - 6.5985239710424635e+00
      - -5.9216828314278391e-01
      - 9.2665263381301646e+00
      - -4.9003099470062472e-01
      - 7.3320246673115257e+00
      - -6.4408366142359241e-01
      - 4.5885452516355780e+00
      - -8.1239149302772284e-01
      - 8.0706633351536858e+00
      - -5.9218785318754907e-01
      - 7.5316391704017045e+00
      - -5.9564322756764210e-01
      - 5.6495606383818311e+00
      - -8.7599992632855128e-01
      - 5.3215980018041718e+00
      - -2.9146396621012354e+00
      - 4.4013372679544460e+00
      - -1.9842612037237493e+00
      - 1.1124473847680273e+01
      - -4.2289956706182186e-01
      - 1.1759091558968914e+01
      - -4.0435754394934409e-01
      - 1.0648397215634018e+01
      - -4.5974051886665951e-01
      - 6.3658166963914589e+00
      - -5.9334387151050272e-01
      - 7.1747287285482235e+00
      - -5.3627439002443900e-01
      - 4.5622564515875501e+00
      - -9.7281772345523143e-01
      - 4.3529729657320342e+00
      - -1.3133600450828276e+00
      - 4.6952987585283985e+00
      - -2.3604422038400541e+00
      - 7.3146856753421652e+00
      - -3.2541688582442627e+00
      - 6.1930201767190125e+00
      - -1.6163250340706878e+00
      - 6.6187777094562801e+00
      - -1.3462991611088233e+00
      - 5.7167203145453405e+00
      - -1.3772580714936205e+00
      - 5.8451160180555481e+00
      - -2.0663010888519238e+00
      - 5.9046793668315010e+00
      - -1.2785314126214231e+00
      - 6.4427048132455642e+00
      - -1.0167842623133467e+00
      - 6.4718033638976786e+00
      - -1.0192472806028090e+00
      - 6.8257381313966050e+00
      - -2.8429738528436808e+00
      - 8.2758939583333415e+00
      - -3.6930679351391982e+00
      - 6.2420807775827916e+00
      - -1.0405451956997369e+00
      - 6.9036768404368534e+00
      - -9.8100853708490365e-01
      - 5.6736518967558212e+00
      - -1.3110203708165684e+00
      - 6.2309523364611099e+00
      - -2.3973545222262724e+00
      - 5.8145222410169755e+00
      - -1.4468567743031522e+00
      - 6.7141596002688235e+00
      - -1.1078928862150961e+00
      - 6.3792469492798487e+00
      - -1.3657795782330211e+00
      - 7.8665399040508071e+00
      - -3.5177092230279103e+00
      - 6.1376670657856316e+00
      - -1.9706149783528220e+00
      - 7.6242232582297387e+00
      - -7.4461665037717517e-01
      - 7.0957039412926450e+00
      - -7.9992197742766602e-01
      - 6.7566382119712136e+00
      - -8.6048555401871973e-01
      - 5.4081486110580590e+00
      - -1.4315551377252091e+00
      - 5.7020375195153159e+00
      - -1.6208775580036285e+00
      - 6.9897495304586998e+00
      - -2.7461340123759457e+00
      - 7.7041306165986532e+00
      - -3.1484080046326763e+00
      - 7.4343466003960348e+00
      - -3.0913135084196566e+00
      - 5.0766265114420461e+00
      - -1.5183585031881293e+00
      - 6.3836284104992194e+00
      - -1.2328203567120164e+00
      - 6.3037344775462243e+00
      - -1.4247268833368589e+00
      - 5.3239351291263679e+00
      - -1.8072192331626833e+00
      - 5.5238686690068119e+00
      - -2.6807525023333110e+00
      - 5.1504488544874780e+00
      - -1.3351269595741326e+00
      - 6.2996128531040556e+00
      - -9.1851349831848894e-01
      - 6.4630328016095477e+00
      - -9.4191398651622915e-01
      - 5.3765025320696402e+00
      - -1.4716605794903772e+00
      - 5.3905713186049775e+00
      - -1.6134778658000855e+00
      - 6.5973844207318590e+00
      - -1.0241645125654595e+00
      - 6.3549518704593471e+00
      - -9.7240269273366875e-01
      - 5.0043094391430278e+00
      - -1.3923653171054624e+00
      - 6.3010143604197486e+00
      - -3.1664584622246634e+00
      - 5.4023663327210487e+00
      - -1.8179878310435929e+00
      - 6.2104772110842843e+00
      - -1.0660732015572956e+00
      - 6.5010282109608761e+00
      - -1.0755296838708799e+00
      - 5.2786553752706977e+00
      - -1.5890031851849882e+00
      - 6.0372650591606725e+00
      - -1.0516376525448383e+00
      - 7.0378527302300808e+00
      - -7.3713547819808289e-01
      - 6.8903474845434571e+00
      - -7.4346890388464060e-01
      - 6.3316977856612642e+00
      - -8.4377598531394882e-01
      - 4.8878781872703314e+00
      - -2.0126017247460570e+00
      - 6.0739649314683941e+00
      - -2.5473075737434829e+00
      - 6.2484113857176551e+00
      - -2.5258725408492864e+00
      - 5.5677675476333786e+00
      - -1.7264280615927310e+00
      - 5.2025889714653513e+00
      - -1.1612947149180599e+00
   output_scale:
      - 5.2631578947368418e-01
      - 4.9999999999999994e-01
      - 5.2631578947368418e-01
      - 4.9999999999999994e-01
      - 5.2631578947368418e-01
      - 4.9999999999999994e-01
      - 5.2631578947368418e-01
      - 4.9999999999999994e-01
      - 5.2631578947368418e-01
      - 4.9999999999999994e-01
      - 5.2631578947368418e-01
      - 4.9999999999999994e-01
      - 5.2631578947368418e-01
      - 4.9999999999999994e-01
      - 5.2631578947368418e-01
      - 4.9999999999999994e-01
      - 5.2631578947368418e-01
      - 4.9999999999999994e-01
      - 5.2631578947368418e-01
      - 4.9999999999999994e-01
      - 5.2631578947368418e-01
      - 4.9999999999999994e-01
      - 5.2631578947368418e-01
      - 4.9999999999999994e-01
      - 5.2631578947368418e-01
      - 4.9999999999999994e-01
      - 5.2631578947368418e-01
      - 4.9999999999999994e-01
      - 5.2631578947368418e-01
      - 4.9999999999999994e-01
      - 5.2631578947368418e-01
      - 4.9999999999999994e-01
      - 5.2631578947368418e-01
      - 4.9999999999999994e-01
      - 5.2631578947368418e-01
      - 4.9999999999999994e-01
      - 5.2631578947368418e-01
      - 4.9999999999999994e-01
      - 5.2631578947368418e-01
      - 4.9999999999999994e-01
      - 5.2631578947368418e-01
      - 4.9999999999999994e-01
      - 5.2631578947368418e-01
      - 4.9999999999999994e-01
      - 5.2631578947368418e-01
      - 4.9999999999999994e-01
      - 5.2631578947368418e-01
      - 4.9999999999999994e-01
      - 5.2631578947368418e-01
      - 4.9999999999999994e-01
      - 5.2631578947368418e-01
      - 4.9999999999999994e-01
      - 5.2631578947368418e-01
      - 4.9999999999999994e-01
      - 5.2631578947368418e-01
      - 4.9999999999999994e-01
      - 5.2631578947368418e-01
      - 4.9999999999999994e-01
      - 5.2631578947368418e-01
      - 4.9999999999999994e-01
      - 5.2631578947368418e-01
      - 4.9999999999999994e-01
      - 5.2631578947368418e-01
      - 4.9999999999999994e-01
      - 5.2631578947368418e-01
      - 4.9999999999999994e-01
      - 5.2631578947368418e-01
      - 4.9999999999999994e-01
      - 5.2631578947368418e-01
      - 4.9999999999999994e-01
   inv_output_scale:
      - 1.8999999999999999e+00
      - -9.4999999999999996e-01
      - 1.8999999999999999e+00
      - -9.4999999999999996e-01
      - 1.8999999999999999e+00
      - -9.4999999999999996e-01
      - 1.8999999999999999e+00
      - -9.4999999999999996e-01
      - 1.8999999999999999e+00
      - -9.4999999999999996e-01
      - 1.8999999999999999e+00
      - -9.4999999999999996e-01
      - 1.8999999999999999e+00
      - -9.4999999999999996e-01
      - 1.8999999999999999e+00
      - -9.4999999999999996e-01
      - 1.8999999999999999e+00
      - -9.4999999999999996e-01
      - 1.8999999999999999e+00
      - -9.4999999999999996e-01
      - 1.8999999999999999e+00
      - -9.4999999999999996e-01
      - 1.8999999999999999e+00
      - -9.4999999999999996e-01
      - 1.8999999999999999e+00
      - -9.4999999999999996e-01
      - 1.8999999999999999e+00
      - -9.4999999999999996e-01
      - 1.8999999999999999e+00
      - -9.4999999999999996e-01
      - 1.8999999999999999e+00
      - -9.4999999999999996e-01
      - 1.8999999999999999e+00
      - -9.4999999999999996e-01
      - 1.8999999999999999e+00
      - -9.4999999999999996e-01
      - 1.8999999999999999e+00
      - -9.4999999999999996e-01
      - 1.8999999999999999e+00
      - -9.4999999999999996e-01
      - 1.8999999999999999e+00
      - -9.4999999999999996e-01
      - 1.8999999999999999e+00
      - -9.4999999999999996e-01
      - 1.8999999999999999e+00
      - -9.4999999999999996e-01
      - 1.8999999999999999e+00
      - -9.4999999999999996e-01
      - 1.8999999999999999e+00
      - -9.4999999999999996e-01
      - 1.8999999999999999e+00
      - -9.4999999999999996e-01
      - 1.8999999999999999e+00
      - -9.4999999999999996e-01
      - 1.8999999999999999e+00
      - -9.4999999999999996e-01
      - 1.8999999999999999e+00
      - -9.4999999999999996e-01
      - 1.8999999999999999e+00
      - -9.4999999999999996e-01
      - 1.8999999999999999e+00
      - -9.4999999999999996e-01
      - 1.8999999999999999e+00
      - -9.4999999999999996e-01
      - 1.8999999999999999e+00
      - -9.4999999999999996e-01
      - 1.8999999999999999e+00
      - -9.4999999999999996e-01
      - 1.8999999999999999e+00
      - -9.4999999999999996e-01
   weights:
      -
         - -1.3728187704475867e-01
         - 9.9402797591993011e-02
         - -9.2522085176329316e-02
         - 1.4870491316825629e-01
         - -1.6700487562639907e-02
         - -1.9038103533770034e-01
         - -6.9384789749596193e-02
         - 1.6368597253190909e-01
         - -2.6356602636412213e-01
         - -2.4409418650308851e-01
         - -1.0405779109627589e-01
         - 1.0347722260734378e-01
         - 3.2482124134378165e-01
         - 4.5083964610933440e-02
         - -3.3243107143417044e-01
         - -1.1765716959317536e-02
         - -1.7220602556047536e-02
         - 1.3522851335713826e-01
         - -4.4522080403827273e-04
         - 3.4018637009541453e-01
         - -2.5646473407594556e-01
         - -5.3889766336942480e-01
         - 2.9526181175573107e-02
         - 2.4347253522869924e-01
         - 1.7437797593437099e-01
         - 9.5595575768286564e-04
         - -9.9566734828421377e-02
         - -2.5344584047710500e-01
         - -1.1823375184326253e-01
         - -2.7169499674507540e-02
         - -1.8078700211835105e-01
         - -1.0378211975970840e-01
         - 4.7228641995926235e-01
         - 1.2433425681182614e-01
         - -1.7623065375818067e-01
         - -1.1752588929965387e-01
         - -9.8010851316034930e-02
         - -2.8173048260927602e-01
         - -2.7244497447739765e-02
         - 1.2199318852033239e-01
         - -1.6619023678516121e-01
         - -3.2248836015620613e-01
         - 3.8729110251906773e-01
         - 3.5758561346474246e-02
         - 2.0206407053262022e-03
         - 1.1733851648742044e-02
         - -1.5068112890647345e-01
         - 2.3100430900187718e-01
         - 1.6994430291314469e-01
         - -2.3178530958410271e-01
         - -2.3230199966081200e-01
         - 1.1470564106264219e-01
         - 6.8040695963624640e-03
         - 8.7875651143672642e-02
         - -1.3172362626636405e-01
         - 4.6921949038344769e-02
         - 5.2172627279762379e-02
         - 3.6417963746460419e-01
         - -3.5557700956327815e-01
         - -7.1885051198407157e-02
         - -3.5047852011116487e-01
         - -3.3931770442500925e-01
         - 1.0196812528716143e-01
         - -2.3171377219748412e-01
         - 1.8220942066687762e-01
         - -2.4006209751001409e-01
         - -4.6558933663750295e-02
         - 3.1499518547168570e-01
         - 5.8928051726888725e-02
         - 7.8456691505889825e-02
         - -1.7192614670820658e-01
         - 1.7022288110142866e-01
         - -1.5310016871150942e-01
         - 8.9594667004249409e-02
         - 1.2144753856936517e-01
         - 8.0913383960876953e-02
         - -9.0272100296094657e-02
         - 4.1844886979532003e-01
         - 2.0823177513788571e-01
         - -1.1072068708546250e-01
         - -4.6095377034907396e-02
         - -1.2506918546393936e-01
         - -6.3942903051322997e-02
         - 9.2634660333122509e-02
         - 7.1602278487905902e-02
         - 1.9060192456266181e-02
         - -7.7283538021625714e-02
         - 2.6397668135273616e-01
         - 1.9281460481798465e-01
         - -1.4483732424959189e-01
         - -3.3768932067644912e-02
         - -3.4702748122475180e-01
         - -1.9889188759699933e-01
         - 1.8557326508285282e-01
         - -3.5838753955460378e-01
         - -3.8953839195343937e-01
         - -2.0054942978812293e-01
         - -1.9699603138026656e-02
         - -1.1344912451744227e-01
         - -3.5448437255218107e-01
         - 3.3990948379098512e-01
         - -2.3509197149627284e-01
         - 4.5909448342737319e-01
         - -1.4847307330748208e-01
         - -8.1159882613633749e-01
         - -2.5533232314351456e-01
         - 2.5684273972266403e-01
         - 1.1201358824699113e-02
         - -3.2244774058090936e-01
         - 1.3113274229382804e-01
         - 8.2668735461683976e-02
         - 1.6283129672241392e-01
         - -2.4190410388539776e-01
         - -1.1077971722320721e-02
         - -2.2741107978819841e-01
         - 2.8335922453449247e-01
         - 3.5754619443860228e-03
         - 2.0884088980957272e-01
         - -4.6485983233588407e-02
         - 1.8133255384281310e-01
         - 3.2780359886877264e-01
         - -1.8633254315915745e-01
         - -3.5502703992779772e-01
         - -5.4179669429095419e-02
         - 3.2830432215149474e-01
         - 7.9002623957214788e-02
         - -2.0442434290036646e-01
         - -3.4160645299112152e-01
         - 1.5157502622277982e-01
         - -3.1664533036857506e-01
         - 7.7075085195729030e-03
         - 1.8834469074247373e-01
         - 2.2081585696890002e-01
         - -4.1156956732244163e-02
         - -2.4817990169059220e-01
         - 1.9921906365789843e-02
         - -2.1820371987628956e-01
         - -1.0553413506692633e-02
         - 2.9523053865219012e-01
         - -3.7220990544940019e-01
         - -1.0081369739660104e-01
         - 6.1272003284816995e-02
         - 2.3340227352546788e-01
         - 2.1270086880749886e-01
         - -5.7879830927246700e-01
         - -2.5779758668386325e-02
         - -1.9221306029533483e-01
         - 5.3815276979296101e-01
         - 1.3372540664390273e-01
         - -1.2251631595486209e-01
         - -2.8243953857283727e-01
         - 3.8840302029710660e-01
         - -8.6407858769056822e-02
         - -2.6001593674416157e-01
         - -9.3946104458004873e-02
         - -8.6661160201566945e-02
         - 1.5352995066142613e-01
         - -1.7430270570093917e-01
         - -6.5246463629702156e-02
         - -1.2758392489867657e-01
         - 1.2352913863131706e-01
         - 2.8673395341542916e-02
         - -2.4570179840969869e-01
         - -4.0366808171729468e-01
         - -1.4256198945278678e-01
         - -2.1168357159042711e-01
         - 3.6821351429804416e-01
         - 6.0460349047615415e-02
         - 2.2674101831982044e-01
         - -1.4775077180877372e-01
         - 2.9106765852526867e-01
         - 4.1623403257200547e-01
         - -2.0074280405690906e-01
         - 2.2685951472917187e-01
         - -2.1148724760018667e-02
         - -3.6664000673732150e-01
         - 7.0235282029156201e-02
         - 1.6243427953265061e-01
         - -7.9977630942361488e-02
         - -1.7750295751714007e-01
         - 2.1318512246134930e-02
         - 2.0672985463829155e-01
         - 2.1879282919366697e-02
         - -1.9741596615396245e-02
         - 4.9668107699060604e-01
         - -1.9772155942991343e-01
         - -4.1548684611528208e-01
         - -4.0382004676554201e-01
         - 2.0545996334883235e-01
         - -2.5976317689409317e-01
         - 2.0391906492992978e-01
         - 3.5075406789653613e-03
         - 1.3935163221080604e-01
         - 3.5267210108238284e-01
         - -3.4072127592789277e-03
         - -9.4962248877088304e-02
         - 6.1665450618870382e-02
         - -1.5501993734839831e-01
         - 4.3078487029441109e-01
         - 1.8324411710834557e-01
         - -5.0666868098597509e-02
         - 4.7447176530407770e-01
         - -2.6211144873744791e-01
         - -3.7779004368312469e-02
         - -4.4379480352630862e-01
         - 4.0114460300150967e-01
         - -2.3904244596417334e-01
         - -1.1585392636121074e-01
         - 1.1196438912036621e-01
         - 4.1647872941906479e-02
         - 4.0517958946957011e-01
         - 2.5339394358305904e-02
         - 1.4607332280564167e-01
         - -1.2196822497808690e-02
         - -7.4500572140085097e-02
         - 1.5028050816057925e-01
         - 1.6277146350717250e-02
         - 4.7171094109004702e-01
         - 2.0751689055592278e-02
         - -5.7348419231480163e-01
         - 1.3712587213986541e-01
         - 2.7961239112256336e-01
         - -2.1454366907409414e-01
         - -8.9997419068749154e-02
         - -2.2379550593967809e-01
         - -1.2421608896995245e-01
         - -1.0861576044612112e-01
         - -6.3616259367916858e-02
         - -3.4141720079727461e-01
         - 7.7965343706395102e-02
         - 1.5944124468842458e-01
         - -2.8004008976105899e-01
         - 9.7644694993130748e-02
         - -4.3080745357478883e-02
         - -7.1709031302905471e-02
         - 3.0936889900901283e-02
         - -1.4166291260276873e-01
         - 1.3991305460661096e-01
         - -8.2813894842438798e-02
         - -8.9072815671775940e-02
         - 1.8629419316151780e-01
         - -2.1555135906096393e-01
         - 1.0188640105763411e-01
         - 3.6605682012837926e-02
         - 3.9435565619594043e-01
         - 9.2841139764154812e-02
         - -1.1169168361854437e-01
         - 1.5021404969089039e-01
         - 9.4418283554632498e-02
         - 1.0444528856040863e-01
         - -5.3069212310019354e-01
         - 2.0508031475751223e-01
         - -1.7714885802673516e-01
         - -8.8334854094193116e-02
         - 2.2845710270518624e-01
         - -1.9800388982885533e-01
         - 2.9869348407535673e-01
         - -2.8871708284624219e-02
         - 1.3862458995722641e-02
         - 2.4459116432192049e-01
         - 7.6849986682667945e-02
         - 1.2513769194028662e-01
         - -2.7462257263920697e-01
         - -4.0656135675877850e-02
         - 1.4633022277225580e-01
         - 2.7533703637052864e-01
         - 9.4142559356979641e-02
         - -4.8390165475304492e-01
         - 3.3754011953843338e-02
         - -4.6345957826214995e-01
         - 4.1051014913883282e-01
         - -6.0693010498988831e-01
         - -2.0976983181179475e-02
         - 9.7202487364903722e-02
         - 8.8546910117623737e-02
         - 2.1126693311079611e-01
         - 3.1350991794937849e-01
         - 2.8619188940562812e-01
         - -2.5911639537911205e-02
         - 1.2980049909893532e-01
         - 6.1509188796787816e-02
         - 1.0505563933711537e-01
         - 5.1542538142762648e-02
         - 3.0103312210020178e-01
         - -3.7275329693719800e-01
         - -2.3985638677667517e-01
         - -5.1235154983861664e-01
         - 1.9848036464108867e-01
         - -2.8570138199261491e-01
         - 2.9497380962569007e-02
         - -3.7215689247892141e-02
         - 1.5778014958342224e-01
         - -1.9791853078753960e-01
         - -3.8506246949965400e-01
         - 1.0405978772579128e+00
         - 1.6891763603777357e-01
         - 2.3234700451986636e-02
         - -3.0572578842012882e-01
         - -1.4434528477652120e-01
         - 2.7999733894001005e-01
         - 6.7760650238152720e-01
         - -1.3795805904854749e-01
         - 5.9169825683605008e-02
         - 3.4995630824173918e-01
         - 5.3379980112549041e-01
         - 1.3786219214187737e-01
         - -3.0962154952255577e-01
         - 1.4302958003302668e-01
         - -1.2523312291415156e-01
         - -4.9494845386912047e-02
         - -9.2696996024697900e-02
         - 9.6752209199528830e-02
         - 1.6344568643743398e-01
         - -3.4260564743733631e-02
         - 4.3916042241137127e-01
         - 2.7610961813766000e-01
         - 2.4684513740985017e-01
         - -3.4769327858369725e-01
         - 6.5429651530180696e-02
         - 6.9123280268563222e-02
         - -1.1567731722881210e-01
         - 1.8013005259577511e-01
         - -5.4942909212062067e-02
         - 2.6477364585871539e-03
         - 3.6028371464881548e-01
         - -3.6768946457008045e-01
         - 2.9692718583836142e-01
         - 5.3865030994192035e-02
         - -5.0379059469295003e-02
         - 2.0766594535586047e-01
         - 1.4664894587917190e-01
         - 1.6846860070523681e-01
         - 1.0552101138826608e-01
         - 1.4188956030219813e-01
         - 1.1665315629128271e-01
         - -1.2561328387901784e-02
         - 9.8754421583383597e-03
         - -1.4748027046071663e-01
         - -9.6631742156712205e-02
         - 5.9979345701939510e-02
         - 5.8222137144424768e-01
         - -8.0507176582835654e-02
         - -1.7224597468711000e-01
         - -2.2019841065329566e-02
         - 5.1364338608799653e-01
         - 1.3453800522720333e-01
         - -1.3101174154619613e-01
         - -2.6318237760644003e-01
         - 1.3633461851748546e-01
         - -1.2791410767644742e-01
         - 1.3128589977824104e-01
         - 1.8670047499132647e-01
         - -3.1575286914230205e-01
         - 1.9128079127495690e-02
         - -2.6262834794809570e-01
         - 1.5796491069773211e-01
         - 6.1220540987686433e-04
         - 3.3505054707935777e-01
         - 1.7106154238103013e-01
         - -4.5773648045078996e-02
         - -6.6963824505000878e-04
         - 4.8108596486743413e-02
         - -1.1295676955427458e-01
         - -1.5588785496637844e-01
         - -1.5965796827913656e-01
         - 1.2846670053190604e-01
         - -1.6963020717975555e-01
         - 3.9309067037269346e-01
         - 6.8136935545080449e-02
         - -3.4492400427557951e-01
         - 1.6243431761537788e-01
         - -5.3091493380560115e-02
         - 5.6552584468261902e-01
         - -2.9787657587805599e-01
         - 2.9317672339121903e-01
         - -2.3851529166590105e-01
         - 2.7237795524072977e-01
         - -3.2798272082141623e-02
         - -1.4204175474904374e-01
         - 6.9292366122976601e-01
         - -1.3713144001787406e-01
         - 2.2107852840922812e-01
         - -3.7277201698684814e-01
         - 6.3614580752106326e-02
         - 4.6006267191395339e-01
         - -3.3570806760632060e-01
         - 4.6191854879579930e-01
         - 1.3330437837991642e-02
         - 1.6663560542894709e-01
         - 8.0216953853982309e-02
         - -2.0037033319452643e-01
         - 1.4807121934475032e-01
         - -3.7619766569428664e-01
         - -5.4731680737120014e-01
         - -1.9120173420751757e-01
         - -3.6948348721549107e-01
         - 1.3012502562285746e-02
         - -1.5650190423536985e-02
         - 1.6781399467272656e-01
         - 6.7284205271012010e-01
         - 3.9918264985314600e-01
         - -2.9332060099769169e-01
         - 9.8840788774475427e-02
         - 2.0731237335014502e-01
         - 1.5652939283314454e-01
         - 2.4412430544098249e-01
         - 2.8498193206661382e-01
         - 8.2179957947323148e-02
         - -1.1063155937310985e-01
         - -3.6699692095754116e-01
         - 2.1695255579933212e-01
         - -3.4107652812662892e-01
         - -5.7594836620157708e-01
         - -3.2229903055187253e-01
         - 1.2048991560544658e-01
         - -1.5385759420570910e-01
         - -4.9179873390905715e-01
         - 1.0392157107668059e+00
         - 2.0208376993425695e-01
         - 1.8047629128169188e-01
         - -5.0900444247543350e-02
         - -9.0322474419753676e-02
         - 1.7666349559069036e-01
         - 1.2425082000378153e-01
         - 1.8039922823363574e-01
         - -3.3848993144013412e-01
         - 6.1251724400711527e-02
         - -4.1852740177159919e-01
         - 2.4944131862575800e-01
         - -2.1119313668077366e-01
         - 1.2782710425575686e-01
         - -1.3356050645583258e-02
         - 1.0139790488974519e-01
         - -6.1278094065980164e-02
         - 3.0146437053607450e-01
         - 2.0632577106280128e-01
         - -3.0031558126024921e-01
         - 4.6495461207911137e-01
         - 3.5317085406792076e-01
         - 1.6356509379667647e-01
         - 7.9025636472604993e-02
         - -2.2055980923722629e-01
         - 3.7736598758119178e-01
         - -1.5628825682779046e-01
         - -5.8398709456720821e-02
         - 2.5170149713965190e-01
         - -2.8622706156798161e-01
         - 2.1944620929156608e-01
         - -1.4496139521326706e-01
         - 2.1829809048104085e-01
         - 1.3362587925445987e-01
         - 1.3213726628927358e-01
         - 2.1152454610510585e-01
         - 2.0168459168483499e-01
         - 3.7587278284080700e-01
         - -2.4334082136766033e-01
         - -1.3256668412400552e-01
         - -6.6739304604173835e-02
         - 3.0973599330677049e-01
         - -2.9112006261443484e-02
         - -4.7565965091650081e-01
         - -3.2267560886294244e-01
         - -4.6859485138624957e-01
         - 2.1162810249380684e-01
         - -1.9806238424865055e-01
         - -1.1980034289385710e-01
         - -2.1581188644295434e-02
         - 4.1879689523454400e-01
         - 4.2237711737313305e-01
         - -7.6140171068093232e-01
         - 4.5453006703568877e-01
         - -1.4980914278236943e-01
         - 2.1514727049580990e-03
         - 1.6435592751285155e-01
         - 4.0057002566821270e-01
         - 2.7938757669382475e-02
         - 6.1257045128312607e-02
         - -1.1518786662767701e-01
         - 2.2163271292098444e-01
         - -2.0775025201145311e-01
         - -2.2334145223832963e-01
         - -2.5228957682274294e-01
         - 8.7164331570333584e-02
         - 6.7464150164265338e-02
         - 1.6725058033788093e-01
         - -2.0565123486447368e-01
         - -3.0436982240159532e-02
         - -3.3042775653505163e-01
         - 1.9839594279098770e-02
         - -1.0835626272502898e-01
         - 2.5905456436964935e-01
         - -3.7927286395571352e-01
         - -6.0771931450831052e-01
         - 4.8184663294342395e-01
         - -1.9296377139736845e-01
         - 1.2632621218887879e-01
         - -1.4370143227294546e-02
         - -1.8252895775076391e-01
         - -1.4371335832756235e-01
         - 5.3186661613451836e-01
         - -3.4401096672267423e-01
         - -5.7944740568875563e-01
         - 2.8880242125484579e-01
         - -5.4537280852047329e-02
         - -3.4395882035550790e-03
         - -1.0236401652693260e-01
         - -3.1790730244927362e-01
         - 5.1708527913452185e-01
         - -1.7092017650167829e-01
         - 2.3439556860751634e-01
         - 2.4177374615057221e-01
         - 3.9120675037186753e-01
         - -1.5562623246545129e-01
         - -2.9591388308924876e-01
         - -5.5222187051115847e-02
         - 5.7790739579084247e-02
         - -3.0899836892446264e-01
         - -3.4185821622402318e-01
         - -6.4347151115180995e-02
         - 4.5595193807276940e-01
         - -4.2647893980871265e-02
         - -4.1344968527965140e-02
         - 1.4043511531241459e-01
         - 2.2973918508758327e-02
         - 1.3712157413707346e-03
         - 2.0708100624673175e-03
         - -9.9119142622219644e-02
         - -2.7368541630891080e-01
         - 3.6673623967621083e-02
         - -1.6853022426885431e-01
         - -1.7906908784651804e-01
         - 4.5840724493103849e-02
         - -2.3032543431399966e-01
         - -8.7529466291761445e-04
         - -4.0418956498156106e-02
         - -3.5531566561137129e-01
         - -6.5835544307159379e-03
         - 5.0207376231573941e-01
         - -3.4007860913072491e-01
         - -6.2589139274395134e-01
         - 2.5678162367359864e-01
         - 1.0796012467123850e-01
         - -3.4829269926751595e-02
         - -1.8989133375736172e-01
         - -2.4071146661108936e-01
         - 1.7735838298399174e-02
         - 2.7137640048334789e-02
         - 3.2247171230819915e-01
         - -1.0708827886158201e-01
         - -6.2793530347099429e-03
         - 1.1682017553060006e-01
         - 4.9219552723024231e-02
         - -2.8980125113606331e-01
         - -3.0648802757873635e-02
         - 6.8804413228436473e-02
         - -1.7426837868850609e-01
         - 3.0689416668097647e-01
         - 4.4076472255247706e-01
         - -2.3351726030837403e-01
         - 2.9035909113095615e-02
         - -2.7569320886862814e-01
         - 4.2085414571965751e-01
         - 2.0603740995775921e-01
         - -2.8169906305241210e-01
         - -9.1373941778548351e-02
         - 1.4059616146931911e-01
         - 1.2728416024733835e-01
         - 2.2121331386241960e-01
         - 5.5702456913860088e-01
         - -9.7616610104276524e-01
         - 9.1448002547635202e-02
         - 2.3251350492715697e-01
         - -1.3418461652353347e-01
         - 1.3265271698186315e-01
         - 2.6170860653081517e-02
         - 1.8186961449047151e-01
         - -1.7275575473398991e-03
         - 6.3548581975731311e-01
         - -4.5978256570887099e-01
         - 8.5776254923939782e-03
         - -4.1393776985343571e-02
         - 2.2758236452384666e-03
         - -2.3965039030935581e-01
         - -9.6563713411150512e-02
         - -4.5338633859255922e-01
         - -8.6002471825350132e-02
         - 1.0911576790910960e-01
         - 1.7539529130436787e-01
         - 2.2858121878741636e-01
         - -1.6888871018414853e-02
         - 3.9808039151194061e-02
         - -2.0625267173249806e-01
         - -2.7113097986182588e-01
         - 1.4648141346038365e-01
         - 4.1088899419250441e-01
         - 6.3422918785691298e-02
         - 2.2902653663017183e-01
         - 6.7556928391417703e-01
         - -1.6526402642147925e-01
         - 9.4089172199715437e-02
         - -2.6011576348857668e-01
         - 4.2316977198896759e-02
         - -2.8474878088711153e-01
         - -3.2493418554962239e-01
         - -7.0151703780303915e-02
         - 3.5432551426303460e-01
         - 1.5517082440606614e-01
         - 9.0473396626023592e-02
         - -1.9961390327325568e-01
         - 2.0841568451489542e-01
         - 9.9107651567057836e-02
         - -3.5496826490166139e-02
         - 1.9714213335768460e-01
         - -3.1633719073704290e-02
         - -5.8568945438325193e-01
         - -2.2587796036681829e-01
         - -7.9835006565263045e-02
         - 4.4035190613032085e-02
         - -7.3534343567615595e-02
         - 3.3626296214977969e-01
         - -4.8639296355161810e-01
         - -3.8266616448721325e-01
         - 3.2151769760288629e-01
         - -9.9040483714108563e-02
         - -2.1912586196829360e-02
         - -4.5081647538967390e-01
         - 4.8701930473808397e-01
         - -4.0091182449527467e-02
         - 1.5157877874731304e-01
         - -4.2328444210233346e-01
         - 1.2920686352621996e-01
         - -4.9939771647797948e-01
         - -2.1383100418093635e-02
         - 1.2425628611876134e-01
         - -1.1593695119154360e-03
         - -2.4342942350771071e-01
         - -1.6222022483552176e-01
         - 1.9846521387057367e-01
         - 1.7937658075511312e-01
         - -4.4648691578414373e-01
         - -7.6895650324473697e-01
         - 2.3409728369173435e-01
         - 2.4354259814768806e-01
         - 3.2027824974320634e-01
         - 2.4003424194203440e-02
         - 2.8340771754720423e-01
         - -3.3660051496387838e-01
         - 4.1200356614304495e-01
         - 1.8649424358959568e-01
         - -2.8034558721466246e-01
         - -1.6843327533264169e-01
         - -3.2061417904253736e-01
         - -2.7669281536789464e-01
         - -5.8971608930698582e-01
         - -9.3094407464703377e-02
         - 2.7586805871160197e-01
         - 1.8555799780684196e-02
         - -3.7261527451769200e-01
         - 2.7410251869887525e-01
         - 3.1491111089918655e-01
         - 3.0088295025598200e-01
         - -2.5404760004120452e-01
         - -6.0422339608548292e-01
         - -2.2978521086337397e-01
         - -2.2921283531824047e-01
         - -1.3907687711754355e-01
         - 2.9188083612371890e-01
         - 2.7506532011652057e-01
         - -1.0498496314196130e-01
         - 3.6163113474545061e-01
         - 1.7834550349426742e-01
         - 5.3101275337314968e-01
         - -2.3669473097971799e-01
         - 2.5427770985203119e-01
         - -2.3990040477279209e-01
         - 2.2306581401033587e-01
         - -2.8574683964321040e-02
         - -4.1044202512599257e-02
         - -4.4613360279417236e-01
         - -1.2391046602775099e-01
         - 1.9811662622273846e-01
         - -2.6810752331407267e-01
         - 1.2718961408954474e-01
         - -1.6784737388738141e-01
         - 2.3626302873643865e-01
         - 5.8280319919364543e-01
         - 4.9486949654018328e-02
         - -1.3419625501891139e-01
         - -2.1673637431382503e-01
         - 3.7788729474411431e-01
         - 6.0515905979371365e-01
         - -4.7476441713280293e-01
         - 3.8635505634899620e-02
         - -2.8190382006611314e-01
         - 1.8520257622762701e-01
         - -3.8133301577351691e-01
         - -4.6623491658754224e-01
         - 1.2578042641827433e-01
         - -6.8499689841470021e-02
         - -6.1543677916504069e-01
         - 1.7631280439572236e-01
         - 4.6692429546628320e-02
         - -4.0572817970835362e-01
         - 1.2764631814205327e-01
         - -1.0993527045084220e-01
         - -4.9052672278172116e-01
         - 2.4700853285800758e-01
         - -1.2645570663620059e-01
         - 8.0693996083390104e-02
         - -4.7080018799056500e-01
         - 5.1121483011244184e-01
         - 4.5123050411482002e-01
         - -1.1045518469823457e-01
         - 1.6175062862730125e-01
         - -4.8100643602597115e-01
         - 2.8912086378236912e-01
         - 7.2579632794161331e-01
         - 9.3864256470601815e-02
         - 2.8934176066197054e-01
         - -2.9444751897576430e-03
         - 1.9667152323750003e-01
         - -1.1664683642133586e+00
         - 4.7824908094943874e-01
         - -2.0431591239259916e-01
         - -3.9905119154027330e-01
         - -2.8949499625620351e-01
         - 4.6587343517065644e-02
         - -4.2032184327263028e-01
         - 1.7489505718424422e-01
         - -9.1197593043260625e-02
         - -1.7361442363143759e-01
         - -3.4238815163843139e-01
         - 3.0283334708736576e-01
         - 2.4934619400280791e-01
         - -3.8085284715082907e-01
         - 5.4433776750255836e-01
         - 2.3298199994860119e-01
         - -1.2326808268814161e-01
         - 1.5785491303600521e-01
         - -1.2759954088709918e-01
         - 1.5704295080986478e-02
         - -1.3949442660349923e-01
         - 2.7429633855588476e-01
         - -2.3301423099604696e-01
         - -3.4243945890650135e-01
         - 2.5083557187192262e-01
         - 4.2710171378655293e-01
         - 5.4166722138441364e-04
         - -5.1122379658484807e-01
         - 1.5396785201027427e-01
         - -7.5412253505267215e-02
         - 8.3948307795008670e-01
         - -6.0037820623303831e-02
         - -2.0778582098210682e-01
         - -5.0822504833065807e-01
         - -3.1995139505799630e-02
         - 1.0935063487580539e-01
         - -5.2385657851788378e-02
         - -1.3254277024590064e-01
         - -3.6194879590762263e-01
         - -2.2582162243346613e-02
         - -2.6932190313031867e-01
         - 2.1001665238133335e-01
         - -1.6535060193394624e-01
         - 4.1268488939508879e-01
         - 3.4503192990860969e-03
         - 6.0469417776823930e-01
         - -1.3514414783052742e-01
         - -3.5269707769716585e-01
         - -2.6417348533621758e-02
         - -2.2927133148170070e-01
         - 4.2809895686546712e-01
         - -1.2206711035240218e-01
         - -9.8391894614973774e-02
         - -3.3780378692889923e-01
         - -2.0410866119567780e-01
         - 9.7425135896418838e-02
         - -2.6871129088615792e-01
         - 2.8412187690908031e-01
         - 9.6743555606907061e-02
         - -7.0428064583999750e-01
         - 6.1663938374135030e-01
         - 3.9342703287422509e-01
         - 6.7711467044157675e-02
         - 6.1277580203733997e-03
         - 3.4757153520367118e-01
         - 1.5521598518987464e-01
         - -1.6483533504044459e-01
         - 2.6038558983658683e-01
         - 6.4366512282077748e-01
         - 4.7505839140973088e-01
         - -1.6134817443023466e-01
         - 7.4645523106409450e-01
         - -6.1693535769151382e-02
         - 5.1908406961115827e-01
         - -2.7156577700674651e-02
         - 5.3973032668654464e-01
         - -4.3070205172596643e-01
         - 3.9970821413338292e-01
         - 6.7765576847293740e-01
         - -8.2433366780472617e-01
         - -3.7341232161103388e-01
         - -2.5528721112051639e-01
         - 8.4094897779641201e-02
         - -2.5700188032355609e-01
         - 1.6971891956302962e-01
         - -9.0253223332787527e-02
         - 1.9201653341386304e-01
         - 1.0750227898157765e+00
         - -5.9526929532542294e-01
         - -2.6190683724344477e-01
         - -5.4970496557102982e-02
         - 3.0009153933915250e-01
         - 4.5153800792820631e-01
         - -6.9762179519733569e-01
         - 5.6228105040086640e-01
         - -3.3128288680880073e-02
         - -7.8173218522033891e-02
         - -4.0396520946347209e-01
         - -6.1857476326411409e-01
         - 2.0636246884428600e-01
         - 5.5355270005623114e-01
         - -7.3998494784406466e-01
         - 5.0953257255983625e-02
         - 3.0947944732930416e-01
         - 8.2719237804545237e-02
         - 2.1658595286493695e-01
         - -1.8454677319633345e-01
         - -3.9841414475653064e-01
         - 1.5709933252548897e-01
         - 5.7505583602250576e-01
         - -3.3473058924147203e-01
         - -3.7221748453611869e-01
         - -2.9026191082594638e-01
         - 3.4432350630643238e-01
         - -3.1350178532291600e-01
         - 9.8983250059752712e-02
         - -3.6166909007430659e-01
         - 3.5911814137507875e-01
         - 5.3927252872540121e-01
         - -4.4942446717532024e-02
         - 4.5342669621783564e-02
         - -2.1491831550741347e-01
         - -2.1242466855352332e-01
         - -2.7203435790960068e-01
         - 3.4932368244984208e-01
         - -3.2375263387179243e-01
         - -2.6031023734130276e-01
         - -9.6213305948454675e-02
         - 5.6064848490016739e-01
         - -1.6648550240963758e-01
         - 9.5995033100831503e-02
         - -3.0843179194123965e-01
         - 5.0312986930555496e-03
         - -1.4192239737988924e-01
         - -1.9435825882520133e-01
         - 1.3911506743731344e-01
         - -1.4260791432463188e-01
         - 3.0129785313789631e-01
         - 5.3618811840760205e-01
         - 4.4645068100169810e-01
         - -4.4571795875134761e-02
         - -1.2348789108728529e-01
         - 1.2758947819837066e-01
         - -1.0562132568336376e-01
         - -2.5152789738983702e-02
         - -1.6849143508306380e-01
         - -4.9309485263517283e-01
         - -9.7256329756484322e-02
         - 4.4465414035490647e-01
         - 4.3314488254570838e-01
         - -2.1054682336526873e-01
         - 9.5769907414309768e-02
         - 2.5745629063904890e-01
         - 4.5888132450986313e-01
         - 3.8782359671443806e-01
         - -2.5795955860680880e-01
         - -4.5808019813514744e-01
         - 1.2924397821616961e-02
         - 2.7391561529793274e-01
         - -3.1134825186465648e-01
         - 1.1714134165656100e-01
         - -2.5403022146369519e-01
         - -6.8217316092495442e-02
         - -9.4200792191525370e-02
         - -1.0991520953413815e-01
         - 1.6757253396517907e-01
         - -2.1389216131016733e-01
         - -3.0962385720198204e-01
         - 5.5489587795569761e-01
         - 7.4569377764396635e-02
         - 2.4140944853929000e-01
         - 1.7737087138824720e-01
         - 3.4255589420266318e-02
         - 2.6396086897720689e-01
         - -1.0909839343106693e-01
         - 1.5591132116578478e-02
         - -1.5315920153737375e-01
         - 1.4171649961735680e-01
         - 3.4111570018095316e-01
         - 2.8470106512441673e-01
         - -4.6006196168070224e-02
         - 1.5497367271650417e-01
         - -3.7600967949166952e-01
         - 5.0945562415816070e-01
         - -1.9098846532778488e-03
         - -6.7629625432736235e-02
         - 4.1744682700139155e-03
         - 1.5450357582096725e-02
         - 4.2124804566777629e-01
         - 5.7897760005862373e-02
         - 3.6900319166242040e-01
         - 7.9848395940832506e-01
         - -2.9174941166182206e-01
         - 1.1073258272472540e-01
         - 3.0783139448886970e-01
         - -2.1810444698960715e-01
         - 1.8587026461848127e-01
         - -2.3839868738920415e-02
         - 7.1312225321149445e-03
         - -4.2562125634244025e-01
         - 1.8147631360690203e-01
         - 7.9018161032622125e-01
         - -3.3297093823961355e-01
         - 1.2429631177950955e-01
         - -3.6041063212162683e-01
         - -5.9875167538902631e-02
         - 1.7644490152606310e-01
         - 1.2056915360815948e-01
         - 5.5202101816468596e-01
         - 1.5598051893525733e-01
         - 4.5721585653677110e-01
         - 2.4684564700041569e-02
         - -2.5891314386893555e-01
         - 2.6365988744141124e-02
         - 1.7066119335553806e-01
         - 3.7419796387720905e-01
         - -5.6241496200220686e-01
         - 8.5083466876847536e-01
         - 3.5017895215756678e-01
         - -9.0048740287253182e-02
         - -1.5916600917747611e-01
         - -7.8629681896092907e-01
         - -3.8756616753882223e-01
         - -2.5446366848011270e-01
         - -3.1328789034983373e-01
         - 9.7916663576216464e-02
         - 5.1232691233675542e-01
         - 3.6764446639560189e-01
         - 2.6986513150154257e-01
         - 8.4280446850689306e-02
         - -2.6301559857948329e-02
         - 1.0568391076561730e-01
         - 4.8982067514285021e-01
         - -5.8353218009983820e-01
         - 1.9018536505643335e-01
         - -7.1519521637620520e-01
         - -2.9837149796003638e-02
         - -3.0695629156109194e-01
         - -4.4149809769869104e-03
         - 2.5740592674990403e-01
         - 2.1067855521955909e-02
         - 6.4182924095964078e-01
         - -4.4894008075861830e-01
         - -2.0914148462258536e-01
         - -3.4972304221974110e-01
         - -8.1214572520117578e-01
         - 1.3804349691080287e-02
         - 3.6022674347063949e-01
         - -3.1449026293140053e-01
         - -3.0087438421640605e-01
         - 4.8483436049347572e-02
         - 7.0261247151233697e-01
         - -2.5861603411651657e-01
         - 5.7849305907985954e-02
         - -6.7167877065735015e-01
         - 2.6042883354610518e-04
         - -2.1573920942497893e-01
         - 2.4664611712235507e-01
         - -6.4421202764694263e-01
         - -4.5246973665952556e-01
         - -1.8217904412134359e-01
         - 4.7292549820564050e-01
         - 3.8097089875471507e-01
         - -4.4755159315058961e-02
         - 1.4310278246576050e-01
         - -3.4980070849804273e-01
         - 1.4408458811686126e-01
         - 2.1994399946008045e-01
         - -8.7244726600513953e-02
         - -9.1493576084389128e-02
         - 4.5206447743216588e-01
         - -2.7640667509074207e-01
         - -3.0336786693836876e-01
         - -3.1936671645177356e-02
         - -1.8305612236760399e-01
         - 4.1943760556688309e-01
         - 2.2764398946861546e-02
         - -5.3062274650050156e-01
         - 3.9348207684495397e-04
         - 1.0232184176072916e-01
         - 2.8584016727408584e-01
         - -6.2295215805564422e-02
         - 3.6113036720702635e-01
         - -2.2043550998025263e-01
         - -6.9373362978629738e-01
         - 1.5449751789682389e-01
         - -1.5805368829369429e-01
         - 1.2356113182106035e-01
         - 6.1445487250954507e-02
         - 9.5435262328717366e-02
         - -5.6503690374376962e-02
         - 1.4840008710512001e-01
         - 1.8635456752080771e-02
         - -3.3044938958327744e-04
         - 1.7038552415389721e-01
         - 2.0283444192598715e-01
         - 8.2284419584457855e-02
         - -6.2973408286541868e-02
         - -1.4435450820222584e-01
         - -9.6290469078059382e-02
         - -2.3068544792582266e-01
         - 2.2021230589211710e-02
         - 1.1294286083477238e-01
         - -1.9721034627064737e-01
         - -3.9546860864084726e-01
         - 5.0776756314248372e-01
         - 5.8979256693026923e-04
         - 1.1397159980077991e-01
         - -5.9538328614410101e-02
         - -5.4009590141602982e-02
         - 3.2547299376969441e-01
         - 5.3773961188449992e-01
         - -2.6780388023743862e-01
         - 3.1401032511709261e-02
         - -5.9002925414717550e-02
         - -1.5352340721264415e-01
         - -3.7009709538477618e-02
         - -2.4538068230692808e-02
         - -8.8272187728495113e-03
         - 8.3357972596553490e-02
         - 6.1292182362078518e-01
         - -3.7723366725743118e-01
         - -1.1874023917352579e-01
         - 1.1376396521112018e-04
         - -2.8456525833627611e-01
         - -1.4913164623385407e-02
         - -1.3539416832451268e-01
         - 2.1439844620081747e-01
         - -5.4998533136160439e-02
         - 7.2436542443450200e-02
         - 1.5026634538406969e-01
         - 9.5080372799879409e-02
         - -4.0817153988515015e-02
         - -1.9971989235337811e-01
         - 5.0609858137622261e-02
         - -1.1847607627932945e-01
         - 2.2807501031085886e-01
         - 3.4251314478030849e-02
         - -2.2661740664144007e-02
         - 5.5760045344361291e-02
         - 2.1883023508862989e-01
         - -1.2812246394801619e-01
         - -4.5197927080760897e-02
         - -1.1852991842200447e-01
         - -1.3514185153129288e-01
         - 2.4896212210867832e-01
         - 5.8604685017161717e-01
         - 1.9474424218518846e-02
         - 2.8377247050902749e-02
         - 1.8520169035269524e-01
         - 4.7835570735763902e-02
         - 1.8212398905064817e-01
         - -1.0620962577617390e-01
         - -5.7410325485383454e-02
         - -3.6356044925885134e-01
         - -3.4382468072956363e-01
         - -5.7734746458988566e-02
         - -7.6587214516935320e-01
         - -9.1739583092965454e-02
         - -1.6625287309933781e-01
         - 1.8767980471048706e-01
         - -7.0646728254896707e-02
         - -2.4680559713436706e-01
         - 1.0729005118661865e-01
         - -1.7382021348381377e-01
         - 4.0428043597724372e-01
         - -3.3220391797311699e-01
         - -8.1948205930729834e-01
         - -6.2995739679618967e-02
         - 3.8322014874474303e-01
         - 1.7244810428092847e-03
         - -3.0956386800409125e-01
         - 1.2702036945789319e-01
         - 1.0817144737464070e-01
         - 3.2257070610215550e-02
         - -7.3278653684881664e-02
         - -4.8748502815434492e-03
         - -1.5451158669271978e-01
         - 3.0740882736559999e-01
         - -4.9620340334605113e-02
         - 8.0662378061723272e-02
         - 3.7615674587728146e-02
         - 2.0941729311960769e-01
         - 1.9857470440472472e-01
         - -1.0871767801376359e-04
         - -2.8033971309459566e-01
         - -8.1227492421924341e-02
         - -6.8972687536433047e-03
         - 2.1758642355413210e-01
         - -1.3461014618076153e-01
         - -2.5702567543163324e-01
         - -7.8497541340896815e-02
         - -8.5540960175216466e-02
         - 9.8909454061278740e-02
         - 1.1628882614705845e-01
         - -2.2940250795185493e-01
         - -3.3124833141617079e-02
         - 2.1856706407610318e-01
         - -2.2976961695333056e-02
         - -1.3092123336649142e-01
         - -2.2835447636265124e-01
         - 1.3858251074821989e-01
         - 4.3241676499126351e-02
         - 1.5942477587117945e-01
         - 1.2115315909603355e-01
         - 1.4128341081462917e-01
         - -3.5381615697701968e-01
         - -2.5985616259900125e-02
         - 1.8292526855678234e-01
         - 5.1587594707254925e-01
         - -1.4255732455824561e-02
         - 4.4230959779013979e-01
         - -1.7633313802612841e-01
         - 1.5317153306478243e-01
         - -9.9639790331188249e-03
         - -2.3837164083148860e-01
         - -1.9437340826661395e-01
         - -3.0477363382554734e-01
         - 4.8564036500123508e-03
         - 1.1235503179228876e-01
         - -2.0392122668169862e-02
         - -1.8334873597613988e-01
         - -4.6791431166827796e-02
         - -1.4440332245480716e-01
         - 1.9687199542668640e-01
         - 8.0563183136469235e-02
         - 7.3920319537258208e-02
         - -3.5102100896449773e-01
         - -2.7030373525355877e-01
         - -2.9934794318752417e-01
         - 1.4349289370020821e-01
         - 5.8251506343551520e-03
         - -7.0721700386400771e-02
         - 4.5686787879756316e-02
         - -9.6963311676373759e-02
         - 1.3535358861877067e-01
         - 9.1393562730029465e-02
         - -5.1512936675921425e-02
         - 9.0937847921391101e-03
         - -6.5874007666787429e-02
         - -1.5636152563801908e-02
         - -1.9545485876257501e-03
         - 3.5114435083711218e-02
         - 1.7936880066618699e-01
         - 9.2382246689267478e-02
         - 5.0250302134576119e-01
         - 6.2083302877972944e-02
         - -9.3531702622126581e-02
         - -7.2323388359090446e-01
         - -2.5324640366781231e-01
         - 2.7675502480308456e-01
         - -2.4115739828220909e-02
         - 5.7849277467901104e-02
         - 1.3339901753697328e-01
         - -2.4399044813066880e-04
         - 1.4885016626062847e-02
         - 1.2243364220093494e-01
         - -4.9741833860256018e-01
         - 1.9999494485099198e-01
         - 4.1268427782080820e-02
         - 3.4941964373618170e-02
         - 1.2954697410597699e-01
         - 3.6675792752818454e-01
         - 9.2181653178111805e-02
         - 2.6067367684505532e-01
         - 1.5062280414925128e-01
         - 4.0849062784923736e-02
         - 1.7954997743950357e-01
         - -1.2478622868975271e-01
         - 2.6110095114424298e-01
         - 2.3224807542597001e-01
         - 7.5245003868274441e-03
         - -9.6991927477169990e-02
         - 2.0848882308840139e-01
         - 1.4094515004385308e-01
         - -1.5515991399785192e-01
         - 1.3456746912390009e-02
         - -3.1089392534328236e-01
         - 2.0244352107569774e-01
         - 5.0239240345856216e-02
         - -1.6525532211593350e-01
         - -2.2423276740069831e-02
         - 2.8016217593977932e-01
         - -2.1725151931043657e-01
         - -1.6144435901311649e-01
         - -3.9071933392386793e-01
         - 2.3896728302922765e-01
         - -6.5714872033488095e-02
         - 3.0913737574215644e-01
         - -2.7013187659686459e-02
         - 3.8242706313873852e-02
         - -1.3830782747628573e-02
         - 9.2704813924980117e-02
         - -5.8783248194120730e-02
         - -9.9889765862035268e-03
         - -6.2572108022945855e-02
         - -5.1834120554945580e-02
         - -1.8428230591606873e-01
         - 5.0762466343854590e-02
         - -4.2393908449645368e-01
         - -5.8918324020160812e-02
         - 5.7008260018107181e-02
         - -1.3002064777323347e-01
         - 3.1550380481050921e-01
         - -1.5070217671634523e-01
         - 1.9890056949299881e-01
         - 2.4984362169393176e-01
         - 1.0722284134275052e-01
         - -4.2062611225117746e-01
         - 2.8495521362338121e-02
         - 1.3302375823963519e-01
         - 6.7961412486681150e-01
         - 3.1156839515162765e-01
         - -1.3018626834124031e-01
         - 1.8286707119741168e-02
         - -5.8329613515641983e-02
         - 2.1308879646584186e-01
         - 5.5416885841262886e-01
         - 7.5176511035764684e-02
         - -1.1497960343447849e-01
         - 2.9765380743435327e-01
         - 1.1502915854623813e-01
         - 1.1815873592365977e-01
         - 1.6729557435131265e-01
         - 3.7797731083410840e-01
         - -2.2276422902089890e-01
         - 1.9415295906339097e-01
         - 2.6197287773581557e-01
         - -1.6152096000559996e-01
         - -1.9638335111056278e-03
         - 2.7688725091468741e-01
         - -1.0014578977154837e-01
         - 2.6970105091843893e-01
         - 2.5260926958399186e-02
         - 4.4896803394836976e-01
         - 3.3880377827183096e-02
         - -2.4953093344111751e-01
         - 6.9855347060506712e-01
         - -8.8359786929363155e-03
         - 4.3597590317038720e-01
         - 2.3767280703110436e-01
         - -1.9815003160645900e-01
         - 6.0801480421763934e-02
         - -2.8217692426655672e-01
         - -2.3779702708249248e-01
         - -6.3228215952433817e-02
         - -2.7533482088635247e-01
         - 6.1979150171347148e-02
         - -1.0555000686726654e-01
         - -2.9563461531408214e-01
         - 4.3733932287623428e-01
         - -5.9644296340191472e-01
         - -4.7968264659543659e-02
         - -1.5462871123690228e-01
         - 1.8152055694396155e-02
         - 1.1817010991098438e-01
         - 2.5366906574024317e-01
         - -1.9716640748783570e-01
         - 2.3176970343960485e-01
         - -2.2898358338890035e-02
         - 5.6477960619378287e-01
         - -1.5702937356623056e-01
         - 3.1987392496280305e-02
         - 1.4031728740101418e-01
         - 1.5604982490545732e-01
         - 2.3510947050927550e-01
         - -1.6353577566085217e-01
         - -4.2148896023727139e-01
         - 2.0376209416605912e-01
         - -1.0879224000584192e-01
         - -1.2785239877221194e-01
         - -6.1729333299425171e-01
         - -2.6759551684809635e-01
         - 2.6025848847038108e-01
         - 2.4306788249253791e-01
         - -1.9190762822224192e-01
         - 4.2136552421322859e-01
         - 1.0040536276304131e-01
         - 2.5570618184768062e-01
         - -2.8015252781242783e-02
         - -3.3071744667204493e-02
         - -1.5307224592991029e-02
         - -2.4597700508295198e-01
         - -2.3841543472380752e-01
         - 1.4460747057061882e-01
         - -5.0047181144441588e-01
         - 2.2669450367723615e-01
         - 7.9680568807437890e-01
         - -3.0005923609740009e-01
         - -1.1357506190518606e-01
         - 4.1736258281032057e-01
         - -2.8235105417433509e-01
         - 2.9967250407822093e-02
         - 7.5189345678030248e-02
         - 1.2696486743384447e-01
         - 1.7715125431677990e-02
         - 1.1843665726543182e-01
         - 7.1886188150933422e-02
         - 3.4190770750812699e-02
         - -2.9327856821901371e-01
         - -3.7551349225279224e-01
         - 1.6642921692557258e-01
         - -5.1823264429146546e-02
         - 2.9721722325599287e-01
         - -3.5691590441148580e-01
         - -2.8698590470506091e-01
         - -2.5490109381465026e-01
         - -2.5679336731661031e-02
         - 5.9506530608867984e-03
         - 4.9969692628026807e-02
         - -2.4073459705122846e-01
         - -1.4674880775664376e-01
         - -2.0078982934171805e-02
         - -1.8416086715697827e-01
         - -1.4741229132006542e-01
         - 2.9114902474980275e-01
         - 1.4903760828825638e-01
         - 4.2154567557998290e-02
         - 1.7885196457850067e-01
         - -9.6553921349945004e-02
         - 5.2066328828091457e-01
         - -8.3050187732806008e-02
         - -9.7548646084887738e-02
         - 4.6061708093405138e-02
         - 8.3020506694320234e-02
         - -6.4295991446703046e-02
         - 8.9836261159007724e-02
         - -2.4544247473818273e-01
         - 5.9264220869618793e-03
         - -1.5684032389285237e-02
         - 3.2429282697795075e-01
         - 3.0752427501203702e-02
         - 1.0613237076954841e-02
         - 1.8465447004218605e-01
         - 2.4914805063489448e-01
         - 4.5266273344360147e-01
         - -1.4040235423498616e-02
         - -1.5127911421071732e-01
         - -2.0085229603356125e-01
         - 1.1829266873987615e-01
         - 4.6649385235033369e-01
         - 1.2395215749543284e-01
         - -1.1674326930845762e-01
         - 4.4315135020467145e-01
         - 1.1724518882079196e-01
         - -2.4681507775535096e-02
         - 9.2829002255472876e-03
         - 2.8565588118268526e-01
         - -7.0048861669156928e-02
         - 1.9824128634206045e-01
         - 2.8838231735112457e-01
         - -5.3180115383377316e-02
         - -9.6533070570243282e-02
         - 3.4464634818973056e-01
         - 2.7829319855295842e-01
         - -1.7166067405231233e-01
         - -4.5660768839626532e-02
         - -2.1915244416811602e-01
         - 3.2629085332074387e-01
         - -2.8652266313120139e-01
         - 3.1474033327062728e-01
         - 2.1478664305240738e-01
         - 4.2082708590408696e-01
         - -3.5522372998023144e-01
         - -1.5038193744590816e-01
         - 2.0657802572266602e-02
         - -9.7499565362377014e-02
         - 1.0752331130238499e-01
         - 3.2781849321108100e-02
         - -2.2801530218263290e-02
         - -3.6705054542186466e-01
         - 1.3367275553310191e-02
         - 4.6126586573857903e-02
         - 3.3439313496238193e-01
         - -3.7797055032939186e-01
         - -1.8088749948765237e-01
         - -5.8951564114863401e-02
         - 2.6028590625838971e-01
         - 2.5265699756107934e-01
         - -4.0987754289410538e-01
         - 5.5628405556942151e-01
         - 4.4009736087023882e-02
         - -1.2960483895936817e-01
         - 1.6863985050742825e-01
         - 3.5563048668118206e-02
         - 2.0647078248503004e-01
         - -2.5802468777469034e-01
         - 1.8436969596191333e-01
         - -1.2040899429874079e-01
         - -2.5465547872693943e-02
         - -2.6926132838319627e-02
         - 1.4966226505901992e-01
         - -7.5419998719385373e-01
         - -6.6281790363445892e-02
         - -5.1805096244796245e-01
         - -8.9494793968748404e-02
         - 5.2703978224908021e-01
         - -1.4002957622590581e-01
         - -5.3926002791613428e-02
         - 1.0034777055260090e-01
         - -4.9959409291082772e-02
         - 3.6841506324051498e-01
         - -5.2328213825017574e-02
         - 2.8260221440318639e-01
         - 1.4599386050158156e-01
         - -3.3635879529816858e-02
         - -1.4799620699423796e-01
         - -6.6816922730763726e-03
         - -4.5525710177673567e-01
         - -3.4142643855292998e-01
         - 6.5510313270352649e-01
         - -2.4919505259080274e-01
         - -2.0566330890302548e-01
         - 7.8418336919731935e-02
         - -1.8692303472561833e-01
         - 1.3699280198970185e-01
         - 8.7407188345510999e-03
         - 2.7803875947329793e-01
         - -5.3417771261038938e-01
         - -1.0411491033524661e-02
         - -7.5484571599685829e-02
         - 1.3983338443833232e-01
         - -7.4853641930237552e-02
         - -3.3170719549777727e-01
         - 3.6764384258950450e-01
         - -2.8675136751404134e-01
         - 1.4126568498625530e-01
         - -6.9923098349735091e-02
         - 9.1792613850855645e-02
         - -1.7846318790142068e-01
         - 4.1842613638793082e-02
         - -1.1388691828915143e-01
         - -1.7787472364539156e-01
         - -1.3541099910832596e-01
         - -1.3632021787618465e-01
         - 5.5615429009736372e-01
         - 1.9211343604444853e-01
         - 4.5195833785165190e-01
         - -1.6937958361082650e-01
         - 1.4743058927550498e-01
         - 4.3039933902075833e-02
         - 9.0439316440713818e-02
         - -3.0774244894893615e-01
         - 6.4418004289800768e-01
         - -7.5083610039314894e-02
         - 2.4249236719616502e-01
         - -1.3534254896132186e-01
         - 3.1655517756743613e-02
         - 1.5872498350482839e-01
         - 7.2300534070163611e-02
         - -2.7001650281238743e-01
         - 4.5111475312125948e-01
         - 2.5273209742670560e-01
         - 9.6684530280199202e-03
         - -2.1746088766920374e-01
         - -2.5290291305677459e-01
         - -2.6341373346227631e-01
         - 1.7230327907182330e-01
         - 2.7338153231948331e-01
         - -7.3006490629538401e-02
         - 1.0914630176545116e-01
         - 2.6365050289332848e-01
         - 1.8802123845634611e-02
         - -1.5305286008526084e-01
         - 1.4736744728794052e-01
         - -1.2964428270873438e-01
         - 4.8790160771735491e-01
         - 2.2863829264056876e-01
         - -2.1460474738050825e-01
         - 5.1152457269127631e-04
         - 4.1084753320926398e-01
         - -1.6157248871674293e-01
         - 1.4193871568412836e-01
         - 2.0117066689097765e-01
         - 1.4840169335127090e-01
         - 1.0561184404623125e-01
         - -2.7906359284362206e-02
         - 4.1913513703400385e-01
         - -1.6580957416802006e-01
         - -6.1745880591566760e-01
         - -6.5248332286598276e-01
         - -1.1231390901752622e-01
         - 3.8039768624227438e-01
         - -1.0253396534714134e-02
         - 4.3172460205547725e-01
         - 1.2819002161366816e-01
         - 1.2679262509777309e-01
         - 1.8723704833454324e-01
         - 3.6357402689413634e-02
         - -1.2884236546130662e-01
         - 2.8019875264697824e-01
         - -1.8601062074454056e-01
         - 8.2008262984315475e-02
         - -4.9980125156681249e-01
         - 2.2011268364525047e-01
         - 5.2566141183188987e-03
         - 1.1902166764174897e-01
         - 5.3214580551410573e-01
         - -2.8248153386686786e-01
         - 2.5704474729300181e-01
         - 3.9526859012405224e-01
         - -3.2255456345856880e-02
         - -8.6124092297267774e-01
         - 2.7364589245575960e-01
         - 1.5306651231655030e-01
         - 2.7730232998609159e-03
         - -2.8927964077143203e-01
         - -3.4238711719389914e-01
         - -3.1445985310315956e-02
         - -4.6181687784675896e-01
         - 3.4656600096812129e-01
         - -2.3809771644880523e-01
         - -2.3437358649182380e-01
         - -1.4848585733006492e-01
         - 3.7745363556188835e-02
         - -1.4570015948015286e-01
         - -1.1713079795295306e-01
         - 3.3055664203506752e-01
         - 1.4702266397552799e-01
         - 1.0084683910512766e-01
         - 2.8630485157804364e-01
         - -4.9369011832053507e-02
         - -1.5540224280376874e-01
         - 1.7902943213594655e-01
         - 1.0399743625936640e-01
         - -2.4318150514091250e-01
         - 1.4547131569182914e-01
         - -1.3052627130678443e-01
         - -6.9668673568117024e-03
         - -3.0196278411336624e-01
         - -1.4653032200449376e-01
         - -2.2577509974647614e-01
         - -5.3574125760075675e-01
         - 3.4277224848747331e-02
         - -1.2580269133546981e-01
         - -3.4049415758895690e-01
         - 1.4274808382578458e-01
         - -4.9359190671955683e-02
         - -3.8832684498580200e-01
         - -1.1602514208629622e-02
         - 3.9896070544371404e-01
         - -1.5312104376397834e-01
         - -1.6206719177008072e-01
         - -1.0577156655895812e-02
         - -5.4599643166553927e-02
         - 7.0951358393963687e-02
         - -5.4306382665850327e-02
         - -3.1548558341843391e-01
         - 3.1223659152582833e-01
         - 7.0944951425046074e-02
         - 6.1791749418357811e-01
         - -2.1757098903184890e-01
         - 3.7081370015253835e-02
         - -1.2374945273138946e-01
         - 3.1523461106782824e-01
         - -1.6873813974881177e-03
         - 5.4263399773421328e-01
         - -2.2409688119706900e-01
         - -6.3686667120057952e-02
         - 1.5420446579456507e-01
         - 3.2139379949162417e-01
         - -6.3102297305450505e-01
         - 2.5801243326202661e-01
         - 6.0245441950346888e-02
         - -2.8689804197112784e-01
         - -4.1190513720148042e-01
         - -2.1141330790479995e-01
         - -1.5269111031548893e-01
         - 1.6549201603160299e-01
         - 3.5338296458147528e-01
         - 1.4252706390093012e-01
         - -2.6498993988973257e-01
         - 1.4505254699337122e-01
         - -2.3361127070608478e-01
         - -1.6754398316613496e-02
         - -8.8134622612774216e-02
         - 6.1180312045857860e-02
         - -5.4608396736052632e-02
         - -2.9676940263719304e-01
         - -1.2195059463014894e-01
         - -2.9785745304575489e-01
         - -4.3961230057786937e-01
         - 1.4353094289902271e-01
         - -9.3828804570162294e-02
         - 7.8393554031031626e-02
         - 1.4938907199359913e-01
         - -4.2836976957839384e-01
         - -4.7846401266587579e-01
         - 1.5316153892229412e-01
         - -5.0001607775805673e-02
         - 7.3439257151051610e-02
         - 1.0163241926078903e-01
         - -2.5202059660801496e-01
         - 2.8060862958213917e-01
         - -4.0866158398161434e-01
         - 3.2000768093994332e-02
         - 6.5495630999731130e-02
         - 2.5010063715807279e-01
         - -2.8579451690134650e-01
         - -3.6720287408620084e-01
         - -7.5925990855681717e-03
         - -1.7414664300530300e-01
         - -4.4739581051442839e-01
         - -5.5679005351821367e-02
         - 1.2365778393661334e-02
         - 2.6560039323831236e-01
         - -2.5362868268193184e-01
         - 1.4058835102897121e-01
         - -2.7085969821378381e-01
         - 6.5672018652164488e-02
         - 2.3882852768553206e-01
         - 1.6593711917358811e-02
         - -1.3626703409588617e-01
         - -1.0769326392883775e-01
         - -3.0196589179979916e-01
         - -2.7061722472945615e-01
         - -1.0500832936092006e-01
         - -6.3916767684479445e-02
         - -7.2591755356284357e-02
         - -5.4003315403365511e-02
         - 3.0516317545043398e-01
         - -9.1270126377287389e-02
         - 3.3762784261519163e-01
         - 3.0507145575486205e-01
         - -2.2177962201310583e-01
         - -2.6471966206852937e-01
         - 5.8066171798400279e-01
         - 1.0020551828616479e-01
         - 2.9681740781166305e-01
         - -3.2777873318331879e-01
         - -1.3035890101035502e-01
         - -3.8040045330143851e-02
         - -1.5052070290827213e-01
         - 1.2470221641701081e-01
         - -1.5526960761050060e-01
         - 4.9544604291667627e-02
         - 1.7852399300839014e-01
         - 1.8750858574007312e-01
         - 1.5334118138866407e-01
         - 3.2232949474669559e-01
         - 3.7583641782083810e-01
         - -8.8229063745025232e-02
         - 1.7806858380127449e-01
         - 3.5195257050461992e-01
         - -5.0704866577171180e-02
         - 1.0624991976832328e-01
         - -2.3206790970287447e-01
         - 7.8195290016664212e-02
         - -2.1916858412739642e-02
         - -1.2141186053238506e-01
         - -1.6635341767783945e-02
         - 1.9025239129502305e-01
         - -9.2275593680089266e-02
         - 1.9246478340759413e-01
         - 2.1644294703558817e-01
         - -3.7120258197180822e-01
         - -2.4047318916601143e-01
         - 6.6168603280915395e-02
         - -1.2860714541012500e-01
         - -1.1399775499426500e-01
         - 2.3896761465601951e-01
         - 4.9025230691743076e-02
         - 1.6586874860843723e-01
         - 2.5961120642461372e-01
         - -1.0869751875214911e-01
         - 5.8390476977518757e-02
         - -1.1791054940409140e-01
         - -3.6178421413229078e-01
         - -6.7968164981590584e-02
         - -7.9726206653036383e-02
         - -3.3730074841972357e-01
         - 3.0309486186437473e-01
         - -1.8279032155326808e-01
         - 4.3294729860097297e-01
         - -1.4088224382736667e-02
         - 4.3824342940380796e-02
         - 5.2992955586832584e-02
         - -5.4294019350319715e-03
         - 3.5874057460581942e-02
         - 3.5862208987415878e-01
         - 3.2303054263045378e-01
         - -1.0691051855331553e-01
         - 1.7413247049769479e-01
         - 2.5921064561370395e-02
         - -2.6196160004116004e-01
         - 1.9466361391988973e-01
         - -2.1236401649530481e-01
         - -2.6571311826575732e-02
         - -8.0882249078036858e-02
         - -6.5290484225220796e-02
         - -3.9532394382848285e-01
         - 3.0770404009128366e-01
         - 3.3457951278663789e-01
         - 2.6966378330159196e-01
         - -9.8703173761660490e-02
         - -9.8417471208375712e-02
         - 2.7790383060744556e-01
         - -3.4382635974873210e-01
         - 1.7843165153701535e-02
         - -4.7294732315501110e-02
         - -2.8323813575612217e-01
         - -8.0235599379098591e-02
         - 1.2386944980529474e-01
         - 3.4777327072865361e-03
         - -2.2018190148624353e-01
         - -1.4315038657375956e-01
         - -1.2243111509062425e-01
         - -3.6838464314125208e-01
         - 1.1219742556236635e-01
         - 2.6893648339285266e-02
         - -3.7758137527615565e-01
         - 7.8339724408990785e-02
         - -2.0155084711289664e-01
         - -1.5934579889208697e-01
         - 1.0920909912921188e-01
         - -4.0093285998097673e-03
         - 1.5788658391654350e-01
         - -2.8007227547652341e-01
         - 1.9441394268794110e-01
         - 2.4364195736405042e-01
         - 2.1947395181570520e-01
         - -1.8704512572649179e-01
         - -4.1955499148289743e-01
         - 9.5531904305302517e-03
         - 3.7901255652830063e-02
         - 3.9949501787119882e-02
         - 2.4919979912897551e-02
         - 6.2612662505584560e-02
         - -4.6477089330487525e-01
         - -2.4087432801324193e-01
         - -1.6255483376822651e-02
         - -2.1295694772114512e-01
         - 9.8824508387899301e-02
         - 3.9520650034474136e-02
         - 1.8520820218765169e-01
         - -3.1341655128640178e-02
         - -2.6835615764003723e-01
         - -2.7666332652401665e-01
         - -2.4494920691891259e-01
         - -1.3904703244950875e-01
         - -5.0857921064078382e-01
         - -8.5457905538853088e-02
         - 3.2793878047203781e-02
         - -8.6230725590394786e-01
         - -1.8537702993825242e-01
         - 1.6643373676128181e-02
         - 4.4404371032540566e-02
         - -2.8515331794715582e-01
         - 6.9784509340205636e-02
         - 6.3328325093166538e-01
         - 2.0197048080060362e-01
         - 1.9390314789343218e-02
         - 1.1146571422133152e-01
         - 3.7825533004397849e-01
         - -8.1913508750079703e-02
         - 2.8920981517958816e-01
         - 1.4690848004404053e-01
         - -3.1827213204137994e-01
         - 3.2524512309972803e-01
         - 3.1385364091642853e-01
         - 2.2606052638242166e-01
         - 2.8846758146958701e-01
         - 2.9934823220014112e-01
         - -4.1205077972538140e-01
         - -2.5258707959248394e-01
         - -2.2510690799240149e-01
         - 3.2194892797759098e-02
         - 5.8637384235667930e-02
         - 4.3608543135848610e-01
         - -1.4533450573573872e-01
         - 2.1219187230172670e-01
         - 4.4943935147150749e-01
         - -2.8618559466135984e-01
         - 1.1454726491324664e-01
         - -2.0190828498256783e-01
         - 2.1266231042178102e-01
         - 3.0998283613454403e-01
         - 4.6888203575027110e-01
         - -4.9586335162918396e-02
         - 8.7191136348016368e-02
         - 2.6687051894351325e-02
         - -9.3840629677769211e-02
         - -7.6659337822566828e-02
         - 1.8280570662146758e-01
         - 1.3700979446520517e-01
         - 4.3465003773938256e-02
         - -1.6567944604895407e-01
         - 6.5788134099667966e-02
         - 7.4443806672609103e-01
         - 3.0545504139528362e-02
         - -1.3584170445793661e-01
         - -3.8953968577348491e-01
         - -3.4365003843969033e-01
         - -6.7438872891110571e-02
         - 9.3894674094301429e-03
         - -2.0552736963607710e-01
         - 5.6787089715442024e-02
         - 6.0058525627971877e-02
         - -2.3469066137933303e-01
         - 1.9024678073162549e-01
         - -2.0611352764610541e-01
         - -4.2248124127709827e-02
         - 1.7360310939162416e-01
         - 2.7675150191354064e-01
         - 2.3437171496820808e-01
         - -6.0702767447287496e-02
         - 8.6745729566432103e-02
         - -3.5165014052364463e-01
         - 1.9800728694433856e-01
         - -2.9444118870273073e-01
         - 2.5770137515325886e-01
         - -6.4482618162945066e-02
         - -4.2857502768566813e-02
         - -3.3509311290989724e-01
         - -1.8775271001299749e-05
         - -2.4533479340919884e-01
         - 1.8113758005928196e-01
         - 4.1503310116886238e-02
         - -5.8541375523302998e-02
         - 2.6955156999512085e-02
         - -1.7572712725512707e-01
         - 3.2508048433523318e-01
         - 2.8776563688725121e-01
         - -2.3189180910574420e-01
         - 8.3516260836011103e-02
         - -2.1285219623352464e-02
         - 5.0564198315661620e-02
         - -5.3898821732146024e-02
         - 3.1878660276360021e-01
         - 1.1329695582733483e-01
         - 1.9504706472853081e-01
         - 2.3875888266595913e-01
         - -1.3473110301065350e-01
         - 7.6620000206827577e-02
         - 3.7849034681278537e-02
         - 3.6646777589672430e-01
         - -3.6864104562209857e-02
         - -2.0181378449054869e-02
         - -2.3120754024663970e-01
         - 5.9440744138886080e-02
         - -2.2359384884772218e-01
         - -6.7143703082009509e-02
         - -2.9839009690059931e-01
         - -1.3329302117560599e-01
         - -2.7727747727645791e-01
         - 9.4844718675176840e-02
         - 2.6497440842863995e-01
         - -2.8003748005923079e-01
         - -1.8387396707748740e-01
         - -2.0874167447551303e-01
         - 3.2649473788005084e-01
         - -1.6649698107387187e-01
         - -1.0783113644684730e-01
         - -2.0171763588353131e-01
         - -5.5638596031506948e-01
         - -3.8818318629645071e-01
         - -6.3918141666817907e-01
         - 3.3864064007828859e-01
         - -6.1888059569354802e-02
         - -4.0371924161600770e-01
         - -1.6647195384263305e-01
         - 1.5630626746823743e-02
         - 5.0130693084554246e-03
         - -1.9478247740524612e-01
         - 4.9884333834331246e-02
         - -1.8738725611269100e-01
         - 5.6055440598555835e-02
         - 1.1990283234702220e-02
         - 1.7049271537181773e-01
         - 7.8844280514217616e-02
         - 6.3155417548727893e-03
         - 8.7866333627129839e-02
         - 1.3773907849484493e-01
         - -2.1373697280553647e-01
         - 1.1203297000441302e-02
         - 2.6158660298281183e-01
         - 4.8082547638197348e-01
         - 1.7095700513296914e-02
         - 1.1197172897785616e-01
         - 1.6748361589015576e-02
         - -4.9975985662209814e-03
         - 1.9746256405651594e-01
         - -2.1331838039746440e-01
         - 1.6635638714489792e-01
         - 4.7138948153763810e-01
         - 4.4581522799058271e-01
         - -5.7514333047759614e-01
         - -1.0552309418237235e-01
         - -2.7250762211798102e-01
         - -3.0168207946021575e-01
         - -9.8016602217631449e-02
         - -1.2789190469513412e-01
         - 1.7954166456230855e-01
         - 5.5082208199993161e-02
         - 1.7225565777051080e-01
         - -5.9739545907862712e-01
         - -2.1730237484720014e-01
         - 1.4493024461494389e-01
         - -1.5724151234157580e-01
         - -3.4475932978928009e-02
         - -3.8254724543560714e-01
         - 2.4171048031536260e-01
         - 2.4925677074164601e-01
         - 6.2426698653760097e-02
         - -5.4725533850531405e-01
         - -1.5732238751153385e-01
         - -8.3283783283517598e-02
         - 3.3113822489225070e-01
         - -2.6177962523272974e-01
         - 1.3933686327924737e-03
         - 3.3733443426728743e-01
         - 4.0571992433451658e-02
         - 4.8868437681622259e-02
         - -1.6688018704442428e-01
         - -1.1318131076103455e-01
         - -3.4850001238450129e-01
         - 4.6406415331654938e-01
         - 1.0918932913092690e-01
         - -3.9339913499811396e-01
         - -3.2295027586664882e-01
         - -9.4534901982858008e-02
         - 1.1370740705130762e-01
         - 3.8861752276211905e-03
         - 1.4879208040555225e-01
         - 1.5987506282222111e-01
         - 3.3269797120956845e-01
         - -1.4955144723799829e-01
         - 3.2826859869853059e-01
         - 1.7121015909579609e-01
         - -3.7995311276117566e-01
         - -2.8635388730170741e-01
         - -9.2374170116041501e-02
         - -2.7304695115289756e-03
         - -5.8166489453985006e-03
         - -5.3740612019797795e-02
         - 6.5743535450126034e-01
         - -3.1575480613126566e-01
         - 5.1404253660943436e-02
         - -4.7354964035588712e-02
         - 2.2242312529581237e-01
         - -1.3419199494131548e-01
         - -3.0836724217496225e-02
         - -2.7065032415925289e-01
         - -1.0033668524662778e-01
         - -1.3500165178323819e-02
         - 5.7259733778524675e-02
         - -3.3011675204171376e-01
         - -1.3858995417793402e-01
         - 2.6855453905892746e-01
         - 1.7251983487928341e-01
         - -5.0941615646118113e-02
         - 5.2802049017086516e-01
         - 3.0432296826369169e-02
         - 1.9962405355222121e-01
         - 1.9976854970911445e-01
         - -1.0510369893028027e-02
         - 2.6985994564409699e-01
         - 1.4423583612638780e-01
         - -1.1003615011702486e-01
         - 4.0907173326402041e-01
         - -6.5542006975318048e-02
         - -8.3237127883300455e-02
         - 7.1238609141815734e-02
         - -9.9333066082148411e-02
         - 1.7390331467658754e-01
         - -1.8948960391861261e-01
         - -2.3360406871481065e-01
         - 2.7683866740227026e-01
         - 3.8933398999057504e-02
         - -1.1901397637108047e-01
         - -2.3228847602820130e-01
         - 6.5221294555459530e-01
         - 2.6404158727887861e-01
         - -1.8102429310108317e-01
         - -4.2314232247222766e-01
         - 2.1406565968451827e-01
         - 9.0483651787452601e-02
         - -6.3021053847993391e-01
         - 1.5455251462341207e-01
         - -5.0320424199263403e-01
         - 1.4884346400054504e-01
         - -1.4705220623817239e-01
         - -1.1772037650388155e-01
         - 2.1720638884371479e-01
         - 2.2525715335822311e-01
         - 4.9159565269962635e-01
         - 2.5499792929020437e-01
         - -1.9346907453183959e-01
         - -2.2413704857246214e-01
         - 1.2909345735112762e-01
         - 2.5217312286662447e-01
         - -2.8899104079465537e-01
         - 1.4954492455788748e-01
         - 3.6304552792352102e-01
         - 1.8817843731872108e-01
         - -3.6588449319843286e-01
         - -1.7509420947329776e-01
         - 2.8471481532397747e-01
         - 3.1090480753127159e-01
         - -3.6335853617963781e-01
         - 7.0650507105585153e-02
         - -9.4640771774761490e-02
         - -1.4077612118829944e-02
         - 6.6505483894799045e-02
         - 4.7191370855605700e-04
         - -7.1000884559589372e-01
         - -1.8866035204524539e-01
         - 2.9519049391320884e-01
         - 3.1214085065757552e-01
         - -4.2450367216401880e-01
         - -1.3941790507767058e-02
         - 7.3662878663839665e-02
         - -1.1453360277323836e-01
         - 5.3001199886462949e-03
         - -3.1130538966682737e-02
         - 2.3215728586280551e-01
         - 3.7827715328995377e-02
         - -2.2152561383647909e-01
         - 4.4057687259129029e-02
         - -1.6495581801561343e-01
         - 1.3283192900603585e-01
         - -2.0245465422917916e-01
         - 3.2856168133952396e-02
         - -2.7928174228051689e-01
         - -6.1416153315663427e-02
         - 4.5770390733413900e-02
         - 6.7316845302664352e-02
         - -3.0258966850856073e-01
         - -5.8849177387431961e-01
         - -7.0785728850534815e-02
         - -1.5432037325689932e-01
         - -2.6874955194289563e-01
         - 3.2926423165600299e-01
         - 6.3514996819706862e-02
         - 2.0777450117461768e-01
         - -9.1555471840639696e-02
         - 3.4778496882984428e-01
         - -3.4272546084386135e-01
         - 1.1669681167898502e-01
         - 3.0829463352471592e-01
         - -1.3496086968454232e-01
         - -5.0065650674549191e-02
         - -5.8872880980846176e-01
         - -3.4154520057078286e-01
         - 6.9933245223894117e-02
         - 2.3477922833123224e-01
         - 2.1563875487448389e-01
         - 1.0095931480972398e-01
         - -2.3045725523999980e-01
         - -2.8720900480937095e-01
         - -4.7934537686071272e-03
         - 3.2108935291168553e-02
         - -7.1430440395732153e-02
         - 2.2678936102787320e-01
         - -5.2609786205249393e-02
         - 1.1174384272868673e-01
         - -1.5191977320693609e-01
         - -2.9448541107055992e-01
         - 2.5555094476412898e-01
         - 1.1384201877690725e-01
         - 5.8011746882967070e-02
         - 3.7713416843851148e-02
         - -2.4940989302632433e-01
         - -3.5900447743915687e-01
         - 1.9088911182150170e-01
         - -4.4690958638676981e-01
         - 1.2737484133996863e-01
         - -8.2262445582161697e-02
         - 1.9505206340650136e-01
         - 2.5207080956560207e-01
         - -1.0629709459792933e-01
         - 6.6703768902897684e-02
         - 3.1859585976244087e-01
         - -2.5632623768607998e-01
         - -1.9540731951784013e-01
         - -1.0903117478866058e-01
         - 2.4358806976199188e-02
         - 1.6752458798875836e-01
         - 5.7418569453219111e-02
         - -2.0863176512275680e-01
         - 7.0538073825258646e-02
         - 1.7822204239921471e-01
         - 1.1765809323683733e-01
         - -1.9355243976630584e-01
         - -1.3915162427024907e-01
         - 7.7568278073885111e-02
         - 1.0605723694245514e-01
         - 8.3776894410156316e-02
         - 1.9412120981418673e-02
         - 1.0417329892219385e-01
         - -1.9213716084095400e-01
         - -8.8813807989561927e-02
         - 1.5762634385618973e-01
         - 3.9112837168771125e-01
         - 1.1980255963472478e-01
         - 4.1649094484967636e-01
         - -2.0281895896410371e-01
         - 5.4716384422478247e-02
         - -1.9743530324958386e-01
         - -1.4479685428567557e-01
         - 4.7754915385330679e-02
         - -2.8533746424954881e-01
         - 2.8836341728548182e-02
         - 9.2265677248495589e-02
         - -2.2719911317723374e-02
         - -6.8697686495851271e-02
         - 4.3376224697569861e-02
         - 1.2091378933689797e-02
         - 1.4707791146392632e-01
         - 2.5282178738449218e-01
         - 1.2752267233732958e-01
         - -2.9091613494951524e-01
         - -2.4410854941298321e-01
         - -9.8519767379870518e-02
         - -2.6914772916712629e-02
         - 3.8909793273678413e-03
         - -1.2019456893327206e-01
         - -2.0203969763861648e-01
         - 3.0554306408226144e-02
         - 9.5864831164288261e-02
         - 7.1319890822642076e-02
         - -1.3693360295460527e-01
         - -2.5593334184936739e-01
         - -3.0858816553895666e-02
         - -6.7896466716697024e-02
         - 5.5599333586906712e-02
         - -7.7154120756768960e-02
         - 1.4938449399217496e-01
         - 3.1073366781498270e-02
         - 3.5490939469777621e-01
         - -4.1329151617142229e-01
         - -7.0718917120319094e-02
         - -4.0140831871195914e-01
         - -1.9552067418421176e-01
         - 3.8881720981077073e-01
         - 1.0994533163119131e-01
         - 4.3463879522562948e-02
         - 9.3355037505499311e-02
         - 1.1223349828604266e-01
         - 4.1469759453786954e-02
         - -1.9438657795734091e-01
         - -4.1026597403688919e-01
         - 1.6380676114862885e-01
         - -4.6328693179101411e-02
         - 2.7546882539651412e-02
         - -2.0516299900865835e-02
         - 4.8076260711811608e-01
         - -8.8233774791766195e-02
         - 3.4105386780705332e-01
         - 2.2807127558429095e-02
         - 3.5694335347244054e-02
         - 1.0990377774399343e-01
         - -1.8301847788485492e-01
         - 3.2152516279345050e-01
         - 2.1762476608930542e-01
         - 8.2588940799334890e-02
         - -2.8853840858718538e-01
         - 7.3586330478653691e-02
         - 1.8542601094305725e-01
         - -5.1446316419629122e-02
         - 1.3868751478742095e-01
         - -1.4444814273150408e-01
         - 3.6147618996984626e-02
         - -1.8325030587843708e-01
         - -1.8846584747840142e-01
         - -1.1826446294620081e-01
         - 2.5615033069712140e-01
         - -1.2559647912456678e-01
         - -9.6187864339022294e-02
         - -3.1323972548276224e-01
         - 1.0382012597203293e-01
         - -1.5347305738105385e-01
         - 2.9371866177507777e-01
         - -1.4713292655728791e-01
         - 7.6966745437287265e-02
         - 1.2006347200606082e-01
         - 1.1616289391669854e-01
         - -3.4616232647076917e-02
         - 1.7247993452416087e-02
         - -2.0548191443035733e-02
         - -3.0763909932391693e-03
         - -3.8612484763490712e-01
         - 1.7338019245884348e-01
         - -2.9348662921587704e-01
         - -1.3740157085174590e-01
         - -4.9009638724285799e-02
         - -1.5701626720043257e-01
         - 3.2635212951356390e-01
         - -2.1233591852823511e-01
         - 1.9116889344650581e-01
         - 1.3837884591499730e-01
         - 9.0504598333160727e-02
         - -4.1962379982427961e-01
         - -1.2670033295354527e-01
         - 1.2738743534195784e-01
         - 3.0022421739547794e-01
         - 1.8939503940184832e-01
         - -2.4292910365798248e-01
         - 3.1540070316763619e-02
         - -2.9038479733242167e-01
         - 2.0685546371361047e-01
         - 1.1914936819256834e-01
         - -8.4662515016560400e-02
         - -5.7635243362172212e-02
         - -3.3969908019675710e-01
         - -1.5830213998211237e-01
         - 5.5013692249302082e-01
         - -9.5643790663972161e-02
         - 3.2128904793171975e-01
         - -4.7117863774149032e-02
         - -1.7627353130439863e-01
         - -1.4533286653864996e-01
         - -2.2397884464544870e-01
         - -2.3042519663908867e-01
         - 1.5385554833527536e-02
         - -5.3013194997119005e-02
         - -4.5208273826808781e-02
         - 7.7953258469531883e-02
         - 1.3767252895846896e-01
         - -1.3283428488881729e-01
         - 9.0983863812755070e-02
         - 2.3041369761175295e-01
         - 6.2359881835694778e-03
         - -3.3140232189736257e-01
         - 8.4720496137345710e-02
         - 2.3961359456839609e-02
         - 1.9930515307477706e-01
         - -1.0891208761067257e-02
         - -1.2922970438720366e-01
         - 9.9935714973195505e-02
         - 1.2898515236626520e-01
         - 2.3329201766622015e-01
         - -3.0115125995568659e-01
         - -1.2873617447561606e-01
         - -8.8689181169052403e-02
         - -6.4083183147498335e-01
         - -1.6269765967999941e-01
         - -2.6225282842814052e-01
         - -1.5478378735588003e-02
         - -6.9605073612986124e-02
         - 4.3057838569976115e-01
         - 3.2470131854681235e-02
         - 8.7743849593485732e-02
         - -2.7231051388285543e-01
         - 1.7346502532692520e-01
         - -1.9311762870816504e-01
         - 1.8857003567376146e-01
         - -1.8163539256167532e-01
         - -9.2687453117602618e-04
         - 4.1726773121449101e-01
         - 2.5810437820447824e-01
         - -2.5303957060208847e-02
         - -4.8705396696221159e-01
         - 3.5077412490950782e-01
         - 3.1545161480352990e-01
         - -2.7780402993533893e-01
         - -4.2618139967978769e-01
         - 1.4758246329105684e-01
         - -5.5363883085565481e-02
         - -1.2695899729832424e-02
         - 2.0015587953534786e-01
         - -2.3147160589895049e-01
         - 1.1306731264438885e-01
         - 2.9084652936666379e-02
         - -6.1395832948082552e-01
         - 2.2013468023749808e-01
         - -3.5390539292431811e-01
         - -3.0454578871155996e-01
         - -1.7338622466701548e-01
         - -1.1210039436497746e-01
         - 8.8909755185168859e-02
         - 3.9132163386873009e-01
         - -1.4872605745111253e-01
         - 5.4514605013128631e-02
         - -2.9354583234069415e-01
         - -1.5508739605980981e-01
         - 4.4362082681997805e-01
         - -1.2766118162864076e-01
         - 1.5636473789592928e-01
         - -3.1301995525908621e-01
         - -3.1437656928064672e-01
         - 2.8624217615219655e-01
         - -1.2729444295207604e-01
         - -2.6405770304020960e-02
         - -1.0343277182213860e-01
         - 5.0110170135654497e-01
         - -3.3175037485448011e-01
         - -1.5884385405582488e-01
         - -2.8795966331815320e-01
         - 2.8210125610843678e-01
         - -3.1915514732010763e-01
         - 1.3484829365016504e-01
         - -7.9501066819342769e-02
         - 1.0227785856663223e-01
         - -4.6411387357253676e-02
         - 6.3908891200465279e-02
         - 2.7851034042778649e-02
         - -8.3447591476245239e-03
         - 1.2082888337847321e-01
         - 3.9247687643645796e-01
         - -2.1148698332773816e-02
         - -2.3015473221609509e-01
         - 6.6313013304709734e-02
         - 6.8947112426254939e-02
         - 8.4618839508867533e-02
         - 1.3199460715977634e-01
         - -2.4017153116792050e-01
         - -1.7151501194471849e-01
         - -3.7949614951643180e-02
         - -6.0896486105672075e-02
         - 6.6667891829737175e-02
         - 2.0729022455732937e-01
         - 4.1078088674116842e-01
         - 2.2783358130666967e-01
         - 2.2879666159581319e-01
         - 8.2857687667129087e-02
         - -3.3484806874006399e-03
         - 6.2977299871390920e-03
         - 2.4417262459923247e-01
         - 1.2628207595693464e-01
         - 2.2228034811222186e-01
         - -3.4119406546792869e-03
         - 7.0152044652827495e-03
         - -3.0723864318180960e-01
         - 6.1294692376305671e-01
         - 2.3867561142690633e-01
         - -1.2298902219489410e-01
         - -4.4171889291899094e-02
         - 9.5376519187517328e-02
         - 7.2221730486017044e-02
         - 1.3189254084491053e-01
         - 1.1719435564308546e-01
         - -3.6721601142427718e-01
         - 3.8006189938431728e-01
         - 5.2126003701367864e-02
         - -2.1740171447494902e-01
         - 1.7262407370520972e-02
         - 4.1934523038363825e-01
         - -7.4104217055573990e-02
         - 1.9590418211945536e-02
         - 2.9275586420952632e-01
         - 5.0808552537905416e-01
         - -1.2599644624028364e-01
         - -3.1938446178991509e-01
         - 4.9555330423477884e-01
         - 2.4117131367548603e-02
         - -2.0793125092684894e-01
         - 2.5439094025646182e-02
         - -1.5150903141916888e-01
         - -8.5485918531292324e-02
         - -1.4617705862952513e-01
         - 2.6280944405070056e-01
         - -1.4127774890009778e-01
         - -3.6360554342722434e-01
         - 2.1213815849377377e-01
         - 4.4167898984605526e-02
         - 6.2884458155537989e-02
         - 3.3683920464078138e-01
         - -3.2502963287459113e-01
         - 8.9507335402940036e-02
         - -1.0004452623449239e-01
         - -5.3714063458645725e-02
         - 2.0719123400677203e-01
         - 3.4231734636086739e-02
         - -6.8142043943769633e-03
         - -1.1966126543881286e-01
         - 1.4659441687531422e-01
         - 9.3658061660062242e-02
         - -3.2854282266067382e-02
         - -2.4042984393958572e-01
         - 5.1202751983901451e-03
         - -1.0619833813618186e-01
         - 2.3323333838564936e-01
         - -3.1504099034823224e-01
         - -4.3216831497851399e-01
         - -1.2119294603700199e-01
         - -2.1861956038089878e-01
         - 3.2798590214581452e-01
         - -1.4925120508454323e-01
         - -1.0763215480432527e-01
         - 1.6026514618967252e-01
         - 1.5004478481128367e-01
         - -1.2248748435685657e-01
         - 1.5386120979807674e-01
         - 7.6451889533388370e-02
         - -4.9859665835378160e-02
         - -1.6456869773183450e-02
         - 2.4047539323240476e-02
         - 5.4627718153859167e-02
         - -4.6462372836970897e-02
         - -2.8684274819022158e-02
         - 1.4708672480485596e-01
         - -6.0369943610072940e-01
         - 1.6253183732505827e-01
         - 4.1868173664676395e-01
         - -1.7606959747289197e-01
         - -9.1343328247265640e-02
         - 2.3390014723996491e-01
         - -3.6285311558703987e-02
         - -8.2613561319359610e-02
         - 7.1387712189195374e-02
         - -3.3245870424217262e-02
         - -1.9353602453105215e-01
         - 8.6822799235198686e-02
         - 3.2049070654059764e-02
         - -8.6959356328307480e-02
         - -2.1017899844163032e-01
         - -1.6221349262559417e-01
         - 4.3028712951515768e-01
         - 1.4582667548881550e-01
         - 7.2784715689952387e-02
         - -1.4239443944184052e-01
         - 7.0723044542085473e-02
         - -1.8456494100039017e-01
         - -1.8236867372953769e-01
         - 7.6731298059406483e-02
         - 1.3294582132181951e-01
         - -6.2720456724886367e-02
         - -2.4030528801932680e-01
         - -7.2940427121668039e-02
         - -3.8009196183549770e-01
         - -2.1571580911642446e-01
         - 3.4961543063929329e-01
         - 1.0561190708279801e-01
         - 1.3300273770256477e-01
         - 8.6866101700666123e-02
         - 8.6761967917815999e-02
         - 4.8886457083092916e-01
         - 2.9395131546002440e-01
         - -1.1571818222117188e-01
         - 9.6770504280065853e-02
         - -9.7463745825516090e-02
         - 2.2755647184023561e-02
         - 8.9561042693420325e-03
         - -1.8753634070412456e-01
         - 4.8729750909873970e-01
         - -1.3575715852262674e-01
         - 1.0738132875096429e-01
         - 3.0045336006403311e-01
         - 1.5680476690317986e-02
         - 2.7644934182106801e-01
         - -1.2816926752507915e-01
         - -3.7806621346414479e-02
         - 1.4716137859320930e-01
         - -8.1800670362710784e-02
         - 5.5435445634221890e-02
         - -7.6743002586178152e-02
         - 2.5736332913191778e-01
         - -3.1990257205418572e-02
         - -7.3059890290741836e-02
         - 2.7335646993514445e-01
         - -1.9235971168620850e-01
         - -4.6686834574825725e-01
         - -2.7990498320602224e-03
         - 1.1734268075374139e-01
         - 9.3632510565688880e-03
         - 6.7642298586075247e-02
         - 1.1976095435350050e-01
         - -8.1220271583403891e-02
         - -2.7846073087073048e-01
         - 2.5411771167007663e-01
         - 2.4689504605281876e-01
         - -2.9410271528269721e-01
         - -1.3616420306794208e-01
         - 3.4710875062954255e-01
         - 2.2175911002180645e-01
         - 8.0250605212170228e-02
         - 3.6735726179635386e-01
         - 5.8367246506756829e-02
         - -9.6310053345648169e-02
         - -5.5075013499801073e-01
         - 2.4484812032210762e-01
         - 9.8374921025511319e-02
         - -2.5785527242640527e-01
         - 1.8730582980603044e-01
         - -2.4623976383042037e-01
         - -1.0238558230197807e-01
         - -2.0463966217299268e-01
         - -2.6421401395793357e-02
         - 6.1403941784468197e-01
         - 1.8786662529259962e-01
         - -1.0081397622888148e-01
         - 1.6287561859139949e-02
         - 4.6407284499309298e-01
         - 2.4354167274403388e-01
         - -8.2498265704465126e-02
         - -6.4686179995628967e-01
         - 4.0265603630671470e-01
         - -2.2956670644486341e-02
         - -1.6526274905729998e-01
         - -1.5151297169602676e-01
         - 1.3520518114725777e-01
         - -3.1760917694651886e-01
         - -2.7187010735499245e-01
         - 1.6037915387886634e-01
         - -1.1516085709555195e-01
         - -3.7769488456876860e-02
         - 7.3147931268706806e-02
         - 1.1048292141806634e-01
         - -6.4336535234306580e-01
         - 4.8703442540639671e-02
         - 2.5970406133276192e-01
         - -1.5037770810198056e-01
         - 1.6119977506184302e-01
         - 7.4921539480939742e-02
         - -1.9838671236114971e-01
         - 1.3255394331669240e-01
         - 5.0159318477041595e-02
         - 2.7820350446181003e-01
         - -1.7231765190744261e-01
         - 1.4528035656165131e-02
         - 6.5874247427976138e-02
         - -7.3760723240317419e-02
         - -2.1614499261788062e-02
         - -1.6302382392989265e-01
         - -3.7156591483138846e-01
         - -5.1390667652107404e-02
         - 3.1580408558585271e-01
         - -3.8145466965100717e-02
         - -1.3376270035918028e-01
         - 3.9179440594066411e-01
         - 2.5781298361185240e-01
         - 3.8620595731210197e-02
         - 4.2841470175537189e-02
         - 1.1269019186822817e-01
         - -5.8246562538156266e-01
         - 7.5188251887071234e-02
         - 1.3191039387595921e-01
         - -4.0907410211159609e-02
         - -3.4862897894913293e-02
         - -2.0944378005349332e-02
         - 6.5010883073036957e-02
         - 3.1242552097104668e-02
         - 1.1178674203844992e-01
         - -1.2885319548717888e-01
         - 5.6564045681295388e-02
         - -5.6762173007757141e-02
         - -4.2470696362584909e-01
         - -5.6368955766767842e-02
         - -3.3546411320540946e-02
         - 6.3211554979756654e-02
         - 1.1201017577887842e-01
         - 3.5006314452934878e-01
         - -7.6270054119249753e-02
         - -9.6597603433174847e-02
         - 3.8170615196510167e-02
         - 1.6081919131184313e-01
         - -9.5107432171019121e-02
         - -6.9807384453453872e-02
         - -4.8451601370010949e-02
         - 2.5666709655172665e-01
         - -1.0490693120082048e-01
         - 6.8494111552538872e-02
         - 2.7231031571852782e-01
         - 6.2320117094741188e-02
         - 2.0971568307901964e-02
         - -7.9896453652869959e-02
         - -3.7724586315826586e-01
         - 3.1111259673302299e-01
         - 1.6903635630429864e-01
         - -1.7093285020806095e-01
         - -2.7183339967986714e-01
         - -1.3767707378800068e-01
         - 6.0221324937846259e-02
         - -6.0391446329901358e-02
         - -3.1506479709161311e-01
         - 6.8697558023314176e-02
         - -2.3767017149192028e-02
         - 7.3773223468702909e-02
         - -2.0316939091621702e-01
         - -1.5185780464811746e-01
         - 8.0666427806037763e-02
         - -2.5892218347194310e-02
         - 8.9559585431966560e-01
         - -5.5911567288340437e-02
         - -2.7053986020483517e-01
         - 8.2111055123793700e-02
         - 2.6785936545065787e-02
         - -1.6807505816963916e-01
         - 6.0991600711231622e-02
         - 1.1209067247932473e-01
         - 1.1664887084544937e-01
         - -2.1288656864880143e-01
         - 1.8431004354728783e-01
         - 3.2689036345819927e-01
         - -1.3372782248425616e-01
