%YAML:1.0
---
opencv_ml_ann_mlp:
   format: 3
   layer_sizes: [ 81, 123, 77, 35 ]
   activation_function: SIGMOID_SYM
   f_param1: 1.
   f_param2: 1.
   min_val: -9.4999999999999996e-01
   max_val: 9.4999999999999996e-01
   min_val1: -9.7999999999999998e-01
   max_val1: 9.7999999999999998e-01
   training_params:
      train_method: BACKPROP
      dw_scale: 5.0000000745058060e-02
      moment_scale: 5.0000000745058060e-02
      term_criteria:
         epsilon: 1.0000000000000000e-04
         iterations: 300
   input_scale:
      - 4.7368267585189141e+00
      - -2.3666882843564894e+00
      - 5.3672698183253047e+00
      - -1.0830566822614334e+00
      - 7.2026872732506018e+00
      - -7.9108775385261343e-01
      - 6.8624648898546976e+00
      - -6.3563124436404783e-01
      - 4.7872234360779897e+00
      - -8.7236085862330959e-01
      - 6.5302457453595739e+00
      - -6.9997587610473355e-01
      - 6.8632098536182884e+00
      - -6.1806699583077562e-01
      - 6.4476721288112353e+00
      - -6.1838685382136727e-01
      - 4.7769322767720883e+00
      - -2.3155000958124283e+00
      - 4.9318143014350468e+00
      - -2.6099732546946215e+00
      - 7.2077791588480267e+00
      - -5.9353788860869694e-01
      - 8.6510410908088495e+00
      - -5.5270247356465096e-01
      - 7.5705708521139723e+00
      - -6.7095940681284527e-01
      - 4.4358833571225045e+00
      - -8.6574839143231774e-01
      - 7.3742119644540098e+00
      - -6.3034927066023871e-01
      - 7.3154108611486670e+00
      - -6.3867261899516614e-01
      - 5.9844927452525578e+00
      - -8.0202555463058112e-01
      - 4.9463700986678312e+00
      - -2.6301774638990607e+00
      - 4.4203925750320456e+00
      - -1.8820276837505121e+00
      - 9.3211253914874845e+00
      - -4.5395551355883279e-01
      - 9.2586381813933123e+00
      - -4.8159857424526670e-01
      - 8.6757648910440732e+00
      - -5.1277005318515956e-01
      - 5.8560005576949088e+00
      - -6.6630508663612920e-01
      - 6.9008026232977242e+00
      - -6.0529059711639888e-01
      - 4.6723654827467360e+00
      - -1.1216617112936091e+00
      - 4.4920060926416765e+00
      - -1.3799528375651720e+00
      - 4.6728753970954271e+00
      - -2.2619580373350048e+00
      - 6.6945761709592650e+00
      - -2.9239766661658781e+00
      - 6.3842860989369354e+00
      - -1.6738896680716751e+00
      - 6.5995178727859871e+00
      - -1.4457793049325918e+00
      - 5.9719135907608702e+00
      - -1.3663218773981438e+00
      - 5.8036939807097401e+00
      - -2.0344404330598111e+00
      - 5.8355258993578909e+00
      - -1.3280211647010891e+00
      - 6.0439891128823309e+00
      - -1.0625786873800260e+00
      - 6.2349701174183156e+00
      - -1.0214033673535274e+00
      - 6.2227288589027987e+00
      - -2.4776505220402707e+00
      - 6.8423963270942840e+00
      - -3.0514926606995245e+00
      - 6.3523117815630457e+00
      - -1.0405361198729024e+00
      - 6.6679024039657673e+00
      - -1.0063536649701157e+00
      - 5.9094703987780726e+00
      - -1.2724640966767164e+00
      - 5.8114080926529059e+00
      - -2.1821523254494206e+00
      - 5.9372408528607883e+00
      - -1.4521603601704809e+00
      - 6.4786949280134118e+00
      - -1.1149034819664514e+00
      - 6.2432352364678447e+00
      - -1.3057635433953232e+00
      - 6.7554352332012071e+00
      - -2.9785797433350627e+00
      - 5.8153514538945128e+00
      - -1.7946812572713584e+00
      - 6.7255795494804476e+00
      - -7.4275445935909279e-01
      - 6.5588024638123095e+00
      - -8.0198568489289379e-01
      - 6.7443017688722557e+00
      - -8.4962028037110260e-01
      - 5.4403688947824733e+00
      - -1.4160939764852825e+00
      - 5.5232022914522654e+00
      - -1.5479503012764406e+00
      - 7.0735483520610432e+00
      - -2.8119494514674255e+00
      - 6.8324330626167100e+00
      - -2.7265771032213784e+00
      - 6.3322768485162291e+00
      - -2.5184455269963570e+00
      - 5.1551162044586389e+00
      - -1.5704851324443121e+00
      - 6.5572056447696498e+00
      - -1.2979834562349262e+00
      - 6.2996666558637120e+00
      - -1.5332219107364344e+00
      - 5.6839440614789272e+00
      - -1.9004557883743431e+00
      - 5.4001635603186564e+00
      - -2.5281926342845771e+00
      - 5.2483065076729085e+00
      - -1.3839387922079394e+00
      - 6.1068985770283835e+00
      - -9.5674306500132922e-01
      - 6.1144263015979945e+00
      - -9.4918620087113970e-01
      - 5.3064086711804119e+00
      - -1.4453585103461630e+00
      - 5.1841382439397554e+00
      - -1.5806399979164101e+00
      - 6.5776840918430164e+00
      - -1.0103587334341357e+00
      - 5.9913114944501977e+00
      - -9.7970229523031149e-01
      - 5.3019054821287526e+00
      - -1.3887224369690268e+00
      - 5.5376992428666938e+00
      - -2.7380013763931959e+00
      - 5.5725422522363441e+00
      - -1.8611647358818642e+00
      - 6.2021321336304407e+00
      - -1.1006585503688504e+00
      - 6.4140716258076784e+00
      - -1.0661741481216447e+00
      - 5.1261543405488874e+00
      - -1.5382550465634734e+00
      - 5.8464382854012111e+00
      - -1.0134111436285915e+00
      - 6.5102983967143198e+00
      - -7.3607781741863409e-01
      - 6.4750202084123778e+00
      - -7.4896735358396105e-01
      - 6.5380973274181065e+00
      - -7.9947472739517444e-01
      - 4.6363120896671841e+00
      - -1.8849939602045860e+00
      - 5.6887817273181520e+00
      - -2.3551616122116652e+00
      - 6.3404040706552127e+00
      - -2.6061782409263761e+00
      - 5.3564919911663855e+00
      - -1.6012638739896035e+00
      - 5.1335792474377362e+00
      - -1.1307699216006013e+00
   output_scale:
      - 5.2631578947368418e-01
      - 4.9999999999999994e-01
      - 5.2631578947368418e-01
      - 4.9999999999999994e-01
      - 5.2631578947368418e-01
      - 4.9999999999999994e-01
      - 5.2631578947368418e-01
      - 4.9999999999999994e-01
      - 5.2631578947368418e-01
      - 4.9999999999999994e-01
      - 5.2631578947368418e-01
      - 4.9999999999999994e-01
      - 5.2631578947368418e-01
      - 4.9999999999999994e-01
      - 5.2631578947368418e-01
      - 4.9999999999999994e-01
      - 5.2631578947368418e-01
      - 4.9999999999999994e-01
      - 5.2631578947368418e-01
      - 4.9999999999999994e-01
      - 5.2631578947368418e-01
      - 4.9999999999999994e-01
      - 5.2631578947368418e-01
      - 4.9999999999999994e-01
      - 5.2631578947368418e-01
      - 4.9999999999999994e-01
      - 5.2631578947368418e-01
      - 4.9999999999999994e-01
      - 5.2631578947368418e-01
      - 4.9999999999999994e-01
      - 5.2631578947368418e-01
      - 4.9999999999999994e-01
      - 5.2631578947368418e-01
      - 4.9999999999999994e-01
      - 5.2631578947368418e-01
      - 4.9999999999999994e-01
      - 5.2631578947368418e-01
      - 4.9999999999999994e-01
      - 5.2631578947368418e-01
      - 4.9999999999999994e-01
      - 5.2631578947368418e-01
      - 4.9999999999999994e-01
      - 5.2631578947368418e-01
      - 4.9999999999999994e-01
      - 5.2631578947368418e-01
      - 4.9999999999999994e-01
      - 5.2631578947368418e-01
      - 4.9999999999999994e-01
      - 5.2631578947368418e-01
      - 4.9999999999999994e-01
      - 5.2631578947368418e-01
      - 4.9999999999999994e-01
      - 5.2631578947368418e-01
      - 4.9999999999999994e-01
      - 5.2631578947368418e-01
      - 4.9999999999999994e-01
      - 5.2631578947368418e-01
      - 4.9999999999999994e-01
      - 5.2631578947368418e-01
      - 4.9999999999999994e-01
      - 5.2631578947368418e-01
      - 4.9999999999999994e-01
      - 5.2631578947368418e-01
      - 4.9999999999999994e-01
      - 5.2631578947368418e-01
      - 4.9999999999999994e-01
      - 5.2631578947368418e-01
      - 4.9999999999999994e-01
      - 5.2631578947368418e-01
      - 4.9999999999999994e-01
   inv_output_scale:
      - 1.8999999999999999e+00
      - -9.4999999999999996e-01
      - 1.8999999999999999e+00
      - -9.4999999999999996e-01
      - 1.8999999999999999e+00
      - -9.4999999999999996e-01
      - 1.8999999999999999e+00
      - -9.4999999999999996e-01
      - 1.8999999999999999e+00
      - -9.4999999999999996e-01
      - 1.8999999999999999e+00
      - -9.4999999999999996e-01
      - 1.8999999999999999e+00
      - -9.4999999999999996e-01
      - 1.8999999999999999e+00
      - -9.4999999999999996e-01
      - 1.8999999999999999e+00
      - -9.4999999999999996e-01
      - 1.8999999999999999e+00
      - -9.4999999999999996e-01
      - 1.8999999999999999e+00
      - -9.4999999999999996e-01
      - 1.8999999999999999e+00
      - -9.4999999999999996e-01
      - 1.8999999999999999e+00
      - -9.4999999999999996e-01
      - 1.8999999999999999e+00
      - -9.4999999999999996e-01
      - 1.8999999999999999e+00
      - -9.4999999999999996e-01
      - 1.8999999999999999e+00
      - -9.4999999999999996e-01
      - 1.8999999999999999e+00
      - -9.4999999999999996e-01
      - 1.8999999999999999e+00
      - -9.4999999999999996e-01
      - 1.8999999999999999e+00
      - -9.4999999999999996e-01
      - 1.8999999999999999e+00
      - -9.4999999999999996e-01
      - 1.8999999999999999e+00
      - -9.4999999999999996e-01
      - 1.8999999999999999e+00
      - -9.4999999999999996e-01
      - 1.8999999999999999e+00
      - -9.4999999999999996e-01
      - 1.8999999999999999e+00
      - -9.4999999999999996e-01
      - 1.8999999999999999e+00
      - -9.4999999999999996e-01
      - 1.8999999999999999e+00
      - -9.4999999999999996e-01
      - 1.8999999999999999e+00
      - -9.4999999999999996e-01
      - 1.8999999999999999e+00
      - -9.4999999999999996e-01
      - 1.8999999999999999e+00
      - -9.4999999999999996e-01
      - 1.8999999999999999e+00
      - -9.4999999999999996e-01
      - 1.8999999999999999e+00
      - -9.4999999999999996e-01
      - 1.8999999999999999e+00
      - -9.4999999999999996e-01
      - 1.8999999999999999e+00
      - -9.4999999999999996e-01
      - 1.8999999999999999e+00
      - -9.4999999999999996e-01
      - 1.8999999999999999e+00
      - -9.4999999999999996e-01
   weights:
      -
         - 1.6200946896821841e-01
         - -1.3844909597128399e-01
         - 9.7550815052650369e-02
         - -1.5529697956215888e-02
         - 2.7303882467244589e-01
         - -1.2981205896511272e-02
         - 3.0301254553612402e-02
         - -3.7876726737981370e-01
         - -2.1469771985722547e-01
         - 8.9420370406875255e-02
         - 2.3538803249812365e-01
         - 2.0127002375214348e-01
         - 5.0077755473909902e-01
         - 2.7952156756791841e-01
         - 2.1511775008830039e-01
         - -3.8480388080368721e-01
         - 2.3843795138926580e-01
         - -3.4839777353953694e-01
         - 9.3005043798116374e-02
         - -3.3482240515172385e-01
         - 7.0112763284126758e-02
         - -4.7602970535575891e-02
         - 4.3810793262700862e-02
         - -1.3753844062478021e-01
         - 1.9607759863345972e-01
         - -2.3267958476723669e-01
         - 1.7537742870647466e-01
         - 3.9994252035840810e-01
         - 3.1426978315205462e-01
         - 3.0676731343448049e-01
         - 8.5223974468344274e-02
         - -4.4106901469708754e-01
         - 2.8382659361326795e-01
         - 1.0356639917683183e-01
         - -3.0055439658664959e-02
         - 3.8800237976380048e-02
         - -2.6349720019246853e-01
         - 5.4939817480595433e-02
         - 1.5504984101710836e-01
         - -1.0213437447716706e-01
         - 6.2180264340574709e-01
         - 1.5206552667310000e-01
         - -2.4907360318746857e-01
         - 3.8961323035806544e-01
         - 4.6014702667265844e-02
         - -1.2043248482908429e-01
         - 2.9214094127147462e-02
         - 1.1712598155010287e-02
         - -9.5046409101039731e-02
         - -1.5691855670637123e-01
         - 1.1611496762024709e-01
         - 1.1935814087853901e-01
         - 4.5241059144243367e-02
         - 1.6076135908671968e-01
         - 3.2626092498726021e-02
         - 3.3386712305260274e-02
         - -9.6431607326452090e-02
         - 3.2822534714202606e-01
         - 2.3111195248572472e-01
         - -1.1751404730943797e-01
         - -1.4816353604708221e-01
         - 1.4819301506695090e-01
         - 1.0372708095847046e-01
         - -3.8109225329899432e-01
         - -9.3724919557679906e-02
         - -4.6572389666619800e-02
         - -1.5806747820472733e-01
         - -1.3566817157907737e-01
         - -1.5222108188777889e-01
         - -1.3595987993641923e-01
         - -2.9971430682816580e-01
         - 4.5320814221328337e-01
         - -1.8333584245363438e-02
         - 4.9137113768256441e-02
         - 1.0183606656366584e-01
         - -2.0828925712983448e-01
         - -1.2276313889229189e-01
         - 3.0629382436325275e-01
         - -1.6504959469035055e-01
         - 2.0602026129124545e-01
         - 2.0423520562396794e-01
         - -1.1869804313554892e-01
         - -7.3214281073444201e-02
         - -2.6419781439215562e-01
         - -4.8189086923501573e-02
         - -1.3846207176790443e-01
         - -2.0747166272003270e-01
         - 1.0968960346750550e-02
         - -1.2640495381828729e-01
         - -8.8659134652157426e-02
         - -3.9876171981357234e-01
         - -4.0811817206506062e-02
         - 9.9075686504418864e-03
         - 4.1969987118948776e-01
         - -4.6007489168945058e-02
         - 1.1162567870245681e-01
         - 2.0513590897787069e-02
         - -2.4160983807253574e-04
         - 4.4600080124543340e-01
         - -2.1630096906258348e-01
         - 2.2349232014500861e-01
         - 5.1607453887485770e-02
         - -3.1754491798841905e-01
         - -2.7504639295253198e-02
         - -2.5954997423438451e-02
         - -2.5887864605441224e-01
         - -9.8626082569240853e-02
         - -7.6234022642105145e-02
         - 2.1656802680024509e-01
         - 3.7219457398773736e-01
         - -6.9286510498451609e-02
         - 3.3932871004518375e-02
         - -5.7282110232357419e-01
         - 6.5076553261412928e-02
         - -1.4400694899666043e-02
         - -1.6583685554671954e-01
         - 1.6692043441016594e-01
         - 3.4618436318809820e-01
         - 1.9490634810609644e-01
         - -1.1322654642878104e-01
         - -1.5801956607348225e-01
         - -1.0126081750324782e-01
         - 1.5897689043465357e-01
         - 1.2908684337472026e-01
         - 2.5696476221192122e-01
         - -4.4896951403532775e-01
         - -2.5685839505702707e-01
         - 2.4220142350191123e-01
         - -1.5365602279157603e-01
         - -1.6353312354483321e-01
         - -4.3175646206813287e-02
         - -8.7094345274210686e-02
         - -1.5937089711154664e-01
         - -1.7961816074903045e-01
         - -1.0816549278035483e+00
         - 1.5361005522819676e-01
         - 1.4374844523446725e-01
         - 1.4772001775467303e-01
         - 3.7535286007491442e-01
         - 7.0295149783838771e-03
         - 2.0333181806957978e-01
         - 3.0537252792284592e-01
         - -6.1869266639474874e-01
         - -1.2851209816606571e-01
         - -1.2575995489240083e-01
         - 7.8995021507585819e-02
         - 1.4551502008939624e-01
         - 3.4476454876802037e-02
         - -1.7920774929421063e-01
         - -3.3183600400080776e-01
         - 6.6624150278147276e-02
         - 4.2618501196322944e-01
         - -2.3591310068246671e-01
         - -2.4361739397955351e-01
         - 3.2466251816543568e-01
         - 6.3006380268814011e-01
         - -1.5500789982708507e-01
         - -1.8320637014263183e-01
         - 1.1993778528563805e-01
         - 2.9462342122916474e-01
         - -1.4937055624994675e-01
         - 8.4436380679887485e-02
         - 1.7413893972911715e-01
         - 9.3876503908392001e-02
         - 1.8901928273291724e-01
         - -1.7059753059117330e-02
         - -5.8378264432406551e-03
         - 7.6070438588676667e-02
         - 6.5670195619035621e-01
         - 3.2960111574881046e-01
         - 5.7663763135891910e-01
         - -1.3577335384860909e-01
         - 3.8079533807789989e-01
         - -2.5690510915847659e-01
         - -8.0651421001442125e-02
         - -2.3631544568945359e-01
         - -6.8918585098083540e-01
         - -4.5951899172463839e-01
         - 3.9143409280007840e-01
         - 2.7602247083411707e-01
         - 9.6575573021120992e-02
         - 1.6599988381654832e-01
         - 2.0533829805976325e-01
         - 2.9819858442363362e-01
         - 5.3234992168850770e-01
         - 1.2041893471386721e-01
         - 1.0663457710928202e-01
         - 5.1250697242820831e-01
         - -2.5794679588464897e-01
         - -3.3703398678981911e-01
         - -1.0675461237389341e-01
         - -6.1477878113706967e-02
         - 9.7475636988083883e-02
         - -3.5040832494457591e-01
         - 1.2622736981815161e-01
         - 2.7645346224984263e-01
         - 8.3535498075526071e-02
         - 2.1721630414658669e-01
         - 1.4353616613411285e-01
         - 4.7449547210087102e-02
         - 7.1738531365738167e-01
         - -1.3746872265830060e-01
         - -7.4941072907067389e-03
         - 1.1962248619474886e-01
         - 2.4583051239520275e-03
         - 7.8596587988532085e-02
         - -4.3304001540631776e-01
         - -2.6023288338076289e-01
         - 2.4173625093549267e-01
         - 6.0066878891801997e-02
         - -2.4903507259693472e-01
         - 3.5958988788464354e-02
         - -5.6565497408835992e-02
         - 6.1573034548721317e-01
         - -1.5329224882541650e-01
         - -3.2551669352923901e-01
         - -4.9686744928509635e-01
         - 4.8056260310058649e-02
         - 2.9293170890031084e-01
         - -6.7012524676495966e-01
         - 1.1225634861387687e-01
         - 4.8449786604210432e-01
         - -1.2092460039715340e-01
         - -1.0515835166133154e-01
         - 5.6152500904746816e-01
         - 1.0567431995077042e-01
         - -1.1702827904312831e-01
         - 1.5148198910913208e-01
         - 1.0321456416599049e-01
         - 6.9237201519395142e-01
         - 6.2490457544055529e-02
         - -3.3208012886721994e-01
         - 7.5084385424456490e-01
         - -1.3166438720561296e-01
         - 6.0533429038770881e-01
         - 1.7404574747926491e-02
         - 2.5758408459869742e-01
         - 3.8484164006276453e-02
         - 2.6207353319963506e-01
         - -6.6660190713515943e-01
         - 3.7256240844198624e-02
         - -1.3875409134691452e-01
         - 2.2098610373806574e-01
         - -2.0260939713530310e-01
         - -3.5760103295940077e-01
         - -5.4244745939573180e-02
         - -2.6713400856793779e-01
         - 1.0418804949047578e-01
         - 7.8169018118683653e-01
         - 3.4479842210152312e-01
         - -1.1407704019051412e-01
         - -6.9332677156615619e-02
         - -4.6489006087738594e-01
         - -4.0702611682492250e-02
         - -2.0260425032628712e-01
         - -2.3418570747784867e-01
         - 7.8183952725164856e-03
         - -4.1101612220026734e-01
         - -2.3116683897157247e-01
         - 2.4247049001839829e-01
         - -1.3558866440547507e-03
         - -2.2552067723183497e-01
         - -1.8533413613984272e-02
         - -2.8833122327093658e-01
         - 4.3916220474908951e-02
         - -4.0954935648063606e-01
         - 4.2321939595588515e-01
         - -1.4506591268251187e-01
         - 4.9648630093299943e-02
         - -1.0159060309485667e-01
         - -5.1897083533493954e-02
         - -2.8900876529245401e-01
         - 1.7977369478448460e-01
         - 2.5057001346071650e-01
         - -1.6977793335852390e-01
         - 1.2309527129141969e-01
         - -7.9430701206691934e-01
         - 7.4034370358515955e-02
         - 1.2515610104096372e-01
         - 6.1712554162525555e-04
         - -1.7958333280368499e-01
         - -1.1640403395178489e-01
         - 7.1022234892706412e-02
         - 6.9127128463835605e-02
         - 2.4722538999832713e-01
         - 3.1553052310415791e-01
         - -3.3767885717780927e-01
         - 7.9832848808775267e-02
         - -1.2083515469173367e-01
         - 2.4769329272763259e-03
         - 7.6938132036943038e-02
         - -2.1698813900577242e-02
         - -3.8669273092318879e-02
         - 8.1111906270036907e-02
         - -1.7364287884144372e-01
         - 2.9923122126864365e-01
         - 1.0357642865062844e-01
         - 5.5347330157314495e-02
         - 4.6546882049229792e-02
         - -1.8596463683654549e-01
         - 2.2405421386961924e-01
         - -4.5709294546465974e-02
         - 1.5501480115283309e-01
         - 1.1308351939736325e-02
         - 2.1991617838248179e-01
         - -2.5581327205304283e-01
         - -1.8232496441979401e-01
         - 1.4699556887073845e-01
         - 2.2556972783099388e-01
         - 2.2044820513272134e-01
         - -7.7751311528733130e-02
         - 1.4432189100585860e-01
         - 4.9063575114396313e-01
         - 2.2979860515014719e-01
         - 2.2281874766753657e-01
         - -1.2385474763906767e-01
         - 2.4275987378332901e-03
         - 2.0450194497728899e-01
         - 2.9111265497120170e-01
         - 7.5692715018520332e-02
         - 1.1557505374523425e-01
         - 6.3599351826125883e-01
         - 7.2985087036924068e-01
         - -4.4376904350146207e-01
         - -1.6494939642230366e-01
         - 1.5841337921123680e-01
         - -3.3750813198453489e-01
         - -4.8210882069739929e-03
         - -2.5029943247343117e-01
         - 1.7245334531537848e-01
         - -1.7827218224793320e-01
         - 4.0665784139075611e-01
         - 1.0686417055836384e-01
         - -2.1837339314966428e-01
         - 1.6299093339420667e-01
         - -5.2023256905977443e-02
         - -6.6533123206971037e-02
         - -3.2573237829898566e-01
         - -1.1033126422225456e-01
         - 8.5845818791723136e-02
         - 1.7811116478686792e-01
         - 1.9978677310052909e-01
         - 2.1120495609733593e-02
         - -2.2345079612816740e-01
         - -5.7468964946252010e-01
         - 3.9982054690181118e-01
         - -3.0914782716209638e-01
         - 2.5304495176903730e-01
         - 3.6097264343046384e-03
         - -8.7828561479564013e-02
         - 3.2777770173457219e-02
         - -2.8630910560023570e-01
         - -2.1630801947274839e-01
         - 2.3718906253785879e-01
         - -9.0408502351792952e-01
         - 4.3977863136299361e-01
         - 8.3188931450131551e-03
         - 7.3762995634540723e-02
         - -3.6881745941416127e-01
         - 2.8975573125106568e-01
         - 6.0922283610771878e-02
         - 7.8778775680384194e-01
         - 4.9429317223422969e-01
         - -2.3895801150086481e-03
         - -4.4060584640017569e-01
         - -2.3402409914127981e-01
         - -3.5613710362558582e-01
         - 1.3827868831277615e-01
         - -2.0506149246440758e-01
         - -3.9068095069225589e-01
         - 1.8786591771608188e-01
         - 9.6681141476009647e-01
         - 4.4878672895775462e-01
         - -7.3576711321198873e-01
         - 1.9833113204243374e-01
         - -3.6446973853302245e-01
         - 2.7502793249721147e-01
         - -3.2030963457769668e-01
         - -3.6221663092369599e-01
         - 4.3491689511072251e-01
         - -6.5593690837154550e-01
         - 1.5387288017884942e-01
         - 5.0223526467676194e-03
         - 6.2454763710091385e-02
         - 1.2883697878140208e+00
         - 4.9567729245789706e-02
         - 7.8523750849765162e-01
         - -2.3943108658278930e-01
         - 5.1998835265662990e-01
         - -6.4285636644076227e-01
         - 2.9600837824776788e-01
         - 1.9023973355805376e-01
         - 4.7171159391101397e-01
         - 2.4573837842077863e-02
         - 6.9665327320751991e-01
         - 9.1910618952500758e-02
         - -4.8809215983433740e-01
         - 4.7916924014138396e-01
         - 1.0376750703105495e-01
         - -1.8145405480683244e-01
         - 7.8541837189472907e-01
         - -2.1531594870144552e-01
         - -3.4881449327554653e-01
         - 2.4167128526425018e-02
         - -3.0605856394947933e-01
         - 7.1344273274476588e-01
         - 1.7165595209462617e-01
         - -2.7287608460228308e-01
         - 1.6970835222681402e-03
         - -7.7863675647867192e-01
         - 4.6299381398711598e-01
         - 5.0268785531919746e-01
         - -1.2520541129475360e-01
         - -2.0573558158896585e-01
         - -7.8403534963691157e-01
         - -4.8450925855252736e-02
         - -4.4932948230264103e-01
         - 5.3718978574941512e-02
         - 3.7700033918107140e-01
         - 1.8520241063478082e-01
         - 3.7240136362123410e-01
         - -3.0619168460248142e-01
         - -8.6672769851021347e-01
         - 1.0293460141831523e-02
         - 5.5413029215705523e-01
         - -4.6850314884338490e-01
         - 2.8957370906139263e-01
         - 2.3196928462411726e-01
         - -3.7525872990852588e-01
         - -2.7252860937292611e-01
         - 3.8489117041796822e-01
         - 3.4070084508223991e-01
         - 4.9213442966654454e-02
         - -1.7438757365472513e-01
         - 1.7832171287920026e-01
         - 2.4639713039270469e-01
         - -7.9964856256944009e-02
         - 3.6776791914743023e-01
         - 1.4640066760320333e-01
         - 5.7604682869517199e-01
         - 3.7164893904238425e-02
         - 7.7646654370228677e-02
         - 1.6857356280094252e-01
         - 4.1292857002529666e-02
         - 6.3529321012168938e-01
         - 2.6134081309914903e-01
         - -4.1521674845865092e-01
         - -1.4623628169998343e-01
         - -3.1957363550158591e-01
         - -2.7249956675391468e-01
         - 3.1265860250956928e-01
         - -2.8727992454723400e-01
         - -2.0998319645039034e-02
         - -1.8211917393493185e-01
         - 4.3012263354990399e-01
         - 1.7045788258684119e-01
         - -2.0198546012758062e-01
         - 2.6156450586845631e-01
         - -8.9495730232461199e-02
         - 2.9400388603385147e-01
         - -1.5044271892913463e-01
         - 2.9889727614885959e-02
         - -6.7894018165417269e-01
         - -2.7951929018964757e-02
         - 1.7349049586326962e-01
         - -4.2018296035054048e-01
         - -3.4995914034624633e-02
         - -1.2943833671584775e-03
         - 5.9309508218505436e-01
         - -2.7873020201974763e-01
         - -6.0073647480898247e-03
         - -1.4101609718956598e-01
         - -2.1901355718763154e-02
         - 7.1254798200967207e-01
         - -1.8666262429349059e-01
         - 2.5186875313527468e-01
         - 2.9062299095585337e-01
         - -3.4982211354388582e-01
         - 1.3918237968587097e-01
         - 4.1186575785090447e-02
         - 6.1739917914563602e-01
         - -1.9482612212320288e-01
         - 1.8389135411482452e-01
         - -1.0993896001080065e-01
         - 4.1008899345216709e-01
         - -7.2381605570857754e-01
         - 1.0225177377939061e-01
         - -3.2755438094534461e-01
         - -1.0624351428613243e-01
         - -1.9815915114464713e-01
         - -2.3391356957179846e-01
         - -4.2419878760679969e-01
         - -1.8611447558095146e-01
         - 1.1257373779146336e-01
         - -9.7873997377364005e-02
         - -6.5799476014685873e-02
         - 2.1097254370737500e-01
         - -1.5889199308286719e-01
         - -2.4901498225233343e-01
         - 5.6826783946024062e-01
         - -1.6102440869336854e-01
         - -6.2769733882702561e-01
         - -8.9051870406013978e-02
         - -4.7965201422791248e-01
         - -3.2368052500403882e-01
         - 1.8794441436866341e-01
         - -4.3202869637180681e-02
         - 2.2725391674960166e-01
         - 3.2360387371813853e-01
         - 9.7730423367800259e-02
         - -5.3292900528179699e-02
         - 1.5837094220857609e-01
         - -4.4799883041783017e-01
         - -4.9300917579702741e-01
         - 4.4282256562823841e-01
         - -5.1142806821068192e-02
         - 4.1261263956505874e-02
         - 3.2073811303769673e-01
         - 1.9810901986736518e-01
         - -3.0111824555849537e-01
         - -3.1523245463072180e-01
         - 3.2378859684209621e-01
         - 5.3472543394140604e-01
         - -4.0872103749569905e-01
         - -1.7327506380922209e-01
         - -1.9448155555819063e-01
         - 1.5897603685593034e-01
         - -1.2793791585872549e-01
         - -3.0119029853763835e-01
         - -3.2841409208122713e-01
         - 2.9466224877424507e-01
         - 3.2867718909532051e-01
         - -3.5140988999352785e-01
         - 1.3577745832837398e-01
         - -4.3126800389275265e-02
         - -1.8220612909215139e-01
         - 1.1158628273570469e-01
         - -4.2534218121852374e-01
         - -1.7315063627228555e-01
         - -1.3451332076174458e-01
         - -2.2805924115721621e-01
         - 1.9131297474007916e-01
         - 1.4289753268494373e-01
         - -3.5299671867282006e-01
         - 1.9801436350165486e-01
         - 4.6958538577004644e-01
         - 5.4076546221529564e-01
         - 3.2791006361671166e-01
         - -1.8530149339400042e-02
         - -4.5791139977322354e-01
         - 8.1607100808508737e-01
         - 3.1586748985452995e-02
         - 6.9604180322732107e-02
         - 1.9534562844792966e-01
         - 4.4970866806950094e-01
         - -2.2926554005586749e-01
         - 1.0765744457828630e+00
         - 7.2094127258353138e-02
         - 2.7672089383510295e-01
         - 6.2218121319368291e-01
         - 3.1428601385466198e-01
         - 8.7283547770861170e-02
         - 3.3424752590108764e-01
         - -1.6033690845873583e-01
         - 3.0868624690352814e-01
         - -1.2427084616258398e-01
         - 1.3532964343050780e-01
         - 6.0530473410535868e-01
         - 5.9785908621858419e-01
         - -1.1912447991345845e+00
         - -1.1127515081119708e-01
         - -4.4813688323638440e-02
         - -5.9731255419669571e-01
         - -6.8557692826762009e-02
         - -3.3098266670630816e-01
         - 2.1393488807303621e-01
         - -3.2580577366773833e-01
         - 4.1674421438159687e-01
         - -1.9235892618838252e-01
         - -4.1549663886045601e-01
         - 4.2421156625736245e-01
         - -2.2851425265243194e-01
         - -5.5826604412960012e-03
         - -1.9671187078185481e-01
         - -1.0118150294105660e-01
         - -5.8345405867004825e-02
         - -3.6827243570169255e-02
         - 1.0469251343645621e-01
         - 3.1330154510350083e-01
         - -3.5888044843984607e-01
         - 2.3135411909243386e-01
         - 1.3917215641826391e-01
         - -1.5331013761746058e-02
         - 7.2884789553492757e-02
         - 2.0696543759771480e-01
         - 2.1420166010432898e-01
         - 1.7189290458906745e-01
         - -3.1764544943039444e-02
         - -8.3761763305172782e-04
         - 1.1214488473494835e-01
         - -6.2135687891431524e-01
         - -1.1348809659775191e-01
         - -9.8635125073142371e-02
         - -4.7995017815814639e-01
         - -9.6183309849099807e-01
         - -1.5190459982972315e-02
         - -1.4115395930605060e-01
         - 1.7251924407169331e-01
         - -7.9369875109145882e-01
         - 9.9571676870562578e-02
         - 3.2629164404751214e-02
         - -3.1159835047696616e-01
         - -1.4950313725276082e-01
         - 8.4431692312295012e-02
         - -3.6527271999650257e-01
         - 3.1302151578676995e-01
         - -3.9411750716504497e-02
         - 2.7739609587617176e-01
         - 4.7780462384029825e-02
         - -1.2581748751584687e-01
         - -5.1777839443244056e-01
         - -2.3530825511479012e-01
         - 5.7993836860842940e-01
         - 4.7339962355130821e-01
         - -8.5827283862247153e-02
         - -7.6887530384875269e-01
         - 9.4741728949447734e-01
         - 2.5574708987028721e-01
         - -2.4848840902878762e-02
         - 2.6978857715384885e-01
         - -7.3442946954434485e-01
         - 1.7290709009217936e-01
         - 5.8951003959228532e-01
         - 9.2134293794218225e-02
         - 3.3047277692682991e-01
         - -5.3134198660792120e-01
         - -4.2149236729012524e-01
         - 4.0333643433141952e-01
         - 2.0296631394561676e-01
         - -3.7909614466281555e-01
         - -4.9035191776618992e-01
         - 1.3347294230393789e-01
         - -3.7434072530446666e-01
         - -2.5125205385371152e-01
         - -1.2826721455681728e-01
         - 6.2223638313366181e-01
         - -2.3243114700149087e-01
         - -2.9392022002649737e-01
         - 1.5157126935283863e-01
         - -1.2359122133497656e-01
         - -1.3644869125802095e-01
         - 6.1942439358791866e-02
         - -4.0198074068920642e-01
         - 1.3126425004711462e-01
         - 2.7695090768884706e-01
         - 2.3356966520981565e-01
         - 2.1195045200819895e-02
         - -1.8955141830924990e-01
         - -4.7380690045983012e-02
         - 4.9788829510487548e-01
         - -2.1716478085300925e-01
         - 2.9285562684477889e-01
         - -5.1088283406177888e-02
         - -1.2123997035105637e-01
         - -2.0853095117611589e-02
         - -8.0572694521314742e-02
         - 2.7194771006998436e-01
         - 4.0386881817630571e-01
         - -2.0293926411703764e-01
         - -2.9771416043598375e-01
         - -3.9356430485602123e-01
         - 6.0204559820037185e-01
         - 1.9724905527865341e-01
         - -1.4167024302020700e-01
         - 4.1503915225008858e-01
         - 5.8520444441445968e-02
         - 9.7918638781197401e-02
         - 1.8736787241591973e-01
         - -8.8949950857803176e-02
         - 9.4546783352378305e-01
         - -1.7160887295195446e-01
         - -1.5889194610767643e-01
         - 3.3709411610350509e-01
         - -1.0922037175628957e-01
         - 4.7551338256377668e-01
         - 1.6455255654140494e-01
         - -6.5092138783203052e-02
         - 8.3117752214258683e-02
         - -5.0396166133883336e-01
         - 3.1591820690035488e-01
         - 3.0643378799328386e-01
         - -6.4092157229143587e-01
         - 3.7208872155613010e-01
         - -1.9564991001283828e-02
         - 1.0431031378094759e-01
         - -3.5564364176401166e-02
         - -2.2424095386850482e-01
         - 4.8497113951607631e-03
         - 3.9204523397980690e-01
         - -1.4359600482568866e-01
         - 2.6534281012539418e-01
         - -4.1873441972639491e-03
         - -2.4314191317205477e-01
         - 1.9111623944026218e-01
         - -5.8604551208442927e-02
         - -9.8796566531154789e-02
         - -1.0757612087726869e-01
         - 6.1706370540227296e-01
         - -2.2122328258371432e-01
         - -3.8024889031868975e-01
         - -3.2164051705798752e-01
         - 4.2519876021241287e-01
         - -1.3002578357912756e-01
         - 1.7962661873666619e-01
         - 2.0766159958352801e-01
         - 1.7755298248490495e-01
         - 2.1500020925242189e-01
         - 2.3242663330113428e-01
         - 3.6105734003055973e-01
         - -5.4374781592197718e-02
         - 5.2349433332603579e-01
         - 6.9281264633710526e-01
         - 2.1257398650208090e-01
         - 2.1242050087710651e-01
         - -1.1501233279479384e-01
         - -2.4667371645733935e-01
         - 8.9491839487522984e-02
         - 1.0000532396051207e-01
         - 3.1813198252909174e-02
         - -2.3178865373062502e-01
         - -5.3116584562716773e-01
         - -3.2294043490074942e-01
         - 3.2055637255736219e-01
         - 6.1688435118110185e-01
         - 1.6572532214899052e-01
         - 5.1930464119606412e-01
         - 7.3606478436615896e-01
         - 2.4048738983930407e-01
         - 5.8735982141878607e-01
         - -6.0548268195539656e-02
         - 1.1104438699999428e+00
         - -9.7389289725455977e-02
         - -3.5470156541520199e-02
         - -3.7203555490938389e-01
         - -3.8407441642174467e-02
         - 4.1188443525980151e-01
         - 8.3309975448443030e-01
         - 1.4691724727705793e-01
         - -6.3387282517228849e-01
         - 1.3732016471029523e-03
         - -4.1496191017585904e-01
         - 9.3314857441185894e-02
         - -2.5272796454527552e-01
         - -5.5062211813498141e-01
         - 1.7826350941305916e-01
         - -4.4330903563667334e-01
         - 1.2799303173135210e-01
         - -1.2581571511263359e-01
         - 5.9637667325770172e-01
         - -3.7308249145058431e-01
         - 9.0994651153626302e-02
         - -3.6857871744228349e-01
         - -2.6930994839252981e-01
         - -6.7979407432150007e-01
         - 1.0054391823679840e+00
         - 4.2817548464527788e-01
         - 2.2339908980449269e-01
         - -5.5592091801446519e-01
         - -7.6221592690946860e-01
         - 1.1670078860152688e-01
         - -7.1702879716446538e-02
         - 7.7977194076280087e-01
         - -1.3347413167078193e-01
         - -1.0482122252671171e-01
         - -3.6219763285639822e-01
         - -3.1376718767103823e-01
         - 3.7110095278771549e-01
         - 3.2707028898812851e-01
         - 2.9068978706546966e-01
         - -3.2339534277635895e-01
         - -4.8623114784599913e-01
         - 5.1902334573725628e-01
         - 5.3731101563065953e-01
         - -1.2001159327630844e+00
         - 2.2975018671064606e-01
         - 3.7529432967865528e-01
         - -3.3434217541526573e-01
         - 8.5031384647652655e-02
         - 1.7786146964604799e-01
         - 7.2481034192786079e-02
         - 4.1694961177242679e-01
         - 3.2663764990326805e-01
         - -4.8006245001532062e-02
         - -5.2922960172852984e-01
         - 8.1518332591815768e-01
         - 3.6575932842539072e-01
         - -4.3320841468561816e-01
         - 9.2194383894238605e-02
         - 8.3386088447594486e-02
         - 2.7386406798295770e-01
         - -2.1780213318941352e-01
         - 2.5959389064249677e-01
         - 8.5507966321300255e-01
         - -3.0519212128951317e-01
         - -1.5390985266282525e-01
         - 5.2756441726600628e-02
         - -1.9197269293197156e-01
         - -1.3020810658565701e-01
         - -2.5970903627604330e-01
         - 3.4011956278461436e-01
         - 1.2306095303012977e-01
         - -4.9551666411291329e-01
         - 8.2075074472002546e-02
         - 7.8848415207440972e-02
         - 9.7767790722784756e-02
         - 7.4126897869863817e-01
         - 2.8300439730372612e-01
         - 4.0396890126886492e-01
         - 1.3030294274686374e-01
         - -4.3302424041634091e-01
         - 9.1216250687318947e-03
         - 1.5313765520625244e-01
         - -1.2030796105165310e-01
         - 7.2048951922262142e-02
         - -2.1285359596879874e-01
         - -1.5988529393399412e-01
         - 2.0494235293872576e-01
         - -3.8187442850303688e-01
         - 3.3974186690737751e-01
         - -1.6909116436665577e-02
         - 1.9431916572136879e-01
         - 3.2620590294134905e-01
         - -1.6102641486997368e-01
         - -2.6006544592684161e-01
         - 3.0390107969909258e-01
         - -5.7954008440023429e-02
         - -3.4708162291775635e-01
         - 5.0640130885014711e-01
         - -9.7707392374819624e-02
         - -5.4505305843570724e-02
         - 2.2466916592395569e-01
         - 2.8336165814986586e-01
         - -4.7141785502463995e-01
         - 1.2963335813953547e-01
         - 7.7722607276929523e-01
         - 2.0088036416003802e-01
         - -3.8214252511952734e-01
         - 3.0826540865831434e-02
         - -1.6257277352315963e-01
         - 1.1686404355492525e-01
         - 9.0343307368083503e-01
         - -5.4347616701912516e-02
         - -1.7602464666597117e-01
         - -6.7322768059316673e-01
         - 2.5685279685546536e-01
         - -3.1696107787680367e-02
         - -1.1780240749697275e-01
         - 2.9024823949855771e-01
         - 1.4637639570575728e-01
         - 6.9434750661782418e-01
         - 4.7862172694548916e-01
         - 2.7125050473150142e-01
         - 2.6552085527908320e-01
         - 5.4033016631909525e-01
         - -1.7848780828245028e-01
         - -1.2417069082213995e-01
         - 5.7499942733392408e-02
         - -1.9170722576967306e-01
         - 4.2262038704203797e-01
         - 4.3244729078928607e-01
         - 1.4008979089020598e-01
         - -8.8221290061062538e-02
         - 3.0988132071631154e-02
         - 1.6285466401526447e-01
         - 1.9668919424962161e-01
         - 9.8740624493463876e-03
         - -1.5979719795789388e-01
         - 1.8133181324607037e-01
         - -8.5121804681073832e-02
         - 2.0937116488145802e-01
         - -1.3652768582861088e-01
         - 9.1216321568590963e-01
         - 5.3836705577358271e-02
         - -3.1113637868806926e-01
         - -1.3468756164656082e-01
         - 5.7527338702647639e-02
         - -4.3619216431058327e-01
         - 6.3300553841953000e-01
         - 3.6283158966966911e-01
         - 7.9363087890863482e-01
         - -3.8019632400336845e-01
         - -4.6594464781775102e-01
         - -1.3061161885269770e-01
         - -1.7897384472452199e-01
         - 3.4942731460632315e-01
         - -1.3592639891123118e-01
         - -5.5833265419729813e-02
         - -1.2052407571099373e-01
         - -1.4345320721767171e-01
         - 1.5097193699501932e-01
         - 6.2599348455078613e-02
         - 2.1288625668463040e-01
         - -5.4130698114882569e-01
         - -1.5630051994616045e-01
         - 8.1383236998242037e-01
         - 5.1501602451092893e-02
         - -6.0998280001077843e-01
         - 3.7361312474874714e-01
         - 3.7026811971879209e-02
         - -7.5947563238963345e-02
         - 1.8539312177633639e-02
         - 3.4258430502513371e-01
         - 3.4748848710276425e-01
         - 2.7144314090354810e-02
         - -3.0873874708755228e-01
         - -1.3740759200414909e-01
         - -5.2547536832387320e-01
         - 3.2483006282532390e-01
         - 8.6897369072670849e-01
         - -4.6436261002709828e-01
         - 7.8553464616971692e-03
         - -4.1197221700244990e-01
         - 9.3168213037977865e-01
         - -1.9031310968854764e-01
         - 9.7049762821680031e-03
         - -3.9162090532478749e-01
         - -2.9614240875812808e-01
         - -3.3236824709987511e-01
         - -3.3303214625249944e-01
         - -2.0055064623367053e-01
         - 5.9410874292613602e-01
         - -3.4706316222721018e-01
         - 6.8594547737669131e-01
         - 2.6025840336854611e-01
         - 6.5267466644392147e-02
         - -3.6402619606063322e-02
         - -4.4724741852878830e-01
         - -1.6229120547933146e-01
         - 1.2890843527304918e+00
         - -1.5988666818218156e-01
         - 8.7641988219854666e-02
         - 6.9289854653812366e-01
         - -2.3588381782844731e-01
         - -1.6125567831825616e-01
         - 4.1156211332387976e-01
         - -1.5637554492267880e-01
         - -7.5498202078015442e-02
         - -2.7870920320925913e-01
         - -1.6101898679840396e-01
         - 4.9548909103553182e-02
         - -4.0077327240946414e-01
         - 2.2192070030374539e-01
         - -4.8895842824704182e-02
         - 2.2502624307474323e-01
         - -9.5090013196314049e-02
         - 1.7046165058440693e-01
         - -1.4388616328781159e-01
         - -1.3688502063386992e-01
         - -2.0436040723456181e-01
         - -4.7858418198229030e-01
         - 3.7480411698450899e-02
         - 7.4837544253496729e-02
         - -3.1234376152525445e-02
         - -2.8703211641072930e-02
         - 1.0554819340286985e-01
         - -2.3253944517652411e-01
         - -1.2272405702434488e-01
         - 4.4919324945101019e-01
         - 1.0951558026896495e-01
         - 1.7579950415817294e-02
         - -2.9157208076223973e-01
         - -2.1310079075029584e-01
         - 1.3793828273141806e-01
         - 1.2095731071309610e+00
         - -1.3406901563687385e-01
         - -1.7345297260586742e-01
         - -1.7737301511301523e-01
         - 6.4803752331753661e-01
         - -4.0589178181389310e-02
         - -2.3088465596411592e-01
         - 2.2998113229879785e-01
         - 2.2021744763661144e-01
         - 2.8012936825539531e-01
         - 5.3574056103331591e-01
         - 1.2542466797130206e-01
         - -1.3313824101183225e-01
         - 4.2055428693398955e-01
         - 5.4512273390145260e-03
         - -3.6395945963515947e-01
         - -1.7642888888416579e-02
         - 5.1742713706792280e-02
         - -3.8243045169238205e-01
         - 1.6013354283631101e-01
         - 4.4801787879926128e-02
         - 6.0806286010397078e-03
         - -3.8865851032131848e-01
         - 3.9810229890347715e-01
         - 2.1583796059836041e-01
         - 3.8062808188323839e-02
         - 6.8146405030677509e-02
         - 2.7307546831933338e-01
         - -5.4774529036144282e-01
         - 7.5835291357824214e-02
         - 1.4716620486175108e-01
         - 2.8147708595770510e-02
         - -1.5116970848551130e-03
         - 1.1227365732765766e-01
         - -1.9365622994814033e-01
         - 1.4671060252066198e-01
         - 2.3009692117917833e-02
         - -3.3128899550415952e-02
         - 4.7934387992176958e-01
         - 8.2931780416542908e-02
         - 4.4067368729124340e-01
         - 3.4336650910729899e-01
         - -3.9401150971888171e-01
         - -3.3624031650575786e-01
         - 7.3162544403463009e-02
         - 5.7261814943641937e-02
         - -7.1841742198654024e-02
         - -1.9554444825456097e-01
         - -6.5775610081460004e-02
         - 1.1087100463705016e-01
         - -1.0536390830043639e-01
         - 2.7046022655685659e-01
         - 2.7795686219421693e-02
         - -6.5850358405837292e-02
         - 2.7689474869809527e-01
         - 5.5657848050293265e-02
         - -3.7621871256374229e-01
         - -2.1487267791538431e-01
         - -1.5019055577272882e-02
         - 2.1355937889977346e-03
         - -1.4087896684006802e-02
         - 1.4236207712194612e-01
         - 1.3023066567016395e-01
         - 4.0049843359621348e-02
         - 4.5111934122310193e-01
         - 8.4731204806148278e-02
         - 3.1351522140839744e-01
         - 1.6143928335890931e-01
         - 3.5507903063982371e-01
         - 4.4464280108309806e-01
         - -2.0194869955288908e-01
         - -8.9878793522639555e-02
         - 4.2558900661773619e-01
         - 9.7285110602806396e-02
         - -4.4624787346827072e-01
         - -1.6129629580628466e-01
         - 1.8623127404920992e-02
         - -2.6974913089688932e-03
         - 1.3836801314980919e-02
         - 6.8165118297136573e-04
         - -3.5502677011540074e-01
         - 8.4918938958379164e-03
         - 4.1347671143386550e-01
         - -7.5459794448299228e-02
         - -1.2094714229308585e-01
         - 1.2635072316604967e-01
         - 4.1857946430219256e-01
         - 3.5468886966657692e-01
         - -1.3999896471549950e-01
         - -4.1599194515965394e-03
         - 1.6181073788467257e-01
         - -3.7161632772134168e-01
         - -7.2889607274663593e-02
         - -8.0082087003516392e-02
         - -4.3809830239453751e-01
         - 1.0032837943689050e-02
         - -3.6624531207461834e-02
         - -1.6702052887664995e-01
         - 3.6826232119967710e-02
         - -9.8056510427701124e-02
         - -1.7617002098710430e-01
         - -1.9729459364517729e-01
         - 8.4230899703457832e-02
         - 3.1972496245745571e-04
         - -8.6903122806002431e-03
         - -1.0798584960988986e-01
         - -1.7754545648660194e-01
         - 1.1281440587882441e-01
         - -3.8411515445537940e-02
         - 1.0484002004982436e-02
         - -6.7914436064530782e-03
         - 2.2208573767254641e-01
         - 1.3940532383251422e-01
         - -5.8185798115432848e-02
         - -1.2311421978994920e-01
         - 1.2679446479259332e-01
         - -2.5136930448150280e-01
         - -5.6658805376182758e-02
         - -6.1170978566171180e-02
         - -2.4936820571645654e-01
         - 3.2367568039022671e-01
         - -1.8771290578899730e-02
         - 2.9526233095651372e-01
         - -6.9838965025898458e-01
         - 1.0258712605957761e-02
         - -6.5627990893209198e-02
         - 8.3570812788950538e-02
         - 8.0080089583094177e-02
         - 5.0091768328681241e-01
         - 2.9400593417736776e-01
         - -9.6296418226565178e-02
         - -4.0671974189746322e-02
         - 9.5138924635011252e-02
         - -1.4302197168683728e-01
         - -2.4802612458864645e-01
         - 9.7274836379200577e-02
         - -3.3303132858354824e-02
         - 3.1556252681884511e-01
         - -3.0599848768447541e-02
         - 1.9573956330368087e-02
         - -1.1716739551985174e-01
         - -7.7649371545627163e-02
         - -1.6407721624883848e-01
         - -5.8651551075237555e-02
         - 2.1121051028369792e-01
         - 1.9044231738147815e-01
         - 3.0969785007045386e-01
         - 2.7884000210370685e-01
         - -8.6498306892255211e-03
         - 1.6488519516885028e-01
         - 1.2203573013424204e-01
         - 1.3742033019754968e-01
         - 1.5282340620889537e-01
         - -3.9517123807890679e-02
         - -4.3078734538435809e-01
         - -1.0783408225169280e-01
         - -2.8510274780794917e-02
         - 3.1539596572910833e-01
         - 2.0868789776336569e-01
         - -2.0125279898141134e-02
         - -3.8948413634987444e-01
         - 2.9678514397560540e-01
         - 4.3449110844874816e-01
         - 2.7381002966345980e-01
         - -5.9569529817877324e-02
         - 1.6358733635173167e-01
         - 1.8266793762895411e-01
         - -5.2410644605176547e-02
         - -1.2027496722070448e-01
         - -1.3045821168935706e-01
         - -3.1639158812922485e-01
         - -7.5081131742832985e-02
         - 6.1678070669398649e-02
         - -8.6601611527012835e-03
         - -2.8756353857969774e-01
         - -2.8564487604662026e-01
         - 1.9148530467894356e-01
         - 1.9395370680716228e-01
         - -8.0408267457830508e-03
         - -2.2272335838331139e-01
         - 2.7623158736428860e-01
         - -5.0648554524639677e-01
         - -6.8650744038948927e-02
         - 1.5725570020393617e-01
         - 2.4125299501736303e-01
         - 8.0762152375254873e-02
         - 2.5802024175734309e-02
         - -1.5839162576845461e-01
         - 3.2657064260061702e-01
         - 1.5200682475893859e-01
         - -2.4648465737353323e-01
         - 7.3426625196136852e-02
         - 1.2076540934917179e-01
         - -6.1585647017613665e-01
         - -2.5438298970138096e-01
         - 1.4857222176232623e-01
         - 3.8153926967949914e-01
         - -1.5214050080152286e-01
         - -9.3728044015539302e-02
         - -2.9213310898138910e-02
         - 2.0290506334540201e-01
         - 6.0504449251915268e-02
         - -5.9089128441002663e-02
         - 7.5479010331763435e-02
         - 3.4829670780560545e-01
         - -1.0609365381036302e-01
         - 3.7849815626548509e-02
         - 6.2628551863813803e-02
         - 1.1140957233396620e-01
         - 2.4654340006916800e-01
         - 4.0549498587574306e-01
         - 7.1252476271621568e-01
         - 1.0649890054728960e-01
         - 7.8292735012860451e-02
         - -1.7973230039341928e-01
         - -9.3974055857294250e-02
         - -1.7132813519033754e-01
         - 1.9600589191163822e-01
         - -3.2181807088972780e-01
         - 1.2154985668573072e-01
         - -7.1567933844900386e-02
         - -7.3130750870065195e-02
         - 1.7423856018648853e-01
         - -7.9886879648539758e-02
         - -2.0616840044314777e-01
         - -1.0666794980712457e-01
         - -1.9244275425440931e-04
         - 1.0423784356920243e-01
         - 7.0929970600864839e-02
         - 2.9301020951454433e-02
         - -2.8025507778454561e-01
         - -4.2530692420253019e-01
         - -1.2167852460345537e-01
         - -1.9921166527886162e-02
         - 4.0925161066857202e-02
         - -1.1230222084090399e-01
         - -2.6117751840641523e-01
         - 7.3953651321539277e-02
         - 1.1033952870991323e-01
         - -2.9373865573932151e-01
         - -1.3423977594445338e-01
         - 3.4646679623271642e-02
         - -2.1900677275497837e-01
         - -2.8975519297333424e-01
         - -2.9047995535974848e-02
         - -5.1136985389080147e-01
         - -2.4401565829119559e-01
         - -1.4845942232518491e-01
         - -3.0070822375837199e-02
         - 2.7561617059303867e-01
         - 9.4774836014156604e-03
         - 4.1628480353174813e-01
         - 1.2507470475126761e-01
         - -1.1994633078472704e-01
         - 4.1031114894163299e-02
         - -2.3986582858439798e-02
         - -2.7491473719650855e-02
         - 1.2979770994971002e-01
         - 6.7359123098971768e-02
         - -1.7653745576801913e-01
         - 3.2116376807380614e-01
         - -4.0528219722314562e-01
         - -1.7052703454768278e-01
         - -7.6571082904374033e-02
         - 9.1959589760016322e-02
         - -3.2530758587936554e-01
         - 2.4888075976480320e-01
         - 9.5273568543642592e-02
         - -3.8717489989608184e-01
         - -9.8215043746162869e-02
         - 1.1570486747358651e-01
         - 3.3462924252735687e-01
         - 1.5490224510540379e-01
         - -1.3864328727766584e-01
         - 2.7322888463975104e-01
         - 2.6361722471638127e-01
         - 1.8287470529019884e-01
         - -4.6270723669415703e-02
         - -7.5389498491672896e-02
         - 1.4248809276710029e-02
         - 3.1088216076587660e-01
         - -4.7292443088666247e-01
         - 9.6377723670105445e-03
         - -5.4935887139373155e-02
         - 3.1637210950745548e-01
         - 4.2944930174034968e-01
         - -4.5118825961738973e-01
         - 6.4831507339522576e-01
         - 7.6175605785807965e-01
         - -4.8857975698398093e-01
         - 2.8789092263047883e-01
         - -4.1983894045421483e-01
         - -1.4719783746292328e-01
         - 3.7500559061271399e-01
         - -1.3390703167953411e-01
         - 2.2399635413728489e-01
         - -3.0902156153535091e-02
         - 1.9219290127085942e-01
         - 2.2808554286102414e-02
         - -1.2192665206708318e-01
         - 2.9656606202204183e-01
         - 5.7042777750109797e-02
         - -4.2214201852825561e-01
         - 4.8815160973017585e-01
         - -5.3503741133296723e-01
         - -7.9787082146988014e-02
         - 1.0558445118403269e-01
         - -1.0917074814126583e-01
         - 5.8731899486095329e-01
         - 9.5146916517474381e-02
         - -1.8814574514700896e-01
         - -2.9179135898521485e-01
         - -3.9496352259876399e-01
         - 3.8318448317003387e-02
         - 6.0198936977743400e-01
         - 1.0402764891475350e-01
         - -2.5024830792402947e-01
         - -7.5481709039056433e-02
         - 4.8682076051878753e-01
         - -3.1569480505472969e-01
         - 5.5680625550927294e-02
         - -6.9139209266066426e-03
         - -1.6145735151843524e-01
         - 2.0123234479788343e-01
         - -9.1859330750760831e-02
         - -2.3948135857705896e-01
         - 4.2070953563349872e-01
         - 3.3272220873163383e-01
         - 1.0881363520276962e-02
         - 2.4723985581562136e-01
         - -7.4384368156594688e-02
         - 2.0593777117869203e-01
         - -2.0818858422991421e-01
         - -2.8828379407626098e-01
         - 4.3548365360407781e-01
         - 1.4272528693970368e-01
         - 4.9583085768066554e-02
         - 3.9069774985095129e-01
         - -5.0712738783331893e-02
         - 6.5406061395476431e-02
         - 1.8789134213425224e-01
         - 1.0904892772059860e-01
         - -6.1940764513649230e-02
         - -5.0525708390813484e-01
         - -4.0771331320483314e-02
         - -1.2312484798088491e-01
         - -4.4951463922381169e-01
         - 3.6728893828435127e-01
         - -2.0385845281491166e-01
         - -1.0819632404752931e-01
         - -4.9656122931445634e-01
         - -1.7499342188119532e-01
         - 4.7711475329099813e-02
         - -2.5833344164996586e-01
         - 1.9828926633828148e-01
         - -4.8621858309340743e-01
         - -4.1703544793040614e-01
         - -5.7379292506090702e-02
         - -4.8973014437659876e-02
         - 2.3316066949506886e-01
         - 3.3487451024589976e-01
         - 1.5983322259212486e-02
         - 4.6051001588399594e-02
         - 2.9294933677170992e-01
         - -2.9332528781663893e-02
         - 2.3264351167951039e-01
         - -5.5102127488546711e-02
         - -1.5519762811645627e-01
         - 3.4816247347072754e-01
         - -8.7972098271434346e-02
         - 4.6367715798769693e-01
         - 1.3311521370609042e-01
         - 3.2041547980896945e-01
         - 2.5116492653357489e-03
         - 1.5632845394667552e-01
         - -1.3905030131323914e-01
         - 4.0600234687040819e-03
         - 3.2765442668782874e-01
         - -7.3610504056795352e-03
         - 3.2447134290276802e-01
         - -1.0680941939184661e-01
         - 1.8001597082303497e-01
         - -1.2121428834780510e-02
         - 1.6364006397306521e-01
         - -3.5921341725185013e-01
         - -2.4805597087564843e-01
         - -1.2910002197461071e-01
         - 3.4805566951642231e-01
         - -3.0698023104792999e-01
         - 8.0241285251331992e-03
         - 1.5843609582602683e-01
         - -2.9981409346618021e-01
         - -3.3258556183879412e-01
         - -1.3586696491091529e-01
         - -1.9038220773695689e-02
         - -2.2886737591254827e-01
         - 4.1796719356144936e-02
         - -2.6533052964901915e-01
         - 1.2321161374252239e-01
         - 4.7478141829094281e-02
         - -3.9853702243813172e-01
         - -2.6874964460064532e-01
         - 1.0120917902283941e-01
         - -5.2493458639657174e-02
         - -3.8156308186551563e-01
         - -2.6331689847849277e-01
         - 2.1019412848221919e-01
         - 3.5258248470371983e-01
         - 3.4090249279032858e-01
         - -4.5295484971033129e-01
         - 4.9344624051329761e-01
         - 4.1220622158787046e-01
         - -4.7399957298715678e-01
         - 1.6357820197345962e-01
         - 4.2783856176130085e-03
         - -1.9205621024056629e-01
         - -9.7587554208964380e-02
         - -3.7712141019689494e-01
         - 2.9777208540983052e-01
         - 2.7150858017622362e-02
         - 5.1211214079730144e-02
         - 3.2645992770285281e-01
         - -1.4013728873604592e-01
         - -1.0886578608632720e-01
         - 1.4806719803737703e-02
         - -9.6331230882400243e-01
         - 2.0237971098542021e-01
         - -3.2358831099703234e-01
         - -1.3452157546833710e-02
         - -4.0625343604857711e-01
         - 5.0578682038816630e-02
         - 1.8795657605242760e-01
         - 1.5495210006973487e-01
         - -4.7144261220125255e-01
         - 3.6796995547738737e-01
         - -4.0824785344265613e-01
         - 2.7413196644860156e-02
         - 1.6800788702191613e-01
         - 4.8326713069157784e-01
         - -3.5331774057980431e-01
         - -4.2538298522010798e-02
         - -2.7139996888194912e-01
         - -1.2130732223168697e-01
         - -1.4555528399862497e-01
         - 5.5014667524801197e-01
         - -5.7093583480160408e-02
         - 7.4574405725433957e-01
         - -3.0690777995290119e-01
         - 1.8972584797741918e-02
         - 2.4051358890081648e-01
         - 8.5907728624249513e-01
         - -2.1695456335138014e-01
         - 3.5726639048107262e-01
         - -1.2367815264118633e-01
         - -1.8780711805829884e-02
         - -4.5693323587507229e-01
         - -1.1939313230805756e-01
         - -5.8360111039530849e-01
         - -2.6684850370712088e-01
         - -1.8161266113504720e-01
         - 1.5433561162590687e-01
         - -2.0108673951221925e-02
         - -1.0962883505436552e-01
         - 3.1042049065913935e-01
         - 1.7032075598263419e-01
         - -1.8303359204982272e-02
         - -5.2848850795667879e-01
         - -8.6765825697514690e-02
         - -1.4465066354549402e-01
         - -5.7548480189349049e-01
         - 2.6548708016672795e-01
         - -3.1267024887477610e-02
         - -1.7145997769303728e-01
         - 4.2888124514363885e-02
         - -2.3352177120806508e-01
         - 6.7861208253922889e-02
         - 2.8516896451775792e-01
         - 3.0959389766062778e-01
         - -8.4288574585768417e-01
         - -2.0108235672185368e-01
         - 1.3691236042328289e-01
         - -5.9158666371096668e-04
         - 2.4500484745959908e-01
         - 3.8265124090182517e-01
         - 3.5705294941120291e-02
         - 1.9016920016544935e-02
         - -1.1504543479038024e-01
         - -3.9727515996565654e-02
         - 8.6242291546053205e-03
         - 2.7252439346836654e-01
         - -1.7532805326866302e-01
         - 2.9864773077741802e-01
         - -2.6269374919060051e-01
         - 4.4233854983147375e-01
         - 7.2476367917992585e-02
         - 7.6378217947190141e-01
         - 6.3069001513000267e-01
         - -2.5758673497987227e-02
         - 1.7703451212531632e-01
         - -6.2404772564394966e-02
         - 4.6151982551737697e-01
         - 2.5912009727368940e-01
         - -1.9846478371477676e-02
         - -7.0576996668370182e-02
         - -4.4118105048128697e-01
         - -3.1271909741522892e-02
         - -4.4792687139963688e-01
         - 1.0781759592359190e+00
         - -1.5357755804685622e-01
         - -3.3660889284708101e-01
         - 4.4186147584779045e-01
         - -1.8458153185172163e-01
         - -3.1332173105749916e-01
         - 1.3224539807952174e-01
         - 1.8495995843831495e-01
         - -4.9304700015410885e-01
         - 7.7594941253466873e-02
         - 2.7483973787616778e-01
         - 1.9218287010968696e-01
         - 2.5374107986117023e-01
         - 7.3608491331585446e-01
         - 8.6218634275575953e-02
         - 1.5878132798707514e-01
         - -9.6522474244082201e-01
         - 4.1330640147862140e-04
         - 3.5224729858453202e-01
         - 2.6217882715487123e-01
         - -3.3533441848780716e-02
         - 1.5208758362946900e-01
         - 8.4414217221407836e-02
         - -6.1917725485953901e-01
         - 1.7030622808143961e-01
         - 6.8202698894687802e-02
         - -1.1528915737213710e-01
         - 4.0376941040920034e-01
         - 6.9864931337521960e-02
         - -8.0065620292945380e-02
         - -1.1913022500382692e-02
         - -2.6192378304078429e-01
         - -3.4883671357976410e-03
         - 6.3503153728518740e-03
         - 1.9040666619199864e-01
         - 2.7464731312372437e-01
         - -1.2176308922714968e-01
         - 7.2052596545491976e-01
         - 1.3531231440813069e-01
         - -4.5755839715104168e-01
         - 1.1296489729656806e-01
         - -3.8129914529855818e-01
         - -3.6620303454629820e-02
         - -3.4750295075685295e-01
         - -2.6669588099461594e-01
         - 2.5590932497137366e-02
         - 1.1909340838480989e-01
         - 3.5758029571496047e-01
         - 1.1633523972699004e-01
         - -5.9572069242384196e-01
         - 2.5174980729858093e-01
         - -1.7984672050958411e-02
         - -1.0032626279654785e-01
         - -3.3703517177613246e-01
         - 2.8867320504845867e-01
         - 3.5979574731268660e-01
         - -1.5042841808352594e-01
         - -6.8625858952010166e-01
         - 4.0756917628087502e-01
         - -1.5853305606730586e-01
         - 1.8697813184860576e-01
         - -1.0027618488870067e-01
         - 4.3054647656201881e-03
         - 2.2529202563364750e-01
         - 1.7394891576298979e-01
         - 2.3276609584869862e-01
         - 1.2481788081062811e-01
         - -3.5552019998887507e-01
         - 1.5168701789837791e-01
         - -3.6620386756166211e-02
         - 3.1132367927072791e-02
         - -1.6578068144800018e-01
         - -3.1544149042501318e-01
         - -4.5349015156020683e-01
         - -1.4470930487033143e-01
         - -7.0078221592609680e-02
         - 1.3911494212364045e-01
         - 1.1775693696525087e-01
         - -3.2792718758637590e-01
         - 5.5301583975059865e-01
         - -2.1982357538639835e-01
         - 1.9264457428596923e-01
         - 3.3379366443874577e-02
         - -2.2520203612976694e-01
         - 1.4461096994942030e-01
         - -3.1924985969659520e-01
         - -5.4466372126847837e-02
         - -7.6682897741698272e-02
         - 1.4805457464286553e-01
         - 1.9929987355632300e-01
         - -9.2704708650954582e-03
         - 6.9553443051415517e-02
         - 2.5620677254009676e-02
         - -1.6864342561008142e-01
         - 1.5048556440009869e-01
         - 5.9581182092257028e-03
         - 9.6105869123806406e-03
         - -2.1239291717703426e-01
         - -3.2060872889510185e-02
         - 3.1093832007333716e-01
         - 2.5968539131308016e-01
         - -9.6069612689316491e-02
         - 6.8223790088098579e-01
         - 2.4865347643455632e-01
         - 1.8274121396981338e-01
         - 1.0915360918975495e-01
         - -3.5615349710371552e-01
         - 7.7534500259420935e-02
         - -6.4995744237614705e-01
         - -1.4925553585951049e-01
         - -1.3655791173149387e-01
         - 1.1433899480942308e-01
         - 1.0080158019799162e-01
         - 2.4966610684665777e-01
         - 4.0219063402319897e-03
         - -2.1547282834533093e-02
         - -2.3817596100650870e-01
         - 2.3948641098979966e-02
         - -5.1498598519655402e-02
         - -4.2751303703486919e-02
         - -3.2284689261603827e-01
         - -1.2513393076589124e-01
         - -1.1766754481470389e-01
         - 4.1620529587713806e-01
         - -2.9452606053406039e-01
         - -1.4235308595564397e-01
         - 1.6597951575647965e-01
         - -1.5354609255046536e-01
         - -3.4365437437651480e-01
         - -2.5835859146452550e-01
         - -2.4896557945677930e-01
         - 1.1976992706531955e-01
         - 3.3463427237193177e-01
         - -8.2300837565511986e-02
         - -2.2930459337243969e-01
         - 2.1751180617376054e-01
         - -3.5718171066193283e-01
         - 1.2769706373927350e-01
         - -3.5964153755164063e-01
         - 9.7371411004512298e-02
         - -1.5000466292527018e-01
         - 2.6089240228744237e-01
         - 1.5131367165371553e-02
         - 3.9350915394674217e-02
         - 7.9892614976117327e-02
         - -2.8647166591786688e-01
         - -2.2517408325548216e-01
         - -5.7157216509460074e-01
         - 4.2869789245962886e-01
         - -1.5115510493985609e-01
         - -2.4260131931216919e-01
         - 2.5499792352191786e-01
         - 3.9300111256403564e-02
         - -2.1993396953829161e-01
         - -3.4263340411666038e-02
         - 4.6336507524975312e-02
         - -2.3529701358259816e-01
         - 1.0589202990851142e-01
         - 3.4276229558645427e-01
         - -2.8540500934653501e-01
         - -1.5286213438471935e-01
         - -1.2928029595055865e-01
         - 8.2512988787324770e-02
         - 2.6899193816172479e-01
         - 1.2668987923639646e-01
         - -5.3111645847890514e-02
         - 3.7223303168039817e-02
         - -3.5719802373685960e-01
         - 4.3860606236819637e-02
         - 9.7980190886732807e-02
         - -1.7272878410048442e-01
         - 3.0730418413262389e-01
         - 7.8585961329434129e-02
         - -1.7344537085087849e-01
         - 1.4043756655598741e-01
         - 1.4292561968723613e-01
         - -3.0916523563452436e-01
         - -4.0363200408888390e-02
         - 1.6821606382947851e-01
         - -6.0922076472135541e-03
         - 1.2516857848994737e-02
         - 5.1956122642772870e-02
         - 5.9629587154481295e-03
         - -1.1672576754359469e-01
         - -5.0770239731851248e-02
         - -8.5416649094899641e-02
         - 7.6085734419626061e-01
         - -1.9764491127377281e-02
         - 1.6568183192259684e-02
         - -2.5740646425239683e-01
         - -5.7710810733070939e-02
         - 2.3834498031394996e-01
         - -6.6575569486178404e-02
         - 2.1561565861085239e-02
         - 3.2867396619691186e-01
         - 4.3803863900763967e-01
         - 1.2131086549786330e-01
         - -1.1876021723772628e-01
         - 2.2642782745322343e-01
         - -6.1304449459816379e-01
         - -2.4179947943249350e-01
         - -2.6768412848537415e-01
         - 3.5546840154017170e-02
         - -2.1696557496040167e-01
         - 2.2808524132765340e-01
         - 1.2722322889313685e-02
         - -3.5802961700038066e-01
         - 2.3249758517766209e-01
         - 2.9181816346221474e-02
         - -3.0894585643790068e-01
         - -2.8133130065705958e-01
         - -4.0996816556668744e-02
         - 2.6536486648037810e-01
         - -1.0054369444303952e-01
         - 3.5382590082661264e-01
         - 2.2364579189414197e-01
         - -3.2540951705431731e-01
         - 2.3810405150842118e-01
         - 9.3455868599604378e-02
         - 7.3329272618276348e-02
         - 2.2421415310997828e-01
         - 5.6627499620521028e-02
         - 1.4686549754634287e-01
         - -3.1738589211977475e-01
         - -5.7731350062744810e-02
         - -3.3578093174858042e-01
         - 1.4473054373437852e-01
         - -4.7189228390054283e-01
         - 2.1084594697813170e-02
         - -2.5426568496591367e-01
         - -5.9059815007163799e-02
         - -3.0242575758609208e-01
         - -1.6952070286584189e-01
         - -1.3398029889697760e-01
         - 1.5556985671417001e-01
         - -3.4049023336263862e-01
         - 2.9639887187947567e-01
         - -5.7312139417684173e-03
         - -4.4460763544790954e-01
         - -1.1977309931362236e-01
         - -2.7016260599354944e-02
         - -3.6235753607615695e-01
         - -7.4174653114849359e-02
         - 2.0769817014740080e-01
         - 7.4303463063149555e-01
         - 4.2097197166047928e-01
         - -1.1657112834803993e+00
         - -3.8164160738408776e-01
         - -3.7327138310512688e-02
         - 4.3237388120030090e-01
         - -6.8900584637406878e-02
         - 1.3596006050646965e-02
         - -2.5395328736646927e-01
         - -9.7263397658406969e-03
         - 6.9703346309192538e-01
         - 2.8709426070170366e-02
         - -1.4346643127743852e-01
         - 1.4445348322134436e-02
         - 1.3077428347051664e-01
         - -1.2867023084129342e-01
         - -6.4925227765584112e-02
         - -1.6952118011454559e-01
         - -5.7712402559081522e-01
         - -1.2416098507489735e-01
         - 2.6388669278031218e-01
         - 8.3878591000418863e-04
         - -3.2322681534233499e-01
         - 2.4301712096387068e-01
         - -2.9604887372678568e-01
         - 6.7459635107598587e-02
         - -2.2390111262312451e-01
         - 8.7186226651205373e-02
         - -2.4719017147773048e-01
         - -1.7287534528154258e-01
         - 2.1232064264767961e-01
         - 1.7845196545989855e-01
         - -1.7687367103432672e-01
         - -9.7342025420730810e-02
         - 3.2437521198141261e-01
         - -1.7950620915769328e-01
         - -6.5983360029829657e-02
         - 1.3811564077070790e-01
         - -1.5802123696198381e-02
         - -1.0264860721885689e-01
         - 2.9098848445993752e-02
         - -2.4474251566263650e-02
         - 1.1549575868134787e-01
         - -3.5936003800305272e-01
         - 3.6609150552338926e-01
         - -1.2739011626174188e-01
         - -2.6661331577432962e-02
         - 2.8972389717217339e-01
         - -1.0267985465540549e-01
         - 2.7678321175186632e-01
         - 8.9212416993474611e-02
         - 8.0141854738036131e-02
         - -3.0060280186152738e-01
         - -5.7784032298379730e-02
         - 1.3126473046531337e-01
         - 3.4745751682032894e-01
         - -1.4006020227499816e-01
         - -3.7773975129165316e-01
         - 1.3623296377978811e-01
         - -8.3146433467148173e-02
         - -4.1334630134923118e-02
         - 1.9143620792775656e-01
         - 1.2481990360053373e-01
         - 6.7503671202896548e-02
         - 1.2775526556371006e-01
         - 5.2271555169945372e-01
         - 4.6106543165549768e-01
         - -1.0288100072568773e-01
         - 3.6472671531735940e-01
         - -3.5420203486461505e-01
         - 1.7890821897132830e-01
         - -1.3268951593291980e-01
         - 1.1620836100666423e-01
         - 2.1825978347341513e-01
         - 9.9798312355956181e-02
         - 5.4926902076255180e-01
         - -2.2145271659037147e-01
         - 1.4226027217261548e-02
         - -2.0075067548927758e-01
         - -2.0552021283401228e-01
         - 1.7822525755663621e-01
         - 1.2636066001519618e-03
         - 5.8320317591984451e-03
         - 1.2181489100692311e-01
         - -1.9930032142524789e-01
         - -1.0503367440543029e-01
         - 1.2418274940319091e-01
         - 6.7474104551699847e-03
         - 1.0536531596728722e-01
         - -1.3289875302093662e-01
         - 2.7950329706482679e-01
         - 1.3937824420515385e-01
         - -1.3402605434660453e-01
         - 2.7015644722365728e-01
         - 2.3028912567769821e-01
         - -4.0030656618584839e-03
         - 4.7473976236245824e-01
         - 3.6391018423113591e-01
         - 1.1102683330363551e-01
         - 6.2146142591202680e-01
         - -2.5583786681656279e-01
         - 5.6516846487213869e-02
         - -9.4264664078769170e-02
         - 9.9716971865084963e-02
         - -3.3615940385125148e-01
         - 2.4028141008725415e-01
         - -3.0426969867524084e-01
         - -2.4299849442290000e-01
         - -6.4288581316799209e-02
         - 6.3473747941587860e-02
         - 2.1273671686276860e-01
         - -4.4075047703769571e-01
         - 1.1611894829283070e-01
         - 3.9204979007351476e-01
         - -8.7762780470670609e-01
         - 2.3029859509779724e-01
         - -3.2688815585764752e-02
         - -1.3146827046023021e-01
         - -1.3051462537999856e-01
         - 3.4662279757245429e-01
         - -2.5447118827964499e-01
         - -3.2127337716310468e-02
         - -6.8648345907002167e-02
         - 5.5249066738352193e-01
         - 8.1480566464355683e-02
         - 1.1025896081870000e-01
         - -2.1581695897909568e-02
         - -1.1943118325034655e-01
         - -9.4543026487487608e-02
         - -1.4623668517019367e-01
         - 3.4403558225123065e-01
         - 3.1125564100818709e-01
         - 4.9262541076540663e-02
         - -4.1803548666244209e-02
         - 1.3509224709342482e-01
         - 2.0456171617732996e-01
         - -3.2627984627911483e-01
         - -4.1929223837332288e-02
         - -4.9145655923040860e-01
         - -8.3794978089727662e-02
         - -6.7550653493658921e-02
         - -1.6252122666412594e-01
         - -9.6928685376986970e-02
         - -3.1355414121590368e-02
         - 1.1052712369583026e-01
         - -7.3206991368917368e-02
         - -1.8977051237056244e-01
         - 1.2454085405816298e-01
         - 5.8029512099489311e-01
         - -1.1298314164204169e-01
         - -2.1181617423864887e-01
         - -2.9824138214937897e-02
         - -3.0866085694320494e-01
         - -1.0079759263448840e-01
         - 4.4993357052461258e-01
         - -2.1792664448282756e-01
         - -1.7378373293220620e-01
         - -3.7411228817658254e-01
         - 1.3928507371309326e-01
         - 9.8349642663989545e-02
         - 7.6348645961934469e-02
         - 1.9998413052712124e-03
         - -2.0197073193759327e-02
         - -1.6663336320467600e-01
         - 5.5875184847140727e-02
         - 1.4568806451204142e-01
         - -4.5151395711703630e-02
         - -2.0583437617962860e-01
         - -1.6859672830305242e-01
         - -2.5326649558265374e-01
         - 1.7643181778096856e-01
         - -5.9072001444330259e-02
         - 5.9266782653983427e-02
         - 1.0908008190475367e-01
         - -3.0483534119362515e-01
         - 4.8368022646923731e-01
         - -6.7076174557137869e-01
         - -9.0814396398625402e-02
         - -7.8305097985725478e-02
         - -3.8061197787540130e-01
         - 7.5542972813784165e-02
         - 5.7427577448044886e-02
         - -6.2489327878186307e-01
         - -6.6277336417655497e-01
         - 3.0525570535297936e-01
         - 1.3328743656128164e-01
         - 4.0537967924889610e-02
         - 1.4823927253353625e-01
         - 9.1065325395732505e-02
         - -1.0332084212201335e-01
         - -4.1397478093100604e-01
         - 4.1033276328875590e-01
         - 5.1921636500198320e-02
         - -8.8429633581303790e-02
         - 1.4814506872529620e-01
         - 2.5048025615962233e-01
         - -1.8080649648408384e-01
         - -2.4176727893017540e-02
         - 3.2962495962502092e-01
         - -4.4573075557958675e-01
         - 2.9705147855862973e-01
         - -2.3663443399058273e-01
         - -1.4040948738327255e-01
         - -2.6813125022565454e-01
         - 7.6739632593185683e-02
         - 1.3954906108124488e-02
         - -2.8619898337015542e-02
         - 1.4999201558840985e-01
         - -4.3903245088245967e-02
         - -2.0398799812416263e-01
         - 3.3393984142886124e-01
         - -1.0727190626335011e-01
         - -2.5468373875494366e-01
         - -3.0809636755137770e-01
         - 5.9369927182764981e-01
         - -4.6157625070001418e-01
         - 1.8210948140169214e-01
         - -1.3187903665454054e-01
         - -4.8270721760323015e-02
         - -1.7944558837852606e-01
         - 1.0271572702741026e-01
         - -1.7908517234152993e-01
         - -4.4765862782878849e-02
         - -4.8609753282082924e-01
         - 3.1525968605734694e-01
         - -4.6127383254996829e-01
         - 2.8866832928300451e-01
         - -1.7066641077289760e-01
         - 5.0490949885916521e-02
         - 7.7493520469753092e-03
         - 3.0683904792831335e-01
         - -2.2855347096027973e-01
         - 1.8985196212290864e-01
         - 1.1374744641778024e-01
         - -2.7999713216727773e-01
         - 3.0394952895485657e-02
         - 1.9309562860675400e-01
         - 7.3539867252816193e-01
         - -8.7400511658015188e-03
         - -2.1755837189378357e-02
         - 2.7405192146394312e-02
         - 7.1230454446638308e-02
         - -5.0184721364914052e-02
         - -2.6788279037454454e-01
         - -1.4070117020798462e-01
         - 1.2554085798571440e-01
         - 1.1584079982832962e-01
         - 2.2679156392430219e-01
         - 2.1539607982438680e-01
         - 1.2979437213703460e-01
         - -7.0709910762907419e-02
         - 2.0763766902431586e-03
         - -3.8689402079597431e-02
         - 1.1193779387522307e-01
         - -2.5124714465652356e-02
         - 2.0169311952839472e-01
         - -6.4032889617345046e-02
         - 2.5776520384019108e-01
         - 1.4206909656974365e-01
         - -1.0704055443693446e-01
         - 2.0438173250199074e-01
         - 4.7689648402032453e-01
         - 1.2554467056541860e-01
         - 3.2318789547565629e-01
         - 4.6480169993438722e-02
         - 2.5736880164813802e-01
         - 2.4333489648813397e-01
         - 4.7313545051452444e-01
         - 9.0091378864767674e-02
         - 9.7826115707027983e-02
         - 2.9389530085815313e-01
         - 1.7968539299238528e-01
         - 5.2190465955019427e-01
         - -2.3136205486009978e-01
         - -8.1955115110976279e-02
         - 3.2766698029114326e-02
         - -2.9400808558173835e-01
         - -7.6686965232646252e-03
         - -1.1470808217129790e-01
         - -2.5240972788502214e-01
         - 2.7046903703846636e-01
         - -1.0586397297785276e-01
         - -1.8586708149426370e-01
         - -9.4635462918509355e-02
         - 1.8938859438731825e-01
         - 2.1703721970891798e-01
         - 1.9453893645433318e-01
         - 1.9675432340911270e-01
         - 1.0931951753824215e-01
         - 2.7667314841115354e-01
         - 1.7114265876966625e-01
         - -5.4438150666506469e-01
         - -4.4792964035192756e-01
         - 1.4319583572814990e-01
         - 2.6660629596901764e-01
         - 4.9028677514095526e-01
         - 1.8016039361171510e-02
         - -2.4403703819527886e-01
         - -6.0882533704000649e-03
         - -4.8264155684163734e-01
         - -6.8925217730735983e-02
         - -2.8573170114980315e-02
         - -3.5663612297925185e-01
         - -5.5752135144114069e-02
         - -1.5063533702252244e-01
         - 3.7783498664532476e-02
         - -2.8217043408577430e-01
         - 1.8990852399383140e-01
         - -4.7174687530074771e-01
         - 3.9670605810331640e-02
         - -1.7780824277353474e-01
         - -2.6706564594221954e-01
         - 3.7611834515466652e-02
         - 1.2274920674778024e-01
         - -4.6175284503771376e-02
         - 2.1597741271094986e-01
         - 2.1848776493874077e-02
         - 3.4534130705162577e-02
         - 2.5015301479767715e-01
         - -2.6145446955520119e-01
         - -3.8409126843916558e-01
         - 8.8771713709892841e-03
         - -3.4023956666868371e-01
         - -3.0161342111616092e-02
         - 3.3948106244491100e-01
         - -1.7718290563594186e-01
         - -2.6428279021010798e-01
         - 3.3864862454529909e-01
         - -6.4976306188209515e-02
         - 1.2260129923012744e-02
         - 1.6878932065092431e-01
         - -9.1120850946128540e-02
         - 1.6254936150740425e-02
         - -1.2384403237290049e-02
         - 1.3669382520198545e-01
         - 4.1453130108042628e-02
         - 8.9265120937825904e-02
         - -3.7447520819362018e-01
         - -2.8986865211677032e-01
         - -9.9019646157044519e-02
         - -1.9073920769957443e-02
         - 6.6477338441705752e-02
         - -1.3327160327754450e-01
         - 6.4355212168275347e-02
         - 1.7119790960497916e-01
         - -1.3917516683678990e-01
         - -4.1318652883660739e-01
         - 2.2703636652030024e-01
         - 2.8109940061755233e-02
         - 1.0887104357409438e-01
         - 1.3840403151151859e-01
         - 1.0984354669823797e-03
         - 2.4692720265774848e-01
         - -4.8477925066140942e-01
         - -1.6882093785467273e-01
         - -8.8644868571347096e-02
         - -7.6587825725340869e-02
         - -1.7554222760751739e-01
         - -1.5953877214437626e-01
         - -4.4193583145614029e-01
         - 3.5249733096874303e-01
         - -3.4115390956113371e-02
         - 8.0267434401235641e-02
         - 1.7959977037583705e-01
         - 2.0841974983471942e-01
         - 1.3168742280635151e-01
         - 5.9517420548453071e-01
         - -2.1002463413852510e-01
         - 1.1455077318485579e-01
         - -2.4750161835461054e-01
         - 1.1369199063404676e-02
         - 3.5206044872750203e-01
         - 9.7294231474259300e-03
         - -3.4400025512413168e-02
         - -1.2458866084435234e-02
         - -2.3787661367175400e-01
         - -1.3389873491022458e-01
         - 1.7349583367634477e-01
         - 1.3800360745476731e-01
         - 3.3544116257732870e-01
         - 2.6818666054376122e-01
         - 9.1380612364561367e-02
         - 6.1693545931611755e-02
         - 8.1999412371929190e-02
         - -5.8457743086562090e-02
         - 1.6406920864877822e-01
         - -6.5856418479835838e-02
         - -3.3480430073392370e-01
         - -1.2199845095453948e-01
         - -7.3926258019820727e-03
         - 1.4287729885538983e-01
         - 2.3122570802619594e-01
         - -3.9238656531105712e-02
         - -4.5709390711129544e-01
         - 7.8922390417934724e-02
         - 5.0185873490467781e-01
         - 2.8580597023499182e-01
         - -1.2770465526114902e-01
         - 1.6119448229759592e-01
         - 3.1044939028650775e-01
         - -6.4985188740258243e-02
         - -1.0465835947510226e-01
         - -8.0357840721428708e-02
         - -3.1699167358177238e-01
         - -9.9610396081969421e-02
         - 8.3160118583226583e-02
         - -3.8118086520253336e-02
         - -2.2198561400802305e-01
         - -2.5310798074271812e-01
         - 1.8234887450211607e-01
         - 2.5705094518753230e-01
         - -5.5360919902902379e-02
         - 1.9143885592476062e-01
         - 6.4988022382442154e-02
         - -2.6049773005153692e-01
         - -4.3144203909288588e-02
         - 1.0534354337743980e-01
         - 2.8013982492342249e-01
         - 9.5934033910703570e-03
         - -8.8887970795724347e-04
         - -3.1427930685702099e-01
         - 2.9447958670999086e-01
         - 1.1031795745731565e-01
         - -1.6990335277021112e-01
         - -3.8061205218124158e-02
         - 3.5561632112176961e-01
         - -4.5024831442238766e-01
         - -2.2997614005590053e-01
         - 2.5223938156270286e-02
         - 5.7298208536114392e-01
         - -1.1795525850783217e-01
         - -1.6215447743391684e-01
         - -7.3117125423723034e-02
         - -4.4124264714889137e-02
         - -2.1769491209300600e-02
         - 5.1085115374566621e-02
         - 1.4964602170946964e-01
         - -4.3353601707353508e-02
         - -8.8996914430274614e-03
         - -3.8985168368624111e-02
         - 1.0922522701893752e-02
         - 1.1164734369400264e-01
         - 4.0751550510577272e-01
         - 3.1898458312806666e-01
         - 1.5884508590786595e-01
         - -2.3831381116337872e-02
         - 5.8059093440795594e-02
         - -1.4798845409065506e-01
         - -7.7992048188946964e-02
         - -1.2488275419795355e-01
         - 2.1361547175575613e-01
         - -3.1767608695998978e-01
         - 1.3094637381968177e-01
         - -8.9129979835637349e-02
         - -5.1203164316550545e-02
         - 1.6045917316971237e-01
         - -1.3975209294190374e-01
         - -2.0144551250695517e-01
         - -4.6757352124674710e-02
         - 5.9554464856089395e-02
         - -9.6456216333936987e-03
         - 6.9579269571239194e-02
         - -8.5161907075897478e-02
         - -2.8183249538774435e-01
         - -3.4968977109961930e-01
         - -4.2754681702298757e-02
         - -6.2105338079074063e-02
         - 9.7478877162015212e-02
         - -2.9731423563305215e-01
         - -1.9982399637804490e-01
         - 3.9026558129467599e-02
         - 1.9133478408227889e-01
         - -2.8522840678454542e-01
         - -3.8343710412888518e-02
         - 3.3733591885330410e-03
         - -1.5025226289645582e-01
         - 7.9247931918134853e-02
         - -1.8549946403832292e-02
         - -3.8924143715900039e-01
         - -5.0420165742985568e-01
         - 2.1793641641827247e-01
         - -5.9629109526806716e-02
         - 2.3908422582100761e-01
         - 1.5067662244172169e-03
         - 3.2700707882130309e-01
         - 7.2979477985230481e-02
         - -7.9071962081183750e-02
         - -7.2899268259566472e-03
         - -1.7532878447783530e-03
         - -6.2490109379399549e-02
         - -2.7387076033820956e-01
         - 3.3587207912596373e-01
         - -2.3370873226864858e-01
         - -1.3368377506800644e-01
         - -2.9155721256216127e-01
         - 4.1178210395241180e-02
         - -3.6096449785651100e-03
         - -1.0695575893778995e-01
         - -2.2412585583166788e-03
         - -1.1559621934649785e-02
         - 7.2812687854142452e-02
         - -8.5524444945055067e-01
         - 3.0469508424598296e-01
         - 7.4324681824275388e-02
         - -1.4200781098770524e-01
         - -2.2306243093972136e-01
         - 1.5716354017277825e-01
         - -1.8691327637034466e-01
         - 3.5868391149131026e-02
         - -7.6546481465636487e-02
         - 2.4211213265295170e-01
         - 1.2194877879547414e-02
         - -1.8217146046709187e-01
         - -2.1036896683416054e-01
         - 1.1438378282434054e-01
         - -1.6189967348089759e-01
         - -3.1783989225477621e-01
         - 2.7558693923702515e-01
         - -2.0793227195887887e-01
         - 8.3071073781885371e-03
         - -4.8611980358940177e-01
         - 6.9627735296425874e-01
         - -5.8418444682525206e-01
         - 4.1945978600875768e-02
         - -1.9400814118585169e-01
         - -2.5937069399427620e-01
         - -1.7205159285439894e-01
         - -4.3517488472753697e-02
         - -6.8182387384299312e-02
         - -7.6823664846261686e-02
         - 6.8045353955431737e-02
         - -1.6998446528125979e-01
         - 1.2813737123677933e-02
         - 1.6870791241004895e-01
         - -1.3442241891841994e-01
         - -4.0547587811910246e-01
         - 3.3922137283083487e-01
         - -3.0419977060479114e-01
         - -2.7831988968660369e-03
         - 2.6378174499762391e-01
         - 2.2217233901878186e-01
         - -1.3233679567912490e-01
         - -8.9772936879906826e-03
         - 1.2088558036903739e-01
         - 1.0174638636466254e-01
         - -7.0119467684737188e-02
         - -1.1350820394346699e-01
         - 1.1841761545014190e-01
         - 1.2211011945131905e-01
         - -8.8934919428436421e-01
         - -5.7510171419559393e-02
         - 6.9030620803798334e-02
         - 1.3105890192370331e-01
         - 1.3796258852475607e-01
         - 2.5745042239627980e-01
         - -1.8072621166512360e-02
         - 1.5835142610835001e-01
         - -8.1279130746672271e-02
         - -6.9560774851958801e-02
         - -1.1893853316031069e-01
         - 2.2770355843815468e-01
         - 3.2139619441773454e-01
         - -3.0413373580663389e-02
         - 1.1798167845091717e-01
         - -2.0035004624566663e-01
         - -3.5117532894303374e-02
         - 5.6521511727913765e-01
         - -3.1174683612940801e-01
         - 3.6771750043433460e-01
         - -1.6349397874769606e-01
         - -2.3375065766223291e-01
         - 1.0177704836157526e-01
         - 1.4605910131181689e-02
         - 8.7390605716105244e-03
         - -3.1340747660138951e-01
         - 1.2419994901207453e-01
         - -1.2588914719017805e-01
         - 6.7251378298233101e-04
         - -5.0044372347760853e-03
         - -2.6514011101821194e-02
         - -6.7787707832246261e-02
         - -7.0120827101239305e-02
         - -5.6735034623289260e-01
         - 4.4909261816198015e-01
         - 1.2761743176986959e-01
         - -5.8588353152626005e-02
         - -1.6492921063439087e-01
         - -3.1180321426554747e-01
         - -6.2018411250280103e-01
         - 2.3978370245188566e-02
         - 5.3351447487783601e-02
         - 1.7719494704557187e-01
         - -2.0457407288539381e-01
         - -4.9506993160614667e-02
         - 3.3701614143640965e-02
         - -3.4962215010578501e-01
         - 2.6377779191464310e-02
         - 5.3269539327921930e-02
         - -5.1550765494233630e-01
         - 2.4620657403100574e-01
         - 2.7932661002207683e-02
         - -4.3481681145768669e-01
         - -5.5038686461043018e-01
         - 2.2252846776089705e-01
         - 9.2147917239942020e-02
         - -3.1674001128028290e-02
         - 8.2786108503954603e-01
         - 4.5795122982318981e-01
         - -4.4141220528384158e-02
         - -5.9603445786358105e-03
         - -2.5218233093176005e-02
         - -2.1746843568176841e-01
         - -1.7176582743157975e-02
         - 1.2883748428042968e-01
         - 1.3227033103943830e-01
         - -2.5210753956412019e-01
         - 5.6494320008384211e-02
         - -2.9414667611361696e-02
         - -6.6024334767249851e-02
         - -6.3655961163192554e-02
         - 2.8754175552693505e-02
         - 1.1023668240503245e-01
         - 3.9351637027413818e-03
         - -1.6434455349410612e-01
         - -1.7821473171422345e-01
         - -8.2412261186909544e-02
         - 6.3937713183241485e-02
         - 2.4505908017320666e-01
         - -2.6720343866113799e-01
         - -1.0640612689416450e-02
         - 4.1758399777615640e-01
         - 2.0693438032257852e-01
         - 3.5782057403364353e-01
         - 4.3774582434988324e-01
         - 1.7398867713870218e-02
         - -1.3489850892319549e-01
         - 3.6163302151134152e-01
         - -1.7224105766173978e-01
         - -3.6584555448302902e-01
         - 1.3172124854937811e-01
         - 3.0749265100214990e-01
         - 5.4439347002376881e-01
         - -5.0801843440168493e-01
         - -5.7754391855097217e-02
         - 5.6140307666124689e-01
         - -2.0756296898966581e-01
         - 7.5308135875864393e-02
         - -1.7618124836632662e-01
         - -1.3400823536656187e-01
         - 2.3553636334997460e-01
         - -1.1618422595436234e-01
         - 1.1374409787889658e-01
         - -1.3827044959269575e-02
         - 3.7777669397445590e-01
         - -3.8316692274106429e-01
         - 1.0762886359288833e-01
         - -1.3487776182126100e-03
         - 1.5031168550323371e-01
         - -2.6351613924174400e-01
         - 3.8986544437949044e-01
         - -2.4387505905818707e-01
         - -8.7974218557791861e-02
         - 1.7818509443717886e-01
         - 8.2382140804464682e-02
         - 3.5682649956198548e-01
         - 1.3193182630714267e-01
         - -3.1676149581695989e-01
         - 3.4000926428801659e-01
         - -1.7633134001575651e-01
         - 1.0467289834817152e-01
         - 4.5484437735264149e-01
         - -1.2486715577821197e-01
         - -8.2797830968237743e-02
         - -1.6803447129598145e-01
         - 7.8034468394405587e-02
         - -2.1705447357952812e-01
         - 2.7202607356490688e-01
         - -5.4578546415982476e-01
         - -1.3233663345630731e-01
         - 9.0354682230163227e-02
         - -4.2288314322084841e-01
         - -3.9580021250794967e-01
         - 1.2009518519664439e-01
         - -2.1923707988672436e-01
         - -3.8818547288430733e-02
         - 1.6719509369046970e-01
         - -1.1711947918716338e-01
         - 1.1642111734826446e-01
         - -6.9216212298686319e-01
         - -2.0547511084185077e-01
         - 1.6937746680497484e-01
         - 1.9901425580362689e-01
         - 3.4585652002064676e-02
         - 4.5747817749855690e-01
         - -1.8250154801899535e-01
         - -1.4640673500161422e-01
         - 3.0653025980494031e-01
         - 6.0043434220222014e-02
         - 1.4103681227960931e-02
         - -1.6152295079943377e-01
         - -4.1780110431724853e-02
         - -2.8424683643121507e-01
         - -4.2189158492934908e-01
         - 2.0285835815392844e-01
         - -5.7458667713094123e-02
         - -2.6723281212320527e-01
         - -3.2068946913312041e-01
         - -5.2114627211673821e-02
         - -4.0376558199467366e-01
         - -7.0452135558685500e-02
         - 2.1858956810652377e-01
         - -3.9645149861237627e-01
         - -2.3318947143038185e-01
         - 1.6582992647793943e-01
         - -8.3348603735079324e-02
         - 1.0884642870479168e-01
         - 2.6403436788775092e-01
         - -9.4163121409327533e-02
         - 4.8311047298856692e-02
         - 2.0408896820670658e-01
         - -1.4260614806902072e-01
         - 3.6279410322376171e-01
         - -7.0406375799010906e-02
         - -2.5827418860748697e-01
         - -2.7289257410480716e-01
         - 2.3886111614457600e-01
         - 2.5747246218029490e-01
         - -9.6956896523195057e-02
         - -2.1920737816128549e-01
         - 7.1696772383561247e-01
         - 2.7585150161916594e-01
         - 1.3993989446664420e-01
         - 1.3581382655998700e-01
         - 3.8542842712910430e-01
         - -6.8913755589667544e-02
         - 2.4500392847167649e-01
         - 2.0817405799644156e-01
         - 1.2906071399162988e-01
         - -6.8362625819609579e-01
         - 4.6475434933491246e-02
         - 1.9600410996289733e-01
         - -1.9553707837041939e-01
         - 1.4506815373180371e-02
         - 3.0621019345460659e-01
         - -4.7486132666939095e-02
         - -1.3947482895149449e-01
         - -1.4211963700394634e-01
         - 3.3251439341522304e-02
         - -1.3433411396676900e-01
         - -7.4280637018844950e-02
         - -5.9007246309891070e-02
         - -4.2060315250435887e-01
         - 4.4688030507641013e-01
         - -5.2130811777192243e-01
         - 3.1203301747543760e-01
         - 3.9336740924222874e-01
         - -2.8517088562670445e-01
         - -8.6005867205066200e-02
         - -1.0800490876956137e-02
         - -1.2614458455370556e-01
         - -2.4734189085729960e-01
         - -1.9807687328936210e-01
         - -2.0057170335890492e-01
         - -1.8300062599894693e-01
         - -1.5057926109394787e-01
         - -4.6427569337686408e-02
         - -3.2945469747104411e-01
         - 1.4041710988647532e-01
         - 8.3324074932320788e-02
         - 1.5663513241530216e-01
         - -1.4176547295770250e-01
         - -2.0560342311797264e-01
         - -3.0481979606269135e-02
         - -1.0404952423301625e-01
         - 3.4501300961119513e-01
         - 1.2919885434602740e-01
         - -2.4768160461577982e-02
         - -1.8137227428245523e-01
         - -2.1045641550706898e-01
         - 1.6881066804986175e-01
         - 3.0699066105231443e-01
         - 1.2503285845669801e-01
         - 2.6549902191473973e-01
         - -6.3097553796862993e-02
         - -7.4342271819148903e-02
         - -9.2901623603817221e-02
         - 8.3847353785425849e-02
         - 1.2434338512617672e-01
         - 3.2932915634098120e-01
         - 1.7293129912719477e-01
         - -1.3489817440961482e-01
         - -4.0002302057656802e-01
         - 1.5270843321858871e-01
         - 7.6789236243584053e-02
         - 1.2761031343085844e-01
         - 2.1923762856755119e-01
         - 6.5531219838323509e-02
         - -2.1376696801932601e-01
         - 2.1967345522674049e-02
         - -2.3067553441079600e-01
         - -8.5851174274029274e-02
         - -2.8038134939724291e-01
         - 3.0689003895897787e-01
         - 1.8428502428390478e-01
         - -5.1441974664711165e-01
         - -2.8211109069541718e-01
         - -6.7386170761563258e-01
         - 6.8997857529043388e-02
         - 3.2640672921196529e-01
         - -2.5682812522037590e-01
         - -1.0990486982884791e-01
         - -5.0412433542697954e-01
         - 1.8872133091672841e-01
         - -4.2370001621789388e-02
         - -2.0356236440639230e-01
         - -5.6701953758159177e-03
         - -3.5027259877843575e-01
         - -1.0872323902639118e-01
         - -1.4283985704524951e-01
         - 6.1027482708287573e-01
         - 1.5889091589230589e-01
         - 4.2812423259121150e-02
         - -1.9388781259482335e-01
         - -1.5443406891430420e-01
         - -9.5456733018913997e-02
         - -5.4663362710389152e-01
         - 7.1563657280441497e-03
         - -1.0935614353869459e-01
         - 2.7875202210473737e-01
         - 1.2727630472378321e-01
         - -8.1387101917407417e-02
         - -2.7127593521307169e-01
         - 4.3641636255210003e-01
         - 1.4451803090472404e-01
         - -3.1919799241333743e-02
         - 4.9115786501735058e-02
         - 2.3307063197713210e-01
         - -1.4232840305704647e-01
         - 1.6223106894099745e-01
         - 5.8543316732254269e-01
         - -3.1714076833064253e-01
         - -3.2575651343335232e-01
         - -1.2052291003101974e-01
         - -7.7812468126198298e-02
         - -1.5760966886388936e-01
         - -1.2392337800854107e-01
         - -2.1090087501684160e-01
         - 1.2068050653355515e-01
         - 2.1161568988312585e-01
         - 6.1125994504121250e-01
         - -1.5541993973098769e-01
         - 3.7967295550843932e-01
         - 1.8173888698750206e-02
         - -6.5048927258015907e-02
         - 2.7190409388921227e-01
         - -1.2315120959339038e-01
         - 5.2552988310332704e-01
         - 2.7134308490321052e-01
         - -6.1701828985840514e-02
         - 4.4994795155386916e-02
         - -2.4857151327226584e-02
         - -1.7252320753963257e-01
         - -3.4438631217590976e-01
         - 2.1534104645358426e-01
         - -1.8422930043049826e-01
         - 3.0031351613028546e-02
         - 4.8158329239384795e-01
         - -2.5066994826451533e-01
         - -3.5897128712809151e-01
         - 4.0485359273131107e-02
         - 9.5248276651203101e-01
         - -9.5639449292787837e-02
         - 1.4354574350654997e-01
         - 2.4131943168539410e-01
         - 2.1776846858615939e-01
         - 3.6506696362510371e-01
         - 3.9676290149539062e-01
         - 2.7672137685655307e-01
         - -7.5512906411872679e-02
         - -5.4849470632612085e-01
         - 4.8873662310172553e-02
         - 3.5179613533833848e-01
         - -6.5178591294583990e-02
