%YAML:1.0
---
opencv_ml_ann_mlp:
   format: 3
   layer_sizes: [ 81, 123, 77, 35 ]
   activation_function: SIGMOID_SYM
   f_param1: 1.
   f_param2: 1.
   min_val: -9.4999999999999996e-01
   max_val: 9.4999999999999996e-01
   min_val1: -9.7999999999999998e-01
   max_val1: 9.7999999999999998e-01
   training_params:
      train_method: BACKPROP
      dw_scale: 5.0000000745058060e-02
      moment_scale: 5.0000000745058060e-02
      term_criteria:
         epsilon: 1.0000000000000000e-04
         iterations: 300
   input_scale:
      - 4.6076043841481260e+00
      - -2.2358216940744584e+00
      - 5.3628937866717967e+00
      - -1.0509664048703815e+00
      - 7.2338634344505648e+00
      - -7.6469379282552041e-01
      - 7.1592936175486992e+00
      - -6.2458059583615522e-01
      - 4.7670414785458055e+00
      - -8.7659749046325919e-01
      - 6.4874829752007015e+00
      - -6.8252968362818134e-01
      - 7.0158003175498775e+00
      - -6.0528033596659747e-01
      - 6.4888815052194317e+00
      - -6.5362448271736395e-01
      - 4.6296786322502683e+00
      - -2.2269121529805784e+00
      - 4.6594081320545406e+00
      - -2.3976269119221185e+00
      - 7.1560709215921907e+00
      - -6.2201974285675776e-01
      - 8.9159008289907131e+00
      - -5.3833477097305471e-01
      - 7.6160207294100513e+00
      - -6.5181966861978080e-01
      - 4.4141906592804796e+00
      - -8.7683851114582001e-01
      - 7.5536365345117131e+00
      - -6.2268242139443197e-01
      - 7.5776115243259730e+00
      - -6.1682791204202980e-01
      - 6.0187610686629602e+00
      - -8.1670249889699653e-01
      - 4.6590568412260440e+00
      - -2.4053126595827807e+00
      - 4.3026776939698212e+00
      - -1.8593616952346479e+00
      - 8.9650149366998750e+00
      - -4.6892310597075582e-01
      - 9.7240905312100381e+00
      - -4.7054198513398537e-01
      - 8.5712226409345931e+00
      - -5.0902579590815755e-01
      - 5.8170452086540756e+00
      - -6.6860656167294186e-01
      - 7.0525029752401549e+00
      - -5.9372845540306585e-01
      - 4.7027765101049841e+00
      - -1.0165206803690983e+00
      - 4.4721006065069142e+00
      - -1.2303219397643359e+00
      - 4.3874815391678199e+00
      - -2.0558965979676973e+00
      - 7.3310128839080040e+00
      - -3.1835483928872899e+00
      - 6.6134846796082369e+00
      - -1.7824983431598542e+00
      - 6.7044136099704010e+00
      - -1.4598855212340285e+00
      - 6.0775899119246928e+00
      - -1.3689453380078915e+00
      - 6.0196289561031104e+00
      - -2.1373677138487577e+00
      - 5.8991796375769852e+00
      - -1.3548503816317501e+00
      - 6.1140663077341868e+00
      - -1.0999039408277878e+00
      - 6.3783204377012996e+00
      - -1.1047933247744310e+00
      - 6.9758493833732471e+00
      - -2.8637422886970856e+00
      - 7.3902894790700291e+00
      - -3.3124088545215371e+00
      - 6.3771348892219919e+00
      - -1.1430055927073812e+00
      - 6.7607583813622387e+00
      - -1.0345538641818486e+00
      - 6.0328924516492917e+00
      - -1.3008138378568761e+00
      - 5.9476187582369286e+00
      - -2.2462136180600805e+00
      - 6.1006640815696853e+00
      - -1.4671579847485645e+00
      - 6.7128178719458731e+00
      - -1.1537983603200068e+00
      - 6.3793973817619198e+00
      - -1.3736240021713575e+00
      - 7.4459507662201219e+00
      - -3.3178766157098227e+00
      - 6.1109296858367141e+00
      - -2.0376941571226102e+00
      - 6.7662125606795076e+00
      - -7.9183707606737586e-01
      - 6.6458967498904693e+00
      - -8.2976898135617527e-01
      - 6.7717280945478349e+00
      - -8.7420920962035342e-01
      - 5.5458918480702240e+00
      - -1.4691661789914272e+00
      - 5.6972714159907127e+00
      - -1.5482366123496727e+00
      - 6.9096272853946186e+00
      - -2.6715976393219862e+00
      - 6.9040191796620816e+00
      - -2.7071397004050315e+00
      - 6.9224254008074766e+00
      - -2.8122645482781596e+00
      - 5.4353939412804948e+00
      - -1.7318204113359905e+00
      - 6.5659663494207363e+00
      - -1.3998512451091196e+00
      - 6.4877956132269334e+00
      - -1.5828458254529925e+00
      - 5.8498999372720171e+00
      - -1.8963721449431798e+00
      - 5.5501242065074354e+00
      - -2.5298108565076189e+00
      - 5.4278901364183545e+00
      - -1.3998743963512643e+00
      - 6.1178491485180464e+00
      - -1.0268064050993715e+00
      - 6.1030659779116885e+00
      - -1.0251893600418498e+00
      - 5.5832333039146622e+00
      - -1.6434513473257768e+00
      - 5.5057599096018519e+00
      - -1.7706456131592587e+00
      - 6.4780629737992097e+00
      - -1.0976779222187583e+00
      - 6.0689329238980392e+00
      - -1.0392140739461670e+00
      - 5.4878977966475242e+00
      - -1.4163809218217751e+00
      - 5.6800736848515383e+00
      - -2.7396961242803042e+00
      - 5.7232625756051201e+00
      - -1.8428841206379865e+00
      - 6.2841304869549246e+00
      - -1.1625858130100659e+00
      - 6.4383554276358765e+00
      - -1.1336925749462421e+00
      - 5.4426092085814384e+00
      - -1.7376865663986578e+00
      - 5.8930107385694832e+00
      - -1.1432667690853622e+00
      - 6.4032180858439416e+00
      - -7.8672281203418859e-01
      - 6.4371573997154901e+00
      - -7.9789628910524690e-01
      - 6.6705406937045906e+00
      - -8.3843475682456547e-01
      - 4.8170519721480467e+00
      - -1.9543780276834855e+00
      - 5.6778009384899493e+00
      - -2.2556130884461147e+00
      - 6.5146986511195202e+00
      - -2.6500055780435767e+00
      - 5.6019394856402878e+00
      - -1.7259125830839870e+00
      - 5.2179062623334236e+00
      - -1.2483113331385272e+00
   output_scale:
      - 5.2631578947368418e-01
      - 4.9999999999999994e-01
      - 5.2631578947368418e-01
      - 4.9999999999999994e-01
      - 5.2631578947368418e-01
      - 4.9999999999999994e-01
      - 5.2631578947368418e-01
      - 4.9999999999999994e-01
      - 5.2631578947368418e-01
      - 4.9999999999999994e-01
      - 5.2631578947368418e-01
      - 4.9999999999999994e-01
      - 5.2631578947368418e-01
      - 4.9999999999999994e-01
      - 5.2631578947368418e-01
      - 4.9999999999999994e-01
      - 5.2631578947368418e-01
      - 4.9999999999999994e-01
      - 5.2631578947368418e-01
      - 4.9999999999999994e-01
      - 5.2631578947368418e-01
      - 4.9999999999999994e-01
      - 5.2631578947368418e-01
      - 4.9999999999999994e-01
      - 5.2631578947368418e-01
      - 4.9999999999999994e-01
      - 5.2631578947368418e-01
      - 4.9999999999999994e-01
      - 5.2631578947368418e-01
      - 4.9999999999999994e-01
      - 5.2631578947368418e-01
      - 4.9999999999999994e-01
      - 5.2631578947368418e-01
      - 4.9999999999999994e-01
      - 5.2631578947368418e-01
      - 4.9999999999999994e-01
      - 5.2631578947368418e-01
      - 4.9999999999999994e-01
      - 5.2631578947368418e-01
      - 4.9999999999999994e-01
      - 5.2631578947368418e-01
      - 4.9999999999999994e-01
      - 5.2631578947368418e-01
      - 4.9999999999999994e-01
      - 5.2631578947368418e-01
      - 4.9999999999999994e-01
      - 5.2631578947368418e-01
      - 4.9999999999999994e-01
      - 5.2631578947368418e-01
      - 4.9999999999999994e-01
      - 5.2631578947368418e-01
      - 4.9999999999999994e-01
      - 5.2631578947368418e-01
      - 4.9999999999999994e-01
      - 5.2631578947368418e-01
      - 4.9999999999999994e-01
      - 5.2631578947368418e-01
      - 4.9999999999999994e-01
      - 5.2631578947368418e-01
      - 4.9999999999999994e-01
      - 5.2631578947368418e-01
      - 4.9999999999999994e-01
      - 5.2631578947368418e-01
      - 4.9999999999999994e-01
      - 5.2631578947368418e-01
      - 4.9999999999999994e-01
      - 5.2631578947368418e-01
      - 4.9999999999999994e-01
      - 5.2631578947368418e-01
      - 4.9999999999999994e-01
   inv_output_scale:
      - 1.8999999999999999e+00
      - -9.4999999999999996e-01
      - 1.8999999999999999e+00
      - -9.4999999999999996e-01
      - 1.8999999999999999e+00
      - -9.4999999999999996e-01
      - 1.8999999999999999e+00
      - -9.4999999999999996e-01
      - 1.8999999999999999e+00
      - -9.4999999999999996e-01
      - 1.8999999999999999e+00
      - -9.4999999999999996e-01
      - 1.8999999999999999e+00
      - -9.4999999999999996e-01
      - 1.8999999999999999e+00
      - -9.4999999999999996e-01
      - 1.8999999999999999e+00
      - -9.4999999999999996e-01
      - 1.8999999999999999e+00
      - -9.4999999999999996e-01
      - 1.8999999999999999e+00
      - -9.4999999999999996e-01
      - 1.8999999999999999e+00
      - -9.4999999999999996e-01
      - 1.8999999999999999e+00
      - -9.4999999999999996e-01
      - 1.8999999999999999e+00
      - -9.4999999999999996e-01
      - 1.8999999999999999e+00
      - -9.4999999999999996e-01
      - 1.8999999999999999e+00
      - -9.4999999999999996e-01
      - 1.8999999999999999e+00
      - -9.4999999999999996e-01
      - 1.8999999999999999e+00
      - -9.4999999999999996e-01
      - 1.8999999999999999e+00
      - -9.4999999999999996e-01
      - 1.8999999999999999e+00
      - -9.4999999999999996e-01
      - 1.8999999999999999e+00
      - -9.4999999999999996e-01
      - 1.8999999999999999e+00
      - -9.4999999999999996e-01
      - 1.8999999999999999e+00
      - -9.4999999999999996e-01
      - 1.8999999999999999e+00
      - -9.4999999999999996e-01
      - 1.8999999999999999e+00
      - -9.4999999999999996e-01
      - 1.8999999999999999e+00
      - -9.4999999999999996e-01
      - 1.8999999999999999e+00
      - -9.4999999999999996e-01
      - 1.8999999999999999e+00
      - -9.4999999999999996e-01
      - 1.8999999999999999e+00
      - -9.4999999999999996e-01
      - 1.8999999999999999e+00
      - -9.4999999999999996e-01
      - 1.8999999999999999e+00
      - -9.4999999999999996e-01
      - 1.8999999999999999e+00
      - -9.4999999999999996e-01
      - 1.8999999999999999e+00
      - -9.4999999999999996e-01
      - 1.8999999999999999e+00
      - -9.4999999999999996e-01
      - 1.8999999999999999e+00
      - -9.4999999999999996e-01
   weights:
      -
         - 4.3840022357461733e-02
         - -1.6654083331325020e-01
         - 2.6667053611520958e-01
         - 3.3742798512797456e-01
         - 2.4588724289580363e-01
         - 1.4025276520241481e-01
         - -6.0973382272214487e-02
         - 2.1140493175145175e-01
         - -1.7172661592433489e-01
         - 8.8316307155273249e-03
         - 2.0493871063411420e-01
         - -7.8170196082556417e-02
         - 2.1115914002574729e-01
         - 3.5719336609725816e-01
         - -1.5003793861824632e-01
         - 4.6554055092374264e-01
         - 2.4755100233679283e-02
         - -7.4856484295230633e-02
         - -2.2987074444749167e-01
         - -8.8509261127131741e-02
         - -1.2006251803835154e-01
         - -1.1571979748566505e-01
         - -3.1011006069977042e-02
         - 2.3388321711961169e-01
         - -5.7348384407518965e-02
         - -4.9967413834071862e-02
         - -4.2468026218150806e-01
         - -1.9097372880525734e-02
         - 2.1097406423343715e-01
         - 1.4838125998073787e-01
         - -4.5624407567497423e-04
         - 1.4353494600857855e-01
         - 2.7718978116065446e-01
         - -3.5988276347721154e-01
         - -1.4777396943846954e-01
         - -4.6792679497966498e-02
         - 2.0113513099465352e-01
         - 8.5419564973239021e-02
         - 1.6676001571121743e-01
         - -5.2251724412730176e-02
         - 3.5023436757288701e-01
         - 1.8132908842371620e-01
         - 4.6437094337959908e-02
         - 1.8719085585427839e-01
         - -1.2235182939924222e-01
         - 1.3869011048312685e-01
         - 4.5757391803319537e-02
         - -2.2223507784632873e-01
         - -1.8802549535288690e-01
         - -4.9847358704291897e-02
         - 1.5000851007340893e-01
         - -6.0194318821644277e-02
         - -4.8327392611848673e-02
         - -2.3730390034642981e-01
         - -5.4620993923761999e-03
         - 3.6717282822672004e-01
         - 7.9351218559099573e-02
         - -1.5221752701859664e-01
         - -9.1975924737660655e-02
         - -1.0911935201667414e-01
         - 8.6730305252066278e-02
         - -2.2743522397093269e-01
         - 1.1941678961471580e-01
         - 1.0524909614249559e-01
         - 8.4757331513146128e-02
         - -7.0115934867352014e-02
         - -1.3202719552217964e-03
         - 3.6447230997319419e-02
         - -4.9620401064040282e-02
         - -1.2383139195538656e-02
         - 3.3791571974688334e-01
         - 1.2412305379156979e-01
         - 1.0280003286051671e-02
         - -1.3351232556429138e-01
         - 6.8503365417310974e-02
         - 1.9428399787717521e-01
         - -1.4376329529655962e-01
         - 4.7413769250421001e-01
         - -4.0889081408493666e-01
         - 4.2614107839145592e-02
         - -7.3783261373742502e-03
         - -9.4626235010288842e-02
         - -1.0787392199268700e-01
         - 1.2548145711128231e-01
         - 1.1482886110443643e-02
         - -3.4666493182062094e-02
         - 1.2680800864569364e-01
         - -6.8145737171675005e-02
         - -5.1994414457932750e-02
         - -3.1342475757070049e-01
         - 3.4315702580762816e-02
         - 5.4342228333600466e-02
         - 1.2493346726906726e-02
         - -2.2028982118193408e-01
         - -5.3629157862581552e-03
         - -2.4519793370129025e-01
         - -1.5387621891389891e-01
         - 1.2313855534425029e-01
         - 7.0631942473553999e-01
         - -1.9248029452295040e-01
         - 6.3749780908262180e-02
         - -1.7128496518134674e-02
         - 4.2110587572605288e-03
         - 1.6834255619565309e-03
         - -1.1247913749209859e-01
         - -3.0851049634146177e-01
         - -1.2033286558919339e-01
         - 8.5513190636540143e-02
         - -1.9755619159901641e-01
         - -5.4613971238558892e-02
         - -1.3745759909034708e-01
         - -2.2646177605018573e-02
         - 1.1885358919707495e-01
         - 1.7358159274843166e-01
         - 1.3240761740557200e-01
         - 8.5185890705845882e-02
         - 2.6317168096564642e-01
         - 2.6128260244243723e-01
         - 2.9961456175632634e-01
         - 9.5788536892644160e-02
         - 5.1038428993233527e-02
         - -1.0488974595771133e-01
         - -1.9025560865837535e-01
         - -5.4764099190206056e-02
         - -6.0438984946152929e-01
         - -6.0224247488263161e-01
         - 2.3629518868103330e-01
         - 2.4609029985471517e-01
         - -3.1584830609049347e-01
         - -3.9599207757077137e-01
         - -2.3162605515446993e-01
         - -8.8230937667803835e-02
         - 2.4911016695336868e-01
         - 1.6050841179094288e-01
         - 5.8059239063688695e-01
         - 5.7114731448525587e-02
         - 6.0494291650990413e-02
         - 4.7185420188155195e-03
         - 1.7136104553963477e-01
         - -2.2305279168021852e-01
         - 3.8435464103763584e-01
         - -1.1837588826937305e-01
         - -2.3975552223164667e-01
         - 5.5078905084818952e-01
         - 3.8785460881152994e-01
         - -2.7357669692104947e-01
         - -4.5168484555143884e-01
         - 4.0559641571776030e-02
         - -7.1031913628387747e-02
         - -4.2382972709411026e-01
         - -4.1451373820992543e-01
         - 2.2974654314307913e-01
         - 1.4171794843174607e-01
         - 2.3025761819577078e-03
         - 2.2457266239275164e-01
         - -5.9673008656008331e-02
         - 4.6158023696923112e-01
         - -3.8864850505849362e-02
         - 4.2301537609174510e-02
         - -3.2755454251974803e-01
         - -3.4451690283101577e-02
         - -2.3172554557259895e-01
         - -2.5149859922712564e-01
         - 6.4023102640742208e-02
         - 9.0324805254608301e-02
         - -1.6835732112149510e-01
         - 3.3048482396600670e-01
         - 5.3095641208164270e-02
         - 1.6526102695645808e-01
         - -2.2642090228854692e-01
         - -3.4350644211092896e-01
         - 2.4821324581105869e-01
         - -3.5331819056608843e-01
         - -3.0962861140612474e-01
         - -1.2824564277199935e-01
         - 4.6130340023712496e-02
         - 6.2318545135521131e-01
         - -6.4168795940833889e-01
         - -4.9824373714626663e-01
         - 1.6852135953416025e-01
         - -1.1377367894544420e-01
         - 2.0434170425491313e-01
         - 8.2599457794538700e-02
         - 1.0413151307429414e-01
         - 2.0772312605704663e-01
         - -4.6170494889370212e-01
         - 2.3479335333412912e-02
         - -1.1573878965828996e-01
         - -1.0051641406499855e-01
         - -8.8085818594794763e-01
         - 3.1740329172170084e-01
         - 6.1525022484230318e-01
         - -3.1388157902673991e-01
         - -1.1769450921723956e-01
         - -1.6490145453542102e-01
         - 1.2169278641846107e-01
         - 2.4112942221828460e-02
         - -3.0983284858311988e-01
         - 2.9565704983388624e-01
         - -4.2661907389590265e-01
         - 1.5451007323986741e-02
         - 4.9575952604823892e-02
         - -5.0028281326261037e-01
         - 8.0952241743954573e-02
         - -2.0955672669627892e-01
         - -6.2658019044860180e-02
         - -5.8799941928356268e-02
         - -9.6432653491279399e-02
         - 7.3686093263618593e-02
         - -7.5633222176787018e-01
         - 1.4723159219590465e-01
         - 1.6306548644681640e-01
         - 4.3988014826408217e-01
         - 1.9820501999202770e-02
         - -1.3004946694264408e-01
         - -2.6452618824232521e-01
         - 7.2129564911325106e-02
         - -2.9212845746316124e-01
         - 2.6011957009848385e-01
         - -5.6862944025415441e-01
         - 1.1555321487606061e-01
         - 2.8719352169971256e-02
         - -2.8813359297088020e-01
         - -4.9699593398146080e-01
         - 9.7363215993158933e-02
         - 4.2023386549877716e-02
         - 1.6654446215789398e-01
         - 1.7283306796215397e-01
         - -3.5532014662554207e-01
         - -1.3584718982963281e-01
         - 4.4752111969847495e-03
         - 1.6476146643041290e-01
         - 1.9620677335551823e-01
         - -3.6678910162027889e-01
         - 2.4083868617823634e-01
         - -7.0050059350043681e-01
         - 1.0590747658593366e-01
         - -5.2581546197286688e-01
         - 1.0359176776549783e-01
         - 1.4985863081521325e-02
         - -1.3345686558509059e-01
         - -2.3248338767966514e-01
         - 1.9926562469027845e-01
         - 4.9588923408795882e-01
         - 4.3362215248835995e-01
         - 2.3619605893067743e-02
         - -6.9042354724036567e-02
         - -2.5044931273757544e-02
         - -1.0150513037678348e-03
         - 1.2026310098452003e-01
         - -3.9872534116996489e-01
         - -1.0857916535542068e-01
         - -1.7240769205053919e-01
         - 1.6729886568630520e-01
         - -2.6490412377293826e-02
         - 1.9697090761855732e-01
         - 4.5615619884087266e-01
         - 1.7944924338943685e-01
         - -1.1796254191704172e-01
         - -4.0482154671500925e-01
         - 3.9355267978053228e-02
         - 6.0742120052390616e-02
         - -4.2511553962781704e-03
         - -5.8391622468654247e-01
         - 3.9931582622889655e-01
         - 1.0973538170945343e-01
         - 1.6023147706274810e-01
         - 5.1557803183252537e-02
         - 2.1107565601316924e-01
         - -3.9399935641619716e-01
         - -1.1787879274132806e-01
         - 2.9686992808417129e-01
         - 2.5771507127344013e-02
         - 2.1015096553663423e-01
         - -3.1783087811331040e-01
         - 3.8961631317350554e-01
         - -6.4126581430174620e-02
         - 1.4724042916305213e-01
         - -3.3950956292178447e-01
         - -2.2259645982090354e-01
         - 1.3198876950775490e-02
         - -4.3175932306067527e-01
         - -3.5466827102943604e-01
         - 4.1467459594920769e-01
         - -3.8462519753305147e-01
         - -2.7032883419554543e-01
         - -7.9785885955455893e-01
         - 2.6511413747708867e-01
         - -2.4003083576184836e-01
         - -7.5695196933158682e-02
         - 1.8086557596595618e-01
         - 2.7049309094397896e-02
         - -6.6998984105597709e-02
         - -1.4079820464689896e-01
         - 3.1293395169513583e-01
         - 1.6744822343182092e-01
         - -2.2915242185645049e-01
         - -6.7719239948734369e-02
         - 7.8044141804821721e-02
         - 1.5240216675664875e-01
         - 4.6086272869929784e-01
         - 6.6179654963049632e-03
         - -2.5821466750320210e-02
         - 7.9921375690808330e-02
         - 1.3330006499251384e-01
         - 2.2085504437806286e-01
         - -1.0859872923104039e-02
         - 1.6791237677376303e-01
         - 1.7282264424528171e-01
         - 1.6975421566861434e-01
         - 1.0823538966886054e-01
         - 4.7285199551695706e-01
         - 5.2123697960545856e-01
         - 6.2580968879466556e-02
         - 5.5035751257927901e-01
         - 7.8340645635578049e-02
         - 6.2473860127398206e-01
         - 2.3396580013039994e-01
         - -5.3532617100204134e-02
         - 6.3132918783395331e-01
         - -2.4667887002532179e-01
         - 2.2015014692294044e-01
         - 3.9757043326197422e-01
         - -6.5725941947333888e-01
         - 4.2285500731816106e-01
         - -4.7713914218149817e-01
         - 2.6350274187734744e-02
         - 5.4152871496387948e-03
         - 1.8947521693814279e-02
         - 1.7692714943812474e-01
         - 1.9466233981086878e-01
         - 2.5836291874256651e-01
         - -1.5713640353260389e-01
         - -1.0161734177355512e-01
         - 1.9999854007344897e-01
         - 1.0398588444193803e-01
         - -2.0097157088733858e-01
         - -2.0894502198602613e-01
         - 3.0015295555949234e-01
         - -2.4799145246481910e-01
         - 8.6337924581868036e-02
         - -3.8648204882130888e-01
         - 4.1274216980961270e-01
         - 7.6521514178989017e-02
         - -6.4368757533226140e-01
         - 1.4754489034687265e-01
         - -1.1550196108556675e-01
         - 1.3357786591313753e-01
         - -8.2466201663005279e-02
         - 1.2507068726770371e-01
         - -1.5114929965227089e-01
         - 1.8237390263617231e-01
         - -1.8173730261941776e-01
         - -2.7502448969283311e-01
         - 1.8041978073629630e-02
         - 3.3037169305301473e-01
         - 6.4636237108810335e-02
         - 2.1735665377998872e-01
         - 3.0578923807874064e-01
         - -1.6854298745432644e-01
         - 5.4131787304909640e-01
         - -6.9801037758658979e-02
         - -2.2099611426508761e-01
         - -1.8996641186727118e-02
         - -3.5428668074049474e-01
         - -6.5374751443343496e-02
         - -2.3634349311010386e-01
         - 6.3022301352870236e-02
         - 7.3136608385275192e-02
         - -2.1939092607226568e-01
         - 2.7982410308325784e-01
         - -2.7556392716665302e-02
         - 6.4974615287182588e-03
         - -3.0260458406867824e-01
         - -2.3108543149774749e-01
         - -4.4857842873278132e-02
         - -3.0710707946144800e-01
         - -2.6512705230717909e-01
         - 2.6020341473264930e-01
         - 1.6746506764584579e-01
         - -9.3017598698957066e-02
         - -5.3395299939320337e-02
         - 3.5079973680798315e-01
         - 2.0438277921688217e-02
         - -3.9247373530164537e-01
         - 2.0911067033316330e-01
         - 1.0954102276532246e-01
         - 5.4080618759688415e-01
         - 1.4011621539909433e-01
         - 3.1707545438575185e-01
         - 3.4763363772530881e-01
         - 1.0795132501688582e+00
         - -2.8923645043565649e-01
         - -5.5946494636865768e-02
         - -7.1373891941148765e-02
         - 4.0387963781796249e-01
         - 1.1845663165536603e-01
         - -1.6082118915687993e-01
         - 1.9645834685882616e-01
         - -2.3852062014631153e-01
         - -4.4489281015877147e-01
         - -1.7007544256028706e-01
         - 9.0625044673617358e-02
         - 1.7243673039000215e-01
         - -6.0296657448839835e-03
         - -2.0469917470414090e-01
         - 4.1334294063088389e-01
         - -7.7562299467843299e-01
         - 1.6851461838087844e-01
         - 3.0979280841224682e-01
         - 1.6019851768486501e-01
         - -4.7316157895221282e-04
         - 1.9760037483243933e-01
         - 4.3450671122534834e-01
         - -3.0927099628522497e-01
         - 1.0451833829018063e-01
         - -4.6714764968149597e-01
         - 2.3300667725280433e-01
         - -2.1884018645665210e-01
         - -5.6715341296076097e-02
         - 2.6655468941493071e-01
         - 1.7365069324907176e-01
         - -1.4477515049186546e-01
         - -5.4575646711997183e-01
         - -8.6141239528551594e-01
         - 7.8463994276999738e-02
         - 2.7485509481195775e-01
         - 5.4930340194245864e-01
         - 1.5470391093182170e-01
         - 1.1493388301514675e-01
         - -1.2766635681393837e-01
         - 2.8720865863514644e-01
         - 3.9175526975117941e-01
         - -5.6571149761415800e-02
         - -2.3840199068644871e-01
         - 3.2277999331330731e-01
         - 6.6645277724617835e-01
         - 1.3111501984792925e-01
         - 1.1049231738326100e-01
         - 2.5603314087167073e-01
         - 3.0386238093898482e-01
         - -3.7031986996140805e-02
         - -7.2037590256362494e-01
         - 7.7927323391340829e-03
         - 3.7488953534080265e-02
         - 2.7399410872448393e-01
         - -4.3538751945378473e-01
         - 7.1412217493496077e-01
         - -3.6293389123931080e-01
         - -1.5484406561561931e-01
         - 6.4928395588054022e-02
         - -3.2728037755247119e-01
         - -8.8551161154040200e-02
         - 1.8244921133159131e-01
         - 3.4984469863168211e-01
         - -5.3729231064220995e-01
         - -4.2544244817756122e-02
         - 1.0768788479582261e-01
         - 8.3588787445515711e-01
         - 3.6584354673914354e-01
         - -1.5323914288230869e-01
         - -5.1680445400270458e-01
         - -6.4463563960812442e-01
         - -3.3574285164197382e-01
         - 3.6939691523400164e-01
         - 1.5815036230064133e-01
         - 2.2936330398962704e-01
         - -4.0407891104307425e-01
         - -2.7350243624153506e-02
         - -4.0663649233416194e-01
         - -2.3339012787486274e-01
         - -1.2283755732408627e-01
         - 2.9378602203137399e-01
         - 3.8096105383722650e-01
         - -1.2987894368556641e-01
         - -4.5194013184425996e-01
         - -4.2398925731539072e-01
         - 1.6442526601126400e-01
         - 3.3577859132794208e-01
         - -1.6132789628594094e-01
         - 4.6119601564247231e-01
         - -5.0019110613594334e-02
         - 1.5653790996670586e-01
         - -1.9183651376694980e-01
         - -3.8810378200335510e-03
         - -8.6557226675686261e-01
         - 1.9785904227443743e-01
         - -6.0010874168379214e-01
         - -8.0216130846204703e-01
         - 1.1058344185598865e-01
         - 4.1720569674566799e-01
         - -2.8190197986766258e-01
         - -2.2481032992196717e-01
         - 3.5356320358979615e-01
         - 1.6386860742297827e-02
         - 5.5988683921382831e-01
         - -3.5565936846083601e-01
         - -2.6500282411071435e-01
         - -3.3731726570509407e-01
         - -2.1901403404411585e-03
         - -5.6728958968631205e-01
         - 2.5271511057159890e-01
         - 4.2692357167957368e-01
         - -2.3060209217469826e-01
         - -2.5863938678346127e-01
         - -1.8374602577263580e-01
         - -4.8841406600841136e-01
         - -4.5964114154360114e-01
         - 4.8187215030226527e-01
         - -4.7656620252251092e-01
         - 2.6112909163215214e-01
         - 3.7259062672843915e-02
         - 2.7173149864092877e-01
         - 4.4513913948385675e-01
         - 3.5201633552634015e-01
         - -3.5266043291072824e-01
         - -3.2025481240893126e-02
         - 8.7418318551752583e-01
         - 3.1549986874215269e-01
         - 5.8030007261375138e-02
         - -1.0332468430926398e-01
         - 5.1606532809886134e-02
         - -3.8694021895279684e-01
         - -7.0703113050217176e-02
         - -1.9036612881268772e-01
         - 5.5744033554567689e-02
         - 2.5294245381544078e-01
         - 2.1128560254311290e-01
         - 3.4418623001645521e-01
         - 2.6215116505943642e-01
         - -3.3921170604079520e-01
         - -1.5240750913351037e-01
         - 2.6631370086187744e-01
         - 1.1144920965190691e-01
         - -1.0236521166257696e-01
         - 8.7910655939318044e-02
         - 2.2542215140400743e-01
         - 8.9104511390423163e-02
         - -1.9094457510677326e-01
         - 4.5561736726735705e-02
         - 4.3161268098648273e-02
         - -3.3281764530440394e-01
         - -4.8028969219221862e-01
         - -8.5949824065636379e-02
         - 2.1884579332507720e-01
         - 3.2618564039076164e-01
         - -3.1726727562297546e-01
         - 2.8326523786245189e-01
         - 3.0199094025650791e-01
         - -1.6653158196215090e-01
         - 4.4841883288042333e-01
         - 1.9687957174500489e-02
         - 3.6019339074404538e-01
         - -3.8680023994924173e-01
         - 3.4584751046454232e-01
         - -4.8628230252559557e-01
         - 3.3603851299142212e-01
         - 3.3847815369119555e-01
         - 3.1551341752737311e-01
         - 5.7171543757626686e-01
         - -1.7067983772117970e-01
         - -6.0775332444756899e-02
         - 2.8018893666311168e-01
         - 6.8726721188355254e-03
         - 4.8684321669328723e-01
         - -6.9281183118330314e-01
         - -2.4284469084843299e-01
         - -1.5039918880586955e-01
         - 7.8914735009161616e-02
         - -4.4977967062707830e-01
         - 1.0657233381969367e-01
         - 1.9520229495652606e-02
         - -3.3329624563513716e-01
         - -2.0273559106026323e-01
         - -4.5896471718481813e-01
         - 5.2390410025031553e-01
         - -2.5423447324285869e-01
         - 4.3000168391978522e-01
         - -1.4517098041015686e-01
         - 4.4518683497981149e-01
         - 2.3535393645746963e-01
         - 4.1321549025933541e-01
         - -5.9143878557167184e-01
         - -1.1469361470385939e-01
         - -6.0996562349915906e-01
         - 3.6740502769429745e-01
         - -4.5512870324648375e-01
         - 4.0266247060643717e-01
         - -1.3586899735307165e-01
         - -1.5839463843351782e-02
         - -2.4185077131967278e-01
         - -2.3681071606617096e-01
         - 4.1331845637282295e-02
         - 2.4862331982228575e-01
         - 1.2284243292823394e-01
         - 1.4576083038986498e-01
         - -6.7536657556233989e-02
         - -1.4189654035088199e-02
         - -4.5871266982820191e-01
         - -3.3258145381718457e-01
         - 2.9395867115275642e-01
         - -3.0493637993148304e-01
         - -2.6583613224381858e-01
         - 2.1634073708806348e-01
         - -1.0577770563176969e-01
         - 1.5195829407459305e-01
         - 3.7983288946124599e-02
         - 2.7396347122727754e-01
         - -1.6215081369026740e-01
         - 3.2713997850233067e-01
         - 1.3902451677770575e-01
         - -5.0608718348677995e-01
         - 4.6871564131204198e-02
         - -3.6181801286384635e-01
         - 1.0944228031040417e-02
         - 3.6993048522558292e-01
         - -2.5164996071117013e-01
         - 1.0870186636784214e-01
         - 5.9858190015136634e-02
         - 6.1165902592442027e-02
         - -3.3887292849728229e-01
         - -1.7456923447551950e-01
         - 5.5071335654028908e-01
         - -8.3099035098124913e-03
         - 1.1584847024159989e-01
         - -1.1438170456417633e-01
         - -1.8503661511834227e-01
         - -2.9455072065239984e-01
         - -7.1385608759813410e-02
         - -6.3957874943492898e-01
         - -8.1631652006294553e-01
         - 1.1204318565796027e-01
         - -1.3161689501602164e-01
         - -2.7194774115649117e-01
         - -2.7222050307905581e-02
         - 4.3246114346324332e-01
         - 2.9908566682781812e-01
         - -3.5819501751722216e-01
         - -5.6949891605677194e-01
         - 1.3064666301673680e-01
         - -6.7812377806489813e-02
         - -3.6439117645431070e-02
         - -5.3113770362509827e-01
         - -8.5239635301040409e-02
         - 3.4861703930539423e-01
         - -3.0685869752769745e-01
         - -1.0403598685140286e-01
         - 3.2272959461066492e-01
         - 1.5700085490061610e-01
         - -6.4504909927920184e-03
         - -1.4002025976358115e-01
         - 3.9523865596824315e-01
         - -3.2138442133089101e-01
         - 3.4513679169060513e-01
         - -3.4455857296138004e-01
         - 4.9748589781649272e-01
         - -2.1112349685622245e-01
         - -6.9543150342387255e-02
         - 7.5803210394783634e-03
         - 4.0812701543670088e-01
         - 4.2079352888483706e-01
         - -3.3364662070618617e-01
         - 3.9319541759269272e-01
         - 1.5485632960226653e-01
         - -2.2977009322757902e-01
         - 1.8100903584625297e-01
         - -1.1284752679712784e-01
         - 2.9831592476246999e-01
         - 9.1999878063261195e-02
         - -3.2515292912932459e-01
         - 3.2254131741920827e-01
         - 2.7269500907679817e-01
         - -4.8529336451252353e-01
         - 3.9563488159523952e-01
         - -5.4104580749937481e-01
         - 1.1777696523271143e-01
         - 6.7489225709771589e-02
         - 1.6239574770983883e-01
         - -1.2147445469452775e-01
         - -6.1936542628164198e-02
         - 1.2170140326898302e-01
         - -5.7181592465397535e-01
         - 3.1725548599072922e-01
         - -4.2601352684106275e-01
         - -2.3378672766707109e-01
         - 5.2769593242484161e-02
         - -2.7815772112163628e-01
         - 3.7853881895554103e-01
         - -5.3831945263539605e-01
         - -2.4239015762610555e-01
         - -2.3731063447305834e-01
         - -6.6162753464684587e-01
         - 4.5728400529795232e-01
         - -6.3072157639281556e-01
         - -9.8940870474064479e-03
         - -3.1600256282794836e-01
         - -2.9693504178821284e-01
         - -2.4157272611408112e-01
         - 4.9545165782911245e-02
         - -4.7973125974565239e-01
         - 3.3475236371776690e-01
         - 7.7739394971002207e-01
         - 3.9880935440796650e-01
         - 2.9219565610329629e-01
         - 3.0120988940667953e-01
         - -4.8180913616203092e-01
         - -2.1860651074878493e-01
         - 2.1915734325750852e-01
         - 3.2610811655347743e-01
         - -2.9162926277504081e-01
         - -7.9661272221925539e-02
         - -1.2378130643021897e-02
         - -1.2587833099867915e-01
         - 3.8835161135609564e-01
         - -2.1207501332629478e-01
         - 2.4347470583813732e-01
         - 3.6742036670326100e-01
         - 3.7142741398003892e-01
         - 1.0469849960417481e-01
         - -2.2573380121034448e-01
         - 9.2191398180853618e-02
         - -1.5123730958950898e-01
         - 2.1672739188052617e-01
         - 3.3092264381873421e-01
         - -2.8785904764457043e-01
         - -1.4124040230863916e-01
         - 1.3595311508310493e-02
         - -5.2783079416039345e-02
         - -3.1118859868321830e-01
         - -4.2030164512710683e-01
         - 5.2605178581609596e-02
         - 2.3535036856014729e-01
         - -5.4934616314573151e-02
         - 2.4565123876445570e-02
         - 8.6278190578951849e-02
         - -6.6013056899593414e-02
         - 1.1380356423858237e-01
         - 3.4553893834294219e-01
         - 2.8724898462735338e-01
         - -3.3063038252797450e-01
         - -9.4723730478964610e-02
         - -1.1214759733894232e-01
         - 1.1746365674125622e-01
         - -2.6271817629212207e-01
         - -1.6141455293546483e-01
         - 9.5451948829667155e-01
         - 4.3292222811241515e-01
         - 3.5225150033721131e-01
         - 5.0355921688263423e-02
         - -4.6347762661246822e-02
         - -1.5361521468297987e-01
         - -5.2033966352362493e-01
         - -4.7859575908824614e-01
         - -3.0824127561853826e-01
         - -8.7019117139601920e-01
         - -2.7379305293968559e-01
         - -1.4211005079303329e-01
         - -7.9653716185200929e-01
         - 7.6204734428463716e-01
         - 8.5904179558702165e-02
         - -6.2728785153534905e-01
         - -5.1257199779537921e-01
         - 1.4090022998071325e-01
         - -6.3708916160383466e-01
         - 7.1463922487791182e-02
         - -2.3554241801249870e-01
         - 1.9681083352545738e-02
         - -1.4020512473379947e-02
         - -6.4663663704101162e-02
         - 4.4644854251418231e-01
         - -9.8756204571800524e-02
         - 3.9466502498970352e-01
         - -8.5099163010102577e-03
         - -1.0105201896253238e+00
         - 3.5488248320232391e-01
         - 3.2177590153801544e-01
         - 3.9903768091968028e-01
         - -3.0138573351142917e-01
         - -1.3668453194167868e-02
         - -1.5198898288746539e-02
         - -1.1041090870952426e-01
         - -3.6562503075501512e-01
         - 3.5183119590222117e-01
         - -1.5249363530141127e-01
         - -2.6622923904445012e-01
         - 1.6445234857328822e-02
         - 7.1063679773180163e-02
         - -1.4822799769387721e-01
         - 8.5009706430744969e-01
         - -4.1543281367316859e-02
         - 3.6651658920468050e-01
         - 5.8394596605882199e-02
         - 3.0844684801725425e-01
         - -2.7278712514800052e-01
         - 2.8137156904677069e-01
         - -1.5464630544176750e-01
         - 7.7607893061324457e-02
         - -1.9763422768148783e-01
         - 1.5152041644421202e-01
         - 3.3273582887273140e-01
         - 3.6718496728381467e-01
         - 1.9842732272201005e-01
         - -2.3361274573751514e-01
         - -5.1590673799892454e-02
         - 8.1995681010417085e-02
         - -1.5514030813521845e-01
         - -6.6200236882205582e-02
         - -1.6488330121892439e-01
         - 1.7503714928975034e-01
         - -1.6441320462631878e-01
         - -8.4392401438334222e-02
         - 2.2376886850274064e-01
         - 3.0903706544730299e-03
         - 1.3676532524278154e-01
         - -5.1793515972029947e-01
         - -1.6245066688499388e-02
         - 1.4946266068092470e-01
         - -1.6802891518293517e-01
         - -2.5655023017908129e-02
         - -2.1813944581259212e-01
         - 3.8088567593072004e-01
         - 5.3746503372105590e-02
         - -1.5504959582183514e-01
         - 1.5751454618146132e-01
         - 1.1273341489583320e-01
         - 1.3569221490827932e-01
         - 3.0084734026385052e-01
         - 3.4804515962667182e-01
         - -3.6243975481272411e-01
         - -1.7095912445129793e-01
         - 1.0468155701075153e-01
         - 2.2614159778697918e-01
         - -5.3601346504666463e-02
         - -1.1387413895951335e+00
         - 3.3328446410050772e-01
         - -6.5874518275479599e-01
         - -2.1099720948554709e-02
         - -1.6518351478824322e-01
         - 1.0734545473795033e-01
         - 2.4304195022346259e-01
         - 7.6817158834178931e-02
         - -1.9420991333012003e-01
         - -2.6252179520793600e-02
         - 1.1861284006905050e-01
         - 1.3920932264727773e-01
         - 6.2199462937988940e-02
         - -2.9502029819780556e-01
         - -6.8725838254161439e-02
         - 6.8778384019736696e-02
         - -1.0097453917899717e-01
         - 7.2569663201615675e-01
         - -1.4062680341295319e-01
         - -1.0999373993918383e-01
         - -1.1080251897269958e-01
         - 5.1070796242552485e-01
         - -4.6873173352388253e-01
         - -1.4776297355267917e-01
         - 7.6493686634302216e-01
         - -8.9331460506843832e-02
         - 6.5690463823377232e-01
         - 1.0601672881200870e+00
         - 2.9260851940716121e-01
         - -5.2165466156580043e-01
         - 1.5258837532983399e-01
         - 2.2215648249302061e-01
         - -1.4526523294871485e-03
         - -2.4735194765352991e-01
         - -7.3908039861044228e-01
         - 2.8650142196755729e-01
         - 2.3738628473683215e-01
         - 4.7114963104020841e-01
         - 4.2317422584906933e-01
         - 3.9266386077856164e-01
         - 4.9981301896269849e-02
         - -1.8533614385162610e-02
         - 1.7934834377282752e-01
         - 2.2142536288429795e-01
         - -1.1354253447829588e+00
         - -8.9390770503625178e-02
         - 8.5777689195270720e-02
         - -8.8846844793315882e-01
         - 4.6592457382152158e-01
         - 1.3672696894525016e-01
         - -1.3559936012513626e-01
         - -3.2848210246170123e-01
         - 2.5822182851287689e-01
         - -3.0090053361521979e-01
         - -3.2586614319459201e-01
         - -2.8944795709035115e-01
         - 6.0258380606773132e-01
         - 1.3648920808123216e-01
         - 4.3067086173953974e-02
         - 3.5163771565012308e-01
         - 1.0732677044416690e-01
         - 1.4100316900823293e-01
         - -3.6703170813040933e-02
         - -6.4572326820195936e-01
         - 4.9476729897804628e-01
         - 6.0730985379971225e-01
         - -4.6465038589757361e-02
         - -2.0839358284481563e-01
         - 3.1005110035450392e-02
         - -1.9757318004698735e-01
         - -1.7253760107335844e-01
         - -1.3920735387541666e-01
         - 9.5647991704282495e-02
         - -1.8956638450459568e-01
         - -3.4162326221886574e-01
         - 2.3286112231642128e-01
         - 1.6234616577889008e-01
         - -1.5596311243088679e-01
         - 9.8276395569202923e-01
         - 3.5527416052890876e-01
         - 1.1595839571303343e-02
         - -5.6054930588477359e-01
         - -4.5936783834521483e-01
         - -6.1400570274349053e-01
         - -1.2234917322934344e-02
         - 2.5335768562309074e-01
         - 2.6362115747221582e-02
         - -3.9281161966232692e-01
         - 7.3636717702916063e-02
         - 2.7064327898632135e-01
         - 2.5555571932632687e-01
         - 8.1164010930478370e-01
         - -3.1622989734329593e-01
         - -5.6967619447375488e-02
         - -1.6974171510464409e-01
         - -4.4038203381441648e-01
         - 7.3018500310920886e-01
         - -1.6104219089522318e-01
         - 1.2606615090551779e-01
         - 2.2722638488678307e-01
         - -4.4888634047538629e-02
         - 1.7196608380559089e-01
         - -7.8542989331096782e-02
         - 4.3555385110029293e-01
         - 1.4697601207730332e-01
         - -3.2451406065225757e-02
         - 4.8237085814367103e-01
         - -2.3273397900515477e-01
         - 2.4511694103997297e-02
         - -1.5918272882759982e-01
         - 4.8494379197199018e-02
         - -1.5116178310249212e-01
         - -3.5099401122563922e-01
         - 1.8026119375540678e-01
         - -3.4678687328670732e-01
         - 1.6677999451357003e-02
         - 3.9107179248053942e-01
         - 6.3007638290986578e-01
         - 2.7571515116284612e-01
         - -4.1059141976008733e-02
         - 5.7241618580606768e-01
         - 5.5097515718543898e-02
         - -7.0615535140876359e-02
         - -6.2870187498383068e-01
         - -5.4418748903221703e-01
         - -1.4812034695136314e-01
         - 3.3550944520685133e-01
         - -1.8996090262551041e-01
         - -5.9645134081963034e-03
         - 1.6886568495245932e-01
         - -1.5763265108323479e-01
         - -3.2049574645574563e-01
         - -3.7042189470036219e-01
         - -5.0055839349115583e-01
         - -5.1739259218742195e-01
         - -2.4034114299963766e-01
         - -2.8067945264819499e-01
         - 2.7179920992324924e-01
         - -1.9135748594211707e-01
         - 5.5992153611058970e-01
         - 2.7187432099954234e-01
         - 2.0122938889313949e-01
         - -3.8004358699736490e-01
         - 1.8751425503804323e-01
         - -7.7439937960854341e-02
         - -2.0192240134866227e-01
         - -4.0493921413102341e-01
         - 3.5458076951689244e-01
         - -1.9884204488921467e-01
         - 4.9756637166435325e-01
         - 5.1112516659241658e-01
         - -2.0869528269069213e-02
         - -1.2736945736970828e-01
         - 2.7472112038247376e-01
         - 4.5108525314387693e-01
         - 2.2300161730005949e-01
         - 1.6007053281690883e-01
         - -3.7329945900669223e-02
         - 1.6465878867989872e-01
         - -9.8267284147368156e-02
         - 1.6901068447482751e-02
         - 3.2780665237032353e-01
         - -1.7139499808884334e-01
         - 1.1889059289055226e-01
         - 3.8339678325615539e-01
         - -2.0188399255400971e-01
         - 5.3057008324482624e-01
         - -1.2167786838182907e-02
         - -1.4737656063440049e-01
         - -2.6514562550085222e-02
         - -7.6584432113077347e-02
         - -2.1546800344494713e-01
         - -1.0582469602710409e-01
         - 2.2470552502073179e-01
         - 3.2177224729636106e-01
         - -5.3043273417660707e-02
         - -1.4952383737192901e-01
         - -3.2685931869661128e-01
         - 5.7192910255103077e-02
         - 1.8909826530519333e-01
         - 8.8374799535380910e-02
         - 3.1997625430617037e-02
         - 8.7090626950650396e-02
         - 2.6856930089893577e-01
         - -3.3307538668673831e-01
         - -1.5950104811390509e-01
         - -1.0913533549260820e-01
         - -1.0755950390637960e-01
         - 2.2103038261761457e-01
         - 1.1325019752857596e-01
         - 6.5675343174540157e-02
         - 3.1172803325288440e-01
         - 1.1256105312538948e-01
         - 2.0466791770162879e-02
         - 1.9405748723075580e-01
         - -5.2148401966702895e-02
         - 3.6410491538516734e-02
         - 6.2458217103836235e-02
         - -1.6652866114064466e-01
         - -1.9007861865626999e-01
         - -1.2609877684365985e-03
         - 6.9907794068016532e-02
         - 3.8331783973374223e-02
         - -5.0146209791463774e-02
         - -2.6578209123616331e-01
         - 6.7458830420845259e-02
         - 2.5188836027312483e-01
         - 1.1020736369493353e-01
         - -7.6632292009256572e-02
         - -2.6983054581095258e-02
         - -4.2412153971152028e-02
         - 1.6078087243846392e-01
         - -3.1324656701564790e-01
         - 5.6713295676383481e-02
         - 8.4797280294881205e-02
         - -8.2196748503603201e-03
         - -2.3584785815060839e-02
         - -3.7903606222493102e-03
         - 1.4289413987276203e-01
         - 4.8004897527770339e-02
         - -3.3470178601363997e-02
         - 4.8939894217227481e-01
         - -2.2955231680546081e-02
         - -1.1650966789657430e-02
         - -2.2687726099246752e-01
         - 1.3259244493106950e-01
         - 1.5461138242415307e-01
         - -8.0776161861448842e-02
         - 3.6997480144342998e-01
         - -2.3288000433994110e-01
         - 5.5430937672203723e-02
         - -7.4324655843891974e-02
         - -3.0254107528085997e-02
         - -1.2834516963590509e-01
         - 2.5845034255543220e-01
         - 3.4435627120296561e-02
         - -4.9578299999293286e-02
         - 8.7842695544257804e-02
         - -5.2134293082486551e-02
         - -7.6297450825986213e-02
         - -1.6371270004565930e-01
         - 1.7308528597589013e-02
         - 8.1359207964992700e-02
         - -7.3713231310748764e-02
         - -3.4170592998016397e-01
         - 1.8173379826744641e-02
         - -3.1456343434027734e-01
         - 1.1436637683605907e-01
         - 1.1672217465770138e-01
         - 5.1192699091539984e-01
         - -1.6227663033560141e-01
         - 1.0749494128541631e-01
         - -4.7034982094786439e-02
         - 4.0821746275020998e-03
         - -4.0471219604897656e-02
         - -7.3636835697386008e-02
         - -1.5707076008897136e-01
         - -8.9092627315190340e-02
         - 1.6358829896764754e-01
         - -2.7629813876000292e-01
         - 3.3010194440666600e-02
         - -1.4722137345235395e-01
         - -7.1330085468371898e-02
         - 1.8814118734649088e-01
         - 7.3013683835115736e-02
         - 1.0422579462300867e-01
         - 4.1014581080762558e-02
         - 1.1964687300929110e-01
         - 3.0753120792439420e-01
         - 2.5230477194501127e-01
         - -5.4044889835510451e-02
         - 1.6263007834178561e-01
         - -9.8588250224972435e-03
         - -3.3976800437488242e-01
         - -1.7383708495266468e-02
         - -1.6208318312099713e-02
         - -8.6762565291399155e-02
         - 2.3488395478467591e-01
         - -2.0280704257818383e-01
         - 2.3809422798796026e-02
         - -2.4407676698075836e-01
         - -2.5730268465147477e-01
         - -2.7818848551458014e-01
         - 1.4662931312443409e-01
         - 3.2497436478764707e-01
         - 3.0082156017084784e-02
         - 1.0176610264279820e-01
         - 6.8783876025160215e-02
         - -1.1789632399592705e-01
         - 7.5155897892624790e-01
         - -9.9365081111668960e-02
         - 2.7947683679550583e-02
         - -1.5946647277809217e-01
         - -1.8144284117186354e-01
         - -1.9996941002709248e-01
         - -4.0103702140047576e-02
         - -4.5793453411151125e-02
         - -1.8471268128074070e-01
         - 2.5981862705590975e-01
         - 2.5257891211678662e-01
         - -8.1026929130584416e-02
         - -7.7590878877429909e-02
         - 1.2728316472412832e-01
         - 7.6653860275348387e-02
         - 3.0427711617159667e-02
         - -1.2756855165329944e-01
         - 9.6467563061797740e-02
         - -5.9308371049204278e-02
         - -2.6161042340096696e-01
         - -8.1392356035489138e-02
         - -4.5762762710068672e-01
         - 2.4158674113326339e-01
         - 1.0084634516613054e-01
         - -1.0741649903061487e-02
         - 2.8716547710439266e-01
         - 1.7067843121393905e-01
         - -2.4267585321221322e-01
         - 9.9544822972523386e-02
         - 1.8976812397151613e-02
         - 1.6510058027736940e-01
         - -1.8677853267114814e-02
         - 1.1097265412419365e-02
         - -2.2462091780123819e-01
         - -2.0111009753970691e-01
         - -2.6330477656232970e-01
         - 3.7993047915046228e-02
         - 6.8417610674504706e-02
         - 6.7918311518138638e-02
         - -7.0692841107253726e-02
         - 1.9197430580408584e-01
         - 7.8649501646517656e-02
         - -2.8114426445276779e-02
         - 7.2119591904419605e-02
         - -5.6976481860626621e-02
         - 1.7622436747643005e-01
         - -2.7501656238490324e-01
         - -1.2234980228689290e-04
         - 9.5503923807497254e-02
         - -1.9578339468071013e-02
         - -1.5521540616201976e-01
         - -3.3615703448259697e-02
         - 2.0110649749094103e-01
         - -1.0903767240601304e-01
         - -3.6627164862872715e-02
         - 4.5730995784953732e-01
         - -9.3420483353054889e-02
         - 7.4477363555286655e-02
         - -1.1090912804683803e-01
         - 7.1786108042482782e-02
         - -1.4906064044307357e-01
         - 1.7444540934841218e-01
         - 8.3810437735220761e-02
         - -1.1568406219959490e-01
         - 2.0551989376527652e-03
         - -1.1187887398703607e-01
         - 6.5276614092109565e-03
         - -1.6671335264537071e-01
         - -9.2387863396475506e-02
         - -2.0054055362794457e-01
         - 2.6306078409189925e-02
         - 7.3153859566090745e-02
         - -1.3759602014808173e-01
         - 2.7399969520668521e-01
         - 1.4855676794456210e-01
         - 8.5112490349394082e-02
         - -6.3467284057411325e-02
         - -5.2100281082766509e-03
         - 2.2448820407538880e-01
         - -2.3153711356593001e-01
         - 1.9488301076001857e-01
         - 1.1153165885664137e-01
         - 2.1651241608759877e-01
         - -1.2591782031170229e-01
         - -3.3465080097651612e-01
         - 1.0089834876229692e-01
         - -2.4889535493388715e-01
         - -1.0152931073465815e-02
         - 3.1386569059245570e-02
         - 3.9082714648617495e-01
         - 1.7946730351253268e-01
         - -1.6465543177052386e-01
         - -1.1787747118397761e-01
         - -5.6986767852493833e-02
         - 1.0982148509809833e-01
         - -2.0957721073098814e-01
         - -8.9512272529377421e-02
         - -2.0748028963125964e-01
         - 3.4059861754822812e-01
         - -1.6162937966963242e-01
         - 1.8014211745485498e-01
         - 7.1414772391583448e-02
         - 2.5614876649886398e-01
         - 1.6650676038725742e-01
         - -2.1424772538085968e-01
         - -1.8640589590286111e-02
         - -2.9678347174930671e-02
         - -2.0852869909895633e-01
         - 2.2811288127439305e-01
         - -2.7578034764142179e-01
         - 6.3312645035035628e-02
         - 2.9734584524916635e-01
         - 9.5341258857208608e-02
         - -1.1719877269511900e-01
         - -2.4146715763830620e-01
         - 4.7271406353860840e-01
         - 4.8897575153888273e-01
         - 1.9588494312994270e-01
         - -9.2191112901091318e-02
         - 1.5038983633393452e-01
         - 1.2788476046271052e-01
         - 3.5738380809433529e-01
         - 2.1957278095147978e-01
         - 7.4911648128720199e-02
         - -3.8623447463214089e-01
         - 3.9796039568709241e-01
         - 3.2138046872045106e-02
         - -5.3257362345433379e-01
         - 1.3142845932316005e-01
         - 1.9365491845781274e-01
         - -1.2618929944686466e-01
         - -1.1744993232522715e-02
         - 2.8056833880271831e-01
         - -9.7482710612003975e-02
         - -9.0677219543359139e-02
         - 3.7360977749187596e-01
         - 4.9168695975377857e-01
         - -1.2351706202860811e-01
         - 1.9553586260393513e-01
         - -4.5950169695730858e-01
         - 3.4328984598825121e-02
         - 3.6794614654805502e-01
         - -3.1982984091388951e-02
         - -1.8204631032955873e-02
         - -3.8856088498855917e-01
         - 2.8315409287843812e-01
         - 4.1758072950211160e-02
         - -3.5843279064144092e-02
         - 1.1851564690162875e-01
         - -2.2058357540687811e-02
         - -2.4986991513225709e-02
         - -1.3533453590277073e-01
         - 2.4528769550561341e-01
         - -3.0819948376301942e-01
         - 5.3370163752820042e-03
         - -3.7066297906676582e-01
         - 1.3809405820895005e-02
         - -1.2210438882677722e-01
         - 2.2909015994395540e-01
         - 6.2491432445699088e-02
         - 1.7132731104711804e-01
         - -2.0457140910170260e-01
         - -2.3957439086075782e-01
         - -8.8435157697051003e-01
         - 3.3132225905999890e-01
         - 2.6736305765637508e-01
         - -1.9322718685926449e-01
         - -3.2852006071362294e-01
         - -1.3834088127393995e-01
         - -4.7290579107099162e-02
         - -2.9295212806815968e-01
         - 1.9044523086559176e-01
         - 5.0260346079257057e-01
         - -4.7627253744305498e-01
         - 4.8060404855630762e-02
         - -1.0649839562272624e-01
         - 1.5206043813816722e-01
         - -1.7333522035546686e-01
         - -3.5904857351220604e-01
         - 2.4547405828704502e-01
         - -3.5255819172199290e-02
         - 3.2084560350275583e-03
         - 3.2101402121671951e-02
         - -9.0589150627078414e-03
         - -2.3796085230472575e-01
         - 9.8520091705207175e-02
         - 4.2794248187366629e-01
         - -3.9798389576771467e-02
         - 2.2534902584413780e-02
         - 4.7186860480143138e-02
         - 1.1689268051303904e-01
         - -1.6537339705791348e-01
         - 1.2968168910500841e-01
         - -1.9528385305004448e-01
         - 4.3430787933838227e-01
         - 5.4571892731048864e-02
         - 1.9900961067993583e-01
         - 1.8728902290885571e-01
         - -5.1231734921954701e-02
         - 9.3209888743198355e-02
         - 7.1386131508309536e-01
         - -7.0042195226617243e-01
         - -3.7801338461779480e-02
         - -2.3985586244584933e-01
         - -1.3126564415418068e-01
         - -3.0496003533883975e-01
         - -3.7496931393916394e-01
         - -2.2590309277475629e-02
         - -1.1679777627475799e-01
         - -5.7219156725608944e-01
         - 2.1072188264806727e-01
         - -7.5266032722278747e-02
         - -1.8102673322596047e-01
         - -2.4144138945537196e-02
         - -1.9863437882993570e-01
         - 1.3169318479498746e-01
         - -1.6149088635303277e-01
         - 1.9803899970510810e-01
         - -2.5063957626724204e-01
         - 4.9363275735447368e-02
         - -9.0135711841284313e-02
         - 3.8142594207989866e-01
         - -1.9717204179756662e-01
         - 1.6644514607218469e-01
         - -1.3513052412055715e-01
         - -3.6542705399313258e-01
         - -3.5195708235083861e-02
         - 1.3549642074397630e-01
         - -7.3138250882298139e-02
         - 4.5538381191334570e-01
         - 8.8431657598368671e-02
         - 4.2310546693756022e-02
         - 5.9814262048308578e-03
         - -8.1274818207366942e-02
         - 1.5059733304846332e-01
         - -4.1930098663926252e-01
         - -1.4038857404960486e-01
         - -2.6224923517968457e-01
         - 6.1201008082142372e-01
         - 4.2521492482589729e-01
         - 7.4824308067301198e-02
         - 4.4024053011892139e-01
         - 1.0260610940722303e-01
         - -2.8129030781450198e-01
         - -4.0296501216151392e-01
         - -1.6581045897826219e-01
         - -5.3221634370170329e-02
         - 6.1367955587449741e-01
         - -5.5567767144002377e-02
         - 1.5997639564071123e-01
         - -4.3599890293840732e-02
         - 4.8045108398984038e-01
         - 3.2068735029993506e-01
         - 9.1033420163772916e-02
         - -9.8873987991614565e-02
         - 3.1941699802571960e-01
         - 5.1509645964652495e-01
         - 3.3608063704503438e-01
         - 1.2951064274501309e-01
         - 2.0999351858549020e-01
         - -4.0253749440702397e-01
         - 8.3200710541388237e-02
         - -7.0251329268673834e-01
         - 2.9048550236235610e-02
         - 9.3505064271906160e-03
         - 1.9675873557928431e-01
         - -1.1892966963983083e-01
         - -8.1982528875801197e-01
         - 1.7613441632708149e-01
         - -4.6337317869347604e-02
         - -6.8543747650076453e-02
         - -2.4019073733934365e-01
         - 2.2693640645542970e-01
         - -5.3595510146049838e-02
         - -1.6439566736553543e-01
         - 1.6217872761044172e-01
         - 4.7710238756192160e-02
         - -6.5281110239447049e-02
         - 1.2708609214814384e-01
         - 3.4219404269458048e-02
         - 6.1818788667224199e-02
         - -5.0273122648262648e-02
         - -2.1289411713584608e-01
         - 1.1986928841526631e-01
         - -4.7106381337917680e-01
         - 1.7917486746838334e-02
         - -1.1536335366520710e-01
         - 1.9253811745063079e-01
         - -1.3897423291379776e-01
         - 7.0264742729878746e-02
         - -2.7188630950802506e-01
         - -3.2851213824768710e-01
         - 1.1105726253558244e-01
         - 5.8815837114428303e-02
         - -1.2203028226500516e-01
         - 1.2297549134716408e-01
         - -8.8599206046462403e-02
         - 4.4429580020749260e-01
         - 5.7071007360296522e-02
         - -4.0605173621011242e-01
         - -4.8479083120468211e-02
         - 1.2924449356157117e-03
         - 3.5704051703325668e-01
         - -1.9072849829794097e-02
         - -2.6824117163895983e-01
         - -1.6541600680675597e-01
         - -5.3125699214809752e-01
         - -1.5501804417821169e-01
         - 1.2832959239555475e-01
         - 2.4464501082958942e-01
         - -1.7560486841435077e-01
         - 2.8008918596744495e-02
         - 2.0103829177185967e-02
         - -5.5652728593216863e-02
         - 3.8801860500163798e-01
         - -6.5273239173138431e-02
         - -3.5905601274824311e-02
         - 3.3877266478075302e-01
         - -1.6601510057113070e-01
         - 3.5694873543829227e-02
         - 1.0603095360665263e-01
         - -3.6910109242992206e-01
         - 9.9571422400347365e-05
         - 4.6189341123727706e-01
         - -2.6831607887060038e-01
         - 5.9921271226607432e-02
         - -3.4793039125372488e-01
         - -1.2333816922674548e-01
         - 9.4881977607488538e-02
         - -3.0877161161707362e-01
         - 5.0563926490201694e-02
         - -7.6142741746955664e-02
         - -4.2950344797386097e-01
         - 1.7439185978229460e-01
         - 4.6326494177966804e-02
         - 1.3519606629083322e-01
         - -3.2928373721095344e-01
         - -3.4709160651453930e-01
         - 4.9289367647619854e-02
         - 1.5628725907470511e-01
         - 1.7910969235807261e-01
         - -2.7616159025873672e-02
         - 9.0291353274567485e-02
         - 2.7581502967764454e-01
         - 6.7406007951883218e-01
         - 2.4240072355307771e-01
         - 1.1816048815844038e-01
         - 1.5628047104902776e-01
         - -1.4947981935590768e-01
         - -3.1882814693214023e-01
         - -2.4963117472769672e-01
         - 2.4537294457222188e-02
         - 2.3934338812316305e-01
         - 1.4799448590827049e-02
         - 2.7875550301659352e-01
         - -2.9876476430769877e-02
         - 1.9275115074215540e-01
         - -3.1321789384631277e-01
         - 1.8534865427593919e-01
         - -2.6494269042078511e-01
         - 2.1264453069581285e-01
         - -1.7208720422346541e-01
         - -2.3300139031819421e-03
         - 1.2711333994499804e-01
         - -1.0332606143963251e-01
         - 5.2270976722335527e-03
         - -1.6106923476691397e-02
         - 2.3595008576177617e-01
         - -1.4937906164692841e-01
         - -5.5251445399043075e-01
         - 5.2535727674533439e-01
         - 1.0788508758063220e-01
         - 4.3438775508166561e-01
         - 3.9379080312261394e-01
         - 3.8363140039814747e-01
         - 1.3352737932233638e-01
         - 3.7245288548435107e-01
         - 1.1860707500200038e-01
         - -3.7515127621845890e-01
         - 2.0309990567414410e-01
         - 5.4299141403198681e-01
         - 1.1686213298989340e-01
         - -6.1241999575895045e-01
         - 1.6775547932402640e-01
         - -2.0485992452557952e-01
         - 5.6295179879624135e-01
         - -1.3664065244980481e-01
         - 2.4877400888135792e-02
         - 4.5041983028885541e-02
         - 5.1459681320252547e-02
         - 7.9001704668592118e-02
         - -2.7726270114607837e-01
         - -1.1980876134350138e-01
         - 3.4810509178392035e-01
         - -1.7838511304088259e-01
         - -4.9725610141118218e-02
         - 1.2259372437787519e-02
         - 2.0868947579007516e-01
         - 1.0914965784994743e-01
         - 1.9508592250628282e-01
         - -1.4441736346176798e-01
         - -1.1885895646461249e-01
         - 2.1654975415647651e-01
         - -9.2264026678990571e-02
         - -1.9045573153480194e-01
         - -3.2475450469103057e-01
         - 1.3570230757766419e-01
         - -4.3361368966162418e-02
         - -1.9552999816891872e-02
         - 9.9707101962890721e-01
         - 6.4494751528610506e-02
         - 2.1182644821356197e-01
         - 2.3565622746926579e-01
         - -2.7114351982165316e-02
         - -1.3208055913698685e-01
         - 1.8614952089323203e-01
         - 3.0460332678322888e-01
         - -1.6340519994543892e-01
         - -5.1432898995757048e-01
         - -1.8600957730327289e-01
         - 1.3235361822259267e-01
         - 1.8753618236334982e-01
         - 2.2017566023593743e-01
         - -5.9286985365481056e-02
         - -1.1165239515631102e-01
         - -8.3975947663901873e-02
         - -2.5168517715467503e-02
         - -5.3006809052228855e-02
         - -1.6559436931963237e-01
         - -1.6240979203433556e-01
         - -5.8779230665892968e-02
         - 2.8162207513951496e-03
         - -3.7271321829103421e-01
         - -1.9516896176261125e-01
         - -7.5530741943657734e-03
         - -1.2726946199959940e-01
         - -1.5016091013779709e-01
         - -1.1834531939626365e-01
         - 5.7659837191883161e-02
         - 2.9408644297046549e-01
         - -1.2223023663094008e-01
         - -5.7928971850905219e-03
         - 1.1466678268143110e-01
         - -2.4875773563230610e-01
         - -5.6986881402423840e-03
         - -1.8210768484702317e-01
         - 1.6232209526721153e-01
         - 3.1110149954402716e-01
         - 1.0639270468532258e-03
         - -4.7613961973943783e-02
         - -4.6375693406432189e-01
         - -1.0174233819955530e-01
         - -1.3454269652712397e-01
         - 2.5664024642144651e-02
         - 3.4958699453662201e-02
         - 6.5372327849308645e-02
         - 6.0473646991694840e-03
         - -7.6869516321163858e-02
         - -4.3773330424675622e-01
         - -3.3937996607283022e-01
         - -1.4721175901660075e-01
         - -3.6116971961890337e-01
         - 2.5249886610971417e-01
         - -3.6652758668044816e-01
         - -3.4313923869385025e-02
         - 2.7585775705351562e-01
         - 2.5502275289896231e-01
         - 2.1668622886225525e-01
         - -1.8622195568482924e-01
         - -5.7408431828700301e-01
         - 3.4570531009192072e-02
         - 7.4713083656667054e-02
         - -3.8574622000629172e-01
         - 2.6752737254038189e-01
         - -2.4294057248752315e-01
         - 4.6269015990679063e-02
         - 1.4949580591055742e-01
         - -6.1776961628775960e-02
         - -1.4498513454687492e-01
         - -1.6794218039759504e-02
         - 1.7390809728013709e-01
         - -2.7989380728459703e-02
         - -3.8307113735224957e-01
         - -8.9760401468693060e-02
         - -2.0543033510511613e-01
         - -6.1173693646372207e-01
         - 2.3105307603863198e-01
         - 1.1352212866560069e-01
         - -7.5619664782002688e-02
         - 1.0590324251868254e-01
         - -1.4245970960571600e-01
         - -5.2326327209342605e-02
         - -1.2152743298222402e-01
         - 2.0610656153799820e-01
         - -3.2909868311123963e-01
         - 1.3967592258233444e-01
         - 2.8294803291138321e-01
         - -1.0201213242413140e-01
         - 2.8991016186345148e-01
         - 3.1971990633686109e-01
         - -3.8819762976643474e-01
         - -3.8763617535502420e-01
         - 2.1076005475337239e-01
         - -1.7715542320773153e-01
         - -3.7871294297832044e-02
         - -2.7826014467204585e-01
         - 2.8628803990766044e-01
         - -3.4513929692748641e-01
         - 2.8582444934770534e-01
         - -2.0795883375995136e-01
         - -5.0314962095413675e-02
         - -2.5149234366942091e-01
         - 4.9554808201961381e-01
         - 2.9914231610885644e-01
         - 2.0332193258015985e-03
         - -2.3557467897426559e-01
         - -2.0630409248095138e-01
         - 4.1347034902376179e-03
         - -1.4899136273270051e-02
         - -2.1938447164060335e-01
         - -1.1297983329064202e-02
         - 1.3031914876763648e-01
         - 3.5282763894935981e-01
         - -1.9465502639108023e-02
         - -4.2672384813701891e-02
         - 1.8481139283054068e-01
         - -3.1640697607186719e-01
         - -5.0279431153371934e-01
         - -8.7192453505734908e-03
         - 3.0545851268971091e-01
         - 1.1235866821452398e-01
         - -1.2877748671020942e-01
         - 6.7663777159191241e-01
         - 9.7478839469099104e-02
         - -2.3554022293213156e-01
         - 2.4369064660911571e-01
         - 3.4114262411815630e-03
         - 5.2991631141627082e-01
         - -2.9584034634726536e-01
         - -7.6009580483879013e-02
         - -4.2727711312914396e-01
         - 1.0335628458037691e-01
         - 1.2478543895881652e-01
         - -5.8631662918687745e-02
         - 2.9895473627409258e-01
         - 3.1596295933886444e-02
         - -1.9424257237576698e-01
         - 9.2498770421698823e-02
         - -9.3944837719647997e-02
         - 1.3409058934976348e-01
         - 6.5396036627330345e-02
         - -2.6238746876212848e-01
         - -1.9533535843335531e-02
         - -3.7024306166074794e-01
         - -3.0576763383815531e-01
         - 5.3855201377723455e-02
         - -2.3381297326570186e-01
         - -4.2770638633964592e-01
         - -2.3600624710638235e-01
         - -2.5398442573476604e-01
         - 1.4401514242108340e-03
         - 5.9708964631493396e-02
         - 1.6962261082095023e-01
         - 2.2868182199310808e-01
         - 5.1412457384295718e-01
         - 1.8237962621959011e-01
         - 3.9835143879107089e-02
         - -5.2937936184342638e-01
         - -3.0761294671017553e-01
         - -1.7879126587437688e-01
         - 2.3127977644852557e-01
         - -3.3345788071102017e-01
         - 1.6176254230306722e-01
         - 2.5535647834446226e-02
         - 7.0840801797345213e-02
         - -2.0665669040069393e-01
         - -2.0602155867221056e-01
         - 5.2250929770469037e-02
         - 2.6144986149682203e-01
         - 1.2584762265473279e-01
         - 3.5709243034725646e-01
         - -5.5434704055407014e-02
         - 4.4558139740092356e-01
         - -9.1072573217276478e-02
         - -3.1649731729972125e-01
         - 5.3422540101144400e-01
         - -8.8150553054765268e-02
         - -1.5072865212472708e-01
         - 4.9546117095610326e-02
         - -3.2590034699326031e-01
         - -1.4850322766392840e-01
         - 9.9319916114418705e-02
         - 1.6887214986717961e-01
         - -1.6428041037581195e-01
         - 5.7891593077861021e-02
         - 1.0515913735731337e-01
         - -3.2478940080037579e-02
         - -6.5683119162368298e-02
         - -3.7385824185707928e-01
         - -1.6426823706009455e-01
         - 1.6488148815447243e-01
         - 2.0411892828200687e-01
         - 1.0079537358177641e-01
         - 3.3025494062957528e-01
         - 1.0402977096253187e-01
         - -3.5589826025993443e-01
         - -3.3701522281450583e-02
         - 1.3600040334132554e-01
         - -2.1779621906013330e-01
         - 2.1740385859461453e-01
         - -2.9559783051143856e-01
         - 9.7555934254067542e-02
         - 1.0202544563086241e-01
         - -2.6379058981164588e-01
         - 2.2776028316203173e-01
         - -3.1093256000028269e-01
         - -4.4572233198854583e-01
         - -3.4265714710011091e-04
         - -3.0135071642430815e-04
         - -3.1037924624985790e-02
         - 1.7232376957024459e-01
         - 2.5532133552028408e-01
         - 2.4414571462485898e-01
         - 4.4533203037611463e-02
         - -2.3762902732690844e-01
         - -7.9835374792277114e-01
         - -6.3793134038515234e-02
         - -7.2535166434769954e-02
         - -1.6048507341228133e-02
         - 1.9930379923202741e-02
         - -8.1010767634710060e-02
         - -4.1004096403266294e-01
         - 1.2539452541314781e-02
         - 6.3708671662527930e-02
         - -1.3376013554261701e-01
         - -5.9517207168545061e-01
         - -1.9181278888144276e-01
         - 2.0102221214277387e-02
         - -2.1681174736595357e-01
         - -1.7545962703313747e-01
         - 1.0445693398003932e-01
         - -4.1080623372432859e-02
         - -1.7505430002886355e-01
         - -1.6713886398946509e-01
         - 3.9597522252585737e-01
         - -1.1032576962919567e-01
         - -4.8841393695391581e-02
         - -3.9173960981215050e-01
         - 2.5628567150781062e-01
         - -1.8473356360472307e-01
         - 2.3596815341818931e-02
         - 3.5345732300280891e-01
         - 3.6399767139921657e-01
         - -1.2298799091449372e-01
         - -1.3055929867089403e-01
         - -2.8810881430382740e-01
         - 2.5584564532063347e-01
         - 7.1854903024543490e-02
         - 1.9605520004893065e-01
         - -1.6239028908807990e-01
         - 4.8552545443784539e-01
         - -2.3077676476791506e-01
         - 1.4977584522938542e-01
         - 8.6252439087527596e-02
         - -6.5766722603297439e-02
         - 2.3962542774881790e-01
         - -3.2740568303268380e-01
         - 3.1439963788035047e-01
         - -3.8183421941808721e-01
         - -9.3618016246845390e-02
         - 7.7342336742821857e-02
         - -1.6375640841492015e-01
         - 2.0485644308875670e-01
         - -2.1540247221942697e-03
         - 2.8444422591495270e-02
         - -3.4074673278765046e-02
         - -3.1929271752189958e-01
         - 2.9214222192513495e-01
         - -2.0537920274483504e-01
         - -2.7188148118605099e-01
         - -5.4145617376882123e-02
         - -4.4086647683809382e-01
         - -6.0557630889083232e-02
         - 1.0174870693761333e-01
         - 8.1999438008045974e-03
         - 7.6935376006632528e-02
         - 4.1765828150244977e-01
         - 6.4226231156061198e-01
         - 2.2360103312487037e-01
         - 3.1362761577911341e-01
         - -2.3096602850870623e-01
         - -2.7690178846601105e-01
         - 1.7562283930839820e-01
         - -8.8263144419614664e-02
         - -2.1856007722382462e-01
         - 2.3479992873943416e-02
         - 4.7286525970414850e-01
         - -6.0918883494049163e-02
         - -2.4954822916650587e-01
         - -1.1374752055362838e-01
         - -1.9244716843482101e-01
         - 4.3450236378394669e-01
         - 1.6551194648680625e-02
         - 4.3935750576886845e-01
         - -2.5469337036536177e-01
         - 5.1240530500343184e-01
         - -1.4085222177933706e-02
         - 8.6100953234436325e-02
         - 3.7313722955375900e-01
         - 1.7068324639724988e-01
         - -1.3510588875388296e-01
         - 3.1284972266336586e-01
         - -1.8370016306877826e-01
         - -1.4257112959505858e-01
         - -1.3278345047199142e-01
         - 1.1455729480479564e-01
         - -5.6379950978495985e-01
         - -1.3957293446878724e-01
         - -2.9550102521546878e-01
         - -3.8439381468437317e-01
         - 3.2250986759624123e-02
         - 4.0208320084463478e-01
         - 1.1212383358479178e-02
         - 1.3038013124330611e-01
         - -7.4170206185793827e-02
         - 1.6230016671706907e-01
         - -1.1952765405655169e-01
         - 5.9686911464959669e-01
         - -2.2817670449215641e-01
         - 3.9647469630513632e-02
         - 1.3647573716860803e-01
         - 1.2977523806644303e-01
         - 1.6491591819132548e-01
         - -3.0173651501183180e-01
         - 2.1745978151880846e-01
         - 1.6436817268280254e-01
         - -2.6643556327346361e-03
         - -2.4500477708502378e-02
         - -1.5122584692769389e-01
         - -1.8213279625685425e-01
         - 2.4695884602595031e-01
         - 8.6564932094026104e-02
         - -4.1681844550967839e-01
         - 5.9218192155629290e-02
         - 9.3458207787605468e-02
         - -8.1720923764438874e-02
         - 3.4538120055322413e-01
         - -7.1815647038557640e-02
         - -4.2524443336765672e-01
         - 2.7225934816602465e-01
         - 5.6077154983107358e-01
         - 2.5442666937931496e-01
         - -2.9346450423458219e-02
         - -1.7273821994389363e-01
         - 1.4643433273057122e-01
         - -3.5232965939973443e-01
         - -9.1225833980905349e-02
         - 1.5523143706647577e-01
         - -5.8665458951805582e-01
         - -3.2524680976792508e-01
         - 1.5300463046618655e-02
         - 9.0573172527615917e-02
         - 3.2913658336870999e-01
         - 2.4592597668077804e-01
         - 2.2859067252340950e-01
         - 2.4200085325308426e-01
         - -5.0883274060530548e-01
         - 3.0253196212034977e-01
         - 1.8057028178801526e-01
         - -2.8245422915576929e-01
         - -5.6000853177353993e-01
         - -7.7761537540335712e-02
         - -3.3501156579782719e-02
         - -9.3271278356689510e-02
         - -3.1299471620542996e-01
         - 1.5502357554188631e-01
         - -2.3466323408448184e-01
         - 5.0016783288129119e-01
         - -1.1913217067357361e-01
         - 1.2834428346443341e-01
         - -3.5791866345417429e-02
         - -1.5330718854988115e-01
         - -1.7718263340850679e-02
         - -7.9852551784105538e-02
         - -3.8510294917617899e-01
         - 4.9715512843949983e-01
         - -2.6455432738043721e-02
         - 8.5258783170257604e-02
         - -3.1207153933026527e-01
         - 6.0362523967171212e-02
         - -2.4109417571173503e-01
         - 2.2419174427591745e-01
         - 8.7347187784767660e-02
         - -7.9182530207317040e-02
         - 9.3370442771837495e-02
         - -6.0417789245543108e-01
         - -2.8345941641943151e-02
         - 1.4070754026084009e-01
         - -5.6029837474305610e-01
         - 2.3224710227601203e-01
         - 1.7529616456129121e-01
         - -3.1787061946426298e-01
         - -4.2590300588621628e-02
         - 3.1269896936902963e-01
         - -2.0233204105583211e-01
         - 2.9620818061553161e-01
         - -2.3607581077530659e-01
         - 5.2417718001934750e-03
         - 2.3830486251795460e-01
         - 2.1672497200952989e-01
         - -1.3852705463340267e-01
         - 1.9806257554732926e-01
         - -4.4494089639922477e-02
         - 8.2831810116330506e-02
         - 8.8158233472521261e-02
         - 3.0800106056348114e-01
         - 7.1343698478767537e-02
         - 2.6907951032154437e-01
         - -4.1801874035349190e-01
         - 2.6017781561526632e-01
         - -1.3101966020186520e-01
         - -5.1223639771844331e-01
         - 1.7213899692971857e-01
         - -1.2741175093049692e-01
         - -3.4774283274903606e-01
         - -2.1363494740253708e-01
         - -1.9559654856890038e-01
         - -3.5447923253437219e-01
         - 1.4472360748794605e-01
         - 1.6147143984971804e-01
         - 3.9828014278341928e-02
         - 1.6535445933554777e-01
         - 1.0997070579783796e-01
         - 3.7751466574599563e-03
         - -9.9904764920902250e-02
         - -7.8568003952278725e-02
         - -4.2044867686968129e-01
         - -1.6209153564738232e-02
         - -3.2905435632639002e-01
         - 1.7495874206833426e-01
         - -2.0864321174411762e-01
         - 2.1189766506783092e-01
         - -1.3909348097613353e-01
         - -1.8388021687489828e-01
         - 1.7536709737838152e-01
         - 4.9029207336478287e-01
         - 6.2619650840173097e-02
         - -3.8021735478411967e-01
         - 2.9852678857855569e-01
         - -1.5274026082565403e-01
         - 1.8001077029297305e-01
         - -4.4716777417107487e-02
         - -1.7995460406052305e-01
         - 9.7682698293920317e-02
         - 8.1968340750003338e-02
         - 3.0999689718224882e-01
         - 4.0851466832939715e-01
         - 4.8124354864334268e-01
         - 1.5084778580222988e-01
         - 4.1804647854082200e-01
         - -3.4007303156380585e-02
         - 2.1408837501897088e-01
         - 2.5292387579246844e-01
         - 5.0014834270023489e-01
         - -3.4980665805678196e-01
         - -3.3257441688825090e-01
         - -3.9425822429490741e-02
         - 1.7351764206030310e-01
         - -9.4608957034309313e-02
         - 2.3276937648167340e-01
         - 3.3275588621682622e-01
         - -4.8235238271542490e-02
         - -8.5137649166538466e-03
         - 7.9411020781770439e-02
         - 3.5573968098790082e-01
         - 2.2334780154318529e-01
         - -2.1041007506058609e-01
         - 2.2056531800152301e-01
         - 3.6024507892974822e-01
         - 1.1078582872084607e-01
         - 1.8326567919026521e-01
         - 2.4974205526374135e-01
         - 1.5464388926688977e-01
         - -7.2543467723921035e-02
         - -1.7698341515044641e-01
         - -3.0429664499570023e-02
         - 4.2899012495455857e-01
         - -1.3961020588977960e-01
         - 5.2583172359657378e-02
         - 1.6198632984828990e-01
         - 1.0200907280784498e-01
         - 2.4661450133523410e-01
         - -4.4514195006327673e-01
         - 7.8461529107406516e-03
         - -1.6834664167206789e-01
         - -7.9106368032905758e-02
         - 4.7224093264276945e-01
         - -1.7287911268983222e-01
         - -1.2450453674249717e-01
         - -4.8063574888030097e-01
         - -4.1957679902038841e-01
         - -2.6587616883250781e-01
         - 1.7351303863141937e-01
         - 1.7403358370096167e-01
         - -3.9236756729955719e-02
         - -5.3170244384648568e-01
         - -6.2960211932835972e-03
         - -9.5711835026440067e-02
         - -3.7656908806392464e-01
         - -9.9052962598557254e-02
         - 2.0493843816774668e-01
         - -6.3013159755022446e-02
         - -5.6997170197877334e-01
         - -5.5710736585326132e-02
         - 3.4543530560964514e-01
         - -1.1242239477409752e-01
         - -9.0921873502586334e-02
         - 3.0924336218873357e-02
         - -2.0352234015798340e-01
         - -4.2166815259563489e-01
         - 4.3562725087469549e-02
         - 2.2683761879080253e-01
         - 3.2809417949524394e-01
         - 1.9001772587574381e-01
         - -3.8231604230140459e-01
         - 1.4015119788191452e-01
         - -9.6830394802503300e-02
         - -1.6274130203203860e-01
         - -1.7468843784215118e-01
         - -3.9014708647812513e-01
         - -3.7385730429241842e-01
         - 2.8619404569870949e-01
         - -3.5171179730669933e-01
         - -3.1683824326046639e-01
         - 8.7435535372908171e-02
         - -1.6642931402321811e-02
         - 1.9480977049540291e-01
         - 1.4137439725186174e-01
         - 1.0633788493003890e-01
         - 1.1172924783021064e-01
         - 1.1482178734052463e-01
         - -6.4629925898943799e-02
         - -4.8431874922980178e-01
         - 3.2156670073977511e-01
         - 2.9334167803004357e-01
         - -4.3378001457073601e-02
         - 4.5888260868794761e-01
         - 3.3352928895154922e-03
         - -1.3536684975943875e-01
         - -4.1491100481721049e-01
         - 1.0080242648622506e-01
         - -6.1897614896451590e-02
         - -3.0788687049876756e-01
         - 3.0103586086911584e-02
         - 9.3776958081931025e-02
         - 1.2990949371607977e-01
         - -2.0257130264597539e-01
         - 3.3215299529787840e-01
         - -5.1596186049416237e-01
         - 1.9685640790040003e-02
         - -5.9341903222376424e-01
         - -2.7472688258328171e-01
         - 6.6152545360854256e-02
         - 4.6432413286828442e-02
         - -1.3643331688850374e-01
         - 1.5667017893180590e-01
         - -3.5629570463077201e-02
         - 1.5218747179011941e-01
         - 2.1127347020777359e-01
         - -7.6280335469318828e-03
         - -2.5308256134180356e-02
         - -4.0301820011546551e-02
         - 1.6802266325118526e-01
         - -2.7721172448722720e-01
         - 3.9656912260287093e-02
         - -1.9177341826319005e-01
         - -2.3497692761130398e-01
         - -2.7798911270363125e-01
         - 9.9855590772579619e-02
         - 2.6572661461517910e-01
         - 6.3107586690955161e-02
         - 1.2513202727421735e-01
         - 2.0074680168684761e-01
         - -8.8423107245123561e-02
         - 6.6720732048062126e-01
         - 2.4698834859166838e-02
         - 4.0936588286052664e-02
         - -2.0466149106284279e-01
         - -1.5888206992358050e-01
         - -1.2968868815757839e-01
         - -4.1479288263328799e-02
         - -8.4494799006225030e-03
         - -2.5767770980732663e-01
         - 2.4339844287344367e-01
         - 3.4943799685742910e-01
         - -7.6754689264699735e-02
         - -1.3093728352089712e-01
         - 3.7854844544248638e-02
         - 1.2034116083373499e-01
         - 3.2183919150034303e-02
         - -1.0601286848670030e-01
         - 2.0403148062496326e-01
         - -1.3850834874488985e-01
         - -2.0284955400034677e-01
         - -9.0954900216195095e-02
         - -3.5220264906460885e-01
         - 1.7535279367940601e-01
         - 6.1721999191067051e-02
         - -1.0851099911855084e-04
         - 2.5779395537856298e-01
         - 2.0845341411025917e-01
         - -1.6999216487215602e-01
         - 2.1672132889347220e-01
         - -2.6958887073532570e-02
         - 1.4136563126859891e-01
         - -6.3630896496642594e-02
         - 4.9310788080068675e-02
         - -2.3978085103204200e-01
         - -1.9903584245033204e-01
         - -2.2947886055942793e-01
         - 6.4433344532122142e-02
         - 4.5171173654210139e-02
         - -2.9596306670931105e-02
         - -1.5152303592387098e-01
         - 2.7844302598680587e-01
         - 8.4909040243314443e-02
         - -3.9632883695478939e-02
         - 1.0158667218401163e-01
         - -2.8803645933910278e-02
         - 1.6544171170744237e-01
         - -1.8520595848762711e-01
         - 1.5676176712281320e-01
         - 5.6560841937834228e-02
         - -2.9900994174829582e-02
         - -1.2093213485890576e-01
         - -7.4172005785433495e-02
         - 1.8817700649582569e-01
         - -1.0084893276731970e-01
         - -3.1897715603223895e-02
         - 4.6626344353466648e-01
         - -9.3510027402255627e-02
         - 8.3658131823927909e-02
         - -1.2764630127708168e-01
         - 3.6766614994809148e-02
         - -1.5152221845329372e-01
         - 1.0735486832211077e-01
         - 4.1493280699141537e-02
         - -1.8263179493441445e-01
         - 7.6682624565290892e-03
         - -1.2607470426101849e-01
         - 2.2457105229186931e-02
         - -1.8558434119957282e-01
         - -1.0445531967708711e-02
         - -2.0901809223601928e-01
         - 3.3595461847827156e-02
         - 5.1704385993663671e-02
         - -1.3433638598837452e-01
         - 2.7737856613623751e-01
         - 1.1235522058451551e-01
         - 5.9587257144108875e-02
         - -5.2373722750529900e-02
         - -1.2378709851692152e-02
         - 1.8661943660273406e-01
         - -2.7764349005491851e-01
         - 2.1766217859110484e-01
         - 7.6785701178442422e-03
         - 1.4815577405061089e-01
         - -1.3735308023383613e-01
         - -3.3849007620428984e-01
         - 1.3617449599089942e-01
         - -2.3976274476236306e-01
         - 3.0482029661167923e-03
         - -1.4787399982667858e-02
         - 3.9328903051433950e-01
         - 1.5340177932963533e-01
         - -1.8484750728956320e-01
         - -1.6494648916977403e-01
         - -8.5905218383399151e-02
         - -3.7941146597576192e-02
         - -1.8761443520986557e-01
         - -8.8568100101342931e-02
         - -2.8112536469080618e-01
         - 3.5163040571610926e-01
         - -2.2191835874305937e-01
         - 1.9701691986827616e-01
         - 6.2645223199477726e-02
         - 3.9217050827790656e-01
         - 2.1137088944979152e-02
         - -2.1950221092474462e-01
         - -7.7022624758964098e-02
         - 8.0583382527006614e-02
         - -1.0727097300046340e-01
         - -6.1176868406028123e-02
         - -1.1677528205431348e-01
         - -8.1934415527685822e-02
         - -3.5718726284089458e-01
         - -1.3403097447464563e-01
         - -1.0367614716806327e-02
         - -2.5406564518561003e-01
         - 2.1187186435495654e-02
         - 1.5675476651699072e-01
         - 4.3055332282457705e-02
         - 2.6404353047232813e-02
         - -7.8096577751494894e-02
         - -9.8446550000251487e-02
         - 7.3984985670126444e-02
         - 6.4829977203511149e-02
         - 4.0998991017064834e-01
         - -3.0155312269177448e-02
         - -1.0254469792884123e-01
         - 1.4936607381520137e-01
         - -1.4549478512559419e-01
         - -3.9350922397638538e-01
         - -1.3030787364645827e-01
         - -5.1519519740831454e-01
         - -3.1003472686612193e-01
         - 2.7608318116534786e-01
         - 5.8868787927123201e-01
         - 3.2438935177999695e-01
         - -2.0884787658701201e-01
         - 9.7004051786615406e-02
         - 4.8277889070547642e-02
         - 8.2561248075410140e-02
         - 5.9548763832738449e-01
         - 2.8663525633936554e-01
         - -1.4985393953456483e-01
         - -3.1373321995584397e-01
         - -2.3301184967348434e-01
         - -1.9921386711627281e-01
         - 5.4346507075591877e-01
         - 9.2873328216146411e-02
         - -7.4314079044748328e-03
         - 1.5577110851200190e-02
         - -9.9688204758074023e-02
         - -2.5710142779425532e-01
         - -2.3241658034067833e-01
         - -2.1555972768818571e-01
         - 9.8443981919286147e-02
         - -8.4981465746177390e-02
         - -6.3015510608100817e-02
         - -9.0203302900598317e-02
         - -1.2557230866079064e-01
         - -9.5218883542328603e-02
         - -5.7636700305394264e-02
         - -2.5012878411579450e-02
         - -1.4887161567603258e-01
         - -1.5405358048178802e-01
         - -3.4670589958831005e-01
         - -3.2631116668486733e-02
         - 2.4116786856998546e-01
         - -5.1526959748346438e-02
         - -2.5276625029990829e-01
         - -1.8166501514179834e-01
         - -6.4393537389923372e-02
         - 5.6352373402238282e-02
         - 2.2229850945311641e-01
         - -4.6563033759350125e-01
         - -3.7006684679361412e-01
         - 5.5007168247271976e-02
         - 1.7043114496838749e-02
         - 2.6439478324561877e-01
         - 1.0993704399337085e-03
         - 3.8134263560738657e-01
         - -2.5265195613475100e-01
         - -3.0085906694907551e-02
         - -2.2658584401907064e-01
         - 1.2158902408218962e-01
         - -3.2041869799458544e-01
         - 2.3464299895337434e-01
         - -2.1300325818699550e-01
         - 2.5712528746482072e-01
         - -3.4158850446477829e-01
         - -7.9739658136369226e-02
         - -1.8014259210557776e-01
         - -6.9430604697808693e-02
         - -9.6490215118564523e-02
         - -4.5374037876678186e-01
         - -1.4659941320329604e-02
         - 8.1881069388535038e-02
         - -1.6152092687505235e-01
         - 2.7296700218719322e-01
         - -1.6331361554448312e-01
         - 1.5020795488251742e-01
         - -1.4239819740098800e-01
         - -3.7701220703758309e-02
         - 8.8384919646102414e-02
         - -9.2383667647807283e-02
         - -9.5765726550488608e-02
         - 4.6195999345823513e-01
         - 1.7586755012434904e-01
         - 1.0032978407621414e-01
         - -2.7029914728246623e-01
         - -2.2553115951071837e-01
         - -3.4398933523820274e-01
         - -1.5680127334038077e-01
         - 8.0562985840465173e-02
         - 5.5840639753912669e-01
         - 4.3156232255397181e-01
         - -2.0574966502604192e-01
         - -2.6781651984349603e-01
         - 1.6856124026792024e-02
         - 2.4479302995160737e-01
         - -4.6082786427815645e-02
         - -6.8385723913695601e-02
         - 2.0811407008724220e-01
         - 1.0734028552606273e-02
         - -1.5857737990882931e-01
         - 2.9648406594554133e-01
         - -2.8459055183603194e-01
         - -1.5162960688364843e-01
         - 6.9208487475192079e-02
         - 1.1439222934230124e-01
         - 1.9644380369608508e-01
         - -1.7987090623379542e-01
         - -1.6436510272897020e-01
         - 2.0755648660537257e-01
         - -4.5802693504380343e-01
         - 1.9078242977268126e-01
         - -2.2165483606510633e-01
         - 4.2410110317165677e-02
         - -8.2746661810989067e-02
         - -8.0650175161520676e-02
         - 2.3986136085637602e-01
         - 6.8215532104700338e-01
         - 9.2683738881962879e-02
         - 6.2503849283202934e-02
         - -3.4979450336996620e-01
         - 6.4962124764285575e-02
         - 8.5544516796273978e-02
         - 8.4740606391810695e-03
         - 3.1668999212988269e-01
         - -2.2586792499828376e-01
         - 5.2277954736932497e-01
         - -4.6334441410433601e-02
         - -2.7900541397136147e-01
         - -1.3352633267253441e-01
         - 2.1757609621560275e-01
         - -4.6381413803066507e-01
         - 4.9605497695583277e-02
         - 2.0756951691094686e-01
         - -9.8644329357088487e-02
         - -7.2794234627169371e-02
         - 5.3983653823764000e-01
         - 2.5220243177358054e-01
         - -2.3121258019823437e-01
         - 1.5270228040135295e-01
         - -3.5719250609566561e-01
         - 8.0970648063423939e-02
         - 1.8365042782767305e-01
         - 3.1041203466363739e-02
         - 4.1332992635692906e-01
         - -4.2790706179545224e-02
         - -9.0617645392787702e-02
         - 2.3037743789778464e-01
         - 8.2201938121166607e-02
         - 1.4893620832271212e-01
         - -4.2701655300502761e-01
         - -5.8255013295812563e-02
         - -7.6450454334513085e-02
         - 2.8558398081362757e-01
         - 1.0908272592781232e-03
         - 4.7846257395104036e-02
         - -5.3880658520639113e-02
         - 1.6731372707552961e-01
         - -1.2295018378185857e-01
         - -6.2834658979558163e-04
         - 2.8813051039138760e-01
         - 9.9859887409680798e-02
         - -4.1285112225112691e-01
         - -3.7689912971694176e-02
         - -4.3956384997788306e-01
         - 3.2222443913169189e-02
         - 1.6358985069013765e-01
         - -3.9450002165867137e-02
         - -1.0725882228936851e-01
         - -4.6170134026633697e-01
         - -1.9692512025248916e-02
         - -1.1868122001578187e-01
         - 2.7253205882061216e-01
         - 1.1830239284335695e-01
         - -3.3356328102558430e-01
         - 3.6210120895666331e-01
         - -1.3329682324356296e-01
         - -1.4895371445594293e-02
         - -1.3005507090152918e-01
         - -1.5057162772738131e-01
         - -2.1557643991372594e-01
         - -4.2545314669440953e-01
         - -1.9281490527371337e-01
         - -3.7528485000206918e-02
         - -3.4023510882959229e-01
         - -2.2631564189919312e-01
         - -4.2499688920495826e-02
         - 1.2886030757749253e-01
         - 8.3429431454850503e-02
         - 7.5117881591005867e-02
         - 1.0700278877379196e-01
         - 9.7923687371027163e-02
         - -1.1927787064589319e-01
         - 2.3018806660296148e-01
         - -2.0831468472830628e-02
         - 2.6639815498958347e-01
         - -5.3804920154976221e-01
         - 1.9284954526684855e-01
         - 2.7476132062539044e-01
         - -7.4572847408951939e-03
         - 1.0085655192812239e-01
         - 7.9179706685871143e-01
         - -2.0557673876840865e-01
         - 9.1000843692820882e-02
         - 1.0039336036736865e-02
         - 2.6755664709264648e-01
         - -8.0262054731159715e-02
         - -8.9153380730451648e-02
         - 9.6789552638289963e-03
         - 2.5565958068911077e-01
         - -2.2698408637779083e-01
         - 2.8063771907078089e-01
         - -2.2659249089000874e-01
         - -4.3376803268311920e-01
         - -7.3645858553631482e-02
         - 1.6391549001696145e-02
         - -2.0242203767560255e-01
         - -1.0376165532709590e-01
         - 1.8550128616472733e-01
         - -1.2616324747015531e-01
         - 1.7398904463836119e-02
         - 1.5628147983229548e-02
         - -9.6731987377209061e-02
         - -3.2993133694720130e-02
         - -6.6658874335457863e-02
         - 4.4023127230496201e-01
         - -4.2919647424214535e-01
         - 1.9598646924045809e-01
         - 7.9854060296316989e-02
         - -3.9422056287098750e-01
         - -7.0077448931723976e-02
         - 3.9302188720446322e-02
         - 3.1570622422784245e-01
         - -4.1570419516643675e-01
         - 8.5783488610447323e-02
         - -7.2964044566973463e-01
         - -1.1962938020773500e-01
         - -1.7174101112211698e-01
         - -5.0678666658318737e-02
         - 6.9167189549154601e-02
         - 4.6470120133068188e-01
         - 5.1875005482052088e-02
         - 1.9374872776133550e-01
         - -2.6373868278108115e-01
         - -7.8587265820872276e-02
         - -2.9139139522699997e-01
         - 1.5977610069920214e-01
         - 1.8246670571238816e-02
         - 2.9487902087529000e-01
         - 2.7685471451562099e-01
         - -9.1165723603427853e-02
         - 2.5837259452576361e-01
         - -7.9035301806813230e-02
         - 1.9090623874309848e-01
         - -1.7965978588696482e-01
         - 6.9517509930104804e-02
         - 2.5842971528171294e-01
         - 2.9180360556373203e-01
         - -4.6582796009214139e-02
         - 4.5578184353291619e-02
         - -3.9752855444287659e-02
         - -1.0888728777914887e-01
         - -7.0171341733990991e-02
         - -5.7324400099780026e-01
         - 9.2529681471552674e-02
         - -1.9165669830237636e-01
         - 1.9402969495073188e-01
         - 2.6263767320459569e-01
         - -1.0023742124343855e-01
         - -1.9120231785866582e-01
         - 1.3419487347385306e-01
         - -2.9282258359722013e-01
         - -9.3998643582416025e-02
         - -1.2194671422737401e-01
         - 9.7904080822828782e-02
         - -6.8595774172544338e-02
         - 2.1099525984347753e-01
         - 4.1976270698512008e-01
         - -1.1783314074989036e-01
         - -1.8001996105233584e-01
         - 3.3131040858788180e-02
         - 1.8970891630034137e-01
         - -2.0228539179053626e-01
         - -1.3451954685448531e-01
         - 7.8509417104605003e-02
         - -3.0581214922793820e-01
         - 2.6603155879397872e-01
         - 5.0537577541321238e-02
         - -8.3341628214409158e-02
         - -4.8962937952880253e-01
         - -1.9506973959514382e-02
         - -3.1152181273721813e-01
         - -4.9086888936571615e-01
         - 2.3175494704160404e-01
         - 2.1854784141101929e-01
         - 2.1381788419416975e-01
         - -6.7145901190342944e-02
         - -5.5656097458828857e-01
         - -1.3692478349862644e-01
         - -1.9269731054216427e-01
         - -5.1242410411234873e-01
         - -1.0195410337443264e-01
         - -1.4493076406492370e-01
         - 5.8074727416621996e-01
         - -3.3496597071033923e-01
         - -2.4639054510626421e-01
         - -2.0750006220658321e-01
         - -8.9636169281678835e-02
         - 7.4613340354404395e-02
         - 3.8911505890479370e-01
         - -4.6394582250665617e-01
         - -6.0398329044366164e-02
         - 1.5978754412226304e-01
         - 3.0236726742588798e-02
         - -4.2057414115557237e-04
         - -1.5782646203086234e-01
         - -5.7707835028259581e-02
         - 1.8609423580256865e-01
         - 7.8354593216119284e-01
         - -2.9385492128965973e-01
         - 1.5041497421387875e-01
         - 9.0108244205453436e-02
         - -6.5063898720434277e-02
         - -1.8582172374770424e-02
         - 8.2313376283787965e-01
         - -3.8229037786884706e-01
         - 2.5331522515977023e-01
         - 3.0325277510747352e-02
         - 1.3097374667446468e-01
         - 3.4547347535087353e-01
         - 1.6929325845115120e-01
         - 2.2291285320758672e-01
         - 1.0621539288103544e-01
         - -7.1464178425409464e-01
         - 3.5896562020934936e-01
         - -1.4822002553097818e-01
         - -4.6175938738239963e-01
         - -5.5780195985207970e-01
         - 3.4241217454312037e-02
         - 2.2695180693739675e-01
         - 1.0355038933787333e-01
         - -5.2653227810421269e-02
         - 1.0549895452069331e-01
         - 1.5623291936241412e-01
         - -5.9065519518775991e-02
         - -1.3645389984786861e-02
         - 2.8368469370364452e-01
         - -1.5063817484893050e-01
         - 6.2940149535435186e-01
         - -1.6744615751149536e-01
         - 7.7369612176035552e-02
         - 3.5927163734621993e-02
         - -6.7749060021150209e-01
         - -9.6632907765009324e-02
         - 1.7173144557039555e-01
         - 2.3641370736198725e-01
         - -1.6400844518906293e-01
         - 1.4784190182512721e-01
         - -2.8336062440729054e-01
         - 1.6168231430732341e-01
         - -3.1970275719548119e-01
         - -5.2519698599022807e-02
         - -4.0375889567849177e-01
         - -2.4391444916103891e-01
         - 2.1217943481974161e-01
         - -3.1176875096627094e-01
         - 8.5016145288976566e-02
         - 6.0687692463454656e-03
         - -1.4076897739457575e-01
         - 2.0846867624917365e-01
         - -5.0784211409725499e-01
         - 5.5371460125571273e-02
         - 1.4184374246044298e-01
         - -1.2558555308273361e-02
         - 3.3679530902733679e-01
         - 1.9147161022960468e-01
         - 2.2532792028603271e-01
         - 3.9819822361763968e-01
